svm_type c_svc
kernel_type wgkmrbf
L 9
k 5
d 3
gamma 1
M 50
H 50
nr_class 2
total_sv 1800
rho 0.363534
label 1 -1
nr_sv 713 1087
SV
1.690086602672146 TTGTTTTGTTTTGTTTTGTTCCTAAACTCTGCAAATAATAGAAGAAAGGAGATTGTTTGTATTGGGTCACCTGCTTCCCAGCCAGGGTTACAGTGTTTTGTTTTCCTCTCTCACCCCCATCTCCTTTTATCTTGGCTGCACATGCTTTGTTGTTTGGTGGGAATTTC
1.394143011041351 GAATTGGAAGTTTCGTGCTTTCTTGGCAAGCACTCTACCAACTGAGCTACTTCCCCGCCTGTTCAAAAGCCGTTTCAATCTAATTAAACAGCTACTTCCTGTACCGTCTCTGTGGACTCCAGGATGCCAGCAAGCCTCTCACTAGTCTCCTTGCTGTAGCTTTTGCC
0.8432345770992254 GACATTTGTTCCCACGTAGATCCCAACTGAAGGAGGGGAGGGAAGGGGGAAGGATGGAGCTGTTTTTCTTTGACTGAAGGTCAGACCCTATACTCCTCTTACCCTCCCTGATTTCCCTCTGACTCATCTTTGGGCCTGAGGCATATCACAAGCTTCCTGTCTCCTTT
1.489699628242403 AAGTCACAGATGTTCGAAAAGAAATCCAATCTTGTTCTGCACTGTGCTTCTACTGTTTGGGAGAACATCAAATGCGACCATTGAACCGGAAGGTCTCACTTATCCGGCCAAGAATCACAAGCTGACACTCAGCCCCGTCTCTCTGGTGGAAGGAGCTTGACTGGGAA
1.76135036424492 ACAATGTACTGTCTGATAAACAGACCAAATCTCCGGCGGCGGCGCTGCTGGGCCTGCGCCAGTGTGTGGCCGCCTTTGATACAGGTGCTGTTTATTCTGCCTGGAAGTCCAAGGACGGGACAAACTGTTACAGGGCCTAGGGTCACAGCTTGTGCCCCAGTGAACCA
2.147552914687926 AGGTTGTCTAATCAGGCAAGGCCAAAAGCAACAAAGAAGCTATGTGGGTCACTAACCTCCAGGGAGAGTGCACAGGAAATGAGTGTGTTTAGCTTCAAAAAACGATAAGGAGAGGGCCATTCCCCCTCTCTGCGCTCCACTTCCTCATCTTCAAAGTGGTACTAATG
0.8696664927308635 GATTCTTCACTCAGTGTAAGGGACAAAACAAAAGAGGGCCACGCCCCTTCCTCGGGTCTTGCCTTCATTGTTCAGTCCTGAGCAGCCCTTGTGATGTAAGAGACTGGGAACAGAAAGCTTTGACCAGATCAAAAGCTGAGTGAGTTTAGGAAAGGGAGACTTCCAGT
1.362039320322875 CTCCAACTGCTTTGGTTTGACCCAGGATTTCAACTCCAGGGAGCCATTCCCATCCTAGACTTCGCGGTTTTCCTGTAGGTGGCGCTAAAGGGTCTGATTCCACCAGAGTCTGTTTCTTATGACAAGATTACAGCAGAGGAAAGTGTATGGAACACCATTTCTTCTTT
2.792965500521712 GGCCTCTGATGGTTACTCACAGAATCAACAGAGGCTGGGAATTCCAGGGAGGAGCGCTTCAGAAAACCTGCATCCAAGTCCTTGACGTCTACTGGAGGAGAACAATGGGGTAAGGGCAGAGCCAAATAGTCATCTGTAGTCATGGTGAGACCGGAGTTAGAAAGCCA
1.856651271874576 AAGCCAGGGCAATTTCAGAAGGAATTCAGCCTGGGCTAAACAGGAGACATGCTTTTGTGCACAGCTCTCTCCTACAGGGAGAGACCTGCCTAGCCTGGGGGCTGCAGGCACAAGAGGAAGTAAGGCTACGATTGTAGCCCGGCATTTCTCTGGAAGCCTGATATCCA
1.502569586402301 TCAAGACAGCCTATGAATGCAGACTTGCCTGGAATTTTGAAGTGCATAGATTATTAAGGTAGGGAAGAGAAAATGTGGGTGTTAGAGGGGGACCACACCCAGGCAGCTGCCTAGGATACAGGCTCTGTAGTGTATTCTAGAAGTCCCTGGCAGAGCTCGGCCTCCAA
2.323277812755856 TTGTTACATAAAAAGGCATGAAAGGTTGTGAACTCCTGCCTCCTGCAAGAGGAAGAAGGAGCTGAACGAGGAGGTGGCACAGAGTGTACCCCTCCTGTCTGACACGTGTCGGGCAGCAGTAGGTGCTGTTCACAGAGACACCGTCTGCCTGCCTCCAGAGAGACGGG
1.000089065738395 AGAAACCTTGAACAATACATAGTCCCACCCTGTCGTCAGGAGCAGTACTCCACTACTGGGAATAAGCTTTGATGTTGGTAGCCTTGCTCCTGAAGTCAGTGGGTGGGGTGACCTTCTGGATATCCTGACATTTGTTACTGCAGAGACTGCAAACTTTGAAGAAACAA
0.3204427280976871 GGGACTTCCTTTCTGAGTGCACAAAGCCAGATTTAAAGATAGGGCAAGCCACCCAGCATTCAGAGGCAGGAAGGTGGGGCTGGTTCCTCAGGGCTCCAGCTGGGAAAGTCTCTTTGATGGAGTCAAATGCAAAGGGGTGGTAACCCAGAGAGCAGCAGCAGAGGAAG
3.45823620179429 CTTTGTTGTAGGATGAAGAACTTCCATCAATTGTTGGGCTATATAAAGGTTTGCTCTCTGTTATTCACGGCGCAAGTTTTCCAGAATTAATGAGGAAGCTTGAACTTCTTGGTTTGTTGTTCTCTTATAGCTAAGGGAACATGCTGCAATACAATGAATGGGCATCC
0.9456008495683805 CTGAGAAGGGCTGAGCAGGGCCCAGCGGGAGCCTGCCAGTGGTGCAGGCAGAGGCCAAGGTGCAGGAGGGGACAGTAAGATGGGGGAATGACGTAAACTCTTGGCAGCTGTGTAGGAGACCGGACACAGGACAGGCATGTCCCAGGGCTGCATGCAAGCAACTGGAT
3.083860359970977 AGCCAGAGATTCATCGAGAGAATCTGTCACAGATGTGCCTGAAGGCTCATCTCCTACATTATTCTATCAAGTTGACAATATTAGTCATCGCTTGTGTCGCTTGTGTGTGTAGGAGTCCTAAAAGCTCCTCAGGGGATCTGGTTCCTGTAACTCCTCAATCTACTTTG
0.4868464056986096 CACAGCCGAATGCCAATTGTTGCTTTTGTTATTACACAAACCACACTCCAGGGAAACCCTGCAGCCCTTCTCCACCCCTCCTCCTAACCCACTGGGCTGGACAACCCAGGAAACGCTGAGGCTAGACAGCCCCTCCCACATGGGCGGGAGCCCCCCGCTTGGGGGAG
0.6877516814936993 TCAGCCTCTCAGCAGGTAGTGGAGTCTTGGAGGAAGCAGCAGATGTGGCAGGACAATGGACTTTACCCTGATAGGAAGATTCCACCCTAGGTGGGCTAGCGGCTGTGACGAACACAAGGTCTGAATCAGCCTCTCAAGGCTGGGTGGATGGGCACATTCTTCCATGC
3.772215293509341 TGAAAGTGGTGGGAGTTTTAGGATTCCATTTACATCACCCACATGACTGTTCCAGGGGGATCCAGTGCCCTCCTCTGGCTTCTGTGGGCACTACATGCCCAAGGTGCACATACATGCATTCAGCCAGAACACCCATACACTTAAAATAAAAATAAAGACAAACCCCT
2.678894650040371 AAACAATCTAGAAAAAAAAATTTATTTTAAGATCTTGTTTTTGATCAGACTGTTCAAAGAAGGTCTTAAGTGGGTGAAAGTTCAGTAGGCTGAAACAATAGAAACATTTGGGAGTAGAATATGGCCTGACTCACCCTTCATGCAGTGCCTTCACTCGTCTCCTTCAT
1.55653435332386 GAATCTACTTCTAATGGGAAAGGGGTGGTAAGACTGCAGAGCTGTAGGAGGGGCTTGGGAGAGTTCACAACAGGAACTGGTAAGAATAGTCTGTATGAGGGCTAGGTTTGACTGCCAATATTTGGCTCTCTGTGGGATAGCTTCCTTCAATTCAGTGAAGAAGCTGG
2.583651465348793 GAAAGCAGATAAGCATTCAAAATCATTTATTTATAGCACAGAACACAAAGCGTCAAAGAGACTACAGGCAAGCCACAGCCACAGCACCCTTCATGAGGGCAGCCGGGAGCCTCTCCCACCCTGCCGAGCCGGCTCAATAGAATGCTTCCAGATGTGGTCTGCCCATG
2.463334527670155 TATCAGTGTAGTGCCTTGTCCAGCTGAGATTTACTAGACAGCCCAGTATTAGCAGTTCCCAGGGGGCCTGGGCTTAGCTTGAGTCAGTCAGGGTGTGATAGGCCACAGTGCTGATCTCACCTAGGCAAGCCAACCAAGTTCTCTGCCCCCTCCACCCACCCCCTCAG
2.255803559878585 TAATTAATGATTGATGTGGGAGGGACCGCCTGCTGCTGACAATGCCATCAGTGGGCAGCTGCTCCTGGGTGTGTAAGATTGCAGGCTGAGCTAGACATGGAGAGGAAGCTGGTCACAGTGGTCTCTGCTCTACTTCCTGCTCTGGCTTCCTTTGATGATGGACTGTG
2.396539112668696 GAATCCATCAGCAGAGGAAGTCAGAACAGGAACTCAAGCAACCACAGAGGCAGGAACTTCTGGAGGAGAACTGATTACTGGCTTGTTCTCTGTGGCTCATGGCTTGCTCAGCTTGCTTTTTATGTAGCTTAGGACCACCTGCCTAGGAGATGCCATTGCCCATAGTG
2.095174640671216 AGCTCCGCCCCTGTCTACCTCAGCCACTCAGTACCTTTCACTATCTGACTCATCGAGGGTTTTCATGCTGTAAAGCACTCCAGGAAGCAGATTCAGGCAGAGTTTGGCTTTCCAGATGTTTACCAGGGAGCGGTGCTAGGGTCAACACCCATGCAAAGGAGGGGGCC
3.585673736051024 ATGGAGAAGGTGCTCTTTGGAAGTGAAGTATCTGCTAAGTAGACAGTCAAGCTTTAACAGCAGGCAAAGGGATACAGACTATTGCAGTCTGGACGTTCTGTGTTGTCCAGAGTTCCTTGCTTGAGTACACAGATGGGAAAACATTTGATTAAATGCCCTTCCTCCTC
1.919675424880419 AGGGCATACTAAGAAACGCTCTGGCCCTTGAAAGGTTTGGATGAGTCAGCCCCAAACGACAAAGATTTCAATGACGACAAGCAAGCCTGAGATGGTGGCTGGGCAGTGGTGGCCCAGGGAATGTGCTGCAGGAAGCAGATACGGCCTGACGTCCATCTTTCCCCAGC
3.532864891362327 CATTGTCTAAGGTCTGGAGTGTGTTGTTTCACTTGTGTATTAAATTACGAACTAAGGTGTGGCTCTTTGACCTTCAGAACCTAACATTGCTCATGAGTAGCACTGTTATTGTAGACCAGTCCACTGCCAAGACAAACATCCTCTCTTCGTGACTCTGGCTTTAGAGG
2.450933396973895 AGAACAGCAGACTCTTAATTAATGTTCTTGGCCACCAGAGCACGGCAAGAGGTAATTGAGCCTTTATTTATACCCCTAATAAGCGAGCTGCCTTTTCTCTGCTTGCACTGGGCAGGGCCAAGAATAACAACAGCCGGATGTCCTGCCACTCCTGGAGACTTCCCGTG
0.8221611529782772 TTGGTCAGTGTAGCCTGTGCTGACATGGCTGTCCTCACGTCTCTGCAGACTCCTCACTGATCTGGATCATAACAGGAAGCAGGCTCCCCTTTCATGTCCCCTGCCAGGCCTGGCACTGTCGGCTTTCCAGCTGAGTTGCTCGACCACATAAGTCATACCCACATCTT
2.977771754879654 TGTACTTGCTATAAAAACATTCCTTTAGACTTTAGAAATTCTAAATAAAACAAGAACAAAAGAGTGCTCCTTCTTTTTAACTCCCCACCCAAATGTTACCATTGTAAATCAAGGTAGCCAAGTAAATTAACCGCTGGCATTTAAATGCTTGCTGTCCCAAATATTTA
0.5772478513304906 CTGTGGACAAGTATGTAATTGAATTTAACCTTGGTTTCTAAGGTTAGAGATAGATTAGATAAGTGGGAAATGGCCTCTCCTCCCATATCCTGCTCCTGAAGTGTAGGAAGTGACTAAAATGGAAGCACGGGAAGTTTGCAGCTGAGGTATCAAAGGTTTGGTTCTGT
4.325147594931822 AGAGAACGATTTTGTAGAGCTTGAAACAGTTTCCCTTTTGGTATAAATAGATGACTTGCAGTGATCACTGTGTCCTGAGAATACTGTGGCATCTTTGGTCTTGGCTGTAACTTAAGGCCAAAGGGTAAGTTCAAAGGCTGTGCAGAGTAAACCTCACACGATTATTT
1.692892097109707 CTCCGATCTCCTTGTCCTCACAAGGCCATGAAAGAACTATGCCGGAAGCTACTTCCTGTTTCCAAGGATGTGAGAGTACATGGAGATCTGTGAGCAGGGGAGTTTCCTTCAGGGTCTACAATGGGATGTGGAGGCCACTGCTTGGAACCACAGGCCTCTGCTCTTAG
0.6758125852078614 GCCTACAGGACATCACCCTGCCTCCCACTCCCTGCTGGTCTGGACTGGAAATGAGTCATGCTGCTGGTCTTTGGTTTGTTCTTAATCATCTCAAGGAAAACCTGTTTTGATTAATATTTAAAGCACCCTGGGGATTGCTTCCTGTTTTTCTTAAGCTGTCTACCCCT
1.641460078006455 GGTAAGTCATCGCCGGTTTCTCAACATTTGATCGCACATGTTTACAGGAAGGGCAGAGCTTCTAACCAGTCTCCCCTCCCAGTCTCTCTTAGCTGATTTCCACTTTCACACAGCCAAGCCACAACCGTTGTCTTACACTCTAGCTGTGATGTACTTGGAACAATCTT
1.692438298600667 AAGAGGGCACACCCTTAGCCTTGGCCTCACCTACATCTCCTGTTTCCAGTGCTGATCTTTCTTAGCAGACATTGGCAGCTGGTACACAGGAGCCGCCCTGGTCCCATGTGTTTGTATTTAACGATACAGAGCTTTGAACCAACCTCAAGCTGTGCCTGTGGGGGGAT
2.247212936725848 TCCAGAGCCCTCTGAGGGTGTGGTAGAACATGCTGGGCCTTCGGAGCACTGCATCAGAGAGAATGGATCATTGCCAGATGCTTTCAAGGCTGACCCTGAGGTGGCTTCCTAGGGAGCAGCCTTGTTTTATGTCCTCAGCCTTCCTCTCGGCCTTTGAGAGACTGGGA
1.077650667174331 AATGACGCAGTTTCATGGAGACCATTCTTGGGTAGTTTTCTTGAACCAAGCAGGGGAGTCTCCAGGACACAGAAGTCTCTCAGATCAAAGCATCCCCAAGGGAAGAGTGACTGCCTCCACTACTGCACAGAGCAGTGACCCAGGTGCAGAGCTAATGCAGTTCAAAC
3.736247509906972 CAGTGGCAAACCCAGCCCAAGCGGTGGCTTTGATTCTACTCAGGCTGCAGCTACTGAAGAGAATTTGTAAGGGAAAGGGGCCCATAAAAAGCCTTGCTAAGTGCAGGCTCCAGTGCTGGTCACCAGCATGCCTGGTGAATCATGCTGAATGCCTCCTGGGAATGAAT
2.847452081909145 AGCAGAGCCAATTCAGTGGGGCAGCACCTGGCCCAACTCGGGGCTGTGTGCTCACTTTGTGCTCACCCTCATTGTCCAGCTCTGCAGGACACACTCCCTGCAACAAGCCATGGCTTTGAAGTGTTTTAGATAGAAGCTTGGCTCACTTAAACAATTCTTCATGGAAA
0.7704711959071309 ATAAATGTCATAAGAGAAAAATTAAAGCCCGCCCACTCGGGCAGCTGCTCCAGCTCATTGCTTCCTGGGGTTCTGAAGGCTTCCTGCATGTGCACTAGGGAGGAAAAACAAAGGCAGACAGTCTGACGAAATCTACTGCAAACAACATCCTGACTGAGAAAAGCGAC
0.9019167022217313 AGGAGCTTTTCCCTAAAGACAAGAGTTGACAGTGTCTCCTCTCTCCAGGGAGCCTCCCTGGAAGCTGGTCTCTTTGGAAGTTCTAGCATAAACATTCCCACCCACCTGGCTCACACACATACCATGAACAACATTGGCCTCTCTTCCCAAAAGAGCCACTTTTGTCT
1.821557791922247 TAGTGTTGCTGCTCTCCTAATTATCTCACTTGAAGTAAGTAGGATGTTTCAGATCAACAAAGCCAGACCTCTCCCTTCCTTTCTAGTGATAAACACGCACATTTCAAGCATTCTTCCCAGGAGAAATTAGAAGTTTCCCAGGGAGGGCTGACCTTCCGAACTTAAAG
1.41441824289263 TTGACAACAGAGGGCAAGTGCTCTGCAGGCCTGATCTACTAAAGTTCCGACTTTGTGATGTTGTCTTGCCCTGGCTTATTCCTTTGTTATCAAAGCTTAGAACTATGCACTCTTTGATCCTAATAGTAACAGCAGGAAACTCTTCTTATCTCTGGTTTTCAGATGAG
2.413768787608077 TGTGACGAAGACTTAGCCCCTTCCTTCCCTTGCAGGCTCATTGGTGAGATTCCCACAGGATGGCACCCTAACAGAAGAAATCAGGCTCTCCCATTAACACCTTGTCTGACCTGCCAGCTCTCTCAGAGTAAACCTTCTGTAAATATCCCCTGCTGATGAAAGCAAAG
2.352327872457946 AAGATAGGAGCTGGAATTCTCCTGGGTAAAGCTGACTGAGCTCACAAGTTTCACCCTTGGCCTACTTTGTTTATCTCCAGACCAATGAAGCGTTCAGTCTAGACCGTACAGTATTTCCAGTGGCTCCTGTCATTTTTTTTCCCAAGCATCTGGTTTTCCTCAGCACC
3.500253279718443 ATGTAATTGATAGAATGCCAAAGCAAACAGCCCGGAGCCCCATGAGGAATCTGCCTAGCCCACATTTTCCCTCACACTGTATTTTTCCAGCCTGTGGTTATTTGGCCCGCCTCTAGGCAGCCTTGACTTTGCACTAAGTGCCCCGCCCTCCTCTTTGACTTCTAAGC
1.673577210399827 CTCCCTCCCACGAGACCTCTTTTGGGAAACAGACCCCGATGCTCTGGGGGCAGAAGATGCTGCCTCCATCACTCCTCCCTCTAGTGACTCATTCCCAAGACTGGGGGTGGCAGGAAGTGCCAGGGCCCGAGTACTGCAGCCCCATCCGGCTGGCAGCTTAGAGACAT
0.09692200350585474 GCTTCTCCCAGCCGGGCCTCCTCTCCCCTCTCCTCCCCCGGGAGGCAGGTGGAGCTGCGTCCTCATCTTTGTTCCCATCTGGAGCGCGTTTGGCGCGGCGTGGCGGGGGCGGGGCTGCGCCCCCGCGGTGCCCAGAGAGACGGGCCCGCCTGCTTATCTGATCTGCA
0.7335607826471237 GGCCTTCCTGTCCTTAACAAAGCCTTTGTGCGGCACTTCCGTGTTACGTTAAAGCAGTAAATGCTCTCCCCACCTTTTTCAGAGGAAAGAGGCTGTAAACTGAGTGCCTGTGTGGGGTGGGGTGGGGTGGGGTGGAGGACTTGTTCAGTGGCTCACGGTCTGCCTCT
1.637003519917881 ACTGGCCATGTGTGTTTAAAAACAAGGCTGACTGTGAAGCCCGCGGCTCCAGACTGACTCCAGCCTGCTGTTAATGGAGGACAGAGGACCACTTACAGCTTCCTCCTCGCCCTGTAACAAATAACCTGCACTATGTAGACTTCCCCCGAAGCCCGGGTCACCGTCCA
1.619202407708746 TTCAAAGACCAGAAAGCAAGCATCCTCCGTCCAGAAGGCAAACCTCAACAAACAAAACCTTCCTGCCTTTGAATTCACTGTAACAACAGAAGGAAGAGGCTCCAGTGGTTGGGATAAAAGCATGCACGCACACGCACACACGCACGCACTCTGCGCGCGCGTACACA
0.9669075089895082 AAAAGATATTCAGGGCGAGACAGCTACTACACTGCTTTGATTTATTAAAAACCTGTCTAGATGGCCAACATTTCAATCTCCAAAGCTCCCAGGGTTCTTTTTGGGGAAGGAAATGCATGTTGAGTGATTCACCGGGTTCCTTAGGGCTAATATTTTTAGGTATAGAT
0.06970109717947841 CGCCGGCCAGACACTGTGGCGCTCCCCAGGAAAGAGGAAGTCTCAACAGGAAATTCCTCTTCAGGATCAATGTCCTAGGCCGCTGCTTATCAGCTCAGGGACTGGACGTGTGTCCCTTGGCCCTCCCGGTTTCTCCAGCTTCTCCACTTGCTGCTGTTCTCAGGAGC
0.3995892923850636 TTTGAAAATAAATAAAGTTTCCAACAGACAAAAGCTGCTTTGGAGCCAGCCCTCACTGTAAACACCCGCCTTCCTTTCCTCTGGCCTGGAGCTTCCAGGCACTTCCCTAGCTCTCTGTGACCTCACGTAGCACAAAAGTCTGGTGGAAGTGGCACGTCCTGGCAGTC
0.5084389425109618 CCTTCTACCCTCCTTCAAGTGAGAAGCAGGCACTGCCGACAGACCTGGCAGCTTGGGACCCTGGAACTTGAGTTTCCAGGAGACTTGAAAGGCAGGCTGCGTTTCCCCTTCCCCTTCATGTTTTATGAGTGTTGGCTGTTTACTAATTATCAAAGCTGTTTTTATGA
2.149978137200991 AATCCTGCTCCAAAAGGAAGTGGATATTGGCTCAGGGAAGCTGGCAAGGAAGTGACGGTCCCATGGAAGATCTCCAAGAGTGATTCACCGGTGCTGAGTGTGGGACCTTGGGGAGCCCATTGTGTCTAAAGAGACTCAGGAAACCTAAGCACTTAACCCCAAACACA
3.3638642254672 TGATCAGTGTATTAAGCTGATTCACAGTTGATTTCCCTGAACAGATCGGCCAAACAGTCATTATGTGGTGTGCTCCTGCCAAGGCAGAAACTTGATGTCATTTAGACAGATACTTACACGTCCAGGAGCTAATCTAGCTGAACATCAGTTTACTGGTAATCTACATT
1.432482559618942 TAAGAAGGTCCGCCCTGTCCATTGGCTGACTGCCAAGCCTTCAGAGTTCAGAGTACGGGATGATCTGATGACAACATCCGGCTGACTTTTAAGGACCTCACATCTCTGCTGTTGTTTACCCACTCCAAATTCCATCTGGTCTTGCCGCTAGGAACCTTGACACCGTC
2.316335189942597 TGTTCTTTCAGGCTCTGTCTTCAGGGACCAACTCCTTTCCCCTGCCTTCAGCGTTAAAGAACAACTCCCACCTAGTTCCTCGGCAAGCATGGCTGACAGCAAGTTAAGACAGGGTAAGGGACAAGGGGAGAAAAGTTAATTTAAGGGGAAAATTATCTTCCATTTCG
3.480584374287129 AGAGAATATTTCCAGAGCAGCCGAAGCCCATCTCCTGAACAATGACGACAGCTCCTCATTTTCGACAACAATAGAGGGCACGTAGGAGTCAGCTCATTAGAATATCTGCGGCTCTTTTCTGTTCTCTCTGCATTAAGCCCCCATAATGTCAGTTGTCACTTATTAAT
3.463274393721337 CTTTATTGTCTGGCCCAACTGAAGTTTCTCCAGAGCCTGCCAAATATTTACTGAGCAGGAAATGAGCAACTCCCCTTCCCAGTGTCACTGAGTGTGACAGCCCTTCCACAGCCCTCAGTAGAGAAGCCCCTCCCATCAGCAAGGCCCCAGTGATTTAGCAAAAGGAA
3.578060150428887 TCCTAGGAAATCCTGCCAGTGTGGGGGAATAGATGATTCTCAATAGTGTAGTCTCAAATCTGGGCATTGGGTGCGGCATCTTCCTTTGTATATGTCCCCATTTTCAGAAGCATTGTTAGGATTAAAAAGCTTGGCTTCCATGTAATACTAACTTGAAATCAAGAAGA
1.695056272247863 CTTGTTGGGCATCAATGGGAGGAGATGCCTTGCTCCTGTGAAGGCTGGATGCTTCAGTATAAGGGAATGCCAGAGCAGGGAGGCGGGAGTGTGTGGGTGAGTAGGAGGAGCACTCTCACAGAAGCAGAGGGAGGTGGAGGTGGAATGGGATACAGGGTTTGGGAGTG
1.205970471889602 GTATGAGCCGCTGCCGGGTCAGGCTCCCTGGGTGTTGATTTCCTGCTCCGGAGTATCAGTGAGTCATCAGCCGCCTCCTCTCCACTTTAACTGTTGCTCTGAGACCTGAGAGTCTGCAGAAGGGAGGTCACATGGCATCTTTATTTAGTAGCCGGTTCTCAACTGGC
1.718350218923343 TCTCAAAGGTGCAGAGCCCGGAAACACAGCACAGAGGCACTAGCTGATCGATGCCCCTTCTGAAGGAAACAGCTTCCTTATACACAGGTTGTCTGAAGTTCTTCTGTGGGGAAAGGGGAAGTCAGCTCTCCTGGGCCTCTTTTTCTCTTTCCTCTTATTTCCCTCCA
3.126629907508764 TCCATGCCAGGCACTGAGCCAGGGGCTCCACCTGGGCTGTGTCACATTAGCCCACAATCACACAGCTAGAAATTATTAAAGCTGAAGTCTAAACATGGCTCCTGCTAACTTCAAAGCCTGTGGCTGCAACCCTGCTGTCTCACTGCCCAAGGAGGGGCCTTTTCTAG
2.696688605119126 CTGGCCGACATCCAGCTTGGAAGAGCTCACAGTGCATACTTATTCCTGTCCTCTGGGCAGTCCCCTTCCTCTTCCAACAGTGACATGTGAAGGAATGTTGCCCTGCATTCCTGACCATTCACGTCTCTGTGCTTTAGTCATAGGTCAATCTCTTGGAGCTGTGGACG
0.5150713137435935 TACTTAGTAATTCTGACAGGAAACTCCCACCAGGCTGAAACTTGACACAGAACAGCAATTACTGAAAACATATTTTTAAAAAAGTTGACGTTTCTGTGAGAGCTCGCCCTCCCCCGCTCCTAGCCTCCCCCAGGAGGCAGCTATTTAGGTCTTCTCTGTGTGAGTCT
2.808407650979918 GAGGGGATGAGAAGGTGCTGGTTGTCCCCTCCCTCCCTGGTGTGCCCCAGGTGCTGCAGCAGCAGAAGATGAGTAGCAGCTTAGGTTGCCATAGTAATGATAATGCCTCTGGCGCTCCCCACTCCTTGTTCAGATGCTTGTCCTCCCACAAGGAGTCTTGGGTGGCC
1.095986864030881 TAGGCTGCGTTTTCTGTAGTCTGTGATTCCTGCCACTTGATTCTTCCCCTCTTCTCTGTAATTATCCCATCACGGGTGAAAATAAACCTTAGCAGGAGACGCCTCCCAGAAGGGCCCTGTGCCTAGTGGAGGTTGGGCGGGTGCAACAGCTTCCCATACTCGGGCTC
1.133998860258084 CTTTTAGGCAAGAAACGGAGTTCAGAGAGGTGATGTCACTCCCCTAAGTGCACAGCTACCAGCTCAGGGCGGGCGGGTGGAGAGGGGGGACTGCCAGGCTCTGTCACTGAGAAAGAGAATGGGGGTGGAGGGTGGGAGGGATATGGGGCTGTCAGCAATGAGCCTTT
2.80191815471289 ACACACACACACACACACACACACACACCATTGTCTCTCAGGGCGCTGAGCCTCTGTGTGAGTCTGAGTCGTGATTTACCCACCTCTGAAGGCAGAGTGACACCCAGCCATGTGCCGCTTGCTGGTGAGTCACCAGTGCCTTGGGACGTTTCATGTGGGGAGAGTGT
0.8755053064216985 CTAAGAACATCTTACACCCAGGCTGCGGGCTGGGGGTGGAGCTTGGCGCCCACCCCCTACTTCTGCTGTGAAGTGCTTTCAGCCCCATGTCCCCACTGTCATCCTTACAAAGCCTGGGGCTGGTGGGAGGGGGAACGCCTTGTTCTGTGTAGCAGGAAACAATGGGG
1.083027678312892 TCCCCAAGCCCTGACCAGCCCAGTGGCCTGGCAGCAGGCCATATCGAACCCGCCTTGTCCCTGTCAGCACTAGGCGGCGGACAGCTCCCGCGCCCTGGCTGCTACCCAGCTAGGTAACTCCTGTGGAGTTGGTTTTCACGGAGCCAAGGACCCCTTCCCACTTTGTA
1.069196838234538 ACCCTGAAGACACTCCCTGCCCTGTTTCATCACCTGGTAACCTGGGTCCTCACACACCTGCAACAGCATCTGCTGGGAGCACCGGGGAACAGGCTGGGTGGGGAAGCACTTTGCAGACTTGAGCACAGAGAAGACACTTTATTTGGGTCATTCCTTTGTTATGCATT
2.882387987530426 AGTGTGTTTAAGGAGAAATAAGCAGTACATGGGATTCATCAAAAACCTTTTGTCAAAAACACAGCAATGTGTTTGATAGAGGAACTGCCCGAAGTGGCCTCCCTGCAGCACTCAGCATTGTAATGGCTTCCTGAGAGGAAGTGTGTGGATAAGTGCCAGGAGGCCAG
3.630877068262456 CAATGTGAGCTATTTTTCCAGGAGTGGCCTGCTTGACCCTGCAGCCAGACATTTCCTGAATCTCAAAACCACTAGACCAGGGCCATTCAGCCAAGCCCCAGGTGGCCCAATAGAGAAGCACCAAGGCCTGCTTACTTGGATTCATATCCTTCCAGGCAGGAATTGTG
1.365571661240247 TAATTGGAGAAGTTACACAGGGCTCTGTAAGAGGTGCCTGCACCTTTTATTTTCTTCTGTGTTCTCAGGGCTTCTAGGGCTACAGCAGAAACAGGAAGGAAGTGTGTTGTGAATGCTAGGAAGAAACAATGCCCTATCCAAAAGGAACTACTCTTCCGTAGATCTCT
2.289636672632275 TAATGTGTTTCATCTCTTCTGCGGGGGTTGGGGGCTATGATTCAGCACAAAATTGATGTAAATTTATGGAAATGGAAATGCAGAGAGGCTGCGAGCTCCAAGCTGCTGGAGGGTTGGCTGTATGGCCCTCAGCGAGGGGAGGTGACTGCTCTCTGTACTAGGGGAGC
2.683573344613803 TGGAAAAGTACTGAGTTCACCCTGAGACCTCTGTCTGCTGAGCCAGATAAGAGACAAAGGAGGGAAATCCTATCACCCTACAGGCAGCTTCTTGGAACCAGCCCAGCAACTGCACTGCGGATGACTTCTAGGAAGCAGCTACTCGCTTCATTCAACCTTACCCAGTG
3.361351078194827 TGGGTAGCTTTCAATAGCCATTGTTAGACCGTTTGCAAGCTCTTGGCAGCAGACCTGTGTTTGCTAGAACATTTCCATGTAGTCATTTATAGCTCTAAGAACTCCGAGGCAGAAGCTGTGGCCTCCATGGCTTAATATTGGAAGTCACACTTTGTTATTCCTGTTAC
2.051217631083424 GTTATTTTCCAGCTGAGACTCAAAGAAAGGACGAGAGGTTTTAGTTTACAGATAGGTTATTAACACTCCCATTGCTAATATCAGATTTGAACTTTCTGGAAAGCTTTTAGTTGGTGTTCCGATCCCCTCTTAAGGGTTCAAAGGCAGACATAGTTATTCCAGTACCA
2.462983344959127 CCCTCCCTCTGGGACAGTACTAGACTGTACAACTTGTTGGGTAGATTGACGCTCTTTTCCTGTCTCCGGGGACAAAACTCACTTAGACTCCTTTGTGAAGAGAAATACCACGTGAGGCTATGGCTTCTGAAGATTGCATCATGTTCCTCAGTAGAAACTTCACTGAA
2.386164251381697 TTTTCTTTCCAGAGCATGGTTAGCTGGGCCTGAGGGGAGAGGAAGCTTATGTTTCCATTGGCAGGTTGTACCTCCCAAAGAATGAAGCCAACCGATTTTGCGATAAGTGGACATCCAGGAAAATAAGCACAGGACATATGCTCTGGCCACATGCGGACTGTTGATGC
0.8450222041133288 TTCCGCCGAGGTTCTTTCCTGTGGGCTGGAGATGGTATTGGCAGCAGCTTGGCTCCGCTCTCCTCCACCGCCAGCCCAGCCTGTGCTCCAGGGGCTGCTCGCAGGCTGCCTTCCTCTTCCTGTGCAGCTGGTGTTTGCAGAAGGACGCGATTTGGAAGTTGATTTAT
0.2315252440207957 AAACTGAGCGACATCACTGGGGCCGTCCAGGCTGTGACTCACAGGTCCACTTCCCTGCTCACCCCAGCCTGGATTCTAGTTCTTGGCCAGGATGTCTCAGCACCTCTTCCTGTCTCCATTCCACTCTGACCCCTAAACAAAGCCAAAGTCTGGAGTCCACTGTGAAG
2.573244462246072 TTGGAAGCAGCCCTCATCTCCCAAGGAGAGTCTCTCCATCTCTGCTGGATATCTCCAATGCCTGCTGTGCAGGCTGTCTCATGTGGTTGGTTACACACTAGGAAGCAAGACTAGAAGGCTGTGCAGCAGAGGCCAGCCGAGTTCCCAGAGCCTGGGCCTGCTAGGCT
3.060005818552813 TAATTAATTCTTAGACAGACTGAAGAGTGTGCCACCCACTAAGAGTGGGCAGTCCCCTGTCAGCTCACTGAGTCTGCACCATCCATCTTCCATTGCTGTAGGGCCCTGTGACAGACAGGGCAGGGGGCTGACTTTCTATGTAAGCCTGTGACTTCTGGAAATTCTGG
0.4038038683161208 CGCCTTTTCCTCCGTGAACGCCTTTCCTTTTTGATCTCTGTAGAACAATTCACATCGGTTAGTGCGGGAGGTTGCTCCCCGCCCCTTCTTCCTCCAGCCTTTTAAGTGCTCTGTGCTGTATTTGGATCTGCTACAATTGGTTTTAATTAATGTCCCTACCCTAAGGC
1.999500830192599 ACTATTGGAAGATGGTGGAATTGCAGAAGGTTGCTCTTAATCATCAAAAGCAGTTGACTGGCAGCCTGTCCTTAAAGGACACACCTTGTCCTGGTCCCTTCCTGTCTTTGTTCTGCTTCTTGGCTGCCAGGAGTTGAGCAGTTTTGATCTGCTGTACCCTCTGTCCC
2.060768340126771 AAAGCAACTGAGTTCCTAGAAATGCCTCAGTTACAGAAGAGCTCGGTTGCTTTCAGTTTCCATGAGAATCATGTTCCAGGAAATGCCTTTCAGGGGCTGAGCTGTGTCAGGGTTGTCTCTCTGGCTGCCCAGCAACTCTGCTAAGCTGGAAGTGCATTCAGTTTGGA
2.022609448569733 AGCCAGACCTTGACATTGTTGCCACTAAGGAGATTACCTAGGGTGGAGCCTTCCTCCCTAGATCACTCTGTTGTTCAGCCAATGTCACTTTTCCTCTTCAAGATACTGCTACCTCCTGGGAGGCTGCTGAGCTATTCAGGAGACTACACCCTATCCTGCACTTAGTC
2.982288863196468 AGAGATCCGCTATCTCATGGCTCTCCTTCCCTTGCCTGATTGAACCTTCTGCAATCCCGTAACAACCCCACTCCATCCTCCCAGCCATCAGTCATTTCACCCACTGTACTGGCTGGTTTTGTGTGTCAGCTTGACAAGCTGGAGTTATCACAGAGAAAGGAGCCTCC
3.51268831157988 TCATCCAGGGCCACACAAAACCCCGTCCCAAGCAGTCATTTAACCAGCCTGTGTCTTGGCTGACACTGACCCTGAGTCCTGTAGCTGTCCTGGCAGGAGTAAAGACACTCTAGAGAGATGTGTGCCCCTCCCTTTGGCTATCAGACTACTGAAACAATGGACCCCAA
1.339202707367946 GTCTTTTACTCTCATGAGCTGTGCTAGAAGCCAAGGAAAACACAAAAGTTTCCTTTATTCTCCTGTCATAATAGGAGAGTCAGGCCCTAGCCCTTCCTGCAGGGCTGCTCTCTGCTGAGTCTTACCCTCGTCATCGTCCCTGCCATGACCCTAATCTTACTCCTGGG
1.449893464048464 TCCAATAGGCTACCGATCTGTCTCCCCGCGCAGCCCCATGGAGGAACCATCAGTCCCCTGCCACTACTCTGCCGCTGGCTCCTCCCCTAGGTAGGCAGTAACCCTGTGATCGCCAGGGCCTGATGTCAGCCAGAGCTTCCCTCACTCACTAGGTTGTTTGCCTTCTT
1.035960306186867 AGCTAGGAGGAGGAGGCAGCAGTGACAGTTCTGGAAGCTTGGGTGACTCCACGTCACTCCTGCGCGTGGAGCGGGGGAGTCTCTCTCTTCCCTGGGCCTCACGTCAAGCCAGCTATTTTTAACTCTGCTTTTTATAGTTAAAGCATGCTCATGTCATAGTCACCAAG
3.446986711408039 CTGTGCTGCGCCAGCCCGGCATCTGTTTGTAGAAACCCTTGCCTTTCATTTTGCATTCCCGTCTCAGATAGCGGATTTTGAGAACAGAAATATAATCATCTCTGTGCGAACAGCCCTCTCTCAGCCTGGGGAGGAGAGAGATCAGCAGCAGAGGACTCTGTGTTGGC
0.6796071149049663 AGAGAAGCCTCAGACCACATTAGAACTCAGCACTACCTCATCATAACAATGAAGTGAGACACCAAGAGGTGTATGTGTTGGGGGGAGGTGGGGTGTTGGGCTGTTGACAGGATCCCTGTCCTGAAGAGGTCAAAGAGGTTGTGTGCCAGGGAGGTATGTGATCTCTT
0.8316223044466758 TTATCTTCCAGGGAGCAGGGATAGCCTGCCATCAGGGGAGCAGCCGACAAAGGCCTCTGCCAGTCTCTAGCTGCTACCATGCTCACTGAAGCAGCCGGAGGTGGGGGTGGGGTTGACTCTGCCCCCCTCTTTGCTAGACCGGGCTCAGGTTCCCAGTCCTCGGGGTT
3.591697624280492 ACAGCAGTAAAACTCTAAGACAGTTATGATGTCTCTTCACAGCAATAGAGCAGTGACTAAGACATCTCGTTTAAGAACTTTCTTATGTAATCGCACACTGGATGGTAGGCGTGGGGCAGATGTGACATCGGGATGAATAAGGGAGGTGTGGGTCTGACAAGACTCTT
2.705905287043753 GTGCCGACTATTCTTCAGTGTTTCACAAGCCCGAGCTCCTGCTGTCACCATGGCTACCACTGATTGCAGGAAGGGCGACTGTGTCCTTGCGCCCTGCTTGTAGCTCTCTGTGGTTCCACCCACTGCCCGCCAGCAGCTTGCTGCACTGCTGCCAAGGACTGGTTGGC
2.746976019010503 AATCCGTTCTGCGAGACATTGATAGACTCGCTGCTCCGGGAAGCTCGCACAGCAGTAATGAAATTAGGTTAAAACTGCTGGCGGAGCGCAGGTAATTGCCCTTGTCTGTCACGAGGAATAACATCTCCCAAATCCAACACAATGATTGTTCAACTTGCAGGGATTTC
1.085116476828307 CCCCCCTCCCCGTTCCTATCTCTCTCTAAAATCTCCTAATTTAGCTGCGCTGCAGGCTCTTCCCAGCCTCCCCTGCGTGGCTCACGGCTCACAAGCACACAGCTCTCCAGAAATCAACACTTCCATCCCCCCTACACCTCATTAAACCCCTGGCTTCACGCATGTTT
1.329284851873344 TCTGCTTCGGACCGTCACGACACATGTCCTTTCATCCCTTCTGGCTTACCCTCCTTCTCCCGCTGCGGTTGAGCCTCCACCCAGGCCATCGCGATGACGTTGACTCGATTTGCATAAGAGTCCCCAGCATCCCAAGCGACTGCCGCGTAGTTTGCAAAACACGGATG
2.418819423187483 TCAAAGCTGGAGGTGGAGGGAAGGGGGAGAGGAGGGCTGGGGCTGGGGCTCAGCCACTAGAGGGCGCTGCCTGACACTGCAGGAACTGCATCTGGAGCTGCAGCCATTCCAGCACAGAAGGGAGTAAGAAGATCGGAAGTTCAACGTCACCCCTACTATATAGCCAG
2.363224450735952 TGGAGGCCGCGGAGTCACGTGGTTAGCTGATGCTGGTGTGGCTGCCTGCGGGGAAACCAAGCCCGGGCTTTGCCTGGTGATACCATCTGGTTTGTCTTTTCTGCACGTGGGAGCCCTGCTGTCCCTGAGGATGAATAATGGGGACAGGGAGTCTCAGGTCACCTAGC
1.644915181697129 GGGGGCAGTTCGGCATCCTTCTGGCTCTGCAGGGAATGGCAGCTCTGGTCTTGTTCCAAAGCAGAAGAAACCATTTGCACGGGGGTAGGGATGGGGGTTGGGGGGGGGGAGCAGCTTTGCATTCACTGCCTAAGTATGTTGTCCCTGCTCTCAACGACCTCCACTTC
2.913623138767426 TCCAGCTCATCTCAGGGCTGACGCCTTGCTCCTCTCTGAAGCTGGGAATTAAGAATGAGCCACAGGCTCCCGAACTGCGGTGTCAGCTCGCAGCTCTCACCACACCTCATGCCTCACAGGCTTAGTGCAAGTTCCGAGGTGTACAGAGGACCCCAGATCTCTCCTTA
0.4855041667917765 CCGCAGGTCTGGGGGGCCCTCGGTGGGAAAAAACACTTATCTGCCTCAGCTGAGTTCAGAGCTCCCCCGAAGGCATCCTTCCTACACTCAGGGGGTGGGTTTTGTTTATCCCCCTGGCACACAATGAAATGTTGGGAACACATGCTCAGAGTGAGGTGGGGCTTGGC
1.707844585696759 TCCACAGCGGCGCTCCTTTGGGGATATCAAGGGCAAGCCAGAGAAGGGTTACCTGGAGAAAAGGGTTGCTAGGCAACCAAACACCCACCACCCCGGAGCACCACCAACCCAAAACTCCGTTCCAGGCCTGCAACCAGATTAGCATATTAATGAGGCTGTAATTTCCC
0.06585900767205732 GCCGTGAACAGGGCGGTGGCGGTGACACTGAACACGATCGTGACTGTAGCTCCCTGGGAAGCTGCCGTCAAGCTTCCTGTTCAGATCTGGGGCTTTCTGTTTGATCTCGGCTGCCTAGCTTCACAGCCTGCTTCCTCAAGAGCAGGGGTGCACCAGGTGAGCAGGGC
1.395811960698033 TGCACTGTACAAATCTGTGACCATCTGTCAGGCACTCTGAAGGACCAGAAAAAAAAGCCATCAGCTTTCCTAAAATAGCAGCAGGATTTCCTGGAGTGGGCAGGGCCGGCGCCGGCTAGAGCTGAAAAATGGGATCAGTGGGCGGTCCTGCACTAGGGACGGGAGAT
2.011704562636189 TCTGAGTCTTTCCTGGTGATATTCAATCGCAAAGACCCAGGGACAGAAATGGCCCAAAAAACAAAAAAATGGTGGAGATGCCGGGGATCGAACCCGGGGCCTCATACATGCAAAGCATGCGCTCTACCACTGAGCTACATCCCCCGACCGCTCCGTAGAGCTTCTGT
2.089699270081411 GGTAGGGTCTGGAGAAAGAAGGAGACGCAGAGAGGGCCGCAGAGTGAGCCGGGTCTGGGTCTCCGTCTTGTTCCTGTTGGGGACCAAGGACACCGAAGGTCGGCAGCTGGAGAACAGGGTCTTTCTTGCGATCTGCTACCTAGGCTGAGATCGTGTACACTACGAAG
2.80471407685137 ACTTTGAGGCGGCAGGGAGAACTCTCTCAGTCTCAGAAGGGTTTCCATTAGAAGGAGTAGATTGCTCGAGCAGTTCTCCCGGCTCAGGGTGAGAGTCTAATTCTAGACCTGGGTAATTAGATCAACAGTTAGATCTAACTGCAGACAAACAATAGGATGGCGTTCAG
3.420014096245006 TTTATGAAATATTTTGGCTGAAAATAAGGGCTGGGGCTGGTTCAGGTATGTAAGTTAGAGACAGCCTCAAAGTCCTTTGTGTTGACTGAGTCTCTTTTATAACCCTAGAGGCTCTCTGGGTCCTCTCCATCACCAACTCCATCACCTTTACTCCAGAAAGGAGGACT
1.117557845516501 CTGTCCAGCTACGAGCGGCTACAAAGCTGCCTCCCGAACCCCGACCAGCCTTGTTCTGCTCCTCGGCTTCTGTTTCTGGAGCGTTCCGTCATGAGCTCAAAGGTTGGGCTGAGCCATCGGCCGGGGATAAGGGAGATGATTTATCTTCTCCAAGGAGCAGAAATTGA
3.110371116172102 GAGAGCCTGGCCTTAGCCTATCTTAATCTCTAGTTTTGGTCCTCTTCAGTCACTGTTCTCCTGTGCCCAATATTGAAATGTCACATATTGGGGGAGGGAGTCAGTGGTCCCCAGTGCTGGAATTGCAAGGAAGCCAGCTAGAGAGATGCATGCGGTGCTCTGAATCC
1.009120095606167 TCCAGTCACATGGTCTCATTCTAGGATTGAGGCTTGATTACAGGTGCAAGGCATGGAGGATCTTAGGTTGGTGACTCTCTGGGTGACGCCAGGCAATGGAATCCAGAGCAAAAGTGGGAGGCAGGGTGCAGGGTGAAGTGAGGGTAAAGAGGAGGTTCCAGGAGAAC
2.156189857026057 CGTCTCTGGGTGTCTCCTTAGCCCTGATTCCTTTTTTACCTCTCTCCACCCCCTGCCCCCGCCTCTGTTGCCTCTCCTCCTTTGGAATCTTTGAAGAACAGAGCCAGGCATGTAATTGACTCGGCCCGTCTCCATGGTTGCAGCTGTGGCGTTACTGAGAGATCAAT
2.039091673242803 GTTGCCTCTTGGCCCCCAATGGCAGGGGTACAGGCTGCTCTGACATGCCTGGCTTTTTAGCCGGATGCAGGCGATTTGAACATCAGTCAGGTCTCCTGACTGAGCAGCAAGTGTTCTTATCTACTGGGACATTTGTCCAGCCCATTTTGTCCTTATTTTAGAGTGTG
0.9442933394070256 CCCGCCCCCCTCCCCAGCAATTCCAGACGCCCTGAATCAATGATAAGGTTGTTGGCAGTGAGCAGACACTAGAGGGAGACAGAGTGGTGGAAAGGTGGCTTAGGGGATACCTTCCGCGGGAGGCTCCCAGCCCTCTGAGCTTCCTTGGCTATGCAAGATAAGAAAAA
1.930450871766315 TAGAAGGTGGGACACCATTCTGCCCGTAACACATATAAAGCTCAGGGTTTTGTTCCGTATTGAACAAAAACCTTCTAAATATATAGTAGCAGGGGGTGGGGAGCCTCATCTAATGAGACACGTCTTCGCAATTTTCCATTGCCTTCATCCCATCTTCAGCTGGTTAA
1.951289481948494 CACAGCACCGTACAACAGCGAACTTGCCCTTCTGCTGGGCAAAGCCCTCTTCCCAGGGCTGCCCTAGACAGATGTGGAACCATCTACTCCAAAGCCGTTCTTACTACACTTACCCACCAGAGGGCGCTAGGCACCTTTCCAAAGCTGACCTTGCCCTCACTAAAGAA
4.505981577323081 TCAGCGCTGAAGGTACACAAAGAATAGGTACTTAGCTTAAGTACCCTCTCCCCCCTCTCTCTCCCTCTCTCTCTGTGTTGCTAGGAACTTTTGTATGCTAGGCAATGACTCTACTGCTTAGTCACATCCACGCCTCCAGCCCCTCACTGAGGGATTCTATAGTCAAA
1.736460571123205 TTAAACAGTAAGTTTTGACACGCTGAGTTAGGTGAAGCATATAATTAAGTTTTACCCTGAGCACTTAGAAAATGTCAGAGTAGAGAGCTGCGGAGATGGCTCAGCAGTTTAGAGCACCAGGCGCCTTTTCCGGAGGAGCCCGATGCAATTCCCAGCACCCACGTGGC
1.11533421204209 ACGCACGCGCGCGCGCACACACACACACACACACACACCCGGAGGGTGGGGAGTGGGGAGTGGCGATGGAGTAGTGACCTGCCATCTTTGGCCACTAGGGGGAGGCAGAGCCCGGCGACTGTCAGGCAAAGGCTTTCATGAGCCCTTGCTGTATCAGGTCTCCTTAA
0.2591737769795584 CTGATACCACACAGGCTGGGGAGGCAAGGCCTGAGCTAGCTTGGTGCTTACACCACATAGCGGATGTTGGCAGCAGGGAGCAGGGGTGTGTCACAGGAAGTCCTGAGCTCCGTGAGCAGCTAGTGACTCACCCACAGTACTCACAGTTCAGACTCCAGCCTCACTCT
2.697984368580165 TTTGGCTGTGCTTTCGTTAAGTATTTCCAGTTATTATAGCGACTGCGCTTTGAGCCACTGGTACAGTTTATACAATAAGAGTTAGAGAGTGCTCCAAATAAAACAAACATCTTGCAGGGTTTGAAAGACAATTCTAGGGAGGTCCCCAAAGTGACAATGACCTTATG
2.795368826689237 ACTCAAAAAAAATGATAATTTTTACCATCTCACTATGTAGAAGTTGGTCTCACACTTTCAATCTTCCTGCCTTAGCTTCCCAAGTGCTGGTATTATAAGTGTGTGCTACCACAGCCTGATACATTTATAACAAGACAAATCAAGACAAGCCTTAAAGTGTGAACATG
1.411556574849079 CTGAACCACACTGGCGGTAGATCTAGTTTCCTTTGCTTTTCTTCTTTCACAGCAGGAAACCGGGACCGGACCTGGCCAGGGAGGACTGGGACAAAGCCTTGTAAAATGAGCCAATTCCTTACTGTTTTTCCTTTAATTGTACATTTATTTGGGGGTGGGAAGAGTGC
2.754490470566098 CCAATGACCTACCTCTAAGTACATGGAATAAACTAGCATGTAGCAAATAAACTCTGCACATCAGCCATGGTTACTGCATGAGGTGAGGCAGTGACATTCCTTAACAAAGGAGGTGTGTCGCTGATGGAATTGTGACAGGATGAGCAGTATGTGGCCAGCAGTAAGAA
3.295186028143572 TCAAGTTGTTCTTTTATTTTTAAACTGTATCCCACGTTCCATACATAGGCTTTAATTTGCTTTCCAGAGCACTTCAGTTAAATCCTCAACACAGATAGCATTCTCACCTAGCCTGAGTCTATGAATTTCCATTCAATGCTGATTTCACCCTTTCTTTGGAACATTGG
0.008692071609196933 CGACCCTCCAGCAAAATGCTCTATTATCAGCTTCCTACAGACCTCTTGAGAGCCACCCTCAGGCATTATTCCGGAAGCAATCCTCCCCGGCTCACTTCCCTGGCTGGGCCGCCCTTCATGAGGGGTGAGTCACGTCTTTTGTCCTGTGCCTGGAATTTGGGGATGTT
3.407026141713289 GGTTTTTAAAGCCTTTTAAACCCTATTTTTACACCGAGCACATTTCTCTTCTCTTTCAAAGGAACAAAGGGATCACACAGCCCACATGCCCTTCAAACTGGCAGCTGGGGAGGAAAGGCAGGGTGCAGATCTGCAGCCACAGAGAGCTGGTTCCCCCACGTCCGCCT
1.073745196070054 GTTAGACTACAGCCATGGACGGTCCTTCTGCGCTGCACAACAACTTGATCAGTTAACCGTTCCGGCCTCTAGGCATCCAGCAGGGACTCTAAGGGCTAAGGGCGCATGCTCACTCCACATGTGTTCCTGGGAGCGTTTGTTTTAGGGTAAATGCCCGGATGTCGAGT
1.915971537316761 GTGGAGCGACTGGCAGAGGTCACCCAGCAAATGGTGACCCTGGATAGCTCTGGCTCAGAACACCAGCCTTCATCAGACGCATTGTGCTGTCTTATCAGGACATAGATCCACAAAAAACCTCCGGGCTTTGTTTTAACAATATCCTAACTGTCCAGGTGGAGGCTCAA
0.4133876170676228 AAGGGCCTTTGACCTTAGTCCCGAGTGGGGAACATTTGTTTGTCCTGTGGAAATTCCCCAAGTGGATGGGCTAACAACTAATTCCAGATGGACCTATGTTCCTAACTCAGGCCATGTTCCCAAAGCTTCCGTTCCCGTGATCTGTCCCCTGCCCCTTCTCCATCAGA
2.353871501917825 CTTATCATCTTGTGAGGCACACAGTCTCTGCTTGTGCATCCAGAGTAGACAGAACATCAATGTTCTCAGATTCTGTCCAGGCCAACAAATCTCACACTTCCTTCCCAGGAGGGGAAGAGTGATCTCAAGGGTGGAAGCCATTGTTACTCCTTCCTGTGGGCTGGGTT
3.043905898725236 AACGTGGTCCCTATCATCCTATCCCCAACTGTCTCTACATCTTGTCCCGCTAAAGTGCCCTGGAGGATTTCACTGTCCTGTAGGGGGCGAGCTACCCACACAGTCTCATTAGCCCTTCCCTGAGGTTCTGGTGGGGAATTCAGGGGCTTCTGAGGTTAATGGTGGAA
1.73604687963264 GCTTTTCTGAGCTGTCCACACTCCCTGTGCTGGCTCTTGCTCGCCAGCTCAGTAGCAGGCTTCAGACTTAGACAGCAAAGCCTTCCGGGCTTTGTTAAGGGCTCTGTGGGGGACGAGCACAAGCCACGGACAGCCCTGCCCAGGCTTCCATTTCCCCTTGCTTGGGG
0.480641412774501 TTCAATAATACCACTAACGACTACAACCATCTGCACGCGCCTTCCTCTCGGAGCCCCGGGTTACTCAGGCCAGCACGGTCCAGCTTCCCTCAAGCCTGACCTCCTTCACAATCGCGGCCTCCAGCCCAGCGCCGCAGCTTCCTGCAGGATGCACAGGCATCCGCTCC
2.320438287330585 ACTCCCAAGGTCATGCTGGCTGGCTTTGTGGCCACAGCCCCTGCAGAGGCAGACACTAGCAGGCAGGCTGTGCTCCTCTTAAGCACACTGCCTCAGACAGGGTGTGTGTCTGTGGGGGTGGGGGGTGGGCAATGGAGCTGGCTTTTGAGGGACAGTGTGCCTTCAGG
0.6521052826753666 CCCCACCCCCACCCCCGAAATGCAGACTGAGTGTTGGCTTGTGTGTCTGTGCAGGAGGAAGATAAAAGAGCAAGAACGTTCAAGGCCAGCCCTAAGCTGGCCTGAGGGGTTCCATGAGAGCTATTCTAAGAATACTGTTTGTTTGTATATGGAATTTCAAAGGGAAA
1.323261365043808 CATCCAGACATCCCGCCTGACATTCCTTCCACCAGCCTAGAGGAAGACAGACTTCCAGTGCCCCATACCACCCCCATGAACATCCAGTTTCCACTCCAGTCTAAACAATCACAGCCTTATCCTTTCTTAAAGATGAAACATTTTCCTATTGAAAACATTGGCCATGC
2.937360184271153 TGGTTCACGAGAAAGTTGGGCTGCTGCTAAGGGCGTGGTGTCTCCAGAGCACTCTAAGTATCCCTTGGATGGCATCTGTGTGAAGCAGGTCAGCGCTTTCATCTTTAAGAGTGGGTAAACAGGACACAGAGAAATTAAATGATAATGTTGCCTTGCGTCATGAGCTC
1.120613897336419 TTTGTCTTGCCTTTCTTGTGTGTGGGATTGCTTATTTGCTTTGAGATAGGATCTCACTTTGTAGCCTAAGTTGACCTGGAATTCACAATACTCTTGGCCTCAAATACCTTCCTGACTACCTAGTTAAGGACTTTTGGAAGGTGGATGTAAATATGGGTCCCTGCTTT
1.373976636557191 CCTTGTATGGGGAGCCTGACCACACCCACCCTCTTTCTGGGGAAGATCAAGTAGTCCTTGGCAGACCCTCAAGTACAACTTCCTCTTCCCCTCAACCCTGTAAGAACTTGCACAGCAAGTACCTAGGAACCCTGGAATGCCTTGCCATACAAATGACGCAATCCTAG
2.878357048551844 GTGTGAACAGGGAGCAGGGAGCTCCGTGAGCAGTGTCAGCAGTGGGTAAGCAAACCGGATTGTGCAAGGACTGAGAGGCCGCCCTGCAGAGAACACAGAGAAATACCGCACAGGGTGTAAACACCAGAGGCAAGGAAGTATTATTTCCCTGTCCTCAGAGGAAAACC
0.5108953343792998 TTTTGGCTGAAAAGGAAGTGCTATGAATAGCAATGGTGTACAAGGACCCAGTGGCCCGGAGGAGTGTGCAGTAAGGGAGCACCGAGTCCCTTCCTCTCCCCTCCCTCTTCCTCCCCACCCTCCACTTGTAAGTAACACAACCCCAAACATCTCAGGCGGTTCAGCAT
1.173271072653688 TAAGCAATCTATTCTACTGTCCTTCCCCAGAAGTGACTCCACCCTGGTCCTACTGTGGGGGGGGGGGGCCTTAGGGAGCCTCTGAATAGGGGCTCACAAAAGCCATCCAGGCAAGCTGTGCTCCCAGATCAAAGGTTCTTTGTTGTTGTTGGGTTTTGTTTTTGTTT
2.268832218947457 TCCTCCTCTGCCTGCTGCATCACCCAGGTCACTGAATTTTCCCAACAGACTCTGGAGAAACACACGATCTCTTGAGACTACGATAAAATCATTGTTTAAAATTCCAAGGTTGCAGCAACTGCTTGCCCAAGCACAGCTGGAGCCACAACCTTGTTATTTTCCCCTGG
4.43103766578148 TTGCATAAACTTTGGAGTTTCATTAGGTCCCATTTGTCAATTCTCGATCTTACAGCACAAGCCATTGCTGTTCTGTTCAGGAATTTTTCCCCTGTGCCCACACTAACTTTTTAAGACTGTCATTTTACAGCAAATTGTTGAATATGAATTTTCTGGCAGCAATAATC
0.5437043487019392 GAATGTGAGTCTAAACTTAGGCGCCTGACAAGTCGCTCAGTCCCGAGCTGGGGAGTCGCTACAATAATATTCACTGAACAGGAAGTGATGCAGGAGTCAAGGAGCGGGGAGGGCCAAGTGCATGGCAGGAGTCTGGGTCAGGGGTCAGAAATCTGCAAAGTTCTGAG
2.352018805833565 TCTTTGATTGGCTTCGGGAAACTTGTAGCTCAGTTATTTATTAAGGTAAGTGACATGCTCTAGGCCTGGGCACATTAATTCCTATTTTTCTTTGCAGACATTCTAGAGAAGAGATATTTTTAAAATATCAGCTGTGCTTCATTTTCTTAAAATCAGGTGTTACATAA
1.961034280998812 AGTGAGCATGGTCTGAGGAGCCAGGGAGAAGACCGGAAGCTCACTTCGAGGTAGAGGTATCATTTTCCCCTCAGTGAAATGGATGAACTTCTCCAAGGGTGGCCCTGATGACTAACACGGGGAGAGGATGAAAGGAGAAGGCAGGAGGGAATTGTTTTCTCAGCGAT
1.586078501728373 GTCTGTGAACTTAGGACCGCAGAGCCTATTCTTGTGGGTTCCTTTGAAGCACAGAACTGCAGTGTATCTTCCTGTGTCAGAACTACAACAGCATAAAGCCTGTTCCGTCTACCACGCCACGGGGGTGTTACAGACTAAATACCCGGAAAGGGGAAAACACAGGTCCA
0.05019247616062465 GGCAAGGGGTGGAAAGAAACAGGGAGGGGTGGAGAGAAGGAAGCAAGGACTCCTTACACAGCAGCACGAGGCTGAGGAAGTGATTTCCCCTACCCCGCCCCGCCCAGGGGCTCATGGGAGGGAACCTACTGGTTCCCCAGACTCGTGAGAACTCATGCTTCGGAGGG
2.637454145253406 CACAGCACAGCACAGCACAGCACAGCACTTACTACCCTGCCTATACCTAGACCTCTTGCTTTGGCTGGTCTGCTGGTGACCTGTGAAGCTCTGGACAGGGCAGGGCAGGGCAGGCTTCAGAACTCAGCATGGCTCCCTGGCAGAGGCCAGCGAGTTGCTTGCCAACA
2.068468386358484 CCCTGTTAGCTCAGTACACGGCGGCGCTGGCGAGGCTGGAAGGGAGCTGTACTGAAGCGAATTGTTTGGTAATTCCTGGACTTCCCTTCTGAAGTCAGCTGTGCCTCTGGCCACTGGCCTCTTTTTGCCCCACCCCTCATGCAAAAGGAGCCAGGATTTTGAATTAT
0.2112732416660121 TTATCTGTTACCGGCTTTGCTTCTCCAGCTCAGCCACTTGGCTGGAACGCCAGGAGGAGGGAGTCACCCAGACTCCTCCCATCTCTACTTCATCCTCCCTAGCCAGCTCCTCCCCCAGGAGTGGCTATGCTCCTAGGTCACTGACCCCTACTAGCTGGAGAGGGGAG
1.083442877196978 AGTGAGTGTGCATATGAAGAACCACAGTGAGACCTGGTGACAATAGTGCTCACAAAGGTACAGGCACTGTCCTGGGCAGCCCCTCCCAGCCTGTACAAAGCTGGTATGCAAAGCATTTCCCTTGCCTCCACCTCATCTGAGCCCCACTCCTGTCGCCCAGCAGGTGG
4.611179513771291 ACCACCCGAGCTGGCGAGGCGCTTCTGCGCTCTCCACAGTGGCAGAGAAAGGTGAAGTAGACAGTTCTGTGGGAGGCACTGCTGAGCAATTTAAATTCAGCACTTGCCTTGCCATTTGAGCCTAATCTTATTATAGCGTATCTCTTCGTGTTTCTTTTGTTTGTGAA
2.092208456476539 ATCTTGAGAAAGGTCTCTAAGACAGAGGTAAGAAGTTATTAATAGCCTCATTATTATTCTTACCCAGAATGCCCAGGGAAAAGCAGCATGTGGCAGCCCCAGCCCCCGCACCCCACCCTTCCATACTATTTCTGTACCTGGAAAGCAGGTTCTTGGACTGTTCTTCC
1.754290988678067 CTGGCATGGTCCCAGTGCTGGTCAGGAACGGATGAGAGTGTTCACACAGGCCATAGCCTGTAAACTCAGCTCTGGTGGCAGCTCTAGTGTCCTCAGGAGACCAAGCCTGCCCTGCCAAGTTCGGGTTCTTGGGATCTGTGTTCGTTTTAAACAAAAGAAAACAATGG
0.7488084813048036 TTGATTAGAATAATTAGAGATGGAGCCAGGAATGATGTCATGCCCCTGCAGGAAGATGGAGGAGGACTTTGAGTGTGGCCTTGGCCTCCCTCCTCCTTGTTTGTTGACCCAGTGGGAGGGACTGCATTCCTGCGTGACATGACAGTTCTGACTTCAAGACAGGATCT
0.3762229298315214 AAACTATCCCCGAAGGAATCCAGGCGGAGGTGGCAGGGCCGGCCTCCTACCGATGTGGGAAGAATGGCGGGCCACACCCTGAGTTCTCTCTGTCACCCTGGCTTTCTTGGTCTGTCACACACTGACATCTACTTTCGGGGCAAACCACATTTTTATCTTTGTCTTTT
1.392548316376875 GGAGGGAGTGCACCCAGTTCCACACCCGTCAGTAATTTCGGAAACTCCTTGGATTAGACTGCAAATGTGCAGACCGAGTGGGAGGTGGGGACCCACGCTCCCCGGAGTAGTGTGAACAGAAGCAGCTTGTGAGGAATGCAGAGTCCTGCTGCGATTTAATAAGATCC
2.636726363756557 CTGATTGGTCTGGAATTAGCCTTCTTATCCTGTGAAACATCTGTACTGTATTGTTCCAAAGGATTAGCTGCCCTCTGGGGATTCTGTGAAGTCAGGACAATGGAGGTCATTAAGGGTGCAAACATTTATTTTCCGGCCTTTTATTCAGCAGGGAAAGCCAGGCAGAG
0.7977396997164066 CCAACCACACTAAATCCAGATGACTGAACCCTGCCTGTGCTTTGTGTCTGCTCTTTCCCACTCAACCCCCTGTCAGGGCTTCCCCTGGCCTTTCCTCCTTTGAAGTCAGTGGGAGCTTGGAGCTTAGAGGAGTCACTCAGAGTACAGAGGGACACAGAGGACAAAGC
4.083344014026511 TGGGAAAGGAATCTGAAAGCTTGGCACATCACAAGGAGACAGAGAGAGAACTGAGTATGCCAAGTGCGTGAATTCCTGCCTTGTGAGCAAGCCGGAGCCATGGTGTGCTTGTTCTATGTGTCATAACTCTTTGAGTATATTAATGAGTTTTTAGTTTTCCATTTTGA
2.640534488819586 GCCCCAGTCTGTTGGAGGAGACAAGCTCTCGGTACTCAATTTATAATGCTTTGATTCGCGTGTACACTAGGGGGCGCAAGCAGGCTTGTTTTCCAGAATGGCCCTAACAAATCCTCAGCGATTCTAAGGAATGGGGTAGAGGAGGGATGTCAGGAGCCACACTGTCT
1.484760070915268 CATGGCAGGAGAGCACCCTGTTCAGAACACTGTTTAGAACACGGGAAACGGCACAGGGAGGTGAGGCTGAGCATGGAAAGCTTGGAGATTCTCTGGGCCGCTCCCTAACCACAAAAGCCGTTCACAGAAGCACTGGAAGGAAGAGCGGGCGGGGGTGGTGGTGGGGG
3.547320820606208 CAAGCTTCTAAGAGGGGCACCCGCCTGCTCTGTGAGCCTCCTAGCAGATTAGGTTCAGAAGCACACATGTGGCACGGTTTGATTCACATGATGCTCTTGAGGTAACTCAGACAAATGATGCTGCGAGTATAGCTCAGCGATGGTGCACGCTTGGGTGCACAAAGCCT
3.955449844356376 ATGTTGCTGCAGAGAAATGAACTCAGGTCCTAGCAAGAGCAGTGAGCACTATTAGGCAGAGAGCCATCCCTCCAGCCCTGTACTAGCTGAAGAAACAAACCCAGAAAAAGACAATGGCAGGAAGTCATGACTGTGATGCTAAGCTGCTTCCTCAGCAAATGAAAGAA
1.54466010623811 TGCAAGACAAGATGGGGTTCCCGGAGCCCTCCCCCAGTCCCCTCGTGGGCTCTGCGCGACACAGCCCTCATCTATCTAGCATTGGGAGCGTCTCTCCCGTGGGTGACATGTGCATTTGTGGTGTATGACAGAAAGATTGGGGATTAAGGTGAGCAGCGGGATCTCCG
3.490136128762538 AGAATAGCTTAGTCATGACTTTGTCTGGGAGGATGAAGGGCTCCTGATTTAAAAGTGTAGGTTAAAATGACAGAAACTTAATTTGCAGTGAGTTGTGCAGTAGTGCTCCCTGCACACAGCGCTGCTTAGCAGATCTCTGAGACTCACATTCCACAGAGCTTTGATTA
1.854843626731418 TCAGATCCTCCAGTGTCCGCCCTAGCAGCCTGCACAGCTTCCTCTCTGTTCTGTTTGAATACTGATTATCCAGCCTGACATTTAAAGACCTGGAATAGGATGCTCCCACCCAGAGGATTTGAACTTGACAATCCCAACTGCCTCCCCCCTCAGCTCTGTCACTTTGT
2.325041132299369 CACCAAGAATTTTATTTTTGAAACATGAATATGAAATCCCCCAGAAACATTTAGAGGGAGTTGTCAGACCTAAGTAAGGATCTAAAAATATAAAACCTTAAAATTTAGTTAAGTGTGCTATGGTGAGGATGGATAGATTCTACATGATTTAAAAAAAAATCTATGTG
4.235200808221982 ATGAATTCTAAGTAATATTAATAGTTGAGCGATACTGATGCTCCTGCAGACATGTCAGCCTGTCTCTGTCTGCTGTCATGCTCATCTCACTGAAAGTGTGCGGAGACAAAGTCTCTCCCCTCCCCAGCTCAGACTTAATACAGTGCAGGCGAGCGAGCGCTTCCTTT
4.128291026400052 TCTCAAGCTTTGGGTAACAGGGTATAGAGTACACTGGATGATTGGACTGGCTGAGTCATCAATCATTTCACTTGTTGGAACCAGAGCGGGCATGTGACTGGTTCACAGTCACACAGTAGGATGCTAAGTCTGGAGCCCAGGACCTAATGCAGAGCTCCCACCCACAC
0.2430689687237632 ATTCAGAAGGGAATTTTCAGTTCCAGCTCTGGCTGTCAGGGCTGTGGCAGAGAACCAGGGCGACAAGGAGGTGCCTGGTGACAGGAGATGGGGAGGGCTGGGGAGGGCTGGGGATGGTGGCAATTGTGAAGATCACCTTCCCAACGAGGGTTTGATGAGGCTGTGAG
1.541590177579539 TCCGTGACACCCCCATCCCACCCCTCGTTTTCAGAATGGAGTGCACCAGCCACAGTGCTAGAGGACACAATTGTGACTCACCACCCCAGCCCCAGAGAACGTCGGTGGGAGTCGTTTGGATGGTTCACCCACGTTGACTAAGGAGATGAGGCGAGGCTATGGTGGGT
1.070684303951248 TTGCTGTCATTCCTTTGAAAAAGATAAAGACGCCTCCACTCTAAACTGAATATCAGACAATCAAAATTCAAGTTTCCGCCCACTGCCCTTGCTTGCTTGGGTGTGTCTGAGGAAGGTGAGGTTGAGAGAGCGGTGGGGGTGTAGAAATGCTTAGAGAATGATTCCTT
2.974482304873444 GTAATGAGTCTACAGGAAGTGGGAAGATAAGCTGCACAGAGCCCAGCTGTCTCCCACTCATGCCATGTGGGGCCACGACACCAGCAAGTTCCCAGTGAAGTCTGAGATGACAAAGCGGTTCTCTTAGCCGCTCTCTTCTCAGTACTTCAGCAAGGAGTGCCCTAGCT
0.9278254351579666 AGGGTCTGAGAACTCTGAACGCATATGGAACACTGCTTGGTGCTTGGCCCATAACAAGTAAAAGACCTAATTATAGCAAGGGAAGTAGATGGCTTCAGACACTTCCCAACCAGGAAGGGTGGAACCCCATCCTACTTCCAGGACTGGACTTGGGCCATGCACGAGCT
4.187895573658364 CAGCAGCAGGCTGCATCCTTACCCCACTTGCACTTCTAGATGTGTAATCTGCAATCAGTTTGCAGAGATCAGCCCTGTACTGTAGACATCTACAGACAGATCTAAAGGTTACATAACTGTATTATTGTAATCAGGTCATGGATATTTCTCCCCAAAATAGACTATTT
1.794831448997094 TTTAACCCACAGCCCGAGGCCAGCAGCCTGGAAAACAGATCTCTTTCCACTCCAACCAGCCAGGAAGCCTCCTGCTGTATGCTGGGCTTTCAGAAAATTAGGTCAGCAGCAACAGGAAGCCACACAATAGACTCTGTAACTATCGGTACAGACAGCCGGACTCGATT
1.288594578663653 AACCCAGATTGGAGCTGGAGTGAACCTTCCTCTCGCTCTCTGACCTCAGACCCCAGAGTGTGCTGGGACAGCTGAGGGAGGAGGAAGGAGTTTACAGCTTGAAAGGGGAGCAGCCCAATTTCCTCACAGGAGACCCAAAGCATGTCTGGCCTGGAGCCTGATGCTTT
0.6156378602027598 AAGGGACAAGACGTCCTCTAAGATGCACACCCCTGTGACTCACGTCCTCCAGCCCAGCCCCAGCTTATGATGGCTCCTCCTGTCTGACCTCTCCAGTTCATTAGCTCACGGATGAAGTTGCTGCCCTGTGAGCCAATCAGCTCACAGCTATACCCCCACCTCCCACT
0.9403206586296087 TTCTCTCGCATTGTTTTGGGTGGTATGGGTGCCTACGTGACAGTGGCAGGCAGTATCATCTGGTTTTCCTCAAAGGTTGAGGAGCCATACTAGCTGTCAAGACTCCAGGGGTATGCGCACAGCAGGGGCCATGCTAGAACAGCATAGGCTCCAGACAGACACTTCCT
1.035823938512101 GCCTCCAGGCTGCTGCCCTAGCCACCTCCCTGAACTGCAGGGCCTTCTGTTAGCATCCAGGCCTCTGCAGGGGCAGCATCCTATCCTCTGAGAGAGTAAACAGCCCCAGGGAAGCCTCCTTATCAGCAGGGTGTGGAAAGCACCTTTGTTTTCTTGCCTCCTTGAAT
3.022618862517764 TCTGAGAAGCAAGTTTTTTTTCCTTTCTAAGCAATCAGATGAATAAGGAGAACTCTCTGTGCTTAGCAAGTCTGCGTTGGTGTGGGCCCACACTCGGCAGAACATGGTAGAGGGGGTAGGCAGAGTGATCAAAAACTGAGTCCCAGATGGCGCAGGCATGGAGATGG
1.285530577136938 AAAGGAGACTTTGATCTTAGAGCCTAACTCAAGTGCCGTCTCGTCAATTAAATTCAGTCTCGCTTGCTCATTTCCACCCTGGGAAGGCACACTTAGTCTCTCCTGCGCTACAAAAAGTGCATTAGCATTTCATTTATTACTATAGCTTATATTTAGAGACTTGGGAC
0.9510184667658901 GGTAACTCGGCTGGCTTCAGGCTCCTAGACGTCCTCTGGCTGGAGGGTGAGGGGGACTGCTTGGAAGGGCCAGGTGCATCGGCCTCTTTAGCCTCACCGCTTGGTCTCCGGAGCTGCAAGGCGGCTGGCGCTGAGGTAATGGCGTGCAACTACCTCACGTCCCACTA
1.15829661436492 CGGGCGCTCCCGGCCGGAAGGAGGCCTCTTACCGGCCGGAGGGGCGGGACGCCCGAGGCTAGCCAACGCCCCCAGCTGCAGGCTCTCTGTGTGGGGCGGAGCTAGCAGGGCTGGGATATGCTAACACTTCCGCGCCCAGTCGCCTCATTCATATTTATGAGCCGGTG
2.588987899709147 CTCTGCAGGTTAAATTTAGGTTTCCCCTGCTCCTGCTGCCAATTTGAAAGGAAGGAAAATGTCAGTGGGCATGAGTTGAATCAGAGGGTAGGAGGCTGCCGGCGTGGGACCCACCAACATTGACATTCAGCTGCCAAGGTTTGGAGCAGAGCAGGCTGTCTCTAGAT
2.10885018448377 CTCCCTTTCTCTCTTCCCCTCACCTCCTCTCTCTGCCTTGTGCTTGTGATGAGAGCTCTAAGCTACTTCCTGCCTGCCTGCCCGCTGACATGCTCCCCATCATGATGGTCATGGACTCTGGTTCCATGACTCCTCCAATTAAATGCTTTATTTTATAAGTTGCCTTG
1.153241651911884 AGGAGAGATGAGCTAGCACTATCCGGTTTGCGAAGCTGTGGTGAGGATATGCTAGGCAAATCATGAGCTGCCTTTTAATTTCCTGCTGTTACCACGTGGGCTGCTGGGTGGGGATTCTGGATCAGTGAATCAAGGAGTTGCCTTGTCAGGGATTCTGCCCTGGAACT
4.394404146941311 CAAAAATTGACATCACAGAACCTGACAGTTAGGAGGGAACTTTGGCATTTATTCTTTGCCATTACTAGTTCCCAAATCTATGCTGTGGCAGTGAGCACATAGACCTTGGAGTCTGGATGGCTTGATTTCAAATTCTGGCTCTGCCTCTCCGGAGCTATGGTACTGTG
1.213734991276938 AGCTGATGTTTTCTGGACACACAGTTCTGACTCAGGCCACTCACTTGAATACCTAAGAGGATCAAAGAATAACTCCAGGAACTCTAAGGGAAGTGGCCTCCGATGATGACATCTGCTTACTTGGTTCAAGCAGAACAGGAATGAGCATGGAAAACAAAGGGCACAGC
1.545514469286818 GCTCTCTTGATCTGATGTGCTTAAGATGGGTGCAGCATCGTCCTGACTTCAGAAGACGTGGGTGTACAGCTGACAATTTTCCATCAGATTTTTCATGAAGAAACAAGTCCCTGCCCCCACTTGCTTCCCTGTCCCTCCTCCTCCTGCTCTAGCCTGCCTTTCCTGCA
2.02629495560623 GGGAAGAGAGACTGGGTCTGCTTCTGAAAGCTGCTGCACACACTCCAGACGAGTGGGGGATGTGCACAGTCCTGTTGTTCCTGGACTCCGAGGCCAAGTGGCTCTGTCTTCACCTAGAAGGAAGCAAATACCCCGGACGGGAAATGTGTGCCCAGAAGATTATAGCT
1.363596207849627 ACAGTTGGCCCTGTTTGCTCTGCTCCTGCACAGTTCTGGGAGTCGGAGAACATGCTCTTCCCCGGCCTCTGCACTGAACAGGGAGTCCTCCACCCTCGTCACTCTTGGAAGTTCTCTATATTTAGTCCTAAGTTTCCATAGGAACTTTTAAACCAACATTTCAGTAG
1.276261218285177 GCAGGAAGGGAGGTCACCTCACCCGCTCTGGGAACCTGCAGCCTCCACCTGCTGAGGGGCTGGCTCTCTGGAGAAGGGAACACATACCACAGGGGACACCCCTTCACTCTCCTGTGCATAAACACCCTCTCCGCTGGAGAGCTGCCTAACTTTTCTATGGGGTTAGC
2.815428111223606 GGCTTGTGGCAATGGATGGTGAGAAGGACAGCTCACCCACGCCACAAAAAGGGGCTGGGACACAGCTTAGTCACAGAGCATTTGCCTTGCATGCATGGGACTCCAGCTTCCATTTCCAACACCTTGATAACAATATAAACTTGATATGACAGATATTTTAGCATATT
2.39195707860273 CAGTATAAAAACAAATGTTTTTTTTATACTGGCCAAAGAACAAAGTTGGAACCTTCTCCTAAGCACTGCCCGACGTCTGTGATAAACATGCCAGGGAACAAGTTCAGCCATGCTGTAGCGAACATGAATGGAAGCTCTATGGCTTTACATGATATATATTCTGTACA
0.7988665242295924 CAGGCCAAGCCTGGGTGCCAAGTCCTGAAGCTGGACAAAGGCAGGGAGAACAGATAGGATCTGAAGCTCAGCTCCTGGGAACTGTGCGGGTGACCGCCCTGTGCTTATACTGGCTTCCTGCTCCTGGGATCTCAGTCTGGCAAGTAGGGTGAGGCCACAGTCTGGGG
2.395280405184026 ACATTTCCATAGATAGAATCCCAACCCCAGGAGACCTTTTTCCAATCTAGTCACTCCAGCGTCATCAGGACTGTGAACTCTCCTTCCCCAGGAGAGGTGCCAGAATGACAATGCTAATGATCAAGGTCACATAGCTGTAACCAGATTGAGTGTGAAATGTCTGGCGT
5.389525631878842 AGCTCGTCAGTTTTGGCAGCGAGCACTGTTAGCTGCTCAGCCATCTGGCTGGCTGGTCCTCAGTCAATCTCTTCCACAAGAAAAATACAGCACTTGTACTGTCTCTGAAGTCAGACACAGCACTTCAAAGACCAGTAGTGTCCCTGAAAAGTCAATGTCCTGGGGAG
1.496089520281177 AGCTTGGCAGAGGTTCTTTCAGGGCAAAGCTGTTCTCTTGGAGCCCGGCAGCAGAATCATCCCTTCCGGGCTGGGAAATTGCTAAGGAGTTTCTGCCCACATGGGCAGGGAGGGGTAGAACGTGGGCTCGGGATGAATCGCAGTTGTTTTACTAAGGGAGTACATTG
0.5056287407549376 TCCTATTGCACCACAGGAGAATGTTCCCGGCCCCTTGACGTTTACAGTGTGTAACTGATTTTATCGGGAGGAATGTTGTTTGGAGTGGAGTGGCCTTCTCCAATGGGTAGACAAGAAACGGAAGGTCATTTGAGGATCCACCCCAAACTATGTAAGTTGGTGCTCAG
0.9566883616182571 CTGTAACGCCATTCCCGCCTCCATGTTGTGCTGGCCAGTCATCCCCACTAGGGGGCAGCACCTCCAAAGCAATATGGGCTTCAGGAACCAGCCTCAGCCCAAGCAAGGATAGGAAGGGGCAGAAAGGCACACAGATGAAAATTAGTCACGCATCTATTGTCCATATA
1.435381245605808 AGTGGTCAAAGCTGGGGTTACGTAATCCTATTTCTCTTGGGATCCAGATGGTAACGTTCTTCAGGGCAGCCAGTAGGGGGAGCTCAGGACGTTTATCAGAACTCCAGCGATCCGATGGTCAGGAGCCAAGTCAAGGCACAAATAAAACAATGAACCTTTGTGGTTTC
2.891498274359031 AAAGCTTCGGACAAAGCTGGGTGTGGCGGTTCACACTTCTAGTCCCCAGTCCTCTAGAGGCTGAGGCAGAATGACTGGCACAAGTTCAAAGACAGCCTGTGTTACTAACCGACAGACAACAGTGCACATCAGATAGGCCCTAGACTTAGCAAGCCACTTGGCGGGGG
0.7306244161679428 TCCAGGGTCCCCTCCACACTGGAGCAAACGATATTCTTAGGCGGGTGGGGCTTTGTCCCCGCCCCGTTCATTGTATTCTACGGTTTCCTGTACACTGCTTGTAACCCTTTACCAATCTGCCAGGCGCCTTTTAACACAAAAGAAAGGCGAGGGGGGCAAGGACCGCT
1.839697337589794 GCCAGTATTGACTCTGCCCAAACCAACTCTACCACCTGGAGACCGGAATAGACACAACACAGATAACTAGCAGGGCCACTTCCCCTGAACAGAATACCTCAGGAGGCTTTGATCCTGCCTATTGAAGGTACTCCTTTCATGTGTGTATTCTACCACAGCATTGGCAG
0.1483380993634998 ATTTCCCAGGTTCTTTTAGAGACCACTTAAGAAGCCGGACATCAGCATGCAAAAACAAACAGAGGCAAACAAAACCGGCTCCTGGGGTGCTTTTCCTGTGACAGGGTGGTGTGGAAAAACCACTAGATGAGGGCTTTGCCGAGCAACTCAGGAAAGAATATATTTAG
1.441512101919745 CTTGTGTCAACAAACAACTTCCAGTCTTGCAAAAACTCAAAACAAACAGAGGCTTCCCATCCCCGCCCTCCCCTGAAGCTATGAAGGTGCCCAAGGCTTCCTACTCATACACTGAGGAAACTCCTCTGCTGCAGCCATTGTAGTCTCCTTGATCCTTAACTCCTGAT
1.272179003035714 GTTTCAGGGCTGTATGAAATGGAAATCAAAACAGGAAGTGAGTCATGGATTGTGCAAACCAGGAATTCGGGACGCAGATTGAGTAGGTCATTCAGGGTCAGAAGCAGGGACAATCATATCAGGAGAGCCAATGGAAATGATTTAGGCGTTGAAAGTTTAACAAAACA
2.756664449571159 TTCTTTTGCCCCAGGGGCTTTGGGTTGCTAAACGGAAAGCAAATGTTGCCATACCAAAGCCTTTCTCTTAGTTTGTTTTGAGAGATTAGGATCTTGGTGGTGACTGTTTCTTGACAACCCAGACAGTAGAGGACAAGCACCTTTTGCAGATGCTGCAGTGGTAGCAG
2.952175695978321 ATGATTAAAATAGCAATGGTGTGTTTATACTTCCCGAGGGTAGACGGGAAACGCATGAAACAAAACCTCTAAGCAGCTAAGTTTCGGATCTGCTGACAGCTGTGGTCCTTTTTCCTGTCCACGTGCGCAAGTGCTCATCCCAGCCAGCAAGTCCTCAGACCTTCACA
0.7903707213333717 AATTTACAAATTCCTTTTTTATTATCCCCTGAGCATCTGGGTCCATGCTTTCAAAGGAGACTGCCCACACCCTTCCAAGGTCCTTGTGTTAGCGCCTCAGTCTGACCCTAACCAGCTAGAAGCATTTTTTCCCACGGAGAATAAAGTTGCTTTTGGTTTATTTCTGA
2.426871539498394 GGAAAGTCAACAGCCCACAGTCAGCAGCAGACCCTGCTGGGCCAAGGAATGTAACCATTGTTTTTCCAGGCTCGTATCCAACCAGGAAATCCTTCTTACTGCTTCCAACAGTTCATCCCTTTCCACAGAGCTGAGGCCTCAGTCGTGGCTGATTTTCTCTTAGAGAT
5.987105282542552 GATTACTGTTATTATACTGACTTGGTTTGTGTTTCTGGAGAAAGAAACCACATAAAATGCACAGTTCACTACTGCCCTCTGCTGCACACAGGGCAGAGGAGAGAACTCGGAAGAGTGGCCAGAGAGCTATAGTATTGTGTCCTGACAACACACTCAGGTAGGATCCT
3.375547424440967 TTTCCAGTTTTGGCAGGTATGGGAATGTTTATAAGTGGTTTGTTTTCTTTGCTCTATCCAGTGTTGATTTAAGTCGCTCTCACCACTGAAACAATTGGAAGCATTTTCAAGGAAGGCAAAGTCTGTGCACAACTGATAACATTGTGCAATCCGGATCATTAGAGCTC
1.311196412941082 AATCTGTCCAGTCGCCAGAAGGGATACCTTCAAAGAGTTTTCTTGGCTAAGGTCCATTCACAGGGTCAGCTGTGACCTCCTGTTACTGTTGCTCTGGCCCCGGTATGCCCCCCCTCACCCCCGAAAGCTTCAGCTCTTGTCTGTTAGGGAGCTTAGAGGCCATGTTT
2.157950737177293 ATATGGAGAACCAAAACAAACACAAGAGAACAGGATGGGTGTACCTGAATTGAAAGAGCTCGAGGCCCTAGGGCATGTGAGGCCATGGGGTGAGGGTGGGGCACCCACTCTGTTTAACACTGCAGATTAAATGACTACACTGCTCTGGAAACTGCAGTGTTTAACCC
4.102342297171371 GACCCACTTGTCCGAGGTACTCTGTACCTGTTTTGAATATCTGGTCACAGCTGGAAGCACAGTGCTAGCAGAGATTTAGACTTAGAACATTTTTCCTCACTCCTGGATCCTTGCGTTCCCTCTCTGCTTCATGTATAGGAACTTCATGTGCAAAATAAAGTGAGCCT
1.65734890443831 GGTTTATTTATCTTCCTGAAGCTTTGTCTATTTTGGGTCTCACATATTCTGAGAAGGCTTGAGCTGTTACCCTTGCTCAGGGTGGGGTAGGAGTGCTTGTCTTAAGCCAAGTTGAGAAACATTTCTCAGGCTTTCGTAGGCTCGCCCAGCACCAGGGCAGTCTCACC
3.493415975151332 AATATTCTCTGACACACTTATCCATCCACTAATTATTATCATCAGTCAAATGGGGGTGTCATGGCTTATTTCATAGTAGGGTGGGTGTGAGGCTGAGAAGAGAAGCTAAGTGTGACAAGCCGTTGCTGGTGCTTGTGTTCTGCTCCCGTGGGTCTGTGGGGCAGCTC
3.188168555735768 ACCCTGCCTTGTCTCCATCCCTGTGTATCCAGTTCCAGAGAGGACCCAGGAAAAGCCAGGGCTATGAGCTTGCAGAGAAACTGCCCTGTTGGTCTCATGGGTCAGTGTCTGTGCCAAATGAAAGGGAAGGCTTCCAAAGGAATGCCTTTTTCTTTTACTTTTTTTTC
1.104274328235442 GTTACCTTTGAAGAGCCAAGATGGGTTGGTTCTCTGCAGAGAGTGTGTGGGAGCCCAGCTGGCTTCCTGTGTCTCAACAATTGGGAGTAGGCTGAACGCAGGGATCTTGTCAACAGCAGGAAATCCCTTTTCAAACAAGAGTTGAAGGGACATCCAAGGTCAGAGCT
0.8004751390940431 GGGAGGCCCGGGCACACATGACCTCCAGGCTCCTTCCCCAGCCTTCTGCTGGAACAGTTTGAGCAGTCCCTGCTGGCTCAGCATGCCCTTGGCTTCGTCCCCACACTGCTTCCTGAAGTGGTGCTGACGTCCCAGAGGCAGACATATCCTTTTCATCCCGTCAAGCC
2.194219515742344 GGAACAAAAATCTCTTTGTGTAGATAGGATGTTTATCTCTACAGCCATGGATTGAGCTTAGATGGGAAGTAAATATTTTTGGAATCAAGATCTGAACTTAAGGGAGGCCAGTACCTAGTCAGCTTCCCTTTGTCCCAGTGTTAAATATTTTAGACACCAGATACTGA
2.413501958854129 GCTCTTTCCACAGACAGGATGACCGTTACTTTTCTGAAGCAGAGCTGTGTGGTCACTTCTCTTTGTTCTCTGGGTCCTGGCCTACCAGCCTCACATACTGCCCCAGCGTGACTTATCAAGATGTATTCCCAAACAAAACTCTCCCAGGGGTGCCTCTGATGCCAGCA
0.8574935921135023 GATCTACACGGCTGATGCTGAGACGTCACGCCTACTCCAGCAGAAGCTCACACACACGCCTGAGTACATTGTACTTGCTCCTATTCTCCCGTGGGAAGCACACCATCTCCCCACCTCAGGGAAGGGGTGTCTCTCTCCTGAGTACCTTTCTCTTAATTCTCTCATAA
2.116654125140881 GGTCATTTCCTATGGAGGAAATCGCCTTTGTCCTGGAAGTGCAAGTCTGGCTCCAGAAGGCCAGGCCTCTTGTGGGCTATTGTTTGGTGCTTCCTTCTTGGCAGCTGGCCTTGGACTCCTGGGCCCCTCACTGCCTGGCTGTCCATTCCTGTCTCTCCCAGTTGCTG
2.599350850793304 GGAGGAGATAGGAGGATCCCATATGGTACAGACCAGGGGAACAGTGTGCCTTGGGGCCTTGTCTTCCTCTGCAGTCTGTAGTGCTGTCTCAGCATGAGAGGGACAGGGAAAAGCCAGGTTCCCAGTTCCACTTGGACTTGCCCAGGCTTTCCTTTGAAATTCAGGGT
2.274962408399424 CCTTGCATTCCGGGCCCTCCTGAACTGTCATGCTGTTAGGGCTGACCAAGGGAGGCGTGGCAGTCTTTCCCTTCCCATCTTGATGGCCATGCTTCTTTTGGCTAGGTTCCTTTCTAGGTCCTTTCTCTACAATCAGGGTGTTGCTTGGTGGGGGAAGCTGCATTGTT
1.42509486564143 GCAGGCAAGATAATACCCATAGTTCCCTTGGTTCCTCTGCCCTCTACTGGTGAGGTCTCACCCTTGAAAACTTTCCCTTCCCACCAAAGTCTGAGTGTGCACACAGGACACTCCCACAGGAACGGGCGTGTGCATTCTGGTCTCCCCCAGCAGGAGGGGAATCCTGT
3.032231550330576 ACCCCCACATCCACTGAATATCCCATCAGCTGTGCCTTCTGCCCCACTGGGAGCAACTTCAAGAAGCTCTGACTGCAATATCCTGAGTTCCACCCTTCTTTCTCCTGTGGCCCTAGGCTGAGAGAAGGCAAGAGCCATGCAGTGTGACTCACAACCCTGGCATCTAC
0.8914703144416714 GGTCTGGGAATGTCACGGAGATGACATATACACTTCATCCCAGGCCTGGACAGAGGCCAGAGAGCCCTAAGAGGCTCTATTAGAGCCCCTGCTCCCTTCACTTCCGAAGGTCCCCATAGTCCTCTCCCTCCTCTAAACTTCAGGAAATCGAAACTCAAATTCTCCGC
1.064542874082092 ATGGGTGTCCCCCAATCTGGCAGTGCTAATGGAGTTACAGGCGCAGTGTTACCCGGGATTGCAAATGCTTGCGGTCCCCACCCATTTCGTGGCAGGAAGTCCAGTGTTTTCCAAGGGTTTTCCAAGAACGCCCAGAAGCCCGCTGGGGCGAGCCGCGCCTCCGGCCC
2.119711237125395 CCATCCTGAGAGACATAGAACCAAGAAGCACGGATCTGCAGAAGTTCTCACTGTGGAAAATACACAGCACCTCCACCCACTTCCCAGAGTGGCTGACTCATAGGCTAGGTCTCCTCCCACCAGCCAACATCTAATTTGGGTTTGAACTCCACCCATGGTTCCCTTGT
2.283859544546317 GAATCCGCACCCCCACCCCTCTTTGGGTACAGGATGGAATCAGATTTTCCATCTTTGAGGTACGCTGTGAACATGTGATTTGCTTTGGCCAATGCAATGTGAGCATAGATGACATCACTTCCATACAAAAAGCTTTAAGATCCATAGCAATCAGCATCTCTAGGTGT
1.544429568070877 AGCCTGAGTTAAACAAGCTTTCATTCCATAATCTACCGGGTCTTAGGTTTTTGGGTTTTTTTTTAACGGTAACAGAGAGTACATTAGGCTATCAATCGAGGAAATTGCAACTGGGTTATTACTGTGTTCGCTTCCCTCATCCCAGCCCCCCTCCCCACTAAGATGTA
0.3879593662234408 GGAGGATGGAGAGTTGGAGTCCGTGAAGAGGACGCCCTTCCTGCCCTACTGAGCTGGGCAGGGCTGCGGTGGGGCATGCTGGGTTACACCCCAGGAGGTCAGCCTGGCCAGTCCTCCCTTTTTGCTAATGGCTATTGCTCCATGCAGAGGTACAGCGCCCCCTGGCC
1.152874431611808 AGGGGGAAACGAGTGCGTGGGGAGAGGCCGGCGGGAGAGTGGCAGCTCCGAGTCACAGGGATAAAGCCTGCGCAGCACTGCTCTTCTTGCCTGGGGCGGGATCAAAAGCGGGAGCCGAGTGGCAGCCGCTGGGCTCCCCAGGCGCTTCCTTTGGTGGTTCCCTGACT
0.2168452162952475 CACCAGGGGGCAGAAGAGGGTGCAGGCCCACCTTCCAAGAGGACCTGTCTTCCCTTGTAGAGCCAGAGCTTTGTGTAGGCAAGAGAGGTGGGGGCTGCTGAGCAAGGGAGGCTGAACAAGGTCACTCCAGGCCAGCAGAGAAATCTTGGCTTGGATCCTGCCTCTGC
1.347518144015526 CAGATCAAAGCAAGAGCATGGGACAGTGGCCGGGAGGAACTGGGGTGACCAGCCATGCACAGGGTAGGAGCACAAAGAGATTGTCCCTGCCCCAGGATGGGCTTGGGTGGTGACCTTCAGCTGGCCAGGTCTGGCCTTGCTGGATTCACTGAAACAAGTCAATTCCC
0.5039178625106847 GTCGGCTGCTTCAAACGAAAGGCCCTTGCCTCCTGTTTCTGTCCAAGGTTCGCACCCAGCTACACCCACCGCCAGCAGCCCGCTTAACAAGCTCGCCACGCCCCCTTGAGACCGGTCGCAGCCTCAGGCCGGCCTCAGTGACTCTGTCCCCCTAGGGGCCAATGAAC
2.080678350496398 ATTTCCAGGACCTGCCAGGGCCACTCGCAGGCCACTTGCCCCAGCTTCCGCCAATTCTCATAGCTCCCGCCAGTCATCAGCGGCTCTCTTGTCCATCCCCCTTTGGTCCACTCCTCTGCCCAATGCTCAGGCCTCCAGCCTTCAGGCAAAGCTGTCTGCCAAAGCTC
3.605762792321821 CCGTCTTAGAGCAGATCTGGGCCAGGCCATGGGAGAGTTGGGTGTGGGCAGGATGTCTGGCAGAGCTATTGCTGAAGCTAGTCACTGTCCAAAGAGAGCCAGTACCCAGGAGGGGCCTCAGCAGGGATTGGAGCCAGCCCTGACAAGTTTGGCTTCTGTCACAAGCA
1.73477253140224 AATAGGGCCAAAGGTTAGGGGCCAAGCCTTTAAACAGTAGGGAGCCACTCCAGATCCAAACAGGACCCCTAGTCCCTGTGGACATGCTGTCCAGGAAGCCTGGCTTGCTACAGTTCTGACTGCTCCAGACTTGTTGATGTACAAAGTACAGTGAGAGATTCAGAGCC
0.5890668170539308 AAATGACCTTCACTGCGGGCAAATGGCCCAAATCTGCAGGCTAGGGAGGCCAGGAAGGGTGGTGGACCGGCAGGGTGTGTAAACCCCTTGAGGATGGCTAGAGGAATTTTTCCTGCCTGTCAAAGGCCCCCTCTCTGTGGGTGGGATCCTCCACAGCTGTACAGAAT
0.9482506662393565 GATCTTGCAGCTCCAAATGAACCAAAATGACAGCAGCTGAGAAGTCTCTGCTTCCATGTAGGGCTGGGAAGAGGGCGGCAGTCACGGTTTGAGTCTCCGCCCACCTCTCTGGAGCAGCATTGGCAATCCTCGAATTTGGGTGTGGGAGGCTCAGAGGTCCTGTGCTC
0.2920807399152335 GCGCTGCCCACGGCTGCCCTGCTCCCTTCCTACAGCGGGCTGGCTCCTCCCAGTAGGCCTGGGCCCTCCTTCCCGTCCCTGCCGCAGCGTGCGTGCTTGCGTGCATGCGTTCAGCTGTTCTGGGCTGTAGGGACTGTGCCTGGAAACCACACCTAGCAAAGGAGCTT
1.22112003130549 AGCAAAGCAGGGTCTGGCACCTAAGATTGCTGTCCCGTGGCAGTGGCCAGCATTCAATTGTGGCTTTGAGAGACGTCTAGGTGGACCCTTCCCTGGGCACACCCCATTCCACAGGCAGTACTTACCTTCCTGGAGTGGGCCCCACCTCTTTCCACAATCTCAAGGCC
3.915460350385149 CTGTTTCACCTGCAGCTGGCATCTATGAGCTCCTCTTACAATGTCCCTCAGGGCTGGGTGGTGGCTCCCGTGGTGGCACCTGCAGCTTGCCTCTGTGCCTTTTCTGCTTTGGGAGGAAAACAGCTTCTCTGAGCTCTTGTGTTTGAACAGCTGCTCTGCCTTGAGGG
1.132832486714898 TGCCCCGGGAGCCTTTTTTGAACACTGTGGGCTCTGGCGTACTCAGTGTCCCTGGGTGTTACCAGTGTGGTGTCCTCAGCATCGGTCAACATTCCCATAAAATATGGTTTCCTTTTGCTTTAAAAATGTTTTTCTTAGGGCACAACCAGTCCACCCACCCTTCAGCT
1.4347903889664 AGGTTACTGGTCTTGTAAATGAAGCCTCCTGGGGATCTCTAGGCCAGCATGGAGTTGTCACTCTGAGGACTTGGGTCAGTGGACGAAAAATCTTCCGGGCTGGAAGTTGGAGTTGCTCTTGCCCTGTCCCTCCCTCCTCGCCAGCACCTTTAAGGCGGAAATCGACA
2.023738438555566 TTTAGTGCCTCAAGTCTGGGACCACATAGCAGGGTGACCTGGCCTCCTCATGCAGGGAGCCCTGTTCTCTGCCGCCCTCCGGTGGCCGTTTGGATCTTCTCATGTGGCTGCTGAGGCTTCAACTCCGCAGAGCTGCCTCCATCGCCCCCTGGTGGAAATTTCATACA
0.3980600430260007 AAGTCAGAGGGCCCATGCCTCCAACAGCTTCCTGAAGTCTGTCAGCATCCTCACTTGGGAAGTCTGTTTTTCCCCTGGTGACAAGGAAACAGGATACTCAGGCTTTTGAAAAAGTAATTATGTAAGACTTAACACAGGGACTGTTTCCTGCTATTTTCCAAGTGATG
1.820122391802345 GTACATTACCGGGAATAGGCTCTGAGAGTTTATAGCCTTGCCCTACTTCATTTCCTCTTCCTGCTTCCTGTTTGCAGTTAATAGATATGATCTCCCAGGCTACTGCTCCTGCTGACCATTGCCAAGCCTCCCTCACAATTATAGGCTTTCCCTCCGGAAGCACATGC
1.299969155726026 ACAGCTTGTTTCTATTCTTAACTAGCGTTGGCCTTCCACACAAGAGCACCCTCTGGGTCAGGGTGTGCTTCCCCAGCCTAGGAAACTCTGCAGCAGATTTCCTTTGAATCGCCCAGCCCTTCAGCTGCAAGGCCAAGGTTCCTGTGGAAGGGAATTCCTGAGGCTTT
2.571588077912113 GGGAAGAGCTGGCTTCCGGTCCCACCCTGACAAAGCTGTGGAGAGCACTCCGCCCTTGTGTTAGTCTGGCTACAGCTGATAGAGTGAAGCCAGGGCTTTGAGTGTTAGTAGCAGGAAAGGCACGCAGGGTGGGACAGCCACAGAGATCCGGGGCAGACATGAACATG
2.211304916133225 GAGAGCAGAGAGGGCGCATGCGTCATCAACCCAGACACATCCAGCAGAAACGGCTGGGGAACTAAAGGCCGTCAGCTGGAGTTCATCACAGAGCTTTCTCTTTATGGCTGCGCTCCCCACGGCTGAGCTTCCGGCTTCTCTGAAGCAGTGCAGGCTTCCGGTCCACT
0.9858430440993146 CCTCACCTCGAGAACACTGGCCCCTTCCAGTCACCACCCCTCATGTTGTCACATCCGCCTGTTTTGGTTCTCGGCAGGACACTCTAGCAGACTCTGCTGGCTGCCTTCCCAGCAGCCATTTCCCCTTCCTCCTGCCCGTACAACTCAGAGTTTGTTTGGGTTTCTCT
4.27173107837184 CCCTGGGGTGTATCTAAACACTGAGTTTCAAAACACACAGAATTGCCAGAGGACATAGCTTAGCTTGCTTCGAGTAGACATTGAACATGCCTATTCAGTAACACACAAATTTAGCCGACAGAAACAGGAAGGATACGGTAGAACTGAATACCATGAGCCAACAGGAT
3.999385086934807 TCTTTCCAGTGAGTTGACTTTGCTACAGGCACAGAAAGGCCATCTGAGTGGAACAAAGGCCCTAAGGGCCAATTAGCATCTAGACACCGTGGTGCCAGCATTGATACTCACGATGAGCTAAGATAAGAACACCGGATATCCAGGGAACCATGAGTTAGCAGCTTATA
2.858076020998226 GAAGGGATGGGAAATGGTGTGTCCTGTAGATAGGAGCTTAATTCTGCTTCCCTTTGAGATCCTCACTCAGCCAAGTCCTTCACTATAGACAGGAGAGCCTCAGAGCTGGGGGGGATGGGAATCATGAGGGAGAAGGTGTCATAGTACCAAGGTCCTCTGCAGTCATC
2.178466694238002 GGCCTGTTATTTTAATATCTGGTATAGTGTTGAATCTTCATGCTTGGAGAACAAAGGTGTTTATTTAAAACAGCAAATGGAAGCTGGGTGTGGTGGCATATGCCTTTGATCTCAGCAGGCAGAACTCAGCCAGTTGGAAGCCAGCCTGCTCTGCATAGTGAGTTCCA
3.095474455604935 TCTTGTAATATAATTTGCCCTGGCTGAGCACTGCCCAGCCTTCTCAACCCTCTCTGGAAGGACTGTGTTGGGACACTTCATTGTCTGGTCCACCAGGGCCTGAACACCTGTGGTCTTGGAATGGGCTTTTGGGCTTTAACAAAAAGTCTATTTTTAGGGAGGCAAGA
2.009759088132396 AAAAGGGCTGGGAGAAAAAAATACATGGGGACGGTTCAGAGGACGAGGAACTGCTGGAAGCCACCACAGAAGGCCTGACAATGAATAAGCTCAGACTCGGAGAACAATGCACGGAAACAGAAAACCACATGACCAGGCTTTAAAGACTTTCTTCCTTCTGCGTTTGC
2.239593430856389 CCAGTGAGAGGCGGTCATATGCTGACTGGGGCTCTCCTTCCTCCCGGCAGGGTTCAGGGTGTTGTAGAAACTTGGCCTGGCTTCTGTAAGTCGGCTTTGTTTTCTATAACACAGAGTATTCTGTGTTCAGTTTCAGTTTCCCTAGAAGTAGGCCCAGTGGCAAAGGT
2.411457355525621 GGCTTACAGATTAAAGTCCTTCACTGAGGGAAGCCAGGGCAGGAACTGAAGCGGAGACAATGGGAGAATTACTCACTGCCTTGCTTCCCGTGGCTTACTCCACCTAATTCAGTTTGTAACTCAGGACTATCTGTCCAGTGGTGGCCTTGCCCAAAGGGGCCGGGCCC
1.717595371000242 AAAAGTAAAGCATTCAAAGTAACAGTGAAAGGAGGGGCACTGCTCACCCAGATCTCTGAGCCTGTCCACTACTGCCCATAGCCCACACCAAGGGAACATGACCTGAACTAGGCTTGCTTCAGACCCTTCTCTGAAAAAGCAAGCCATCCCACGAAGAGCCTGACATT
1.956612093439641 GATGTTTGATTACAAGTTGTTGGTTTCCTGTTCTATTCTTTGAAAATGTCCTGTTGTCCTTTGATCTCACTCTGACACCCTCACCAACCTACTTCTCTCTTCTTCAGGGGTCCCTGTAAGGTCTGAGGTCAGGAGGATAGAATAGAGATCAAGTAGCTGAAACTATT
1.756385362975978 GGCAGTCTCTGATACAGCACTGGCAACTCAACCTGGAACTGATTTAGAATATCTCTTATATTCTTAGAACTTGAGGAAACAACAAAGGTCAGTTGCCAACTTAAAGAGGACAGAAGTCACGGCTTAGAAACAAACAAAGGAAGTTCCTTAGCAATAAGACCATTTAA
0.9954159035370089 TTTCACTCAGAATACCCAGTTTGTTTTTCTTGGACATTCCAGGAACCAACTGGCCACCCCATGTCAAAGCCCAGCAGGAATGCTCCGAGAACGCCTTGCTGTGGGGCACTCAGCTGCCTAGGCCTGGCAGATTGCACTCTCTTCCCTCAGGCCAGGAACTCCTACTG
1.962091672404435 CCCTGCCTAGAGCTAACACAGTTTTATTATTAGAGTTTGTTATGGTCCCTGGGGGAACAGAGGAGACTCCTCCAGGCCTCGAGGAAGGTGTGTTGGAGGATTGTATTCCTCTCATTGTTTTGGATTTCAAGTACACACAGACTCCCTTAAACCTGGCACACCCTGCA
3.227839933634288 CTGAGGTAGGGTTTCTGTCTAAGCTTGCCTGGGCCATTGTTCTAGGACAATGAATGCTTTTGATCTGCCTTACCCTCTGTGCCTCCAACTATCATGTGACTTTACCTGCTGTGCAGCCTTCTCAGCCCTAGAAGTGTTGCTTTCCAGAGGACAGGCCCTGGACAGGG
2.27815557574162 ACTGGGCCATGGAATCAAAGCGGCTGCAGTGACTCAGGCGTTTCCCATTGCCCAATTCTCGCATCCTCTACTCTCAGCGCCCAAGCTTTTCATGTCCTATTTGAAACTGATAGGAAACCCTCGCATTGTTTCGCAACATGGATATTAGCGCCGATGAAGGAAGCGCT
0.6935560903593861 TGGACACACCACCACACCCTGCTTTCCCTGGCTGCCCAGGTCACACAGGAACTCCAGTGAGCTACAGCTCCTCCCACATTTTGCTCAGGGGAAAAAGCTTCCAGGCTGGGGAAAGACTTAGTCTGCTCCCACCCATGAGGCAGGCGCAGACGATGGCTGAGCAATTT
2.707719852680005 AGCATCGGATGGAGGAGGAAAGGGGGATAGAGCAGTCGACCTAATTGAGACACCCTCACATTTTGATGGGTTTTTCTCTTACCCTCTAAGTTTGACAGCTCTCTCTCCATTACTCCCGTTTTATACCTTATCAACTCCCACACATACGCAGTCAATTAGCACCTCAA
2.163865463577393 CATCAGTGGGTCTATGGCAGAAAGTTCCCTTCCTCCCAGGGTGTGCTGTCGCTACCGATTTAGGGGTTTTATTTTTAGGTGATACATTTGAACCTTCTGATGAGTACAGCCTTCTCTCAGCTTGCCTGTGCTCAAGCCCAGGCTAGCTAAGCAGCTTTAGCATTCTG
1.63044490624597 GTTTGTGCAGGCCTGGACAATCAGCAACAGGAAAAAGTCATCCAAGGGGCGTGCTCAATGAATTATGGAGGCATTGTTCCCCGGCCTAAGGAGCCAGTGGTGCCGCTCTGAGCCCAGTGACCAGCCCAGGGCTGTAGGCTGCTAGCTGGGTCAGGACAACACAATGT
3.036540927860586 TCCATGTTGAGATATAAGAAAGTCACCACCATGTAGAAGATATCAGTCTAGGCATTGTAGGATAATGCCTGCCTCCAGCTGTCTTAGGACTCGGCAGCTCCAGCAAACCTAAAAACTCTTCACAAAAGAAATCTCAAATTATAAGAGATTCCCATTCAAAGTCAAAT
2.212312203174653 CAGCAACGTGGAAACTGAGCCCTGCTCGGCGCTGTGCACACCCAGCTTGCAAGGTCTGTTTCCACTTCTCCAGACCAGGCCAGTCTCATAGGAACAGCTGTCTCCAAACCCTCTGTACAGCCGGAAGCCAGTTGCTTGGGTTAGGAGCCCATTTTGTGCCAGGGACT
2.439233487644616 TACTTACTTACTCAGGCTGCTGAGGAGGTGTGATTAGCTCACTAGGGCTGCGAGGCCCAAATTCTAGCAAGCAGTTTCTTAAGAATGGGCTAGGTAGATAAGAAAGCGCACAACCACGTTTTGGTGTTTACTTTAGCAGCCCATAGCCTATTTTAATTATTCTGAAA
1.495707740873444 TTGTGAAGGGTGTGGGAGGAAAGGAGAGTCTGGTGCCAGGCACAGAAGAGCAAATGTAGTGTGCGGGAAGGGAAGGGTGTGGAGGGGCCAGAGACATCCTTGCCTTTGGAGCAGGAAGCATATGCAGAATGAGCAGTAGAGGCCAGAACACCTCAGGCTTTGGAGTT
4.475162580870542 CACGGTAACAGATTGGTTGAGCTCTAGCTCAACCAGTGAGAAACTCTATGACAAATCTGATAGAAGAAGACACCCAGTGAAGACTCCTGGCTCCTGCAGATGCACACACAGGTGAGCACACCTGCACACACATGCATGCATCCTCCTGCAAGCTTGCATAAAAGCCA
1.912166462440708 TCTGAGTCCTTACGATCAGGGAGATGATCCAGTTTCAATAAGATGGATGTGATCTCTGTCGGAGGTGGGTGTCTTTATGAAATGATCTCTCTGTGAGTCTCCGTGGCCTGCATCTTCAGGAGAGTCACTAGAGGCCTTCCGATGCCCTCTGGGGGGCTGGGAGGGAG
0.726090551838705 CTGACCTGGGGCAGGATGGGCCTCGCTTAAGAAAAACAAACCAAGGGAGACTCTCCCAGCAATTGGGGAGGAAGTTCAGTCAACGAGGGTTCTTGCACGACAGAGCATGGGCTGAACTGGACAGAGCGTCTGATTTAGAAAGTATTTTTATTCTATTACCTATTTTA
1.356605828479436 GCAGCGAGCATTCCAGAACGTTCAGGGGAAGTCTCTGTGGGTGTGCCCTGAGCTCCAGGCTGTGGCCATCCATTGTTTGATGGTTTCCTGCACTGAGCTATCCCAGCCAGACAGTCTGCAGGGCCTGCAGAGACCTGCCAGGAGGACTTCACAGCTGGCCACCACAC
1.683686975905134 AGCTGCCTGGCGGATGTGAAAGGAGGTGGTAGCTACACTCTGGGCCCCTGACCTCATTCTGGCCACCCAGGGCTCTCGGGAGCATGGAACACAGAGGTTGAATGACGAGGGAGGAAATGAGCAGTCTGGTGGCCTCCAGCGACTGACTTCACCAGCCCAAGTGGACA
2.375056161437531 CTGCTACAACACAGTAGAATCAGGGCTAACCGCCTTTTCCTGAATGCGAAGGCAGCTGCTGTAGTCTCTGGGCGTTGCCAGTTTCCTTCCCCTCACAAACCACAGCAGTTAAAGCGAGCACTGGCTACCAAGGAGCAGGGAAGCTCGCCACATCCTTGCTAGTGTCT
1.219545367841388 TGGTTTGGTCTTTGTGGTGGTTTGAATATGCACGGCCCAGAAAGTGACACTACTAGGAGGTGTGGCCTTGTTGGGGGAAGTGTGTCACTGTGGGCTTTGAGACTCTCCTCCTAGCCACTGGGAAGCCAGTCCTGTTTGCCTTCGGAACAAGATGGAGAGTTCTCAGT
2.365697104034393 GTGTTCCAGGCAGAGGTGGGGTGTTTCATCAAGATTTCATGGCCAACTCTCCTGGGAAGCAAGGGAAGGCAATAGATACTTTGTCTGTTTTGATAGCCCATGAGTAGCCTTCCGGGTATTGTGTTCCCAGCATGCCCTGGTCATGAACACAGAGACCAGAATTCCTT
1.932472613604324 AAATTCATAAAAAGCATTGTTTTCTTATAAGGTAAGCGACTGAGCTGTTGGTAGCCATGGACGGAGGAAGCTTGTGATGTTTACAAGCCGTTGGAAGTTCCTTCACAGAGATGTGTTTACTTTGGCAATCTGAATGTGTACAACTGCTACAAAGTAATAACACGTGC
2.95763277810158 GTGCTGTTGTAGAACGTGGCCACTGTACAGAGTTCCGTCTCTATGGTTCCGTGCCTGTTTATACAGCTGTACAGAGTTCCGTCTCTATGGTTCCGAGCCTGTTTATAAAGCTTCATCTGTGCCTAGCTTAGCTGATACCCCAAGCCAAAGAAAAGCTCAGTTTACAT
2.189720352475561 GCATGTCCAGGGCAGGACATATCCTCAGATAAGCTATAAAAAGAACTGAACTTTCACTTGTGGCTTATCTTTAGCCTTATCCCAAGTAGGATGGGAAGGCTAAGGCAAAGCTATAAATGGCCTTGGTGTTGGCTCAAGCACAAAGCTAATCTGCAAGTAAATTAGGA
1.215731673186862 AGTGAGTTAGACTTTTCACTCCTCTTTGAGCCTACACAGGAAAAGTCTCCACCAGGCTCTGCCTGGCCCTGGAAGGGGTGAGCCTGAGTACAAGACACATTGTAAAGATCAGACGGGGGCAGGGGGCTGGGAAATCACAATGAGTTGCCAGTTTAGCCAAGGTCAAC
3.82596701283836 AGGTCCTTCAGGAATTGCAAGCTCTGTTGTGAAACAGAATGTTCATATCGTCCTGTTACTCTTTGGCTCTGCTAGTTCGCTGATTAAAATAGGCTCACGCGCAGGACGCTAATCTCTGTTTATAGAAAATAGCAAACAGATGGAGAAGCAATGATGAGTAAAAATAG
2.346252111378063 CAGATGAGTCATTTACAATCGGCATGGCGACGGGTCTCAGCGGGACCAACTCAGAGAACACTGTGCGCTGAGCGCTGACCATGTAAACAGTGCAAACTCCCTCTTGTGATTCTAGGAAAAGAATCTTAGAACCTTTAGACAAAGAAATCAGAGAGGAGTGTGGCTGC
0.8202051086768548 GCAAAGGCCTTCTTGGGAAAGCGAGAGGAAGGCTGCGGTACGTACTTGGGAACTGAGGACACTTGGCCGCAGCGTTGTTTACATCCTGAAGTCCGCTACGCAGCGTGGTTTAGCGAGGAGGCTATGTACCTGAAAGTTCTAGCAGAAGAATGATCCCATCCGGGCTT
2.442050019633424 AGTAAGACTTCAAAAGACAGCATGGACTTTGGCAAATGGGGCTCAATCTTCAGTGCTGTGGTCCGTGTGTTGAACTGACAAGCTTCCAGATGGGGTTCCTTAGGTCCTTATCTCTCAGGAAACACATATCCTGTTACTGTCCACTAGCTCCCAAAGTTTCACAGGAA
3.523855528081691 TCATTGCCTACAAAATTGCACTCTGGTGCTCCCTAAACGAGGGGGGAGAGAGGGGTTAGTGGTGACCTTCCACCCAGCAGAACAAAGTGTTATTCTTGATTCCACTTCACTGCTTTCTGGCTAGCATAGCACTTTTTGTATTGTCTTATTTCCTTCTGTTCATAAAT
2.18185415594137 ATACGTCCATGTTCATATCAGAGCCTGTTTGACCATGTTTCTACTCAATTTTAGACCCTCAAAGCTCTCTGTATTCTGGCACCATATCACATACTTTCAAATTTGCTTTGATCCCTTTATGCTTTTCTCTTTAACAAACTACCCCCCCCCACCACCATTGTTTAGAA
2.227717536328909 TACTTTGTCCTTGAGACCTCACGGGGAGAGGTAGATCTTGTTGATATTTCTCCCAAGAAGAAAAATAAAAGCTTCTCAGAACAATGACTGGCTCCACATGAAAATTCCCAGTCTCCAAAACCAACTGGCCAGGGTGAGCTCATACCATGACTGTCTGCATTTCTTAT
1.882257781197122 GTGGAGCCTTCCCCATTTACATAGTTTCATTTCCAAACATGCGTGCCTTTAGATGTAGCAGGTTGTAGAGTCTGGAGCCACCGGCAGACCAAGATTAGTATCCTGCAGTGAGCCAGGAGCTCGGCCACTAAGCTCTGTGAGACAGTCTGCCAGGGGCAGCCTCCTTA
3.452175670259004 ATACACTGCCCTGTCCTGTTGTGAAATGTGTGTGTTCTCCCCCTCGGCCCACTTCCTGTCACTCGAGGAACAGGGCTCTATTGTGCTCGGACATTCTTGTACCTGGAGCACTCAGAGATTGCCAGGAAAGGACTGTGTCTGTACTTCTGATTCTAGGGACACACAGC
3.481494453577715 GCTGTTTATCAAACAGCAGCAGGCTCGTGAATAACTTCCTCGGGTACTGGCCCACATTCTCTGTCCCCTTGGCGTCTCTTGCCCAGCAAGGCTCATTCAGGGCGTCTTCCCAACATCCTGTCTGGGAATGCGCAGTTTTTCTCTGCTTACTAAGCCCCAGTGGCCCT
0.9474066202229502 TAAAGGGGTCAAATCCATTTGGATGGAATTCCAGGCCCAACATGCTAACAATGGCAGGAAACTGGGTCCTCGAACTGGCTGGAGCTCAGGGCTGTTGAGCGATAGATTGTTGAAAGCGCTGGCCCTGGGGTAGGCTGTTTTGGCTTGCTTTGTGTTTGGAATGCCTC
2.392991498773836 ACAATGGGATTTATTTCTTCATAAGAGACCTGGGAGGCAGCCAGGCATTCCAGGGCCTTGCTCTGGAATTCTTTGATTTCTCTACAGTGCACAATGACTAGACCTGTGGTGCCCCAGAGCTCAAGGATGCTGGAGTCCCACGGGGGACAGCGGGACTGTTCACGTGC
3.197905190940239 AACACCATGATAGTGCTTTGATGAGCCAATAGGGCTTTCAGTTGCTTAGAGCAGGGGGTGAGTCACAGCTCCTGGGTCTCTGCCCACATTCTGAGAGGTTCTAGAAAAGGCTTCTTCTTGGCTTCAAATCCGTGACACTGCTGTGGTGCTGATCCAATAGCAAAGCA
2.797216865074098 AAATGAACACCACGCTGTTACATAAAGTCTGATTGATAGGCATTGAGGTGGGCAGAAGTTATCAAAGTCTGAAAGTCAGGTGCTCGGAGGGGAAAGAATGTATTATCATTAATGAGGAAGGAGGATGGGCTTGTCTAGGCTGACTGAATGATGGGTTGGCAGTATCA
4.177386622244585 TTGTAGCAAGAAGTTCTAGGGCACTGAGCCACTGACAACCAGGAGCATCCTTACTCTGTTTAATCCTGTACGAGCATCTAGGTGACAGACTAAGGCTTTTAGCAAAAGCAACAAGTGGTTGAAGCAGGGGGACAAGGGCATGTCCCTTCTGCCATCTCTTCATTCAC
1.205127982282818 AAAGAGACTGTAATTAGTTCATTGTCCACGAATAGGCACAAAGGAGGCGAAGCCCCGGCCTGGACTCCCTTTCAAGGGAGGATCTTGGGGCAGATGTTAATTAAGTGAGTAACTTCTACCATCTCCTGGGAATGCAGAGGAACACCACTCCCCTTCCAGAAGAGACA
1.256083009093947 ACCAAGAGTTGAATTCCAAATCAGTGAATGCCGAATACTAAGTATCAACTTGACAGGAATTGTCACCTAGGAAACAAGGCTTCAGGCACACCTGTGAGCTGCCAGCCTCTTATCTTCATCATTCTGTTAACTTAGGTGGGAAGTGGGCAGCGCCATTCCCTGAGCTT
3.479769988516564 AAAAAACAGCACGGCTTATTAGTAACAAGTTACCCATTTTTTTCCCTAAACGGTTAGAACACGCTGCCTCTCTGCTCTTTACATCAGCGTGCTGTTATTAAAGCTGTCTATTTTTCAGCGCTAAATCCCCAAGAGATTCTCCCCATGAATTTAACATGACTGAAGAA
2.160383341418397 ACAAAAGTGAAAGCTGCCCAGACAATAGACTCTGGGGTCAGTGGGCCACACCCTAGCTAAGTCCCGAGGCTCTGTGTACAGCCTACAGACACTTACAGACCTGCTTCAACACCGTGTGCTCCTTCTACCAGACTGCAGCAGGCCAGGCTTCCTGAGGATGTAATGAC
2.824065520614165 GTTCCCTCTTTGTTCAGGGAGTGCTGATGCACTTTAAAATGAGTTAACGATAATTCCTCTTAGCTTAGAATCAAACTGAATAGCTATGCCATAGAAAGATGCTAGTGGGTTTGAACCCTTTGGTTTTACCAGCACAGAAAATATGCTAACAGGAAAATGTTCTTCTT
3.01082750568562 GTTGGGGACCCAGTGTCTCCTTCATGTTACGCAAGTACTCTTAGGCTGAGCTGTACCCCGTCTGCATCAAAAGCTTTTGATTTTTCTGTTGCTGCCTAAGTCATACTTGTAACTTTAATTTTTTTCAAAGCCTATTTTTAATGATGGTTCTTAAATGCTTTAACCTC
1.666836547408231 ACATGCCGGTGCTGTTTTGAGCAAGGCTTGTTAAAATCCTTACTTCTGCTTTTCTACTGGCAGGCAAGCCTTTGAATTAGAGGCATGTAGGAGTTTCCAATGAGACTCCTTTGTTACCTCCGCCTTGACAATATCTCTTCCCACTCCCGAGCTCACCTTGCCTCTCT
0.3362710999894373 ACACAGCGACGGTCCTCTCTGCAGTGCCAGCGTGCGCAGGTGGAGGAAGGGCTAGGGGCAGTGGAACAGGAAACAGGCAAGTGTACAAACAAAGCCTGCAGGGCCTGAGGAGAATTATGAAGAATGCCTCTTCCGGTGTGACTCAGCCGGTCTGGGGACCAGCCCGC
2.6640374000444 CACTAGCAATCGGCGTGGTTGGTGTTGGGTGTTTCTTCACTCCGCAACAGAAGGAATCAAAGCCCTCTGTGCTAAGCCCCAATGATGCCACCTCTGCATTTGAAACATGAACTTTGAGGGCTGGGTAGATGGCTCAGCAAGGAAAGAGGCCTCCAGTTAAGCCTAAC
1.450346569027583 GGTTTAAGGTACCCTTTGAAGCACAGTGTCTCTTGCCAAACTAAACAATGTTTGTAACAGGACCTGCACAGTAGATGGCGGTAGAGGCCTGGGTCTGGCTACACCAGACAATAATCTGGGTAGATCACCAAGGAGAACTCATTCTGGCTCCCAGGGGGTCTCCTGGT
2.972340477762355 ATTTAATGAACATCTTTTCCAAATCCTTCATTTTCTCTGACTCCTCATTCTCCGAGAACTGTCACTGTCAGGATGGTAGTGCGAAGGAAGAAACTTTTAATTTCAGCGTGCCTGAAGGCTCTGGATGTGCTGAGCGGCTATGGCAGCTTCGCAGAGCAGAGGGCTCC
0.3251453790663602 AGAACTCACAACACCTACGGCTGCCTGTGCATGACCTGCTCCAGATGAAGCCTGTCCAAGCTCCAGCATGGGTGGGGAGGAGCTCACAAAGCCCCACCCCTCGCTGAGGAGTGAGTGGGACATGGATAGGGGAGGAGCTCACGAAGCCCCACCCCTCGCTGAGGAGT
2.304775961276262 CTGGGTAGATCTGTGAGGACATTTCCAGGAAGGAGGATGAACTAAGACCACTCCCAGCTGAGTGGGCGGCACTCTCCTGCAGGCAGTGGAGTGGGTGACAGCTGAATGGGTGACAATCTCAGTGCTGCCTGCTTCCAAAGCTTTGCTCCTTCTTGGTGAATGTATCT
0.02645401994170404 ATAACAAGGTAGGCCTTACCTCAGACTTAACTCAAGGTAAAGTTTAATTGCTCTAACCTGCTCTTTGATGTGTGCTGAGGAGGTGGGCGCCGTGTGGGTACAAGTTGCTATTTATACAGACCTGACAAGCGCATCCCATCAGCACCCGCTCCTTTGTTCTCTTCCAG
0.8094731477167815 TGCAGGACCACCCACCCTCCGTTACCTTACAAGTCCTCACCCTCAGAGCCCTGAGTTCTATTCCAGGCTTCGGATGTGGGCAGGCAAGCCGTGAAAAGGGAAAGCAGTGACTGCCAGCAGTTCCCTCCCACGAACCTGGTGATTAATATTTCAAGGCCGACTTATCA
1.977315360117809 GGAGCTGTTTGACTTGAGAGACAGCAAAACCGAGGGATGTAAGATGCCAATCTTCTGGAGCAGCGATTATCTGTGATTAAGTCGCTGTGCTTTGGAAGGGAAGGAGAAGCCGCTTTGCCTGCACAGTGGTGTGACTCATGAAAAGGATCACATCCTTCGGAGGAGGA
3.585333544548934 CAGAGCTAACTGTGCAATGCCTCTGGGTCTCGCATGTTCTTTGCCGATCTTCACTTCCCTGAGAGAGGTACAGCCAAGAACTTTCCCTGGCATTGCTCTTGGTCCCTCGTGCTGACTCGGGCTGATGCTGAGGCCTGGCTGTCTCTGCTAGATAGTGCCACTGCTGC
4.373033802784627 CGGCACAGAACGAAGGTGCTATCCAAGGTACTGAGAGCCCCAAGGGGCTGTTCCAAGAAAGGGAGCAGGCTGAGCCCAGTGGGTGGAGATTGGCATGCTGGCTGGCACATTGAAATGCCACCGAGCTCTACTCCCTTCTTCTCTACGCAAGTGTCACCCATCCTGTG
3.781213287781258 AAGAACACCATGAACACAATAGATGGGCAAATGTCTATCAGTTGTTCATTCTGCAATAGATGGGGCATCTGCTCCCTGCTGAGCCTGGGAGGCTTGCGGGAAGGAGGCTGAGGGCACACAGAAAGGACTGCACTCAGCCTTCCTCTTGGACACAGACTCACCTCGTT
1.831658494894125 GCAAAGCTCACCTTTTTCCCAAGGCTCTTCATCCCGCACCAACGTCATGGCCTTGGCTGGGGTGGCCGCCGATTGGCCTGTGGCAGCCATGTGACAAAGACGAGTCTTAGCCACCCTCCCCCGAATGCAGTCCCACGTGTGGCCGCTGCGGCCGCGTGGTGTTGTCT
1.235020536865102 AAAATGGCCAGACCTGTTGTGTTCTCTCTAGGACAGGCCCCTCCCTATAAGCAGTTCCCAACCGGGAGGCTACAAGCCTTTGAAGGCAGATGGGTGGGTGCTGGGACAATGGCTCAAGCCTGTTCAAGTGCTCAGCCCTCTTAGGTTGGCTATCGTGCATAGAACTA
0.5434902427356223 GAAACCAGGAAATGAGTGAAGAGGGCGTTTGGGTAAGGAACTGCCGCAGTACCTTCCTGTGAAGCAGCCTTGTCTCCTGTTCGGAAATGGTTTGCGGACCAGCACTGGCCTCCAACCACAGGGGCCATCAATGTGCTAAGGGGTGGAATTTACATCTCTCAGCTTGC
2.446985542120783 GTGCCCAGGGAGTCTTAGAATCATCAGTTCTTATAGTTTCTTAGGCTGCTTCTCTTTTTAGAACAATCCAGGATGTGTCAGCTAAAAAATATACCAGCTGCTGGAGATGGAGCGAGTTCTCTTTCTCCCTTCGCTTAGGAATACAGGGAGGGGAGCACAGGCAGGGG
1.677110437278313 AAAGGGCAGAGGATGTGTGCACTTAAGCAGTGTCAATCAAAGTGAGGTCCCGCCCACCACTGACTCGGAGCCCGGGCTTCAGTCTCCTGAGGTAGTTTGACAAGATGTTAGAACTGTGTGAATTCTCTTCTGGGAGTCAAGTGAGGTGTGTCTCTTTCCCTGCGTGG
2.46520507400942 CCCAGAAGCCAGCTGAGGCTGAGATTAGCGTTTTTTGCTAACAGTTCAGAGCTCCCCAACCCAGGAGAACAGCAACAGTCCTGAGAGGAGGCTGAACTTGTCTTTGATGTTGCAGGAGCTGGAGTCCAGGCCTGCAGGCTGAAAGTTACTCCATGGCTAACAGCCAG
4.044302063123986 ATACTGTGCAGTTTCTTCAACCTTGTCAAAGCTCAGCTTGATGTGTTAGCTGTTGGACTTGCTACAGTTTCTATCAGCTGAGTTGGAGCTACACAGACATGCCTCACTTGATCGGCAGGCGCCGTGACACTCACACAAAGGCAGAAGCCCCCAAGAGTCTAAAATTG
2.983979764806129 CTACTCACATTCGTGGTTATGGATTCCAACCCACACATGCTCTCCTGCTCCCAAGAAATCAAGTCCCTCTCCACCTCCTCCTGCTCACATCCCTCACTGTGTATCGGGTAGCTCTTTACGGCTCCGTCTCCACACTCACACTCGTTGACAAGTGATTCTACAGCTCG
1.130014727243971 AAATCACATAAATGGACTTGGGGAGGAGCTGGAGTGAGCTGTTGTTGACTTTGCAGTTCCCCATTCATGCTAATAGCACCCCATTTCCTTTCCAGGAAATTACCTCATTGCTGTTCCCTGCATTCCAGGGAATTAGCTCACCCTTGTGCTAGACTGTCAATCAAGGT
3.805634563810568 TTTGGGGGCAAATCCAGTCTCTGTGGTCAGGATACCAGCAGCTCAGCTCACATGAGTCAGAATCAGCAGCTCTATCCAGGAGAGACGGAAAGGCTCCTGCCAATCAGCCTGAGCCCACACAGAAGTGGCAAGAAGTCACTGGAAATTCTTTGGTACATTTCTCTTTA
2.165617177343104 TTTTCTGTCCAGAAAGCCTTAGTCTGGTCCAGGGCAGAGCAGATTGCCTTTTCCTTTCTACTCTGCTCCGGAGGGGCCAATTGTTTTTCTGGGAATTCAGGGTTGGCAGCAGGGTGTCCTAAAACCCTTAACTGACTGGAGCTGGTTACTGTGGGAACGGAGCCTTG
2.19984068523238 GGACCTCTTCTTACTTTAACCACCATGTTGTCTATTCCTCCTCTGTGAAACATGGACTAGACTCCTAGGAATAAGAATATCTGTCTATCTGATCACTCCTGGAACCCTAGGTACCTACCACAGTACCTGGCTCCTTACACTTGGTAAATGTTTGTTATATGCATGCA
2.606016391024951 TCCAGACATGCAATTTTAAAAAGCAGCGTTGTGAGCGACATCCAGAAAGGTAGGGGAGTATCCTTTGATGGAACTGTCATCTTCCTCCTGGAGAAGACACTTATTTTCTGCTCTGTTTTATGTAAATGTAATTCATCTTCGAGGCTCTTGCTCTGCCTGGTGAATGA
3.869860635654714 TATCTTTGAACTTATCTCTGAGAACAAAGAGCATTCAGAGCTGGCCCCCTCACTTGTGCTTTTAAGCATGTTCATAGCTCAGAGCTAAATGGGAAAAAGAAGAGAGAAGAAAGGCAGTCTTTGCCGATTGCCCCTTTGTAGATTCGGGTGACCCTTTCCTGCAGGCT
2.441275682178229 GGAGACATATGCATTTTAACATATTCCAATAGCAGCATCTTGGGGGAGTGGGGGTGGGGATGTACCTTTTACCATATATGGTCATCATGCAATTCTCTCCAAGAACTCAGTGCAGATATTTATATAATAATATTACCATTCCTTACCCCCACCTCCAGGCTGGCAGA
2.210278519847837 GACTATGTAATGCTAGGAAGAACTAAGACTATGTAATGCTAGGAAGAACTAAGACTATGTAATGCTAGGAAGAGCCCTTTTATCGCTCCGGCTCCCCAAGCTCCCTCTGATCCAGCCAATACAACAAGTACATAAAAACACTTTCATTCTTAAAAGAGAACTCATGG
0.871437491978581 TTTCTTTGTTTTACATCAGTGCAGAGCCAAAAGCAACTTCCACACCCAGCACTACAAATCCCCGCTGCAAATGGAGGAAGACAAGCCCCCGTGGTAGCTGGGGTGTGACCCTTATGGGCTCCCTGGGGGCTCAGTATCAGTGGCGCTCACAGCTTCCTCTTCCCTGG
0.6871002543283695 TCCTGCCTCAAAGTCAGTAAGAGTTGGTGATGTCATATCCGCGCCTTATCCTTGGGAACTGGTTATTGCTGTGCACGGTTCTTTAAACATGCGAAGGAAAGGAAGGAACACCCGTCGGTCGGTCGGAGCCTTTTGAACTGGCTGCCTGTGCCCTCTAATATGCAGAA
2.008381672427974 ACATAACACAATGATAAAAGCATTGTGCTCCCCAAGTCAAGTGTATGCCTCATCGTTTTCTTAAGAAATGTCCCTGCAGTGAGGACATGCGCGAGTCAGGAATGTTTGTGAGCTACACAGTGTGACCTTGGACAGGCTTACCTCTCTACATAAGAGTTCCCTCCCGA
0.7351811453185865 TGCACTGCAGTAGACATTCCAACAAGCAAACAATGCCCATTGTCCTCGTGGCTGACACAGCCTCTGCTTTGAGGCTGAGCTCGCGGTTGGGTGTACCCGCTTAGGACTGAGGGCATTTCCGGTCCTGACAACGGCAGGCCAGTGTAGGAAGCAGGACATAAACCATT
0.9321755063546739 TTGCTAAGCTCAGGCTTCCCGCTGGTCACTGCAGTGCTGACTTGGCAGGGAAGTGGGAAGGGGAAGACTCTCTGCTGGGCCCTCACATCCTCAGCCTACACTAGCACCTCCTGGGACTCCAGCTTTGGACTGAACATGAACCCTGTAGTTTGTGAGTTTGTTTGCTT
3.004926701133697 CTGTGTCCTCTCCGATCTCCCTCCTCCCCTGACCGACCCCTCAGACACACACCACTTGTTTCCCTTCACTTTGTATGGTTTTGCCAAGTTTCTCACAAGGTGGAAATGCGTGTCGCACTGACATCAGACTTCAGAAGCCCAGCTGCTGCAGCTGCATTGTCCTGAAT
0.1268637762805422 CCCTTTGAAGCTTTCTTAGCTATGATTTCATGTGTGGTGAGTCAGAGGGAACAAGCAGGATCAGGAAGTGCTGAACAATAGGACTGGGAATAACCGTTCTCACCGGTTGAAGGCAGCCGATAAGGTCACAGGGTGGGGACTCCCTCATCTTCCTACCCTCCCGAGGC
3.283817868751563 ACACCAGATGCAGGCAATATTGACACTTGCTGTGTAGACCTAGCTTATAATTAAACTGCTGGATTAGGATGCTCTATAATCAAACTCTTGACAGAGGTAGACAGGTGAAGTTGACAATTTATTCTTTGCAGGAGTGAGTTGAGATGTGGAATCAAAATCCTAATTAC
2.820267073708957 TATATTTACCCTTGTTTTCTCATAGGGTGCTCGCACAGGCAGAGTGGGAGCTAAATCAGGCTCTGATAGGGCTTCCTCATCCTGAACTGTTCTTTGAGAACACTGTTTTCATAAATAGCCCGCAAGGCAGTGGGTTTCTGAGGTCACTGTGCTTCACACAATTGTTC
1.570398184554668 AGCTGCAGACTAGCAGCACTGGCTGGCTTCTGTCTCAGACCTCCCGTTCTTCACTTGTGGCTTTCAGCTAGGTGCTATGGAGAGACTTTTCCTGGCCATTTCCACCCTGCTCTCTGGGGTAAATAGCCTGTTTCCTCTTCCGGGCTATTTTTGAAGACAGATTAGAG
1.789412441721506 CAACACAACACAGCAGATAGTACAGCACCAGACAGAGACCTGAACGCTCTTAGCTCCGTGTCTGTGCTCTGTGTGAGCGCCGCCCTCCTCGACCTTTGCGCATAAAAACTTGTGAGTTGGGGTTTCTCATATTCTCTTCCTCCGCCTCCTGTTAGGCCATGTCTCCT
1.538688778230014 CTGTCTGTCAGCTCCTACCCAGGATCTGAAGGGGAAGAGGGTGTGGTGCTTAAAGATGAGATAAAAGACCAGGAAATTCCTAGTCCTGTGGGAGAGACCAGGCCCTATTAGTCAAGACTGAGAAACAATTCCAAAAAAGGGAAGGTCCTTACTCATCCCTCTGAGTA
3.963515905170649 ACATATCTAGAGAGTATTTAAACTATTTCACTTTATAAACTTCAGCAGGGATACGATTTCTGGTATTCTGGCTTATACAATCACTTGGGAATGAATAATTCATAGGCTTTTTACTAAGCCCCCAGTGTAAATCAGTCAAATATAGCAACATTATATTCATGCTCAGC
2.569222853680865 AGAAGAGCACTGAGCCAGCTGGGGGCAGGGTGCAGGTTTCCACCGTGCTCCCAATTACTGGCACCTCTGAGCAGCTTCTGGAAAAGGCCTCGGTTGCCAGGAGGAAGATATTCCACTGAAGCATTCCCGTCCCCACAAAAAGAGCCTTCCACATATTAGCCACATTT
4.422780736532537 AGCAGCACTGACTTGCACAGTGAGGTAGCACCTCAGCAGCCACCCTCTCCAGCGAAGAGAAGCCGCTCCTGTGAAACAGGAGCCCCTAAGTGAACAGTGGCAGCATATGCTGATGCTGCTGTTCTGGTTCTCAACTGGCTGAATGGGGGAGAGAAGGAAGCGTTCAC
0.7426182469917889 GTTTCCTGTAGTCCAAGGGTCTTGGACAATAGTGTGAACGGCTGGCCCGAATGGAAAGGGCATTGTTCAGGGGAGAAAAAAAACAACACCCCAGCACAAAGCCAGGGCAGGATTTGTCTAAATGTAAGAGCCTGTTTACAAATTCACCATTCCCAAGGAACGGAACA
1.670658230365241 GGAAAGGCCTCCAGCATCTGACCTCCTTCCTTCCTTCCTCTGGAGCACAGAGGCCCGATGAATCCGATTCCCAGCAATGGCTCACTCTCTGACCCAGCTTCTGAGCTTCCCGTTACTCTGAGGTGAGGCCACACTTTCTTGGCACTCTTGGTCAAGACTCTTTATAG
2.27526126445115 AGTAACGACAGCTGAAGCATTGTGACTCTGAGCCACCACCCTTCCCCACCCCCACGATCTTCTCAGAACTTCTTTGTGGGAGGGTCTTAGCCAACAGAGAGTGAGTATTGAATGATGAAGTCATCACAGGGGGAAAAAAAATCAATTCGGGGCTTTGGAGTACCAAT
2.726596016666055 GCTGCTCTGATCTTTGAGCCATCTTCCGAGTTTGGCTTGTCTCAGCTCTCAGTTCTGACTGCTGATTCAGACAGAGAGGGATTATTGGATCTGGTCAGTTTCAGACTTCCCGAAGCTATTTTGAGTTGTTTACCTTCCTGATTAAGGAAGCTTCCCTGTGGGATGGA
1.613834218681508 GCAAAACCACTCTCCCCCAAAGCTCCTTGAAGTGCAAGAAGACTAAGAGGATCAAAGGGACCATCAACCGCTCCGGAACTTCAAAGGTTTCTCTAGTGGGAACCGAGGAGCGGCTGGCCCTTTCTACTTTGGAGAGTTCCATTACTGTGTGGAAACACAGCATTACC
0.683170857689084 GAACAGGAAAGGGATGTGAGGCAGGAAGTGGTTTGAATTCCTCAATTTGAACACCCAGCATAAAACAAAGCTGCTCTAATGGACCCTAACCTCCTTCCTCTTCCTGTCAACACACTTCAGACATTTCCTTTGTATCCAAAGACTTTCACTGTGGTTTTTAATAGAAG
2.103755287648345 GAAGTAAATCAGTCTTGGGAAAGAAAACACTGGCAGTGGTGGGATTCGAACCCACGCCTCCGAAGAGACTGGAGCCTAAATCCAGCGCCTTAGACCGCTCGGCCACACTACCAAGCTGTCTGCGCATTTCTGTATACACTAACTATTTACTTGATTCCATTTCTCTT
2.942507810526649 AGGGAGGGGCAGAGGCACAGAGCTCTGACGTTTATAAACTATTTGGAAGAAGAAAGGCTTGGGGTGTGACTGCAGACTTGGCCGTCTAGCCTTGTTCCCAAGTGCTCATATTTCCCCAGGCAGCATTCACAGCCAGCTCTCTGATGGCTGACCTTTGCAAGGCTGTG
1.390739547318874 CTCTGCAGGGCTCAGGGCGCCTAGGTTCCACGCTGCAGTTTTGTTCTACTGTCTGACTGTGGCTTAGTGTGCAAACAGAAACCTCTTCCTCTGACCCAAGGCAAGCAGACCAAGAGGAAGCTCCCCAGGGACTCTGTCCTGCTTGTCCCCACCCTCCAGCGTCAGAA
0.04318676869560779 GCCTGGTCACAATTGAAACTGAGTCAAGTCAGGAAGTCATTCACATGCCAGGGCCATTTCCTCTGCCTCCCCCACACCTCACACCACTGCCCTGGAAGTCAGTTCTCACAGTGTTCAGTGAGTCAGGCCTAAGCACTTTGATTACGGCTCAGCTGATGTCATCCACC
1.549959383427391 GCTGCAAACCCCTCCTTTCCATTCACATCCTATTCTCGGGATCCCTGTAGGAATCTCAGCAAGTGTGACACCCACCAAACAGTCCTTCAAACAAAGCTCCCACAGATCCTGGGCCCTACTTCCTTCTCCACGAAGCCCTGGCCTGACTAGGGAACACACACAGATTA
0.1867142185568203 TGTCCACTATGAGTCCTGGATATTCCTGAACATCCTTGTTGGGTGTGTCAAAGCTTAGCTTCCTTTTATTGTTAAGCAACTTCCTTAGCTATTCACAGGAAAATAAAATTCAAGGCAACTTCAAAGCCATTGTACTGTGACTGTTGCTTCCCAGGGTGCAGGAGGAG
0.7598744990899553 AGCCAGGAAATCCAAGAGCAGACGCTGCCATGGAAACAGTGGGGGGAGGGGGGGGAGCCAGGAGATTAGAGAAGTTGCCCTCTCAAGCACAGCTCCATCCGAACTTTCAGGAAACTGCTTTATCCTGTGCGTCCTAACCTCATGCTATCAAAACCTCAAAATCAAGG
3.11037130301347 TTGGTCACAGAAATAACTATGACACAGAGTAATAGCACACACTCTCTCAATCAGACTATTTAGTAGTTTTTGAAGAGACAAAGTCTGATAACATCTCCTAGGCTGGCCCTAACGCCAGGGCTCCAGCTGTTCCAACCTCAGCCTTTATGGTAGCTGGGACCACCCAT
2.168422082348143 TCACCCGGCCAGAAATAACTGTTCCTGTGTCAACAAGAAACCTTTGTCTGTGTGTACGTTTCCTTCTCCCGGGGAACATTTTGTTCTTGCTGCTGGTTAAAAGGTGGCGACTTTTAGATAGAAGTACAGCAGGAAGTATTTAAGTTAGATAAAAAACCGAGACTACT
1.75856181569042 GCTGACCTTCTGTCCTCCACAAGGCCATTTGTTTTCTTAGCTGGGAAGGTTGGACTCCTCAGGCTGCCTCCCCTCTTTCTCCTTATAAGGCTTTTCTTTGTTTCTTCTGGGGCCCCTTACTGGACCCCCCCCTGGCTGTCTTCCCTTATAAGGAAGTAGCTGGCCGG
1.381941973237766 AACTTTTGACTCCACTCTTAAGCTCACACACCAGAGTGTACATTGTTCTATCTTAAAAATGGAAAACAAGGAACTATTCATATCTTGTTCTCAGAGCCTTTCCCCCTCTTGGAGACCGCGCCACCCCCAAGTGCGTCCAAACACCCCAGGAAACCACCCCATCATTG
1.136642638576924 TGTCTGTCCCTTGTGTCCATAAAGGGGTGTTCCCTGACAAAAGGTCACCCTGGCTGAGCTCCAGTACCTCTTCAGAGACTTGGACTTCCTTCTGGACATTCAGGACAAAGGGCTTAATCTGCGTGAGCTGAGTTCCTAACGCGGATATTTTCGCCCCAGCAGAAACA
0.5279597338130783 GGCTATGCTGTTTTAAACTCTGAGCTGAACCAGATAGAAGTAGCTGGTGGCTGTTTCCTCTTTAGGGCGTAGACCAGGCAAACCCCTGCCAGGCCTTTGGGTCTCCCGAGGTCACTTCCTAGCCACACAGCAGGCACGGTGGAAGGACACAGGCTACTTTGACATCT
2.249690649596825 ACAAGTGCACTTGAGTCCCACTCTCAAGAGGCCTCCAGAGCATGGCTTTCCAAAGGCGGTGGATTCTCCTGCAGTCACATCCGCATAAACATCCCTCGCAAGTGGCCCTCTGAAGGCGACTGCACACTTAAACGCTAGATTCGTCTATTTAAGTCCCAGAACAGGAT
0.3562955304709573 CGTTAAACAATGTTATGAGCTCAGGATTTCCTTTCAAGCCTGCAATTCACATCAGTAATGATCTCAGAAGAGGGACTGAGCTTTGAAACAAAGGAAAGTAGGGACACCTGCTGGAGTGACAGGGTGAGGAAACAGGAAGGGGCCCTGACAAAGGCTGTGGCATTTCT
3.713224525959577 TTGGCTCCACATCCAGCTGGCTGATTCAGTAAGAAATCAGCTGGCCTCAATTTAGACTTCTTTTCTTTTAAAGCAGTGCCAAATTGAGGATTACTACATTGTGGAGAGGGAGGCGGGCAGCCCCACCCCTGATCGGCCATTCTTCATTCCCTAGAATGGGCTTGCCT
0.550862573475501 TTTCATGTCCCACAAATGGCAGTGTCCTCACCTGACCCTTTGCTACTCAGCCATGGAGGAAAGGGGAGGCTGAGCGCCCGGCGGCCTGCTGCCCTGTGCACTCAGAGCCTTATCCTGCCTTTGAGCCTCCTAGGATATCAACAGGATGCGGCCTGGATATTTTCCTC
0.8351851566449846 CTGCCCGCCCATCTATGAAGGAAAAATAGGGTCTGTAGTCCCTTTCAAATCAAAGCTCTATTCTTGGGTCAAAGGCACAGGGGGAGCCTCCTGCCAAGTCTGTTGAAAAGGCTTTGTTTGGTTATCTGAAACCATCAGAGGACATGAAGGTCATCATCGTGCTCACG
1.331731578243699 GACAAGAAGGACCCCATTGCTCTAACCTTCCCTGCTGGGTTGCTGAGCCAGCTGCAAAGAGCTAGGGCTCAGGCCAGTAGCTCTGCCTGCAGGAGATAAACCAGCCTGGGTGTGTGCCTGGGTGTGTGTAATTATTGTGTTCAGTTTCTCTGGAGGAGCGGGGCTAA
1.211875880817413 GGAAGCTTCGCGCAGAGACATCCTACATGCACAGCTTTGATCTCTTCGATATTTATTTCCGTATCAGCGGGAGTGTTTCTGGCTCAGGGCTGCTTCAGGCTGGGCGGGCAGATGTTGACATGTCAAACAGAGAGGACTCTAAGCTTTGCCTTCCACGTCAGTAGGCT
0.2165593729710554 TTCAGTGATTTCCTGAGTCAGGGGTTGCCAGAAAAGCAAGCCCTGGGATTGCTGTCTCCAGGCCTGCTTCCTCTGTTTCCTGCTGTAGGAAGGCCTGTTTCCTGCAGAGAGACGCCTGATTACAGAGCACTATTTTAGAAGGCTGCAGCCTAGGTGACCCGTCAGGA
2.643290906378159 TATTTTCTTTTTATTGCACCTTCTAGGCACCAGACTCACTGGAGACATCCTGACACATAATGCCTTATCCAGCACAATGAGATGCCCTTTACCTAGTCTTATGAAGGTACTGCCTTCCCTCCAGAACAAACAACGGAAATGCATCAGGAGGGCTCAGCTGCAGACAG
0.7451027904972189 CCCCTCTGGAAACTGGCCAGGTCTTTAGCCTCCCTGGCACACAGCACAGTGACTCAGGTCAGACTACAGCCGCTCAGAACAAACCCTTCAAAACAGGACCTCAAAAATGTCAATGACTAAGGTACTATTGTTCTCAAATGACCTTGGTTAGGGGCAGAGACCACTCG
1.597104009362421 CAGGAAAGCAAAAAGGCATCCAGTCTCTTAAGACACAAGGCTCTAAATACCTCCCAGGGTTCCACAAAAGGCCATGCTTGTTTTTTCTTTTGACTTAACTCATCCTGTTTCTGTTTCCAGAGCCCCAATGCAAGTGGAATTCATCAGCCAAAAATACAAATAAGAAT
1.08264343759565 AGCAAACTCTTCCTGCAGGAGCAGCCCCACTCTGAAGGCCCCTCCACAGCTGCGAGACGGGCCACCTGGGCCACGGCCCCTTTCAATAGCTGGATATCCTGTTCAGTTTTGCTCCTGCAGAGCTGTCCAGGACAATCGCCTGGGAAGTGAATTGTTACTTTCCAGGG
2.520950203185695 CGCCCACATCTTTCATTGCCTCTCCGGTGTTTCTGTGAGACAAAGAAGCCAGCTGAGACTTCCACAAAGGAGAATGCAGGGAAAGGGGGCTGAATACCTTGAGCAAGAATAGCTTGGAAGGAGCCAAAAGTGGAAAAGGAAGTCTAATTCTGGCCTGGTCCGGTGGG
1.758080184043095 TTGGCAGTCAGTTCAGAGCATGTTGACATCTCTGTTTTTAACAACCCTCTGGTCAGCCTGGGCGTAGTCACTCTTTTGAAAGTCGAGTCTTGAGGAAGTAGGTCACGAGAGCCAGTGTTTGGCTCCCCTGAGCGTGACTGAACCCAGGCGTTCACTACTTGTGTGTG
2.715849539360985 TCCCACGAGTTCATAGAACACAGTGTTATGATGTTAGAAACTCAAATGCCTTTTACACAGGATGTTAACCTCTCACAGAAGCCTGCTGCTGTGATGTGGGAAGTCCTGGCTTCCAGGTTTACAAGGATGAGGGCTGTAAACAGGATGCTGAGCGCCACCTAAGGACA
1.586008272445824 GTCCCTGTATTATTCTAGCAGTTTCCTAAATTCCATTCACATCTTGGCCATTTGTCTCTTTGTAAATAAACCTTCCTTGAGTTCTCTGAAGTGCCTGGACCATCTGTTTCCCGTGAGGAAGGTCTCCCACTGACATTTAGATGGCTGATACTAGACATGCCAAAACC
0.1644284370957822 GCTGTAGCCTGCTAGGGGCCCCATGTGTGTGTGGGGGGGGGGGGTGCAGCTACCTGTCTGGGTTTGAGTGAGTCATTTCCTCCTTCAGTTGGCAGAGGCAAGAAGGGAGGGGTGAGAGACATCTAAAAATAGCCAGGCCCTAGACTAAAGAAGATGGCCAAAGCTGC
1.919899134266 TCTAGAAGGGCCATTCCCATCAAAGTCCTTCTGTTTGCGTGTGTCACGGAGGACTCCTGCTCCAGGGGACAATTCTCACATGCGCAGTGTGCAGCATGCATCCTATAAAGGCAAGACCCCAGTGGCGAGGTGGCTGACTTCCAATTGTTTATAGAATAATGCCACAT
1.734661080329363 TTGACATCTGAGGAAGACGGGCAAGGAAGCAGGTCGACCTTTAGGACCCTACGGATTCCCTGGCTGTCGTCATGTCCTTGGGTACAGAGCGTTCTGGCGGCTACTGGGAAACAAACAGATCTAGGAAAGGCTGAAGCCAAGCCTGGAGTGGAGACCTGCCTTCTTTA
0.6399730991288206 AATGTTCTCAGCTCACCCACAGGAAACCCTGAAGAAGAGAACCGCACATGGCCTCTGCTGGGTGTGTTCTACTCTTGGCCTTTTATTCTCTCCCTTAACCTCGGTCCTCACTTTCACATCCTGTAACCTGCAAAGCCCACACACCCCACCCTTCTGAGCTGGTCCCA
2.577389186738421 GAGAAGCAGCAATGTGGGAGAAAAACAACTGCCCACAAAGTCGGTACTCTCCTCTGAATGGGCTCACTCTAGGCTGCCTCTTATCCTGACTTTTGGCTGTGAGCCCGGAAGGGAGGGTCCTTCAGTAATTCTCTCCCAGCTTAGGACATACGCCTTTCCCCTAAAGC
0.8288967355077987 TTATTTCTTACTGGATTTGGAGACTTACACTGTGACTCTTCCGCTCAGACCTCACCACTCCCTGTAGTTTCAATAAGAAACCCCTGAGGGCCCCATGTTAGTCCCCACTTGAGAGCCCCGAGGGGGTAGCAGGGCCTTTAGGAGCTGGAGCCCAGTGGGTAGCAGGG
2.025882769545382 TAGATTACGCCTATCATATTTCCAACCTTCATTTCTCCTCCCTTTGAAGTCCAGCCATATAAAGGTTGTTTGTTGAACCACACTAAAGTTAAAGCAAACATTACTTAGGGTGATTCATACTGGCAAGAATTTGCAATGAAGGCAGTGGTGTGTGTGTGTGTGTGTGT
2.32461439636082 CCCTCCATGGGTCAGGGAAGTTCATGAGACAGGAGAGCAAAACAAGTGGTCACATGGCTGGGGCAGCAGAAACTTGGAAGAGCCTCAAAAACCCTCCTAGACTATCAAAGGATTTTACGGGAAGAGGCTCAGATCACTCTAGCTGCAGAGCAGAGATTTTTCAGGCT
2.023297505123113 AAATTAGTTATGGAGTCTTTCCACAGTGAGTGCCTGTCATCAGAGGAGCTCCTGGGGGGGAGGTGGGGCTCTGTCTCCACCACACGGTCTCACTGGGAAGAGTTAAATGAACAAGATAAAAAATGAGTGATTTCACCAACTGGGAATCATAGGATATAAGGAAAGGG
1.327897722939058 TAACAAAGGCAAGGCACACTTCAGCTTTTGAGAGGTGCTGGGAGGAAAGTGCCTCCCTGCCTTCCAGAAGCCTGTTCCCATGGAAACCACAGCCAGTACTTAAGAAACGGAGATGCTGGTGTGCTGCCTCCAGAGCCTTAACCAAGACCAGGCGCCCGCTAGAGGCA
1.962217652056616 GGTGTGACCACAAGGATCCTAAGGACCCTCCCTGCCTAGAATCCTCCAGTTAGAGCCCTGTGTGTGCTCAGGGGTGGAGCCCTGCCTAGAACCCCGCAGTGAGAGGCTGGGAGCAGACTCAGTCCTTAGCTCGACTCTAGCCAAGTACGCAGCTCGGGGTTTATGAT
1.422779261979069 TCATCCCCCGCATGCCATGAAGTCACAGTTGCTTGCACGCACTCAGGGCATGCAGGCAGGCACTCCGGGAGCAGCACACTGGATTTGCCATTTGTAGAGGACGAGGCCACGCCCAGGCTGGCGGCCACGCCCACTGCTCCTGGAGCCGGAAGACCTGTGTGGGCGTC
1.001087341158436 GACTGCACCTGTAGGATGAGGAAGAGGAACAGTACCGGCTGTACTCGGTCGGCTAACATGGCACAACAAGCGTTTGTCCTGTCCTCTCCTGGAGTTTGACTCTTGCGTGTATTCCCGCTTAAGCTCGTTTCTGTTGTCTTTTTTTTGAAGCAGTCTAGAGTCACAGG
1.948124702795373 CTTTAATGACAAGGAGACTTGGGCCAAGGCCTCTCTTGTCTGTTCCCGTGAGAGACGCCCTGTTAGCTTTGATCTGGATCCTGTGAGAGAGAGAGCCCTTCTGAGTGGACTCGTTTACCCTGATGACTTTGGCAGCAGATCAAACCTCCTCGGGCCTGAGCATCTGA
3.341347074393293 AGTCCACTGCTGGTCACATGGAGTCCAGGGGTGGTGCTTCTCTGGCAGCATCAGAGGCCCAACCCTGTGGTGTGAATGCAGTCCTCCCACACATCAGGCTCCTTGACAGCTTCCTGCCATTATTCTGGCCCGTGTGAGGAGCACACACTCGAACTCAACTCCCTTAG
2.744479969479353 AAAATGAAGCAGATGTCTCTCTGATCTTATCAAGCATTCATCCACACACCCCCAGACACATCACCATTGTCAGTACCTGTTTGGAACAGGAGTCTGGAAACTTGCCTGGAAGCCACATTTGCATAAGAATGATTTTACATAATTTAGAGGGATGGTGCTGATGATAA
1.091042871320124 GGAAAGAAAAGAAAAAGACGAATAATGTTGAATTAAAAAAAGAAAAAAAGAAGGGGGAGGGGGCGGGGAAGACATGACTACTTCCAAGTATGGCTGTGGAGGTAGGTTTATTGTAGGTAGGAGAGAGAGCACTGCCGGAGGTATCTGAAAGTGTCTGGACTGAATTG
0.8071015222182507 GTTTCTCAGAACACCATCTCAAAGTGTCCAGCCCCCTTTACTGTTAGTTTTGTTTGGAGTGCACGTCCTATCCCTGTCCAGTCCCCACCATGACTCATTGATTTCCTGCCATTCTTTCAACATCACATACGGACGGCGGCTGGAGGACAGAGAGATGTTTACTTTGG
2.634984234975498 AGGCCAGAAGTTTGGTTCTTTGAGTTGTCCTCAGTACTAACAGCCATCAGTCACTGAATGCAAGCTGTCCCTGGGGAGGAAGCACGGACTTACACAAGGAGACTCCCTTTGGCAAAGGACAATGGCCAGAGAAACAGGGTGATTTCTGGAGAGGAAATCAGCTGTTT
2.095426366915819 GGGTGGGGTGGTTGTAGGTGTGGGGTAGTTGTAGGTGTGAGGTGATTGTAGGTCTCCACAGTAGTTATAGGTTTGAGGTGGTTATAGGTGTGGAGAGTTGAAAGTGTTGGGTGGTTGTAGGTATGGGGTAGTTGTAGACGTGAGGTGATTGTAGTTATAGGGTGGTC
1.520576013500154 GGAGAATTCATTTAAAAAGAACACAACAGGCTCTCTGTGCCTCTGCTGCAGCAGACTCTCTCTCTAGCATTGTTTCAGCTTAACCCCTTTGAGGTGGGACCACGCCTTTGTTTCTGACTTCCTGGACTCTAAAGGTTGAATTTCAGGTCACCTTAGTACACTTAGAT
3.990503420253326 GTAGTTACATTAAAAAAATAATCAGAGGAACACCCTACTGCCAGTTTTCCTAGCTGCAGAAACTTCTAACCCAGTTCTGTTTGCTTCATGACTGATCTGAAATAAAAGTCACCACACAATGTCCTTGCAAACTTCTAGTGCATTACCACTGCCCCAGTGTATTAAAA
2.589283765660387 TGCTATTTGTCACGCTGAGGAAAAGCTCCTGAGATCATGAACTTACTCAGGAAACCTGAGAGTCCACACCCAACCATTGTGCAAGTTCCAGGAGAGGAAGTGCTGCACAAATGGTAATGTGATGTGCATAGCAGTTGTGGCAGGACCCTGAGTATTATTTATGGCTT
3.523725012287715 CTTCTCTGTCAAGAGAGTGATGTAGTGGCTGACATTAGTAGCCTCTGAAGCAGTGGGAAGCAAACCATTTGTAAATGTAGGAAGCCAATTATCAGTAATGAAATATAGCTGAATAACAAAGAGTAATTCTCCTGCAGACTATAGGAATGGATTGAAAACAAACTTTC
1.07401485948505 TTAATTATTTGCCACAGTTGGTCTTCCTTGACCTAACCCACCTAGGGTGGAGTCTTCCAAGGTAGGTGGAAGTCTTCTGCTTTGTCACACTTGCAGTTTCCTGCAGGAGCAGACTGCCTGCTGAGCTTGCTTTGCAACATTGTCCAACTGAAACAAAGCAACATAGT
1.199285054051034 TTGAGATTTGCTCATTGTAGCGGGAACGGCAGGGCTGCCTCTAAATAAACTCTGGGGTCCGTGCAGCTGCAAAAACATCTCCTGCAGGAGGACCTAATTGGGGACTTCCTGTGACACCAGCATTCCTTCAGGAGGACCTAATTGAGGATTGCCTGAGAGAGCAAGGA
2.394319143283179 ATAGTCTAACAGATAATTGAGACCCAGCCAATCAGAAGCGGCTGAGCGCCAGCTCATCACAAGCTGTGCACCCTCAGACCTTACCAACGAGAGGAAACCTGAGCATGCCCAGTTCAGCTCCCCTGACCCTCACTCCCCCTGCGGGTCTGTGCTCTCCCGCCTGCTTA
2.493685177525075 TTATCCAAACTATTCATCCCCAGGTAATTACGCACTGCCTGTGACTCTCTTCTGTTTAGCCTGGAACGGGGCTTTAAAACTGCCTGTGCAGCTTGATCCAACTCCTGCTTCATCACAAGGCTGTCTAACGGCTGTTTCTCCCTCTCCACAGTGCCTAGGAGGTAGAC
2.164232174840612 TGGCTTTCCAGAAGAATAGCTGGGGACAGGCACACAATAAAAGTCCCATCTCCCAAGTTTACCCAGTGGACTTCCTAAAGCTTACACGAACATCAAAAGCCTCATATTCAGGAAGCAACCTGAACTGATAACATTCTGGGAGTAAACAATATGAGCATAAAAAGAAC
2.660132607530858 GTCCTCTGCCACCCTTCCTGAATTCTTAGGGAAAGCAGTCAGCTATAAGCCCCTAGGGATTAAGAGGGCACTAATGGCCTGTGACAAAGGCAGCAGGATAAACTCGGCTCTGCAGACTAAACAAGGCTCAAGGGGCCAAGTCAAACAAAGCAGTAGTTTTGCGCTGG
1.704115977424775 AAGAAGAGGTACGCCACCCCCACGCAAGCAGTAAGCTGGAATCACTGATGGCTGCAGTCTTTTAACCACGCTGTTCTGCCTCCGGGAAAGTCTGACTCAGCTGATCCACTCCTAGGAGAAGAAACCAGATTCGCTGGGTCAGGTCTGCTCTCCACCGTCGACACACA
2.577638758388881 CTGGCATGGCAGTTGTCTCATGGGGGATGCGTTGAGCCCTCTGCTTTGTGACAGAGCCAGCTGCAGAAAGCACAGCCAACAGCTTCCAATCAAAGGAAATCCTGCAAAAACAGCTTCAGCGATCTCCTGGGGACTCTCCCCTTCACAGACCCTGGCAATAAATAACA
1.511778133920378 CCCTGAGACACCAGAAACTTGATCTGTGCCCAGAGCGCTCCACCTCCTGGTGACATTTCAAGAACAGAGCCGCTGCTGGGCTGCCCAGTGCTCTGGCGACCTTCTAGCGTAGCTCGGATGACACATCACAGGATTTCCTCAACTGCGCCCTGGCGTCCTGCTGGGAT
2.428866143101617 GATTGATGAAAGCTTTCATCAACCTTTGCAGCCATTGCCGACCAAAATACTGCAGGGCCTGTGTAATTTGTTTTCATTTACAAAGGTAGAGAGGCTTTGAATTTAAAAATGGAACGTTTTCTTCTTGTGCCAAAATGCAAACAACTTAACATCCACTTCCCATCTAG
1.018097716641065 GCAAGGTGACTGAACCCTTTGAATAAATATATCTCCTGGTAGGCAGGAAGGAGAACCACATCAGGAAGGCACTAGGAAGAGGGCCAAGAACAGAACCAGCTGTGCCTTTGTGGAGAGACTGGAGTAGCCAAGTCCTAAGTCTTCAGAAGCACCCCTCCACACACACA
2.943008826219642 TGGTCTCCTAAGATCATGCTATTTAACCCAGGCAGGCAGGATTTCATTGTCTCATGACTAATCTGTTGTGCTTTGAACACAAGTCAAGCTGACATTGTTATCTTTGTACAATCCAGTCCTTGTAATATTGTGTTACTATAAAAATTTTGCCTTAATATGTGATGGCA
2.923033922537616 TTTGCCGGACCTGGGAACCTCCTCCAATCTCAGCATCTATCCTCCCTCCTCTCAGCCCAAACTGCTTCCTGTCAATCATCCTGGAACACTGAGTGCCTGTGGGACAATTTTGTCTACAGGATGTTTGTCTGAAGGCAATGCCTTGCCAAGACTCAAAGCTCAAGGCT
3.285875171198053 CTGTTGGCTTGATTTCCTGAACACGAGGCTTGGTTTCTCACCTCTCTGTATACATGCCAACTTAAAAGACATTTTTCACTGAGAAAATGAAACCACAGTGATGTGGGGTGTGGCGACCTTTGCTCATGATCCCAGCATTAAATAGGTAGAGGTAGAGGGACCAGGAT
1.749736461688588 CTTTGGAGTTAGGAAAAAGTTCTTTCCAGCCAGCTACTATGCCTTTGAAGGCTGAAGTCCCTGTGTATTGGTCTCCACCCTCTCAGATGGTTTGGGGAAGTATTTTCCAAGCTCCTTCCTGAGTGAATTTCCTCAAATTTGAGCCAAGAATTAGAATGGACTGTGGC
0.469570855983643 TACTAGCTAGATCCCTTACCCTCCACACCCTCTCCACCCCTCCTGCAGACCCGCGCGGCCTCTAGGGGGCACTGTTGCTCCGAACTTGGCGGGCCGCCGCCACTTCCCCCGCCCGGGCGAGCGCCGCGAGGACGCTAGGGTTCTGGGAATACTAGATGCCCCCCGGC
3.425256963061237 TTCTTACAGTGACTTCATTCAGAAGGATGCCCTATTGTGTCGGCAGAGTGAAGAACACTTCCTCTTGGCAGCGAGAACAAAGACTGAGCTCAGTGCAAGCTGGGTAAGGAGGTAAACAGAGTTAAACATCACAGGGCTTTAGAGTCAGACAGACGGACCTGAGCTCA
2.049223458724457 GAGCAGAGTGGAAGCTGGGAATAGGAAGGAATCCTAGAGGCAAGTGCTATGGGAGGAGCTTAGTGGTGTGGTGTGGGCAGCCTAGCTCTGACAGTAAAGTCCCTGAGCAAGTTGTGCTGAACTGAACTGTCCTGAGGGGCAAGGTTGGGAGGTATCTGGGAGATTTC
2.083254140333732 AGGTGGGGTTCTTGGCACACTCCAGTTCAGGGATTAGGTTTTCCTTGAAAATGAATTTGTTTCCACAATTTCAGGAAGAGATGCTCCCCCGCCTCCTCCAGGATCCAACCCAGTTTAGCAGCCTGAAATAGAAGTGGACTTTTTCCAGGTAGAGACTAACGATCTGA
0.6800819738088505 GGGAGGGGCAGAGGCCTGGCGGACCTTCTGGCTGATGGTGGGAGGAAAGGCCGTGCTCGCTTGCCTACTACAGGACCCATCTCAGCAGGTCCCCAGGCTGCAGAGAAAAGAGTGGGAGGGGCCTGGAAGAGCGACTGCTGTGGAGCCTGGCTCTGAGCCTGTCTGGC
1.671214117501504 GCTAATCTCTGAATGGCCTTGAGAAACACTCCTCTCCCCATCACAGGCCACAGGAATAGATCTAATTCGGGTGCTATACAGACTATTTTGGATCTGAGACACTTCCTGGCAGGACTGAGCCCTTGTTTCCAGAAGGTTCTTTTGGAGTAGAAGACCCAGCAGTGTCA
2.828192351177229 TGTGAATGGGAAATCCATGTTACCAGCTTGTCTTGGCTCTGCCTCAGAGGTCCTTCCCATAACAAGGGTCTAGGTCATTGTATTGTATAGAGTTGGCTCTCTAAGATCTCTTTCAGAGAGCGTAAGGGACATTCCTTTTCTTTTTGTTCTTTTCCTTATTTTTATTA
2.487078241328715 CGGTCGGGAACATGGGGGTCAAGTGAGAGAGCCAGGTGTCTCCAGCACTCAGCATGATATCTGACACAAATCAGACCCCTCACTTTTAACACTGTACCCTAAGACTTGGGGCACAGGCCAGGGACTTTCCGTTCTAGGCTCTCTGGCTCCTGCTTCTTGGATTCTGA
0.730027193594618 AATCCTTGTCATTTCCTTGTGTTTGTTGCTCCTGCTGCCCGGTGAGGAAATGTTCTTTGACCTCATCCTAGGCAGGAGCTATTCAGACCTAACTCAAGACAATTGTCTACTGGGTGGGCTGGGGATAGAAGGTGGTGGGCTGTACAGTTTGCCCTCATCCTGAGCAC
2.275992578823051 AAAAACTTGTCCCACCTGGTTCCTCCATGAGGGAAGGTGAACAGGTCCTGAGCCCAGGGCTGCTTGTGAGTCATTCCAGCTGCTCTGGATGACACTGTGATGGCTAAGCCAGGTGCCACAGTGCGGTACGTGCCTGTAAGCCTGGGTGATAATGGCTGCTCTCCTCA
1.806173967198541 TTAGATAAGGTAACAATAATAGCTCCATCAGGCGTAGTGTTAATTGTCTCACTTCTCGCTGGAGCATTGTGCAGACACAGCAACCCGAGGCCACCTGCCTGCAGGAACAGGGAGGAGCTGAGCCAGTCTCCTGTGGTCAGGCTGACCTCAAGGTCATTGTGTGCCTG
1.771624604587597 TTCTCTGGCGGCCCTGAAATAGCCAGGCTTTGCTCGCAGCCCCTGCACTGCGCTGACAAGCAGATCCCAGAATAGCTCTTCCTGCCGCAAGCTGACCTACTTAGCAGGTCTCCTGTCATGTGAGCTCGGCTAGGCAATAGGTTCACTTTGCCTCTCTCTACCTAGAG
3.348474221318438 TCACGTCTCCCTCCCCAGTTGGAAAAGAGGAAATGCAGAAGAAGATACTCCCTGAATCCACGCAGGGCTTGGTTGGCGGTGAGTGGTATGTTCTGTTTCCCAATTAAGATGCAAGTTGCATAACATGAAATGAACCATTTTAGAGGGAAGGATTCTGTGGCATTTAA
3.340515511576093 CTCTAGCAGTCTCCAGAGCAATGGAACGAACGCCTAGCACACTCCCGACACGGAGAAACTCAGAGAAGTCCATTCCTCTAGTTGGTAGAGGAGCCACGATTCCAAGCTACTCTGCAGAAACTGCCTCCAATTTAGAAGAGCCAAAGATGTGTGAGATCATGAGCTGT
3.582081074587819 AAAGCTAAAAATATCATTTTTCTGTAGCTGTCATAACAACATTTGGGCTAATTGATTCTCAATAGAATAATGACATCCAGTATGTAGTGAGAAATATTCATGAAGAGATCTGTGAAATCCTCGAGGTGCCGGGCCGTGCGCAGCCCAGGACAGCGGGAGAAGGCGGC
0.3814039118635295 AGCATGCTTTTGGCCCAGTCCTACAAGAACTTGTCACAGTCGGGGCTGCTTTCAGACGACCAGCCTGTGAGACTATAGCAGGACTTCCTGTTTCCTCCAGGGAAACGGGCTGGGAGCCAGCCAAGTCCTAATGCGGTGTCCTTTGAAGGCGTGCCCAGCTTCCCCGG
3.004693127255966 GCCGGGAGGAAAGTCTGCCCTCTCTTGGTGCTTCCTATGAGCTGTGAACATATTCAATCCAGTGAGGATGCTGCTAGTGAAATGAGAACAGCAGTTTCCATAGAGAAGTGGGGGGCGGGAGCCAGATTGCACAAGGATTAAGGAAGGAGTGGGCGGTGAGGAAACGG
1.982074447628133 ATCCCCTCTGGCAGCCACGCGGGTCCCTCTTGAGCTTGGCCAACCTCCCCACTGCTGGCGGAGGACTTTTTCCTCTGTGAGCAAGGGAGGGATTGGGAGAGGTGCCAGACAGAGCCGAGAGGCAGTGGGTTTCTAGGTCTGGTACACATCTTCCCCCACCCCCACCA
2.506895025827383 TGGCAAAAAGCTGGGAGCCAGTGTCAATTCTTCCATCTGTACATGCTCATTTGACCACCAGGGGGAGACAGATGCCCGTTAATGGAGAGGTCGGGGTATCCGGCAAGGGGTTAGTCACCGCGAATGCTCTTTTGAGAGCGTCTCAGGGGACTAGCGAGCCTAGGGTA
3.008069570620893 GATGGCGCTGACATCCTGTGTTCTAAGTTGGTAAACAAATAATCTGCGCATGAGCCAAGGGTATTTACGACTACTTGTACTCTGTTTTTCCCGTGAACGTCAGCTCGGCCATGGGCTGCAGCCAATCAGGGAGTGATGCGTCCTAGGCAATTGTTGTTCTCTTTAAA
3.022905218004944 GAACGCCCATATCTGTATTGTTTGACTGCTTAGCCTGTGCCATGTAACCAACCTATCAAACCCTTCCAGAGAACTCTCCTACTGACAAGAAGTCAGGCGTGAAGACACCATTTGGTCTCAATGGCCAGTCAGAGTATAAATGAGTATTAGCCACAAAGAAATAATGA
1.849291942514909 GCTCCAGCTTGCATCCCTTAACAGAAGATTGGTTGACCCAGGCGAGTGCCTCTGTGAGTGCATGCGCACTGGAGCAGAAGCAGCTAACACAGGCCCTGGAAACTGACAGAGGAGCCACGCGTTTGCTCCTGGAGACGCTGTCTAACATTAACATGCAGGTCTCAGCG
2.526664504565488 TGCCTGGCTAATCTGCATATCAGAGTGGGAGTGGGGCTTCGGGTACATGAGTGGGTGGTTGTGTGCGTCAGTGTGTGGGGGGAGAGTCTGTGTGTGTATGGTGTGCCTGGGTGCAGTCTTTGTGTGTGTCTGCCTAGGCTTTGTACGTCAGGAGCTTGGATGTTGCT
0.7258762175083057 AGAGCCAACCCTCATCTGGAGCAGCACTCTTGTGAGGAGCTGGGGGCCTCCCCTCTGGGCCTCGGGATGAGAGGGGGAAGAATGGCTGTTTGTTTCTGTAAGTCCAAGAGGTCACAGAGGCCAGCCCGAGCCTCCTTGGGAACAGAGTGTGCTCTGCTTCCGGAGGC
1.247512019024006 CATCGAAAAGGCATGGAGTTCTGGGTAAGGCAGCTAGTGAAGAATGTGCAGGAGAGGCCCGACCAGAAGTGAGCCGGTTCGCTCCGTTTGCAGCCTGACAGGGCTCCAGTGTATGCGAAGGTGTAGAAGCCTGCTCTGTGCGTGGCGCGAGGGGCGGGGGGGCGGGG
1.527525451662867 CCCAGGGTAACTGCGCAGTCATCAGGACAGTTGTTCCCAGTGCCACCTGCTGCCAGGAAGCCACTCATCCCAGGTCAGGGCTTGGCTATGCACCCTGGAACAGCTGGACAGGATGACTCTGACGAGAGCATCAGAGACAGGGCCTGAAGCCTCCAAACGGAGACAGA
2.149826560585084 TTGTTTTTTTTTTTTCTCCCCCACTGAAGAGGCAAGAATAGAAAACTCTACCTGCCAAGACAGCCTTCCACCCCCAAGGCACAAAGGACAGAGGAAGCTCCTGTCCCCAGCTTACTGGTGCCTGAAATGCCAAGGCTTCTTCCAGAGGCTCCAGGCTCTGTCATTTG
2.926949590153598 AGAGAGAGAGAGAGAGAGAGAGAGCCCTGTTTCAGTCAGAGCCAGGAGAGCTATGCTTTGGGTATGTGGGGGAGGCACAGCTGGGGCTGGAACTGGAGAGTGGGAGGGAGGGAGGGAGGCTGGGGAGCCACATCCTTGATCTCTGTTCTGTTTCAGTAATTCTGGAC
1.825333254344863 CGAAGTGTGCGAGGTCCCCAGTGGACAAGAGAGGTGCTTTGAGCTGCCTAACCCTGCCTGCTGCTATGCCATTTACGCTGCTCAACGATCCACCCCGCAGCAGGCTGAGGAGTGCCAGTGTCTAAGGTTTCCGCTCTGAGATCTTACCTGCCGCACCTACCCTGCCA
0.9592441086090826 TCCTAGCCCTGTAAGGAGAAGATTGGGTGGAAAGGAGAGATGAATCAGCCCGGGACACCCCCAGGGTGGCATACTTGTCTGCTGCCCCCACAGACATTCCTGGCTCCTGACTCAGTGGGTAGGTGGAGCGAGGGGGGCTTGTGGAAGGGAGCTGTACTTTGCAGAAA
3.891900636874398 AAGGTCTAATATACTCATTCAGTCTAAGCTCCACCCCACAGTTACCTGGCAACAGCAGGTGCCTGACTCACTGTAACAGGGGCTGCTCTGCTCTCTCTAGCTCTTGCCTTCTTGCTCCTACTCTGTCGGCTCGCCCCCTTCCCTCCTCCCTTCCTCCTCGTGCTCAT
0.5953086101542465 GGGTACAGGGTGGTGCCGCGCCCGCAACGGAAAGCAGCAGCGGCAGCGCAGCCGGGCAGTTTGCAGGAAGTGCTCTAGGGTTGGGAGGGAGAGAGAGAGGGCGGAGGCGGGAATGCTAAAGCCGAGCCCTTGGCAGCGGAGTTTGTACCGGAGCTCGGCGGAGGCGG
0.205289662692319 CCATGGGGAATTTCCAGACCAATACTGTGCTCAGGATTTAGAAGAGCCAGGGTTTCCTGAGTCTCACACGGGTTCCTAGCTTAGAGGCAAGCGTGGCTCTAAACCATGCTCAGCCACCCTGGGAACCTTCTTGCTGACTTCAGTGGGAAGAGGCACAGAGGACTTGT
2.120314304234025 GAATGGGCAGAACCTCTGACTTTCACGGCAAGAGTTAGACCCAGGTCACTGACAATGATTCATTGTTACAGAGACCCTTTGAACCCTTTGGAGCCCATGCACTTAAAGGAAATCCTGTCCTCTAAGGCCTGGGCCTAGGCTGAGATGTAGGCCTAGATAAACATATG
2.024544795108238 CAGCAGCTCCAGATTATATCAGGGACTCAGGCCTGAGGCACACCTGTCACCTGGTGAGCCACGCTGAAACGTGCTGGTCTGCTATTTTCACGGCAGTCTATCTTTAGCTAACTGGAAGTCTGTCCTTAGCCTCATCATATAGTTCAGAAACCAAGATTCAGAAAAGT
0.3326065843941747 CCTGGCAACCGTTTCCTGGGGCTGAGCCTGGGCCAGCAGGGCTACCCCTAGGCACTACATTCCTTTGGTCACACCTCATCCTCCGGTGGAGGGGATGGCCCCCCTGGAGGATTACCTCAGCAAGTCCTAACTCCTCGCTCAACCTCCTTCAGGATAAACCGGTTCCT
0.4791224451495116 CCGCTCCACGCTCCGTGTCTTTCTCAGGTTTCAGGTTTCAGGCCTCCAGGGATCTCTGGCAAACACACCTCCACCCTCAGTCCAAATAAACCACTTCCTCCGGGGATCCACAGCACAGAGTGCAGGGCAGCTCCTTGCCGCTTAAGTTGTTTGTGTAACTCGAGGTT
1.695261612601651 ACTGAACTACACTGAGGAGGCAGCGCAATGAATGGATCGGCCTGAGGTCTGGAAGCACAAGGCTGGAGTCTTAGCTGTTACATAGCTGGATGAGGAAGAAACCACATGACCTCTCTGGTTGTCAGATTCCCGGCCCAGTGGGTAAAGTCTATTGTGATAATCAGGAC
1.108544329301076 GGGACGCCAGCTCTTTATCGCGGGACTTCCGGGTTGTTGCCGGAAGCGGAAGTTGATTGAGGGACTAGCGTAGCGGCAGCGTCGCTCTAGACCTCAACCGTGTCACGCTAGTCTATGGTTTTAACTCGCCTCTTCTCCATGCTTCGGGGCCAAGCGCTGTTTGGGCT
0.3932436095054143 AATATAAAACTTTTCCCTCAGACACTTTGTGTCTGGTGTGAAAAGAGCGACAGAGAGGGGGCGGGAGTCAGGATTCCAGCCGAGGCAGAACGGGAGTCAGGCGGGGTTGGAGATGGAAGTGGGGGAAGGGTGCGATGTGGGAGCCCGGGAGAAGCGGGAGGAGAAGG
2.353003845381965 TTTCTCCCTCCCTCTCCTGCAGGTGGCCCACTGCCAGTCGGGCACCAGCCGGGTTGCCATGGGAACCGCTGAGCAGCTTAGGAAGCTGCCATAGATCTAATCACAGGCTGTGAAGCTTCAAGGAACAGCTCCCTTTCTGTAGAAACACCACTGACAGCCAATTAGGT
1.608939296839648 ATGAAGAGAGGCAGGATCCAGGCTGCTGTTGCTCCTTTTTTAACCTGAAGATATGAGGCAGAGCTGAGTCCTGTGCAGGCTGAGCCATCTGACAGGGGGAGAGCGGCTGCAGAGAAATTGTGTCAGGCTCATTTGAAGTTCCAGGCAGGGAGCAGGAGTGTGGAGGC
2.945243083742649 CTAAAGTGAAGTCATCTGGCTGGGCCCTGACTCAGAGTCTTTGTTAAAAAAAGCGTGCTGGAGATAGGAACCTCTGGGGAGGCTGCACAGCAGTTGCCTGTACTGAACACTCATGCGTGGTGCTTTGCTGTGACAGCCTAGCATGGCAGTGCAGGCAGGGACTTCAT
3.131952410038118 GCCGGAGAGGTGGAGGAAGTGTCCCAGTGTGGTGCATGGCTTGGCCCAGCAGTACTCCCCAGCAGGGCAGCTTCCTTCAGTGTGAGTGTAAGAAAGACAGACAGACAATGCAGATTCACCAGCCCAGGTGACCACCCTGAGCCTAAGCCTTTATCTTCTGGGAATCT
2.537406975789922 GCTTCCTCATCTTCTGACACTTGGGTCCTGAGCGATCCTGCAAGGGGAGAATCGACTGAGGGCACCGTTTTCCCGTTCCCTCCTTTCAGCACCGGAGAATAAGACGTTATACAATTAGCCAAAATCACATGAGAGGGTTCGGGGGAACAGTTTAGGATTAAATTTAG
1.579743503551761 GTTTGTAAGTCACCTCTCTCCAAATTCCCGAGGGTGGATGCATTCATTCCACACATACTTACTAAGGGCTGGCCTGTACAGGCTGCTCTGTGCGCGCTGACAATTGAGGGAAACAAACAAGTCACATGGGGGCGGGGGCAGCTAAGGTTCACGTCCTGTGACCACAG
1.101368517122838 AACCTCCATTTCTATTTCTTCCCTTAGCTGGAGCACACGCGCTCTGCCCACACCTGCCAGAGTGCTGTTCTCCAAAACCCCTGGGTTTCTTCACGGTCCCTGCCAACAAAGTTCCCACCTCCTCCTCACTTCTTGCCTGTTCTCTGCTTGAAACAGCCAACCAGCTA
0.3244619730244246 TGCTCTGGATCTCCTCAGGATTCCAGGGTGAAGCATCCACCCCCCTCTGCAGGCTGAGCAGGGGTGGGGGCGGGGCTCTTCTGTGTCTCATTAGATCAGCTCCTGTCATGTGCCCTCCCTTTGGGCTGCAGAAAGCAGCCTGTGGAGACCCGTCAGATAACCTGCAC
4.074091124580058 AGAGAGGATGTGGGCTCCAGCATTCTCACACTGTCTCGGGTACACAGGCTGAGGTGACAAGCTGTGATGTATGCCACCTGGAGCCTCATGTCTTCATGTCACCAGCAAGCCGTGCAGTGCCAGCTGGAAGCTTTGGAATGAGCCTCCCTAGGTGGAAGAGCTGTGCA
3.531924011265433 GTCCCTAAGCTTGTGGTGAGATAGAAGGGGACAGGGACTAGAGAGTGAGTGGAAAATCCCCTTGGCAACTAATCTCTGTCCTCCAGCCTGACAGTATGGTCTAGAAGCCTGTTACAAACTCCAGGGTGAAGGTCCTCATTGATCAGAGGGATAAGGGGTCAAGGGCT
2.582389205659869 GGAGAAAATGAAGCTTGTTCAGAGGAGAAATGAGAGGCTGGGGAGGAATAATGAGAAATGCACCTGGGTGGCAGGGTAAGAACTCCAGGGTGCTTGGCTTTGAGACAAGAAGACTCAGAGCAGCCAGGAGAATGGCATTTTGGGACAGCAATCATGTCCTGTGCGAA
0.8107584166892433 CTCCCAAGCCCCAAAGAGAAGCAGATTGGGAGTGGGTGCCAAGCCCAGGGAGGCATCAGACCTCAGCCCTGTCTGGCTCAGGTCCAGGGGAGCAGGCTGTCTGGCTGGACCAGTGGTCAGGAATTCAGTCCTGTGGTCACCAGTAGTTCCCAGAGACCAAATTCTTT
1.639872121189171 CTGAGGAACACAACTGTCAACAATGTAAACGTCACTGTCCCCAGAGCTGGAAATGGCAGGTTACATAATGCATCCATTCCGCTCACGTGTTCTCCCAGACCGGAGCTCCAGTGGCTGACCCTTGTGCCTCCTCCAAGAGCTGGAGGCCTGATGTCTGAGATCAAGGG
1.605732490815027 GCAATTGAATCAGTGGGTACTGATGCCTCCCGAGAACTAAAATGTCACCACAGCTCTGGGCACGTGTCACAGCTCAGAGAAACTGCCACCTTCTTCTTCCTACATTGATCAACCAGCTGTCTTAGGCTTCCTCCCACGGCCTTGAGGAATCTGTTTCCTCGGGATTT
2.06079236733669 TACCTTGTGACCTCAAAGGAATGTCATTAGGCTAAGATGTGCAAAGCATCCTGAGGACTTCCAAAGCAAGTGCTGAGTCCCAAGTGACACTCCTCTCCCAGCAGAACATAGAGGAAGGGAATAAATATTTGTATGATGGGCTAATTATTAGCGACAGCTTTGATGTT
2.670342545194248 CATCCTACAATGAGCAGTCAGGAAAAAAAAAGAAATCAGCTCTTAGTATCAACTCTGTTCCCTTTGTGCCAACCGTGGGTAGCACGACATCACCCTCTTTGCGCTGTAGGAGTCTAGTGGAGTCACCTGGCTTCTGGTGGCACCCTCGGAGAAGGGAAGAGATAAAA
2.93842902582732 ACTCGCTCACTCCCTTTCTTTTGACATTTTACTGCAAAGCGAGATCAGATGGGTATATTTAGTTCCTTTTGTTGGTGAACGTTTCAAAGGTGCTTCTGTGTGGCTCTCATTAGCATCAGGTATGCAAATGGGGAACCTGCTCCTTCTCCTGCTGAATCATGCCATAG
1.646814845179438 GTTCTGGAGGTAGATCTTTGAGGAAATGGCATTTGAGGCAGCCAATGAGGCTGGATCACCTGTGTAGGGGCGGGTCAGACGCTGAGATCCTGTTCCCCAATTTGGTTCTTGATCTGTCAGTAAAGAAGCCATGGGCCAATTGCTGGGCAGAAGGAATAGGCGGAACT
2.436665586634643 GCCCTGGGATGGGGACAGGGACTTGGCTGAGGGCTGGGTAGAGTTCTACACACTCCGATCCCAGTGTGGGGTGTTATGCACACTGATCAGGTGACAGGTGGAACTTCACATTCACCAGTCCCGTGGGGTTTGCCGGGATGGATTCTGGAGGCAGAGGAAACCGCCTG
2.386988695424931 TGGGCTTAGGAAAGAGTTCTGCTGCCTGCTACCCCTCTACACCCTCTGGAGCTTCTCCATTGGAAGGCCCTGGGTAACTGAGGAGGAACTCTTTCCTCTGAATCACAGTCCTTCTGGCACCAGGCTGGTGGGGGCAGCAGGGAAGACTTGGGTCTGTGACTGCTTGG
0.3376601035119119 CCAAGAGTGCCAGGGCAGGGTAGGCGGGGAACTCTAGTAACTAAGGCTGTGACTGGGCTTTGCCTGAAGTCCACAATGGCAGGATGCCCAGCAGGGCTCCAGCTTCCTGCCTTCCCCAAGACCTGGCAAGGAGCCTTGGGGTCAGGACTGCATCCTTGTTCTGTGTG
3.842975961417468 GAAAAGGTGGCAGAAACTCAGTACTGGCTTTTATGAAGCTCTAGGCTAGTGAGCTGCACAGGACCTGTACATGCATTCCTTTCAACAAAGCAGGCGCATGGACCCAGTGAGGGCTGCTGGCTTTAGGGCTCTCCACCGCATTGCACTGGCTCTGTCACTATAATTTA
2.256539018881489 GCCTCAGACACAACAAACACTTGGGAGGATGCAGGCAATCAAAAGAAACTGGAGCAGGCTATTCACAGGGAAGGAGTCAGGAGCTGCGCTCTGGGTGGCAACGTCAGGAAAGCATTCTGCATGGCTGGAGCTGGCTTGGAAGGGAAACTCACCATGGCTGAGAATGT
2.493089364698248 TTCCTCCATCAGGGGCGAGCAGGACTGCCTGCTGGGCCGTGAGTCACTTCTTGCTGGCAGACACACTTCCAGGATACTATGCTTTCTCAGAGCACTGCTTGATTCAAACAACATGTCTCTAGAAAAATAAACCCTGTGTCCTCACTTCACCTAGAGAGTGCAGGCCA
4.047370428489041 GCTCAATATACAGAATATTGCATTGAGTTTGCAATGTCAGCTTTGTTTAAGAGTCATATTTTCAACTGCTTGCCTGTAGCCTGCAGCAGTGCAGACTGGGTTTTAAAGGGAAAGCTTCCATTTCCATGACTGCTAAATGAAAACATTTCAGACCTGGAAATGAAGTT
3.523537610334898 TTTTTGAGGCTGCCAGGACTCTTGCAGCAAAGGAGGGTGTGAGCAAAGCTGCCTGTCTTGTTTCTCAGAAGGCCGGCTTGGCCGCAATCCTCCCACGGCCTCCCCTGTTGTTGCTTAGTCTTCTCACCTTGGCCTGTCTGCTGGGCAGATGCTGAACGGAAGTCACG
4.033807323565968 GCAAGAGGCAGCCAGAAATTCTCAATCATCTGAGGGATCTTTGAAAATCCTGCTTTGGGTGGAGTGACATTTGCTAGCAATGACAACAGTGAGGTTGGCAGGCAGCCCTGGGTGCAGCCAGAGAAATCCAAGCATACTGTTTCTTTGGGGTCTGTATCTCAACACTT
3.198484506537842 CACACGCATGCCCGGTGCCTTGGAGGTAAGAAGATGTTGGATCCTCTGGGATTGAGGTTACAGATGACAGTGAGCTGAATATGGGTTCTGGGAATCAAATATTCAAATATTCCTCTGGCAAGAATAAGAAATGTTCTCATCTGCTAAACCAACTCTCCAGTTTTATA
2.38280414301165 TGTGACTCAGACAGGAAGCCACCCCTCAACCTATTTATGCTTCCACCAATAACAGTGCGGGATGCCTGGTACCCACAGTGTCATCATCGATGCCTTTTGTCAGTTTAGCGGGTGACAAACAGCCTTTCCATTGAGTTTGGATCTTTTGGCCTAACCCAGGTGTGTGG
0.9492243098062608 AAATAAAAGCTTTGGTTCTCGCCCACAGGAGTTCACCTTGTGGTTGCATAGGGTGGGGCGGAGAATGGAAGCTGGACTGTGACTGGATGAAGGCACACGGTCAACAAAACCTTGCCTGCTTCCTGGGCAGAGCACAAAAAGCTCCGTGTTGACTCAGCTATTTGCTT
0.3968457116816165 AAGCTGACCCTCTTATCTGAAGAAGTGCCAAGCACTTCCTCAGTATCATAGCCAGTCCTGGGCCCCCAGGGAACAGGCATGCAGGAACTGGGTGGGAAAGTCCAGAGTGGATACTGATCACCCGTGTCCATCCCCCTCCCTCCCACATGCCAGGTAGGCTTTGACAC
0.9821338874691509 CAATAGAGATACTGCAGTACAAATTTTCTCCAAGGAGAGCACCAGATCAAAACGGTGTTGAGCCACGCACTTGCGGGGACTAGTTCCTTTGCTCTTTGGCGGAAGCTGGATGGTTAACATACAATTCAATCAGGAAACCGACGCCTGCTGGTTTGTTTGGTTTTTTG
1.796453669805857 ACATGGAGGCGCCCCAGAGCCATATGAAAACAGGAGCCTGCAGCCATGATTAGCCCTGGATTCTTGAGAAAAGCTTCTTGTGGAGGAAGGAGAGCACTTAAAGGAGCGAGAGCACAGGGCTTGGGGGCGCTCCTGGGCCATATGGCACCGGAAGCTCCGTGGGAGGG
2.204307122359253 CTCTGCCTTCTCAGTAAAGCCAAAGGCGGTCTGTGTGGAGCAGCAGGTGGGAGGCCACGCCCTTAATCCAACCTTTAGCTTGAGATACTGCCGCCCACTGGCAGAGTTTGCAGGGTTTAAGGTTCCAAGTGCTTGAACTGCTGAACTCTCTGTCCCTGGAAGGAAAC
3.427699269807791 GGCCTGGGGGCGCTGTCATTCAGGAATGAGGTAGGTCATGCTGAGTATTCCTGCGCACACCATCCTCTGCATAAGTAGAACAGATGAGTCAGACTCTGCAAATCCATCCGGAGCTCTTCCTGGGAGGCTGCTAACCCTCCTCTGCTAGCCTTGCTAAAGATGAGAGG
1.544922338992644 TTCTTTGTTTCTAACACCAGGTGCTCTGGCCTCACATCAACCACAAAGGGTTGCTAGCTTCTGCAAACGGCTCCTGCCTCCTCCATCAGCAAAGGGGTCAGCAGGCTAAAGCAGCCTATGACTGAGGCCCCAGGACTTCAGAGCAGGGTGGCCCAGGCTCAGGGGAG
0.0837757200132295 ATTTAAATCAGATAATGGGAGAACAATTTGTGAGTTCCTGGGGTGGAAAATTCCCGAGCGCAGGAACCGCAAGGCAGAAGCGCCCCCAGCTGGCCGCTCCTGGCCAACTGCCCTCGCGACCGCGCCCTGTGATGCTGGGGGGTGGGGGCGCTGAGATGGGGGAGGAC
1.89924885525477 GGCACCTATTTGCTACCTGCCTCTAATAGCTGATCTACTTCGAAGTGAAAAGTGCATTCTCGTTGGCGCCGTGGCTTAGCTGGTTAAAGCGCCTGTCTAGTAAACAGGAGATCCTGGGTTCGAATCCCAGCGGTGCCTGGTTTATGTGGGAAGTGATATATTATTGC
3.630153445408439 AGCAATCAGCTACCCTGATGCTCATTTTAGGGGCAGGCTGGGCAGGGCTGAGGGAAGGGGTAGGGAGCTGAATCATTTATAAAGCTTAATAAAGATGCAGATGAGCGGTGCTGAGTAGGAACCCCAGAGCTGGGCTTATTCATTATTCAAAGTTATGCAAATGCCAC
2.023807307384165 CCCTCACACTGCAGGCTTTGGCGCCCCCTGCCGGCCCCGGAGAGCCGTGCCACGCTCCGAGTCCCAGCGATGCCAGAAGGGCATGTCACTGCTGGGGCAGGATTAAGTCACTAGAAAGAAAGGAAATGAGTCACCACTCTTCGCAGCTGGGGGCGGCCTGGGGAGAG
0.002534746585488603 CTGAGGTCCTGGGCATGGGGAGACAATATGCTTGGCTCCTGCCCAGAACAAGATGGGAAAATACTTAGAAGCATCTGAACTTACTAGGTTTCCAATCTTCAGTCCCCAAACCCCTCCACAAAGCCTGGAAGGAGACCAACCCGGCTTCCGAGTCTCCACTCATCTCT
2.271650650195459 GGGAAGCAAGGACAAGCGTGGGTGTGTTCCAAGCCACCAACCTCTCGCTAACAACCCTGGGATAATGAATGAGCCTTCAGCAGACGCCTTTGCTCTCCGGTGAAGGGAGCGCCCACTGCAGACCGTCCCTCTGCAAATACCATTGTGCTCCAAGAACCATCTGGCAA
0.993098669929762 AGTTCTAGACAGACACCCTCAGTCCTGCCCACCAGCCTCGCCCTCCTCCACCCACCACCAACAATGTTCCTGCAACTCCCTGATGCTTTTAAGTTAGAGTCGGGTCTGCTGCTTCACCGAGCGAAACCAAAGCCGTTGCCTCCGTGTTCTCTGCACGACCGTTCTGA
2.307025400834773 GGCTGGCCCTGGTGGGAGAAGAAGCAACATGCTTCAGAACACCCTGTATTAACTCTCTAATTAATTCACTCTGCTCACTGCAGGGAGCTGGAACAGGAATGAAGGATGTGGGAGGAAGATGTACCGTTCAACAGAGGAGCAACATCTCAACGAATATGGATACAGGA
1.696730385151826 TTTCCTTTTCTGCGAAATCGAAACCTAACAAGGGTGAGGCCTCAGGAAGGAAGTCAAACCTGGCCCTTTGCCTGGGCTTGCTTCACTGCTCTGGGTTCCAATGACTCTGTCTTCATCCTGAGGGTTTCCACCCAGCTCGGTCCAGCTCAGGACTCCTGAACAGGTTT
2.443859409768942 TCATGCTGGTGGTGAGAAGGGGGGAGGAGCATCCGCCAGCACAGCGACTGCCGCTCAAGAAACGCCAGCAGTTTCTAATTTTACACTGCCCTACATTTGTTGCTTTTTGGGGCTTTTGACTCACTCTACGAGCTTGGCCAAACAGAAATGCCTTTTATGTTTTATTA
1.230010002657005 TGTCTTAGCATCCTAAATAGGTCAGAGCTTGTTCTCACTTTGCTGCATGAGGATCCTACTGCAGGGAGATGAAATAACAGCTGAAGTGACACCTCAGCTGTCACCTCCCCCTGGGAAGCATGACTTCTTCCCAGGCCTGACAAACACCTCACCTTTGGTTTCTCAGA
2.770499910966735 GAGCTACATCCCCAGCCGTCCGTATCCCTGTCCTAACACACTGTTCTGCAAGCCTGAGCAGACTGTCTCCGAGTGGAGCGTGCTCTTCTCGGAACAGGCTTTGCCTGGCTGCGTGGAGCTAGTCTGGGTGCTTGTCTTGCTGTGCGCTAACCTTTGTAGATAGTGGA
