svm_type c_svc
kernel_type wgkm
L 8
k 5
d 3
M 50
H 50
nr_class 2
total_sv 666
rho -0.391102
label 1 -1
nr_sv 474 192
SV
0.5 AGAAATTTCTCATTATGCAGTGCCCATGCTGTTCTGTTCTGAGAAATAACCTAAAAACAGAATTCCTTATTTGAAAATCTGAGATACTTCTTCAGTCCTATGACCTAAATACATAATTTTAGCATTTCTTTATTTTTATACTGCATACAAGATTCTAGCTTCCTCTG
0.3693190438779511 GATGTGCGTGTTTGTCAGGATATATGTTTGTCCCTGGTTGGACGAAGGCAGGATGTTTGTAGCCTTGTGGGGTTTACAGTATTCAGTGTCAAAGAGTTGAACACCCCTGTAAGCTGCTTATGGGGTTGTTGTTCCTTAGCTCCTGCCTTCCTTTGAACAGGCTATTC
0.5 AGAGGATGTTGGTGAGGTCATGGAAGCCTGTATTAAAGTGATGGCGTTAGATGAGAGGAAAAGAAAGAGTCATAACAGAGAGGAATTAGCCAGGCTTTGTAAATAAAAGATCAAGAGGACCTCTGATTTTAGACTTGGGAATAATGGCATCACTAAATAGGACAGGG
0.09533273236112101 TATGTGTGCATGTAATCAAGAACAATAAATGTTTCTGTGTCCAGGAATAATAATTCCTCACTTGTGGATAAGCAAGCTGTTCATACAGTATTCGCCTGGATTCTCTCCCTGAACCGCAAACAACAGGGTGCAAAGGACTGTCACTTTGCTAGCCTACTTCAGAGGTG
0.5 TCCCCTCCTCACCACTCCTTAGCTAGGCTGCACTGAAGGAGGCTCTCTCACTCTTCTCACTCTTCTCTGAAAGCTCTGTGCTTCTCTCCAGTGGAATATTGCAGTAGGAAAATAATGTTTGACTCAGAAAGAAAGCCTAGCATGGCCTCTCAGCGTGTAACTTTTGA
0.5 AAGTCACAGATGTTCGAAAAGAAATCCAATCTTGTTCTGCACTGTGCTTCTACTGTTTGGGAGAACATCAAATGCGACCATTGAACCGGAAGGTCTCACTTATCCGGCCAAGAATCACAAGCTGACACTCAGCCCCGTCTCTCTGGTGGAAGGAGCTTGACTGGGAA
0.4096711505157126 TTTTTTTAAGCTTACTTTCATTTGCTAAAATTAACAGAGCACAGTGATGCACCATTCACTCTGATTGCTGGCCCCAGGAGAATACCAGCTTGGTGCTTCCTGCTGGCTCACTTTGTTGCTATATTAGTCTGTACAATCTGTAAGCCTTGTATTTTAATTCCCCCTTG
0.5 CTCAGCTGCTCAGCAGGTAGTGGCTTCTTGCAGGAAGCTGCAGGTGTGGCAGGACAATAGACTTCACCTCGGTCAGAAGACTACACCCTAGACAGACTGTGATAGACAAGGTCTGATTCAGCCCTCTCAAGGCTGCGGGGAGGGCAGATTTGGACAGGTGCCTCCTA
0.5 TCTGTCAATCCCACGGGACTCCAGGATCTGAACCCTGAGTTTGTTTTAGTTACTATGTTCTCAACCTTCCTCCTTAGTCAGCTGTTTCAGCTCCCTCAATCCTTCCTGTTTATGTCTGTCTCACTCTTTCTACTGTTACCACAGCAACAGTGTCCTCCCATTCAAAT
0.08785883993095663 AGGTTGTCTAATCAGGCAAGGCCAAAAGCAACAAAGAAGCTATGTGGGTCACTAACCTCCAGGGAGAGTGCACAGGAAATGAGTGTGTTTAGCTTCAAAAAACGATAAGGAGAGGGCCATTCCCCCTCTCTGCGCTCCACTTCCTCATCTTCAAAGTGGTACTAATG
0.5 CACAAAGCTGTGACCCTGCAGGTTTGCCATATACAGAGCTGTGACCCTGCCTGTTTGCTGCACTCAGATCTGAGATCCTTCTCCGACCTCCTTACATTATTTCATGTGCATGGCGAGAGAGTCGCATTAGCCATGGTTCAGCATGATTAAGGTGATATACTTTTCCC
0.5 CAATTCCTTCAAGATAAATATTTGTGGAACATAATCACAGTGCTTAAAAGCACAGGCTGCAGATTTGGATGCTGGTATCCAGCGCCCTCAGCAGTGTTACTCAGAGTAATTGAGATGAATGCATACTTCAGAGATGATTGATAATAATAGTTCTGAAATCAAGCACA
0.5 ATGTGTTTTTAAAAGGAGTGCTTCAAAATCCTATGTTCAATTTGTGCCTCCCAGCTCAGACTCACTCTCTGCCTGCTGTGTGTTCAGCAGGCCCTGCTTACTGTCTCCCTGACCCTGGTTGCCTAGTTACAAAATCCTCTTTGTGATTTGTGAGATGCTCATCCTGA
0.02620192342298969 TCCCATTTAAGGTCTGTGCTGAACAAGTGGATACTGAAAGCTTTGCCGGCACAAGGAGGCAGCACTGAAGCTGAGCCTCAGCAAGGGTTAGCCAAGGACGCGGACTGGAGGGCTGAGCTGGGAGGAGGGGCTGAGCAGGAGCCAGTCTGGGGCATGATGGGGCCGAA
0.2055496141111466 AGTTCAAGGGTTATTCTCAGTTGAGATCTGTTCCCAGATGGCCAGCTTTCCCCCACCCCTTCCCAGTGTAAGGCAGTCTCAGGCTGCTTGCACCTTGCATGTTGTCAGTGTCTGGCCCCCTGCCTTCTCCAGCTGCCTCAGTCAGGGGCTGTCCCAGGACAAACTGA
0.2003577490577781 TCTTGCAGCTAAAAGCTTTCCTCTGTGTGTGAAATTAAAGCTTTGAGTATATGCCAAGCCACCGACAAATAAACCTCAAACTCCCGGCTGCTGCTTAGCCTCTCGGAAGCTGAGGACGTTAATGAGTTTATCTGAGAATTGGTTGAATGAAGCACATTTTCCCTGAG
0.5 AATTATTTATTAAGAGAAGGAAAGGCTTTGATTTCTTCTCCCTGCTGAGAAAAACACTTTAATTCATAATGATGCCACTTCTGCACCAGGGGCCAGACAAATGTAAAATGATATATTAAAGCAATCATAGTGATATACTCATTTACAAGCAATTCAGAATGTTTAAG
0.2505613308915939 GCTGCACCAGCAGGAAAGTCTGCAGAGAATACAATTCATGCTTAGGGAACATCACATGGTCTCTGTTGCTGAGAGCATAAGAAAGCCTATCCTGCTGAGGACTATGAATCCCTTCAAACTGCATCTCCTTCCTGCCTCCATCTCTGCTGTCTCTGAACTCTCTGTGG
0.5 CTTTGTTGTAGGATGAAGAACTTCCATCAATTGTTGGGCTATATAAAGGTTTGCTCTCTGTTATTCACGGCGCAAGTTTTCCAGAATTAATGAGGAAGCTTGAACTTCTTGGTTTGTTGTTCTCTTATAGCTAAGGGAACATGCTGCAATACAATGAATGGGCATCC
0.2614420497548673 ATTCAGGTATCCCTCCCATACAAATATTGAGCCCTTCCCACGTGTGACTCCTCAGCACATTGTACCTTCTGTCCTCTAGAGGATGCAGACCACAGGTGAGGGGAGGCACCCAAAAGTGGAAACACACTTCCTTCGAAAACTCCAAGAGCGGATTGTTTTTCTTCTGT
0.4921638634810671 TGAAAGTGGTGGGAGTTTTAGGATTCCATTTACATCACCCACATGACTGTTCCAGGGGGATCCAGTGCCCTCCTCTGGCTTCTGTGGGCACTACATGCCCAAGGTGCACATACATGCATTCAGCCAGAACACCCATACACTTAAAATAAAAATAAAGACAAACCCCT
0.5 AAACAATCTAGAAAAAAAAATTTATTTTAAGATCTTGTTTTTGATCAGACTGTTCAAAGAAGGTCTTAAGTGGGTGAAAGTTCAGTAGGCTGAAACAATAGAAACATTTGGGAGTAGAATATGGCCTGACTCACCCTTCATGCAGTGCCTTCACTCGTCTCCTTCAT
0.5 GAATCTACTTCTAATGGGAAAGGGGTGGTAAGACTGCAGAGCTGTAGGAGGGGCTTGGGAGAGTTCACAACAGGAACTGGTAAGAATAGTCTGTATGAGGGCTAGGTTTGACTGCCAATATTTGGCTCTCTGTGGGATAGCTTCCTTCAATTCAGTGAAGAAGCTGG
0.1409397205323955 TATCAGTGTAGTGCCTTGTCCAGCTGAGATTTACTAGACAGCCCAGTATTAGCAGTTCCCAGGGGGCCTGGGCTTAGCTTGAGTCAGTCAGGGTGTGATAGGCCACAGTGCTGATCTCACCTAGGCAAGCCAACCAAGTTCTCTGCCCCCTCCACCCACCCCCTCAG
0.3128383124073601 AGCTCCGCCCCTGTCTACCTCAGCCACTCAGTACCTTTCACTATCTGACTCATCGAGGGTTTTCATGCTGTAAAGCACTCCAGGAAGCAGATTCAGGCAGAGTTTGGCTTTCCAGATGTTTACCAGGGAGCGGTGCTAGGGTCAACACCCATGCAAAGGAGGGGGCC
0.05630052409020721 TGTGTGTTGTGGGGGAACGTGACTGCCACCTCCTGCCCACTTCTTCAAAACGGAGACTCTGTAGAGGAAGCCTGGCAGAGGCTCACAGTCCCTGACTTTTGTTTTGACTTCCATGCCTTTAATGGCTTTTGGTGTCATCGTCAGCCAACTCTCTATGTCTATTGACA
0.5 CATTGTCTAAGGTCTGGAGTGTGTTGTTTCACTTGTGTATTAAATTACGAACTAAGGTGTGGCTCTTTGACCTTCAGAACCTAACATTGCTCATGAGTAGCACTGTTATTGTAGACCAGTCCACTGCCAAGACAAACATCCTCTCTTCGTGACTCTGGCTTTAGAGG
0.5 TTTTGGTCTATTAGCGAGAAGAAAGATCAACTGAACATTAATCAAAGGCTTCATCATAAGTAGGCGCGTGCATATATCACAGACGCTGCCAGAGAGAGGCTGGGCTCAGTGCTGCATGCATTGCCTCGGTCTCAGCCTGCTGAAGTGCAGCCTCATGACTCTCTGTT
0.1894855646229285 GCGGCGAGCTGATAAGTGAGAAAGAGCATTTTCCAGAGTGCCGGGCACTGAGATCAAAGCCCTCTGCAAATATTTTGATAGGAGGCAGCTGTGTTGTAACAGAGCCCGCACTGACCTTCTCTCCCAGGACCTTTGCTGCGTCCTGCTCCTACTGCTTTCTACTTCTT
0.3448601910393326 CCTCTGCTGCTTCAGAAAAAAAAAATGTAATCCTACACGTGACACTCCAGTGTGCTTTGAGAAGCCACTCGAAGCAAGATAAAGCCATGTCCTCAGAGCAGGGGCAACTTCAGCAGATGGGAGGGGTGCGGTAAGATGAAGTCCTTTGGAACAACCTTCTAGCAGGA
0.4567465363737507 TGTACTTGCTATAAAAACATTCCTTTAGACTTTAGAAATTCTAAATAAAACAAGAACAAAAGAGTGCTCCTTCTTTTTAACTCCCCACCCAAATGTTACCATTGTAAATCAAGGTAGCCAAGTAAATTAACCGCTGGCATTTAAATGCTTGCTGTCCCAAATATTTA
0.4611492933044339 GAGGATTTCCAACTTGTTGAAAGAGAGGGTTATATTCCAGCCTGTGAAGGTCCCACATCCTGAGGTCATTAGGGATGCACGTGTGTAGTAGGAAAGAATTCAAAACAACTTGGTTTGTTGATTCTTCTTAAGAAGGAAGCAGATGGCAGCCAGCCAAGCCTCAGAAT
0.5 CTGTGGACAAGTATGTAATTGAATTTAACCTTGGTTTCTAAGGTTAGAGATAGATTAGATAAGTGGGAAATGGCCTCTCCTCCCATATCCTGCTCCTGAAGTGTAGGAAGTGACTAAAATGGAAGCACGGGAAGTTTGCAGCTGAGGTATCAAAGGTTTGGTTCTGT
0.2175059584280938 TGCTCTCTTGGTGTCCTGCCTCTCCCCAGAGGAGGGAGGGCTGCCAACTATGCAAAGTGCTGGAAACAGATGAAAGCGATGCACTGACCTTGAAGTGTGTTTGGGAGTTCATAGCCCTTTCTGATGCAGGTAGTGTGAATGTGTTTATGAATATTTATCCAGCCTGG
0.5 AAAAGCAGCACTGGACAATTTCAACGCAAATTGTAGTTTAGCATCTCATTAACTGAATAATGGCTTATACACACCATGCATTTCTAAGTACCTGAAGTGCTATTAAAAAAAAAAAACGCACTCCAAAATGAATCCACAGTCCATTCTTCTATCCATCCTCAGATGGC
0.5 GCAATTTGAGTACTTGAGGTTTAATAAATGAGTACCACTTACAATCAGCAAAGCTTTCTAATTATAGCATGAAACTTCACTCTCTGGTGATTAGAGGCAGGCAGTATTCCTTTAACAAGAAAAGGAAAAGATTGAAACGGTATGCTGGTGCATTGGATGCTCTTCTT
0.5 AAGGCTTTTCCAGCTGTTTTAACATATCGGAAACATCCTTTATAAATCCCAGAGGCCTCTGTTTAAAATAGAAGTTCTGACCTCAGATTCCTTTCTGTCAGTATCAAACTCAGCACTCTTAGGAACAACTCCAAAAAAAAAAAAAATCTCCTCAGTAGGCCAAAAAA
0.4478434810807873 CAAATCCTCAGCCTTCTTTACTGAACCATTACGTCAAGGCTGAGTGGCCAGGATCTAGATTAGCAGACACCGTTCACCTGCTGTCCCCTTTGTTCTCAGTTCCTAATGTGAAGGAAAGGAGATCTAAAATTAGACCAGAGCCTCACAACTGAATTGAATTCCTAAGT
0.4540209373463429 GCCTACAGGACATCACCCTGCCTCCCACTCCCTGCTGGTCTGGACTGGAAATGAGTCATGCTGCTGGTCTTTGGTTTGTTCTTAATCATCTCAAGGAAAACCTGTTTTGATTAATATTTAAAGCACCCTGGGGATTGCTTCCTGTTTTTCTTAAGCTGTCTACCCCT
0.5 GGTAAGTCATCGCCGGTTTCTCAACATTTGATCGCACATGTTTACAGGAAGGGCAGAGCTTCTAACCAGTCTCCCCTCCCAGTCTCTCTTAGCTGATTTCCACTTTCACACAGCCAAGCCACAACCGTTGTCTTACACTCTAGCTGTGATGTACTTGGAACAATCTT
0.5 GTAGGATATAATTTTGAAAGTGTTGAAATTTGCATTCATTAGTGCTCCAGAGGCTAATCAAGGCATTTCCAATTAGGATCCACTCCAGCTGTACTCTCAGTCACTGTGAGAAAGGTTTAAATGGAGAAGGAGAAAATTTACCACTGCACCAAGTTATCCTTGGTCTA
0.5 TGAGACTTTCTTTTCCCTTTTAAAACCATGCAAAGTTATTTTTAGGAGGGTGGGTAGCTGGAGTGGGGGATGAGGAGCATGACATCATCATGCTATTTGGGGAACACTTAGGGATGATGCCAGGTTGGGATGGTTTAAGTTTGATTCTGTGTATTTAGGAGCTGAAT
0.07193381015680597 CAGTGGCAAACCCAGCCCAAGCGGTGGCTTTGATTCTACTCAGGCTGCAGCTACTGAAGAGAATTTGTAAGGGAAAGGGGCCCATAAAAAGCCTTGCTAAGTGCAGGCTCCAGTGCTGGTCACCAGCATGCCTGGTGAATCATGCTGAATGCCTCCTGGGAATGAAT
0.03342193429667686 AGCAGAGCCAATTCAGTGGGGCAGCACCTGGCCCAACTCGGGGCTGTGTGCTCACTTTGTGCTCACCCTCATTGTCCAGCTCTGCAGGACACACTCCCTGCAACAAGCCATGGCTTTGAAGTGTTTTAGATAGAAGCTTGGCTCACTTAAACAATTCTTCATGGAAA
0.5 AAGCAAACATCCTGATGTACTTCCTGCCTCCATGTGTCCCGCCTACATGTGATCAAGCACTTCCTGCTTCCATATGTCCCGCCTACATGTGATCAAGCACTTCCTGCCTCCGTATGTCCCGCCTACATGTGATCAAGCACATACTGTGCCGACCTTGCTTACAGAAG
0.3212884616149444 CTCTGTTTTCTCTGCGCCTTGGAGAGCCAGGGGCTGTGATGTCACTGTATAAACAGAGGGAAGGGTGGGGGCGAAAGCGATGGAGACGAGGGTGGAGGAGGCCCTGCTGGAAGATGGGGGTGGGGAGGAAGATGGTAAAAGGTGGCTCGGTCTAGTGTGCGGGATGG
0.2540898663468476 AGGAGCTTTTCCCTAAAGACAAGAGTTGACAGTGTCTCCTCTCTCCAGGGAGCCTCCCTGGAAGCTGGTCTCTTTGGAAGTTCTAGCATAAACATTCCCACCCACCTGGCTCACACACATACCATGAACAACATTGGCCTCTCTTCCCAAAAGAGCCACTTTTGTCT
0.5 AAACAGCATTGATATATTTCAACAAAAATAACTTGATTAGTGAAATACAGGATATAACATGCTACTGCTGTACAGAAACACGTACGGCATTAACAATGAAAACAAGTTTTCTCAAGAAGGATATCATTGTTTATTCAAATGTGAGTTAAAATAAATATAGTATTTTT
0.5 TAGTGTTGCTGCTCTCCTAATTATCTCACTTGAAGTAAGTAGGATGTTTCAGATCAACAAAGCCAGACCTCTCCCTTCCTTTCTAGTGATAAACACGCACATTTCAAGCATTCTTCCCAGGAGAAATTAGAAGTTTCCCAGGGAGGGCTGACCTTCCGAACTTAAAG
0.20682407713234 TTGACAACAGAGGGCAAGTGCTCTGCAGGCCTGATCTACTAAAGTTCCGACTTTGTGATGTTGTCTTGCCCTGGCTTATTCCTTTGTTATCAAAGCTTAGAACTATGCACTCTTTGATCCTAATAGTAACAGCAGGAAACTCTTCTTATCTCTGGTTTTCAGATGAG
0.5 TCAGTTTTTGGTTTTGTTTTTATAACGTACTAGGCAACTGCTCTATCGCTGAGTCACCCCGACTCAAGCAGAGCATCGTAAATACATTAAGACACAAGACTGACATGTATATGACACACACCAGAGCAGCAGCAGAAACATCCTGCCATTTGAACCATGGATTGAGG
0.5 CATGCGTGAAGTGAGATCCCCACCGTAATTGTAGGATATTGCTTGCCATTACTGTCATTAGAAGCAGGCAGATGTAGGAGCACTCCCAGGGAAAATCTTCCCGCTGGGTTTTCATGGAGATAAGTGCATGAAATCCACTTTTGAAAAGATGTTGAATGGAATGAATC
0.4761258254302774 TGTGACGAAGACTTAGCCCCTTCCTTCCCTTGCAGGCTCATTGGTGAGATTCCCACAGGATGGCACCCTAACAGAAGAAATCAGGCTCTCCCATTAACACCTTGTCTGACCTGCCAGCTCTCTCAGAGTAAACCTTCTGTAAATATCCCCTGCTGATGAAAGCAAAG
0.4175358278189563 AAGATAGGAGCTGGAATTCTCCTGGGTAAAGCTGACTGAGCTCACAAGTTTCACCCTTGGCCTACTTTGTTTATCTCCAGACCAATGAAGCGTTCAGTCTAGACCGTACAGTATTTCCAGTGGCTCCTGTCATTTTTTTTCCCAAGCATCTGGTTTTCCTCAGCACC
0.5 GGGAAATGATCCCATTCACAATTGCCTAAAAATAAAGCTTTGAAATAAATCTAACCAAGAAACTGAAAGGCTTCCCTCCTGACATCAAAGGAACTGGAGAAAACATTAGCTAGACCCTGCATGCTTGTAGACTGGAAAAATTAACATCATGTAAATATCTCTAGTGC
0.4581294927601794 ATGAAGAGAGGCAACTCAGGTCAGCCTGGGCAAGGTCCTTAGAAGGCAGAGACAATGTCTGGGTTCTGACATCTGGTATACGCCTCTCTCAGAACTTGAGATAAAAGCCAGGCTCGCTGCAGGGAAACTTGGAAACCTCTTAAAATAAAACAAAGGAAATTATTTTC
0.2029495576767277 GGCCTTCCTGTCCTTAACAAAGCCTTTGTGCGGCACTTCCGTGTTACGTTAAAGCAGTAAATGCTCTCCCCACCTTTTTCAGAGGAAAGAGGCTGTAAACTGAGTGCCTGTGTGGGGTGGGGTGGGGTGGGGTGGAGGACTTGTTCAGTGGCTCACGGTCTGCCTCT
0.2150718135893349 AAATGAAATTATTGGATAAATAAACATTTTTCTAACTCAGTCTGGTCTCAACTTCCTGGTGCTCAGATCGCTGGCTTCACAGACCTAAGAACAGAGGCAGCTGTGCTATGAGCCAGTTTGTCAGGAAGATATTAAGGAAGGAGATTTAGGGAGTGGTGATCACAGTG
0.5 GACAAGGCATATGGAGCAGCTATTTTTAGATTTGGACAATGGACTCTGAAGCAGGCATTGCTTGGAGACAGGATGGGTGAAGTAAGCCCTCAGATCTTCAGGGCTTATTGCTTAAGGCAATTTTTCAGACATAAGAATGTGGAAAAGAAACCCACATAAAGCCTTGC
0.3141935300795607 TCAGAAAAGAATATACTGTTTCAAAAGAGAAGAGCTTGGGGACTCACAAGGGAAGGAAACAGACGCCTGAGAACAGAATCAAAGATAAGTAAGCCAAATATAGCTACAGCTGCAAAGCTCGCTGTTGGTGAGAAGGGAGCAGAAACTACTTCTAAAAGCAATTTGTT
0.4736443087289826 CTTGAAACCCACTTGTTTCCTGCCTCGCCTGAGCATTCGCAGTGAGGCTGTATACGTGGGCTGCCTGCCAGGCTGGACTGTTCCTTGTGATCCAGACCTGTCAGCCTATCGGTGACCAACCTGAGCTAGTGCCTGGAGTGTGTGTGAATTCTGATTGGATGAGGTGG
0.5 TATGGAAACCTACCACCCTGGCTTTCATGACAGAGAGGTAAGTGTGGAGCATGACAGCGATCGTAGGAGCAGTTTAAATCTGTCATGGGGTAGCACAAACTGTCTCTTACAATAGCGCTCCATTTAGTCATGCACTCTACAATTTAAATTTAGAAGTTTGGAAATTA
0.5 ATATGCAGGTATCGCTCTACCTTCTGTCAGCTTCCGGATTATTAGGAGAAAGAGGCTAGAGCTGGAACAGAAGTTGTCAGTACTCTCCAGCATAGGGGAGCCTAGCTTGAGCACCACTTACTGACCTGACATGGTGGCTCGCGCCTGGAATCCCAGTACTGAGAAAG
0.1559470413777826 CTATGGCCCTTACTGTACTGTTCCCTTGCACTGTCTTTCCTTCTTTGTAGTCTATGCTGCTTCCTGGGAACAAAGAGGAGAGTGGCTACCTCCCACTGACTCACAGAGAGTGCTCAGAATTTCCTGCGTTCCAAGTCCTCTTTATAGTTTGTGTGTGTGAGCTCACA
0.5 AAAAGATATTCAGGGCGAGACAGCTACTACACTGCTTTGATTTATTAAAAACCTGTCTAGATGGCCAACATTTCAATCTCCAAAGCTCCCAGGGTTCTTTTTGGGGAAGGAAATGCATGTTGAGTGATTCACCGGGTTCCTTAGGGCTAATATTTTTAGGTATAGAT
0.5 TGTTGACTTCCTCTGCGTGCTCAGTAATGCTGGCTGCCTTCCCTCCAGAAAGTCAAGTCATCCGTGCACCAGAGTTCAGAGCCACATTGTAAAATGTTTCCGTACTCCCGGTGACAACATACTGACACAGGTCCAAGGGACAGGCCCTAGAAGGCTTTTCCAGGCCT
0.3347697748883224 GGAAAAGGTCACGCTTTAAGTTCAACAGAACTAAACATAATAGGAGTGTGAAAGGCAGCAGAGTGCACCCTGGGAGCCTGGCAGAGACAAACTCCCCGCCAGGCCCCAGGCTTCTCAGCGACAGCCCTATCACCACCTGTCAGGCGCTCCTTAACGACATTTTTGCC
0.5 CCTTGCCTAATTAATTCCCAACATATTTTTTTTTCAATGTGACTGTGATTAGCAGTTGCAATCAGGTTGGGCAATTAGCTGTCTCCTTGCACTGATTTTGCTCCACACAGCCCTTAAGAGGAGATTTCACTCTGCCATCCAGTCTTCTCTCTAAAAAGGAACAAGAG
0.0503468562726052 TCTGGAGCAGGGAGTAGGTGACCTAAGAGGAAAGGAAGACAGGGGTGTGGCCTTTCCAAAGCGAGGCTGAGCAGTTAGGACATCCGGCATCAGCCAAACAGGTCCTGGCAGAGGGAATCTGACAGTTGACCATGACAACAACGAGAGAGTTGGAGCCACAAAGGATG
0.2288827821799825 ACTATACACACTCACACATGCCACACACTTGCATACGCATTCGCACATGCACAAATTAGAGACCTCACCGGCAGTCCTGTGCTGCCGTTTACTGTTGTGTGACCCTGGCAGCTACCTTAGCTCTGCAAGCCTCAGCTTCCTTAGTTATTTGGCTGCACCCACGGCTC
0.1725915709425507 CCTTCTACCCTCCTTCAAGTGAGAAGCAGGCACTGCCGACAGACCTGGCAGCTTGGGACCCTGGAACTTGAGTTTCCAGGAGACTTGAAAGGCAGGCTGCGTTTCCCCTTCCCCTTCATGTTTTATGAGTGTTGGCTGTTTACTAATTATCAAAGCTGTTTTTATGA
0.4369938088953246 AATCCTGCTCCAAAAGGAAGTGGATATTGGCTCAGGGAAGCTGGCAAGGAAGTGACGGTCCCATGGAAGATCTCCAAGAGTGATTCACCGGTGCTGAGTGTGGGACCTTGGGGAGCCCATTGTGTCTAAAGAGACTCAGGAAACCTAAGCACTTAACCCCAAACACA
0.5 CCATGTTCAGTTTAGTAATTGTCTGTTAGGACATATTTCTCTTAACTAGCGACAGAGAACATCCTGTTTTTAGGTAGTGGCTGGGGCTGGGGTGGGGGTAGAGCAGCAGCTGAGAGTCACTCAGTGTTTATTGTAGGAAGAATTGTGTTCTTCCAAATTTCACATGT
0.5 TGATCAGTGTATTAAGCTGATTCACAGTTGATTTCCCTGAACAGATCGGCCAAACAGTCATTATGTGGTGTGCTCCTGCCAAGGCAGAAACTTGATGTCATTTAGACAGATACTTACACGTCCAGGAGCTAATCTAGCTGAACATCAGTTTACTGGTAATCTACATT
0.5 TCCAGGACATCCATTAACAGTGTATTGAACACTTTACTTCGTATGTCCCGACCCTGACACTTAGCAGAGAAGTGGCTCTTTGAGAGAAATTGCTAAAATCAGCTCTCTTTGCTGTAATCAGCCTCTTTCTCCCTAAAGGAGAGATTAGAAGATGAGGACGTTTAGCA
0.1107795562982511 AGAGAACACATTGTGGAATTTACCTCCTGCTCTGCAAAACGCTGCTTGTGGTTTAGCTGCCTCTTGAAGGGGTTAGATCTCCCAGCTGTGGAGCCTGGGGTTGTTATTCTTAGAAAGCCATGGGAGGAGTTCTGTGTGCTGATGCAGATCGCTCTCCTGGCTGGTTT
0.5 ATTTGGAAAACAAAACCAGCATGCTACCCATAACAAATAGGCTCCTCCCGGTGCCTTGTATATTAAGAACTTAGATTAGTGCCATATTTGGGATCCTTAATTCAAAGCATGTCTAAATGCTTTGAGGCTGCCAGACAGATTTCCATGATTATGTGGAGAACTGCAAA
0.4987031963183065 TCTTGGGCTCATCTGGGTTTCCTGTGGACTAGGCACAACAGTACCTCCTCTTATCATTCCATGCCTCAGCAGGCTGGGAAATCTGCCAACAGACACTGACCCACCTTGACTCTGCCTAGGTACATACAAAGAATAGGGTCAGTTCTAAGAAATAAACAAAGTAGTCA
0.2138925823330585 AGAGGCAGCGTTAGAAAGACTGAAAGCGAGCCCTGGTGGAATCCGGAAGCTTTCCGCTCAGAGGGCAGTTGCTGCCGAGGGGACTGAGTCATTCCCCCAGCATTGTCTGTCCTAGTTGCAGTGAACAGGAAGTGAAAGTTCAGCGTTGCTTACTGTCAATTACTGTC
0.2873791695046118 CTTTATTGTCTGGCCCAACTGAAGTTTCTCCAGAGCCTGCCAAATATTTACTGAGCAGGAAATGAGCAACTCCCCTTCCCAGTGTCACTGAGTGTGACAGCCCTTCCACAGCCCTCAGTAGAGAAGCCCCTCCCATCAGCAAGGCCCCAGTGATTTAGCAAAAGGAA
0.5 TCCTAGGAAATCCTGCCAGTGTGGGGGAATAGATGATTCTCAATAGTGTAGTCTCAAATCTGGGCATTGGGTGCGGCATCTTCCTTTGTATATGTCCCCATTTTCAGAAGCATTGTTAGGATTAAAAAGCTTGGCTTCCATGTAATACTAACTTGAAATCAAGAAGA
0.5 CTTGTTGGGCATCAATGGGAGGAGATGCCTTGCTCCTGTGAAGGCTGGATGCTTCAGTATAAGGGAATGCCAGAGCAGGGAGGCGGGAGTGTGTGGGTGAGTAGGAGGAGCACTCTCACAGAAGCAGAGGGAGGTGGAGGTGGAATGGGATACAGGGTTTGGGAGTG
0.3334172417208215 TCCATGCCAGGCACTGAGCCAGGGGCTCCACCTGGGCTGTGTCACATTAGCCCACAATCACACAGCTAGAAATTATTAAAGCTGAAGTCTAAACATGGCTCCTGCTAACTTCAAAGCCTGTGGCTGCAACCCTGCTGTCTCACTGCCCAAGGAGGGGCCTTTTCTAG
0.3739971155664194 CTGGCCGACATCCAGCTTGGAAGAGCTCACAGTGCATACTTATTCCTGTCCTCTGGGCAGTCCCCTTCCTCTTCCAACAGTGACATGTGAAGGAATGTTGCCCTGCATTCCTGACCATTCACGTCTCTGTGCTTTAGTCATAGGTCAATCTCTTGGAGCTGTGGACG
0.09254656478189983 AGTGTGTTTAAGGAGAAATAAGCAGTACATGGGATTCATCAAAAACCTTTTGTCAAAAACACAGCAATGTGTTTGATAGAGGAACTGCCCGAAGTGGCCTCCCTGCAGCACTCAGCATTGTAATGGCTTCCTGAGAGGAAGTGTGTGGATAAGTGCCAGGAGGCCAG
0.1095296477977313 TTCAAGGAGTCAGTACAATGGAGTGCGTAGAAGGCTATGACAATTACCACAAGGAGTACAGTCCTTCAAAGCATTTGAAAGGTGTGGCCTGGAAGTTGCACACAGCAGTTCTATTCACATACTGCAAATTGGAATGTAGGCACATCATTACTCTGGCCAAAAAGGAA
0.5 GTGTGTGTGTGCGCGCGCGCGCTCGCGCGTGTGTGCTTTCCGTAGTAGAAGGACAGAGGAAGGGCATGTTTGAAGGGCTGGCATGCTCACGGTGTGCAGAGAAGCCCAGTTGCTATAAATAGAGAAAAGAGCAGGGATGCTGAATAGAGCAGTAATGAATGAGAATG
0.05123431323930762 TGGAAAAGTACTGAGTTCACCCTGAGACCTCTGTCTGCTGAGCCAGATAAGAGACAAAGGAGGGAAATCCTATCACCCTACAGGCAGCTTCTTGGAACCAGCCCAGCAACTGCACTGCGGATGACTTCTAGGAAGCAGCTACTCGCTTCATTCAACCTTACCCAGTG
0.397672313556742 TGGGTAGCTTTCAATAGCCATTGTTAGACCGTTTGCAAGCTCTTGGCAGCAGACCTGTGTTTGCTAGAACATTTCCATGTAGTCATTTATAGCTCTAAGAACTCCGAGGCAGAAGCTGTGGCCTCCATGGCTTAATATTGGAAGTCACACTTTGTTATTCCTGTTAC
0.1234231905615279 CCTGACGCTGGCAATTGTCTGCTATCCTTATCACTGGGCCTTATCTCTCCCGAGGTTCTGTGGTAGCTGCACCGCCACACAACGCTAGACAATACAACCTCCTATTGGAGGAAGTCCCTAGTTCAAGACTTTTGGCAGGAGGCAGGCTTTACCTCCCACTAAGGAAG
0.5 ATATTGAGCAAAGTGCCAAGGGGTGGACCTCATGTTTTTCCTGAATAGAGGACCCTGGGGTAACAGCATTCTGATGATTCTGATGATAACAGCAAAACTTGGCACACTAAGGAGTGAATACTCCACCTGACAGCAGATGCTGTGTAGTAAGTATATTTGTACTTATA
0.5 CAAACTAGATGGCCCCTAATTAAAACCAAATGTAAGTCTTTGACAAACACAATTAGTACAAGTTGCACTCAATAGAAGGACAGATCATCATGGCTGTGTGAGGGCAAACATCTGGATGTGCAGCCGGGTGAGAGGCCGAGCTGAGTCACCCATGTTTGGACAGCTGG
0.5 AAAGACAATTCCAGACCGCAAGGATCAGGTGCAGGTCGTGATTCAGATCTGTGCTCTCAGAATACAGAACAGAATCTTTTGTCTAGCATGCCAGACCTGTCATGAAAGCTGTTCAAGTAAGAGATCGGGCGGGCACTGTGAAGCAGGGGGAGGCTGACAAGTGGCCA
0.5 TGACTCTTAGTATATACCTAAGCTCAGCTCAGCTCAGTGTTCTGTGTGAATATCATCACAGAAGAGTGCTGTGCGGCTGGCTCAGTGCCCGGGCTGAAACGTCTACCATCCAGTCAAGATGGAAGGGAAGTGAGAATTAGAAAGTATTCCCTCCTCTTCCCTTGAAC
0.5 GGGTCACAGTGTATGCTTATGTGCCTTCTTCTTCATAGTCACTTTGCATAGTCACTGGATCTGGAATGTCACATACCCAGCTGTGAGATGTACTCACCCTAATGGGTCACAGACTCGTTTTAAAATGCCATTTGCAAATTTCCTTCTCTCCAGCCTGCAAAGGACAT
0.5 TAATTAATTCTTAGACAGACTGAAGAGTGTGCCACCCACTAAGAGTGGGCAGTCCCCTGTCAGCTCACTGAGTCTGCACCATCCATCTTCCATTGCTGTAGGGCCCTGTGACAGACAGGGCAGGGGGCTGACTTTCTATGTAAGCCTGTGACTTCTGGAAATTCTGG
0.2444940685758036 AAAGCAACTGAGTTCCTAGAAATGCCTCAGTTACAGAAGAGCTCGGTTGCTTTCAGTTTCCATGAGAATCATGTTCCAGGAAATGCCTTTCAGGGGCTGAGCTGTGTCAGGGTTGTCTCTCTGGCTGCCCAGCAACTCTGCTAAGCTGGAAGTGCATTCAGTTTGGA
0.2820351333298758 AAGTTTTTCTCCAGTGTGACCCATGACTCATCCTTATTTGGAGTTCCAAGAGAGAATCTAACTGGCCAGAGGAGGGCAGCATGCCTGTATTGACTAAGACTGTGTACATAACGGGGAAGAGGAAATTCCTCCCAAAACAATTCAAGTGAGGTTACAAGAAAAAAGTA
0.0893719520701817 TCATCCAGGGCCACACAAAACCCCGTCCCAAGCAGTCATTTAACCAGCCTGTGTCTTGGCTGACACTGACCCTGAGTCCTGTAGCTGTCCTGGCAGGAGTAAAGACACTCTAGAGAGATGTGTGCCCCTCCCTTTGGCTATCAGACTACTGAAACAATGGACCCCAA
0.5 CCGCAGGTCTGGGGGGCCCTCGGTGGGAAAAAACACTTATCTGCCTCAGCTGAGTTCAGAGCTCCCCCGAAGGCATCCTTCCTACACTCAGGGGGTGGGTTTTGTTTATCCCCCTGGCACACAATGAAATGTTGGGAACACATGCTCAGAGTGAGGTGGGGCTTGGC
0.5 ACCTTTTCCTCCCCAAGTTGGTCACAGTGTTTCATCTCAGCATCCCTAACTAGGACAGAGTCACTTGTCACATTTGCATAACAGAACCCTAAGGAGTTGCCCTCAGCCTAGAGGTGACAAACCCAGTGGAGACATTATTCTGAGTCACCAGGAAGAGTCCCAAGGCC
0.2228802766501126 GTTGCCTCTTGGCCCCCAATGGCAGGGGTACAGGCTGCTCTGACATGCCTGGCTTTTTAGCCGGATGCAGGCGATTTGAACATCAGTCAGGTCTCCTGACTGAGCAGCAAGTGTTCTTATCTACTGGGACATTTGTCCAGCCCATTTTGTCCTTATTTTAGAGTGTG
0.1614554111714717 CTGATACCACACAGGCTGGGGAGGCAAGGCCTGAGCTAGCTTGGTGCTTACACCACATAGCGGATGTTGGCAGCAGGGAGCAGGGGTGTGTCACAGGAAGTCCTGAGCTCCGTGAGCAGCTAGTGACTCACCCACAGTACTCACAGTTCAGACTCCAGCCTCACTCT
0.07770711488398822 TTTGGCTGTGCTTTCGTTAAGTATTTCCAGTTATTATAGCGACTGCGCTTTGAGCCACTGGTACAGTTTATACAATAAGAGTTAGAGAGTGCTCCAAATAAAACAAACATCTTGCAGGGTTTGAAAGACAATTCTAGGGAGGTCCCCAAAGTGACAATGACCTTATG
0.05937586617437049 GTGGAGCGACTGGCAGAGGTCACCCAGCAAATGGTGACCCTGGATAGCTCTGGCTCAGAACACCAGCCTTCATCAGACGCATTGTGCTGTCTTATCAGGACATAGATCCACAAAAAACCTCCGGGCTTTGTTTTAACAATATCCTAACTGTCCAGGTGGAGGCTCAA
0.2295490731226791 CTTATCATCTTGTGAGGCACACAGTCTCTGCTTGTGCATCCAGAGTAGACAGAACATCAATGTTCTCAGATTCTGTCCAGGCCAACAAATCTCACACTTCCTTCCCAGGAGGGGAAGAGTGATCTCAAGGGTGGAAGCCATTGTTACTCCTTCCTGTGGGCTGGGTT
0.4681028359150267 TGTCCATCTTATTTATTCTTTAGTGTTTCCAGGTCAGGTGTTCTTTCTTTTTCAAACACATAGACTCCACCCATGTGAGCACTCCTTCCTTATCCAGTAATACTCAGTCCTGGCCTTCTGCCCTTTGGGAAGTCTCTGCAGCTGCCCCAAGAGAGTAAATGTCTTCC
0.2611273187812109 CATCCAGACATCCCGCCTGACATTCCTTCCACCAGCCTAGAGGAAGACAGACTTCCAGTGCCCCATACCACCCCCATGAACATCCAGTTTCCACTCCAGTCTAAACAATCACAGCCTTATCCTTTCTTAAAGATGAAACATTTTCCTATTGAAAACATTGGCCATGC
0.4055212988697268 TGGTTCACGAGAAAGTTGGGCTGCTGCTAAGGGCGTGGTGTCTCCAGAGCACTCTAAGTATCCCTTGGATGGCATCTGTGTGAAGCAGGTCAGCGCTTTCATCTTTAAGAGTGGGTAAACAGGACACAGAGAAATTAAATGATAATGTTGCCTTGCGTCATGAGCTC
0.5 CTATCCACAAAACTGCATTTTTTGACCCTCTGAACCAACTCGTTCCTTTGTATTCCCTCTGGGATACGCAGTAGAGAAACATAAGAAGACAGACAACATGAATACCCGTCGGTCCTTGCACTGACTGTGTCTTTTCCATGGTAAATAATAATAATAAATAATAATAA
0.5 GGAGATGGAAACATCATTTCTCACTTATCCTCTTTGTAAGTCCCTCCCACCCGTTTTCCTCTTAAGCTTGCCAAAATCTTTCAAGTCCTTAGGATCCCAGGAAAAAGCTGGTTTGGGAAGCTGACAAGAAAGGCATGTAACATTGATTGAGAAGGGGGAAGGGGGCA
0.1378844040026921 TTTGTCTTGCCTTTCTTGTGTGTGGGATTGCTTATTTGCTTTGAGATAGGATCTCACTTTGTAGCCTAAGTTGACCTGGAATTCACAATACTCTTGGCCTCAAATACCTTCCTGACTACCTAGTTAAGGACTTTTGGAAGGTGGATGTAAATATGGGTCCCTGCTTT
0.5 TATTGGAATTAATAACTTTCCATGATCTGTGGCCAGGGGAGGGGCAGAAAGGAGTGTTTGTGCTTCATTTTCCTGTTTAAAAAAAAAACTAGACTGAGGGTGATTGTCCAAGAAAAATATATTTTTCTTCCTGTTATCCTGTTTTTCACATGCCTTTGTAGTCTACA
0.5 GTGAAGGTCTTCAGAGCAACAGACTAGGAGCTAATATAGAGAAGGAGGCTGGAAACTGTCTGCTGAATCTTGAATTCCACTTCAGTCTCTCCCCCTTCCTTCACTGCCAAACTATCTGTTCAGTGACGGATGCCTGGAGGGGAGCCAGAGATTCCAGCAAAAGAGAA
0.07516050092011269 CCTTGTATGGGGAGCCTGACCACACCCACCCTCTTTCTGGGGAAGATCAAGTAGTCCTTGGCAGACCCTCAAGTACAACTTCCTCTTCCCCTCAACCCTGTAAGAACTTGCACAGCAAGTACCTAGGAACCCTGGAATGCCTTGCCATACAAATGACGCAATCCTAG
0.344173798602443 TTGAGGTCTGAGAAAAATCAGGAAATGTCCCTGGCAGTTGCAAAATAGACACAGCAGCTGCAGCTAGCTGATAAGAGTGAGCTAAGAAAACATAAGTCGTTCCCAGGTCAAGACTCTCCTTTTTGATCCATGTTCCCTCCTTGTGGTTTAATCAGGTCCTATAAACC
0.2894176597187905 TCCTCCTCTGCCTGCTGCATCACCCAGGTCACTGAATTTTCCCAACAGACTCTGGAGAAACACACGATCTCTTGAGACTACGATAAAATCATTGTTTAAAATTCCAAGGTTGCAGCAACTGCTTGCCCAAGCACAGCTGGAGCCACAACCTTGTTATTTTCCCCTGG
0.5 CCAAGATGGCTTATTTTTAAGGAAGAGAAAGCTAGTGTGTCTGCCAATCAAAGCAGTCACACTGCATAGTGTCAAAGGAAGTTTTTTTTAGGAGGAACTTAACTTCAGCTGCCAGGAAGTCTGGTCCACAGAGAAATCCAGGCAAGCACTGCCAAGTTCCTCCAGTC
0.4310486702520066 TAAAGAAGAAAACTAAGAGGGAAAAAGAAAAGTGCCGTTTTCAAATGTTGATTTTGCCAAGCCACAGAGAGCTGCTCCTTGTGCTATTATTTCTGGTGGCAGCCTAAGTTAATCCCGTCTCCGGAAGCACTGGTCAGCGTGCCTCTCTGGAAGAACAGAGTCTACAG
0.5 TTGCATAAACTTTGGAGTTTCATTAGGTCCCATTTGTCAATTCTCGATCTTACAGCACAAGCCATTGCTGTTCTGTTCAGGAATTTTTCCCCTGTGCCCACACTAACTTTTTAAGACTGTCATTTTACAGCAAATTGTTGAATATGAATTTTCTGGCAGCAATAATC
0.5 TGAGGTCAGGAGCCAGCAACAGGAGCGGAGAAGCATCCCTCTGCAATGCATGACTGCGAAGTATGCAAAATCATGCCAAGTTAATTTGGTGCAGCTGGGGAGGATGGGCGGCTCTGTCAGAGTCTGTTGTTTGTGAGCCAAGCACCTCATTTCTCCAGCTGTTCATG
0.5 CAAGACCTTAATATAGGAACAATAATAATAATATCAACAGTGCAGCCAAGCGGTGTTTGCTTTCCTTACAAAAAGCATACTGAAAAGTGTGTCTTCTGATGTGGGAGGAGATAAGATGCCGTCATGGTGAGAGCAGACAACTTGAATAAATTTGTAATCAGAGGATC
0.2773827963186913 AGCCAATGCTTCTGTGCCTTCCTTGCCTTCAGAGGGGGACTGCTGCCTCCAGCCCATATCCACTTGAGCTAGGCAGAGGAGGCTACTGTAATCAAACCAGCTGACAGAGCGAGCACACTTGTACTCAGTGGTGTGTCTGGAAATTGGCCCTCTTCAGCTTTTAACGG
0.5 TTATCTGTTACCGGCTTTGCTTCTCCAGCTCAGCCACTTGGCTGGAACGCCAGGAGGAGGGAGTCACCCAGACTCCTCCCATCTCTACTTCATCCTCCCTAGCCAGCTCCTCCCCCAGGAGTGGCTATGCTCCTAGGTCACTGACCCCTACTAGCTGGAGAGGGGAG
0.1176747133700317 TTGATTAGAATAATTAGAGATGGAGCCAGGAATGATGTCATGCCCCTGCAGGAAGATGGAGGAGGACTTTGAGTGTGGCCTTGGCCTCCCTCCTCCTTGTTTGTTGACCCAGTGGGAGGGACTGCATTCCTGCGTGACATGACAGTTCTGACTTCAAGACAGGATCT
0.5 TCCAACTTCCCCTGCCCAGCACATGGATTGGGAGTGAGTGTGGACCAGCTAAAACAAAAGGGTTGTACTGGGTCACATCCCAGGCTGTGGGGGTGGGGGTGGGGCTGGTGTCACAGAGCCTCAGGCTTTGTCAAATGAGGCCGATGGATCTTCACATTTCCTACCTG
0.5 GCAGCTTCAGTTGTAGATACAGAGCTAAAATTTCTTAGAAAGATTATTTGGTGTTTAATTTAGTTTTTCATGCTCTGCTCCCTGACCCCTACTGGGAGATGTGTCTGCCTTTTGAGTGCACCTAAATTTATGAATCATCTGCTTGACAAATAATCATGTAAATTAAT
0.5 AAATGTTAAATGTACACTGTCTATTTTTTTGACCACCTAGCATCCTTTCCCCTTACAAATCATTGTTTTTACATCCACTTCCTGCATGCATGCGCTCAGGAAGTGATAAAGTTTTCACAGTTGCTGATGGATCTCTCTGCAATCCATGCCAAGTTGTTTCCTGGTGC
0.05398948839774012 CCAACCACACTAAATCCAGATGACTGAACCCTGCCTGTGCTTTGTGTCTGCTCTTTCCCACTCAACCCCCTGTCAGGGCTTCCCCTGGCCTTTCCTCCTTTGAAGTCAGTGGGAGCTTGGAGCTTAGAGGAGTCACTCAGAGTACAGAGGGACACAGAGGACAAAGC
0.5 TGGGAAAGGAATCTGAAAGCTTGGCACATCACAAGGAGACAGAGAGAGAACTGAGTATGCCAAGTGCGTGAATTCCTGCCTTGTGAGCAAGCCGGAGCCATGGTGTGCTTGTTCTATGTGTCATAACTCTTTGAGTATATTAATGAGTTTTTAGTTTTCCATTTTGA
0.5 AGGAGCTGTCACTGAATGGCTCCAGGCATCTTGCCAGGTTGTGAAGTTGAATATTCACTTGGGTTTGTATCTCATCATTACAGCTTTGGCCTTCCAAGTGGGAACCAAAAGGGCCAGACAGCTATGAATTAATGAAGCTCTGTGGGAAGTCTAAATAGAGACAAAAG
0.005376576873306826 ATGTTGCTGCAGAGAAATGAACTCAGGTCCTAGCAAGAGCAGTGAGCACTATTAGGCAGAGAGCCATCCCTCCAGCCCTGTACTAGCTGAAGAAACAAACCCAGAAAAAGACAATGGCAGGAAGTCATGACTGTGATGCTAAGCTGCTTCCTCAGCAAATGAAAGAA
0.01650608673334484 AACCCAGATTGGAGCTGGAGTGAACCTTCCTCTCGCTCTCTGACCTCAGACCCCAGAGTGTGCTGGGACAGCTGAGGGAGGAGGAAGGAGTTTACAGCTTGAAAGGGGAGCAGCCCAATTTCCTCACAGGAGACCCAAAGCATGTCTGGCCTGGAGCCTGATGCTTT
0.5 AAGGGACAAGACGTCCTCTAAGATGCACACCCCTGTGACTCACGTCCTCCAGCCCAGCCCCAGCTTATGATGGCTCCTCCTGTCTGACCTCTCCAGTTCATTAGCTCACGGATGAAGTTGCTGCCCTGTGAGCCAATCAGCTCACAGCTATACCCCCACCTCCCACT
0.09165724975446417 AGCTGATGTTTTCTGGACACACAGTTCTGACTCAGGCCACTCACTTGAATACCTAAGAGGATCAAAGAATAACTCCAGGAACTCTAAGGGAAGTGGCCTCCGATGATGACATCTGCTTACTTGGTTCAAGCAGAACAGGAATGAGCATGGAAAACAAAGGGCACAGC
0.5 GACTCAATGCTAAGTGTCCCTCAGAACATCCTCTGATTTCCCAAGGCTGAAGGAAGGAATTATTCTGAAGGTATTAATAGAATGCAGATGTTGGAGAATGTGGCTTTAAATTCTGCTGAACAAATGACCCTGTTGGGAGGTCGTTTCCAGTCTCCAGGGACATTCCA
0.1364027313265215 GCAGGAAGGGAGGTCACCTCACCCGCTCTGGGAACCTGCAGCCTCCACCTGCTGAGGGGCTGGCTCTCTGGAGAAGGGAACACATACCACAGGGGACACCCCTTCACTCTCCTGTGCATAAACACCCTCTCCGCTGGAGAGCTGCCTAACTTTTCTATGGGGTTAGC
0.5 GGCTTGTGGCAATGGATGGTGAGAAGGACAGCTCACCCACGCCACAAAAAGGGGCTGGGACACAGCTTAGTCACAGAGCATTTGCCTTGCATGCATGGGACTCCAGCTTCCATTTCCAACACCTTGATAACAATATAAACTTGATATGACAGATATTTTAGCATATT
0.2166739568410637 CAGTATAAAAACAAATGTTTTTTTTATACTGGCCAAAGAACAAAGTTGGAACCTTCTCCTAAGCACTGCCCGACGTCTGTGATAAACATGCCAGGGAACAAGTTCAGCCATGCTGTAGCGAACATGAATGGAAGCTCTATGGCTTTACATGATATATATTCTGTACA
0.04410022456461646 AGTCCTGAGCAAAGAAAGCATTGTGTGCCCAGCCTTAAAATGAAACTGCCCAGTCCCTTCTATCCGGCCGGCACATTAGCTGACCTCAGCCACTGACGCTCGTGAGCGCAGCCTGTGCTTCCTCTTAAGCAGTGACATCAGCCTCATCATAAACCCTGTTATCAGAT
0.4524290936061163 GCCCTTTGGCTTTGAGTCACTGCTGGCTTCTGCCTGATTCTTGTTACATCTGAAGAGGATACCCACAGAATACACAGTACTATTGGAGACAGAAGTGGGACCCTAAGCAGAACGGAAGACATTGGAGTCCAGGTTTGGTTGTGTGGCTGAGACAGCCATTTAACATA
0.5 GTATTGTAACAGGGCATAAGGGGTCTTGACTCATTCAAACATGGAGGAAATTGCACAACTGGAGTGGCTTCATCTGAGCCATAGTGAATGCAAACGAGTGATGTCAAGCCAACCTAAACTACCCCATTGTTCTTAGTGTGACTAAAAACTGACTAATATTACTTCCT
0.1206051860871193 TCCCAAAATAGGTGAGAAGATGGCCCACCTGCTGGCATAGAGGCCGAAAGAGGGCAGGCCTCCTCTCTCCACACTTCACAGCCTGCTAATCACAGGCTTCTGCCTGACAGCGTGAAGCCAGCAAGACTGTACAAAGGCAGGGAGCCTGCATAACCGTTTATGGCGGT
0.5 TTTCACATTCTCTGGATAGCTGAGCTTCCTGACTGACATTCTTCTCCGAGTTGGAGAGGAAGCTCTACCCAGCTCAGCTCTGCGTGGAGTCCTGAGGCACAGGACAAAAGCATGGTCGATCAGTGCAGCATTCCGGAGTCAGGGGCTAACGGGGAGCCTTCTCCCTG
0.5 AAAGCTTCGGACAAAGCTGGGTGTGGCGGTTCACACTTCTAGTCCCCAGTCCTCTAGAGGCTGAGGCAGAATGACTGGCACAAGTTCAAAGACAGCCTGTGTTACTAACCGACAGACAACAGTGCACATCAGATAGGCCCTAGACTTAGCAAGCCACTTGGCGGGGG
0.5 AATAAAAGGATTCATAGAGACAACTCTATTATGCATCACAAAGATAGAAAGCTGCTGCTTAGAACACGGTGTTCTTAAGTTTATTTTTATTTAGGGCTTTTCAAATTTGACTGTGCCTACCAGACATCTAGAGTACTTGGTGAACTATAGACCACGTAGACAGAGGT
0.2390285494244984 AACAGCTAGAGGAAGGACAACAAAGAACCAGAACCACGCATTTGCTTTTTCCAGACTTGCCCCACCCACACTTCCTTCCTTCTCTTCTGTAAGAGTTTAGCCCTTAGTTTTGACTGTGATAGATACACTGAGCCCCTAGCCTTGCTTGTACATGGGCTCACTCAATG
0.2801676738148309 GCTGAGAAGGTACGGGCAGCACTGAGGCAGATTAAGGAGAGAAGGGAAACTGCTGACTGGGGCTAGCGAGACCACTGGGCAAAGAGTAGCAGGGTGTAGCACGGGAATCATGCCATTCATTTTTAATATTTCCTGAAACAGGATGTACCAGTACAATTGTAATGGTT
0.5 TGGCGCAGCAAAAACATTCCAGGAAGTAAAGCGGTTATAAATAGTTTCGGATCATTGTGGAAATGTACTGGGAACCTGGCAGAAAATGAATCAGTCGGGCTTTCCACAAGACCCACCTCAAATGAAGATCCCAATGCAAAGTGGCAGGAAGCCGTCTAGGGATGCCG
0.376164848939505 CAGACTGGCTCAGAGTGACTTCATTTTGTCCTAGTTTCAGCTAACCTACCTTCCCAGCCCCCACCGACCACATCCTGTTGAACACTCTCAGGCGGCTGTCATCCTGTTGAGCACTGGCAGCCTTGGGTTTTATAACATAAAACAAACTGAAACTTCCGAACTGAAAC
0.5 AGTAAACAGAAGGCGTTCCTAACATGACAGCTAACATTGCCAGGGCTATCACAGGCCATCAAGCTCTGCAGCTGCAGATAAACCTGGAGGTGCCAGAGCACAGAGGAGACCACACCTTTCCCTTTCCTTTCTCAAGCTTTCCAAAGTGAGATAAAAGAGATTCTGGT
0.4717378080068541 GGTGAGATAAATATCAGTTCTCTGAGAAGTACTCCAAAAGCCAGAATGTTGGACACCCTCTGTGTTAGTTTCCTTACTCCTATGACTTGGAGTTGTGCATGATCAAAGTGAGCCTTCCTCAGCTGTCTGCTGCAGGCTCACCTGCCCTTGCTTCCCTTGTTTAAGCA
0.5 CTGAAGCAAGCTGTGTCAACAAGACGGGCTTTGAAGTATGACATGCTGCTGTGTTTATGAAAGCAAAAGAAGGGAGTGCATGATTACGGCCTAGAGCATGTGGTTAGGAAGGGAGTAACGGTAGCGAACTAAAACGTGGCTGTTGATCAAAAACATCTGCTCCCTTC
0.2592672534389998 AGATGAGCTGCAGGCAGGAACCTTGGAGGCAGGGGCTATGGTAATTGGGACCAGTGGGGACATTTTGCTCCTTCTGTATCCGTGAAAACACCTCCCACACAATAGAAGCTGCTCATTCCCAGCCTCCTACCAGGCCCAACTTAAGGCTTTTAGAAAAGTCAAAGCTT
0.4259627497527969 TTGGCGAAGGACATTATCAACAAATGACTCTGCTGAAAGGAGGTGCACTCAGCTCGGGCCAAATGCTCTCCATCAGTTACTGTTACAGACAGCCTCAGGGTTGGCCCCCACCCTCCCTTTCTTACGCACAACTGCCACAGACATCACATCGGAGTACTTGGAACGGA
0.5 GAGAAGAGGCAGGAAGAGGCCCAAAGGCAGGGGCTGTGAAGTGTGAGGGCTGGGCCTGGCTGGAAGGGGGTGGAGGAGAGAGCTTATGAAAACGTCCTGGGAAGCCTGCCAAAGAGTTCTTTCTCTAGAGATAGCTAGAAAGAGCATAAATAAATAACAGTGACTCA
0.2963569012105342 TTTGCTGAAAACAGCAATTATCAAGTTCCTCAAAGGTCCTGTCTTGAACTCTTTCCTCCTATCTGGTGTGGAGTGGCGCCATCCACGCCTCGGTCAGGATGAGTCTCTGTCCCGTCACTCCTTGCTGTAAGTTCTGAGAACCATTGTTCCCTCGCCGACATTTGGTA
0.04741662107855192 TGCTTCTGAACTTGGCAGTGCCTGCCTCCTGCCTTGTAAATGTCAGCATGTGTCCGTGTAAGCATCTGACGTTGCTCAGCAGCACATACCAAAGGCCAGGAATTTGGCAGAGTCTCGCTGATTCCGATGCCTAAAAATACTCTGTTTTATCAAAGTCTATTCTGATG
0.5 CTACCCGAGAGGTTCAAGAGCAGCTTTTATCTGCACTCTGGCTATGCAGCACCACATGACTGCCAGCTAATTTCTCTCTCCCCTTTAACAACAGGTTCTTGTTTGGGGTAATTAGCTCTAAGTGAGCATCTAATTGGTGAGGTTTCAGGATTTCCTCCTCTCTTGGT
0.5 AAAGGCCCGGCTGAACAAGGGCCTTCCCTGGAAATGAGGGTAGACTTAAAGGGTGTTGGCTTCCTCTGCAGAGCAGAACAGAGATGGTGCTCCTAAGGTTTTCTAAAGGGCAAGTAAGACGAAGGGACTCGATCCATCACGCATGGCGGCTTATACCTGTGATGTGG
0.5 CTGCCCAAAGTGTCTGTCATCAATCTCTATTGTCTCGGTGATTCCAGCCAGGAATGGGGAATGTGTCTCCTTGTTGACACAAGACCCTGGTAGAACAAAGAAAGTTGATGACATAAACATATCCTTTTCCCAGCACTTGACTTGTGTGTGATTTAACCTTTAACTCT
0.5 TAGCAACAGTATGGGGTGGTGGGTGGGCGGCTTGTTCTCTCTCTCTGATTCTGGTGAGAGGGGTTCGTTCCCACCGCGCAGGCTTAAGTACTCCTCCTCTTCCTTCGAGTTGGGTGCACTGCTAACTGAAGCAATTGCTTGCACTGGAAGGTCCCTGTGCCTCACAT
0.5 GAGGATGTGAGAGAGAATCACAAGGGAACTTGCTTTAGATAGAAGGAACTGCAGGGTGTAAAGTGATGGCAGAGATACAGCCTCTGCCCTCAAATTGCTAGGAGCCCAGGGGGTGGCTGGGATGTGTATTCTGAGAGCCATTACTCACTAGTGTGCTGCTTCTCAGA
0.5 GACCCACTTGTCCGAGGTACTCTGTACCTGTTTTGAATATCTGGTCACAGCTGGAAGCACAGTGCTAGCAGAGATTTAGACTTAGAACATTTTTCCTCACTCCTGGATCCTTGCGTTCCCTCTCTGCTTCATGTATAGGAACTTCATGTGCAAAATAAAGTGAGCCT
0.5 GATATAGAAAGCAATTACAAGAAAGCATGAGTAGCAAGAAAGAATACAAATAATAGCAATACCTCATGCTCTCTCAGCATGATTCTGTTAAACACTGTCTATAAATAACTAAATAGGCTTTCTAACGTGTTCCTAGAGAAATGTGCTTACAGAGAAATTTTCAGTGA
0.5 TGAAAGAGGAATAGAAATTAGTAAGAGAGGAAAAATAGTCTGTGAGGAAAGGATATGCCTAGCAGGGGCTTGTAATCAAGCAAGCCTGTCTAGATCTGAGCTCTGTGGTGTCACTGGCACTTTTAATTGCATTTTTACATTAATAGCTTTAAAATATTCACCTTGAA
0.3499108205223768 CAAATGAGCTAGCTACTGAGAGGAGCATGGGAAAAAGCAGGCATTTACTAGAGAGCCATTCAGATCTCTGACACAAGAGGAGCCCTGTCAGAGCCAAGACTGCAGGCTCCTGCAATCCTATGCACTGGGACAAAGTGGGTCATTAATACACCTTACAGAGTATCCAG
0.04282062625588029 GGTTTATTTATCTTCCTGAAGCTTTGTCTATTTTGGGTCTCACATATTCTGAGAAGGCTTGAGCTGTTACCCTTGCTCAGGGTGGGGTAGGAGTGCTTGTCTTAAGCCAAGTTGAGAAACATTTCTCAGGCTTTCGTAGGCTCGCCCAGCACCAGGGCAGTCTCACC
0.2355297570609503 AACCAGTTTGGAATTTCCAGCCATCATCAAAGTCAATTTTCCTGCTGCCTTAGTTCAGCTGCTGGGTGTGTCCACTAGCTGCCTCCTGAAAGCTCGGCATTGCCATGGCAACAGTTGGTGGACACACCCACCAGGAAATGAAAGATGTAATTTGTAATAACCACACG
0.5 ACTTGTAAATAATAAAATCACATGTGTGTTTCAAAATGTCAGTCTCTGTTGCCGGCTGTGCTGTTGCCTTGGCAACAGAGACTATGACATTATAAATGGTGCTTTTCTCCCATGCCTGCTATGTAAGAGTTACCCTGCAGGGCTCTACAATAAGATATTATTAAGGA
0.3727544570583419 GTTCTACTCAGGGACAGTCTTTGTAATAGAAAAGTTCTCCTCCTGTACTGCAGGAGTGCTTGAGAGATTAATGTTCACTGGTACTGGGCCAAGGTCCTGGGAATAATGCCAGAAACTGTGGCTCTGTGACTGATGCAAATCCCAGACTGGATATGAAAGAAGGGACA
0.3711085400061993 ACCTAACTTTCTTATCTTCTCTCTACTCTGCATGTCAGGCAATGTACTTTCTCTTAGAACTCGAGCCAGCATAAACTGGATTGATGTAGTGTTGTTTTGTAAACTGTGAGACCAAAGAACAGAAGGATAGGAAAGATCTCACAGTGGGGCCAGATCAAATTGCAGGG
0.4927520083275881 GGAACAAAAATCTCTTTGTGTAGATAGGATGTTTATCTCTACAGCCATGGATTGAGCTTAGATGGGAAGTAAATATTTTTGGAATCAAGATCTGAACTTAAGGGAGGCCAGTACCTAGTCAGCTTCCCTTTGTCCCAGTGTTAAATATTTTAGACACCAGATACTGA
0.3151528120836443 GCTCTTTCCACAGACAGGATGACCGTTACTTTTCTGAAGCAGAGCTGTGTGGTCACTTCTCTTTGTTCTCTGGGTCCTGGCCTACCAGCCTCACATACTGCCCCAGCGTGACTTATCAAGATGTATTCCCAAACAAAACTCTCCCAGGGGTGCCTCTGATGCCAGCA
0.142399261847142 CTTGGGATTTAGCCAAGTTCTTGCCCTTTCAAGCAGGCTGGCATCTTTGTTCTTTAATAGTCACTGTTGTTACTTGCATGCCCCCAAGTGGAGGAAAACCAAAGGTCACATGGCATCTGAGTAGAATTCATTAGCAGTATCAAGGGGGAAGAAAAGCCTTAGAGGAG
0.5 GAGGGCAAGTGAACAGGGCTATAACACCCACACCACTTCTTTCAGGGTAGCATACAAATCCTCAGGCTGCAGGCAAACTCTTTCTCCCTTCACCCCTCCCTTGTGATGGCTGGGAGCTATTCCCAGTCAGGCAATTAACATTTCAGATTCATTTTCTCAACTTCATA
0.1392554603710783 GGGTGTGACACTTTCCTTCCCGTGGCCCTGGGAGGACCTCTCTGTAGCTCTTGCAAGAACTCCGGAGCTGTAAAAGGACAATTTAGTGTGTCAGAGGTGAGTGGGAGATTGGGACTTCCTAGGACTTGGGCCTGATCTAGACTTGGCTTCCTTTACCCGTGGGGCCT
0.1141613391357365 ACCCCCACATCCACTGAATATCCCATCAGCTGTGCCTTCTGCCCCACTGGGAGCAACTTCAAGAAGCTCTGACTGCAATATCCTGAGTTCCACCCTTCTTTCTCCTGTGGCCCTAGGCTGAGAGAAGGCAAGAGCCATGCAGTGTGACTCACAACCCTGGCATCTAC
0.1495103008600231 CCGTCTTAGAGCAGATCTGGGCCAGGCCATGGGAGAGTTGGGTGTGGGCAGGATGTCTGGCAGAGCTATTGCTGAAGCTAGTCACTGTCCAAAGAGAGCCAGTACCCAGGAGGGGCCTCAGCAGGGATTGGAGCCAGCCCTGACAAGTTTGGCTTCTGTCACAAGCA
0.5 AACGACGTGATTAGTTGAAAATAGAGGCATTAATGCCCGTGTGGGATCTGAATAATGCATGATGTGTAAATTTCTGGTTTCTCTTTTGGAACACGCTAATTTGTGTTTGTCTCTCCTGTGCTTCTGGCAGAGCATGGAACCTTCAAGTATTAAAATCAAGGAACGGC
0.4265119851595947 TAGAGAAGAGCAGCTGGGGGTGACAGAACAATAGAGCCATCTAAATCGGAAGGTTCCACCCCAGGTGGTTTCATTCTTTGTGGCAGCAAAGCCAAAGCCAGCCTACTCAAGGCTGGGGGAGGCTATAACAAACCCTCTGCAGGGAGGGATGTCTGAGAAGGGAAGCT
0.5 GAGAGGTTTATGGATCAGGAGGGAGAATTCCAGTAGAGCTATGACACAGGAGAAAACTGCACGGCAGGAGAGGGCTTACAGGAAGACTGCAGTCAGTCAGCACAGGGCAAGACCTTGAAAGAAAAATCCACAAGGAGTCACCGGATAACTTGCTAGCGGCATATACT
0.5 CCCCCAGCCTTGAAGCAGGCTGATTCAGACTTTGCTGCCACTGAATATGAGATCACCTAGGGTGTAGCCTTCCGATTTAGATGACTCTATTGTTATGTCAACTACCGCTGCTCAGCTCTGAGACTCTGCTACCTGCTGAGAGACCCTTGAGACATTCCGGAGACACA
0.5 GGGACCCGTGGGAAAGGGGGGGGGAGGGGAATAATGTGATACATCCAGGCTGCTCAAGCATGCAACCTCACTGCTGTTCTTATCCTCTGCCTGCTTGTTACACACCTAGGCTGCCAGGGCTGCACAGAATTGGGAGCAGAGACTCCTCCTGTTGCACTGACTGGTGC
0.5 AGCATTTCTTTTTGTCTACAATAGAAAAATGACATCAATTTAGCCCTGTACTTTGCAATCCCACGCTTGTGCGTGTCATATTTCTTGAATTATCACAGTTGTCCATCAATTGTGTCAGACGGAGCAGGAAATTTCGCTGTGGGTTGGGTTCTGCCAAGATACAGATT
0.5 AACTCATATTGAAGAATGCAAGAAGCTAGCCTCATCTGGTCTTCCATGCCAGAAAAACATTCATCCATGATCTCTCTGAATTGTGTAACTCCCTCACATAGAGCCTGATGAAAATAACTTCGAAAAGAAGTAGACTTTTTTTTTTCCAGAGCACTCAATCACAGCAC
0.5 TAGTACATAGCCATGTGTCTCTGAAGCCTTCCTTCCCCTGCAATGCCACCCTCCCAGTTGAATCAATCCTATTGAATGCGTCTGAACAGCTGCAGCTCTCTGCAGAAGCCTTACCAGCATCTCAGAAAGAAAGGCTGTTTCTTAAAACATTATAACATATTTTAAAC
0.2088635658175624 TGAAAAGAGTCATAAGAAAGACAGCACAAGGCTGTCCTTCTAACCAGTTTATACATGACTGTGGGATGGAATGCTCTGTGCCAGTTTTTACTGTAATTATTTTAATTACTCGGGTCCTGTTCACAGGACACGTAGGAAATCAATGGCCAAAAAAGGAAAATACAAAA
0.4077339282249016 GGTAATTTCCAGCTTGTAATCAGTGCTTAGCAGTGTGAGAGCTACCTCTTCTCAACCCACAATTATCGCAATTAATGCCCCACAAGCAAATGCCTTGTTTGGTTGTTATACTCTAGTGTTTGCATTTAACAACAAACTCCCCTCTCTAGAGGAGTTGCCAAAGCTTC
0.4774323455891443 CTTTACAGCATGTCACAGCCGACAGCATCCTCACTATTATCATTATCAGCAAACATTCTGTGCTTACCCGATGGGTACACAGCACTGAGGGACTCATTTAGGGCAAAGAGCAGTAATTTCCTGCCCTTGAGACAGTGGAAGGGTAATTATTTATTCTGCGTACTGCA
0.5 ATCAGCCTTCCACCACAGCAATTGCCTGTCCCCACCAGCTGACAATGAAATGAATACTCTGTAGGAGCTGAGATGATTGTGACATTAAACTTAGCAGTCTCGCCATGATCCTGCAAGACTGCCACTGAATCTAAACTAAATCAGTTCTGAGACGAGTCTCTGTAGAA
0.008936574843594775 GGAAATGAGATGGAAAAGTGCTGTTGAGAGCACTGGTTCCTGTTGAGCCCCGACCTCATTTGAGTCAGTTGGCTGCCCGCGCTACTTCCGCTACTTCCGGGAGCTCGCTAGCATTAATCAGCGGGGAGACACAGCTGTCTGGAGACACAGCTGTCTGATGTAAAAGC
0.34435457721423 GGGAAGAGCTGGCTTCCGGTCCCACCCTGACAAAGCTGTGGAGAGCACTCCGCCCTTGTGTTAGTCTGGCTACAGCTGATAGAGTGAAGCCAGGGCTTTGAGTGTTAGTAGCAGGAAAGGCACGCAGGGTGGGACAGCCACAGAGATCCGGGGCAGACATGAACATG
0.1141336474996081 TGTCCAATTTCCATGAAAGTATTTATAAATATTTTGTTCTCCAGGAAGTCGTATCCCTATGGCTTACTCAGCCAGTCTGGCTCTGCAGCCCTGACACCTAGCTTACAGTAAGTCGGGGCTAATTCTGTCCTGGAGGAAGGCAACCTCCCACACATCTGGATGTCTCT
0.08189488576501906 TTTATCAAATAAACACTAGACTCCACAGCCACGGGGAACAAGAGGCCGCTTCATACCAAGTACAATGATGAACGTCTCCTGTGGCCCTGGACTCCGACTCTTAACATCTGTGATCTCCCCATCTCCATGGTAACATAAAGTAAATAATAAAAATAGTTCAAATCCAG
0.5 CCCTGGGGTGTATCTAAACACTGAGTTTCAAAACACACAGAATTGCCAGAGGACATAGCTTAGCTTGCTTCGAGTAGACATTGAACATGCCTATTCAGTAACACACAAATTTAGCCGACAGAAACAGGAAGGATACGGTAGAACTGAATACCATGAGCCAACAGGAT
0.5 AGGTGGTGCTTCTGTGTCTCAGGAGTCAAACAGAAGCTTTTCTCATCGCTCAAACTTCATTTCTGAGAGAGCCTCCTCCCCTTTCCTGCCTCCCCTTTTCCACAATGAGATCATAGGGTGGCTCTAGCTGTGCCTTGGATAGAGCCCAGTTCATCTGAAAAGATAAA
0.2827485510943844 GGCCTGTTATTTTAATATCTGGTATAGTGTTGAATCTTCATGCTTGGAGAACAAAGGTGTTTATTTAAAACAGCAAATGGAAGCTGGGTGTGGTGGCATATGCCTTTGATCTCAGCAGGCAGAACTCAGCCAGTTGGAAGCCAGCCTGCTCTGCATAGTGAGTTCCA
0.2583634979050733 GGCTTACAGATTAAAGTCCTTCACTGAGGGAAGCCAGGGCAGGAACTGAAGCGGAGACAATGGGAGAATTACTCACTGCCTTGCTTCCCGTGGCTTACTCCACCTAATTCAGTTTGTAACTCAGGACTATCTGTCCAGTGGTGGCCTTGCCCAAAGGGGCCGGGCCC
0.5 GCTACTCTGAACCTGAAAAAGAAGAAAATGAGAACTCGCTTCCCATAATTTACTAAGAAGCAGGCAACTGGGCTGGCTATGTAGCTCAGAGATAGAGTGCTTGCATAGCATACATGAGGCCCTGGGTCTGACTGTCTACCTGGGACCACAAAGAAAAGAAAGGAAAG
0.5 ATGTTGCAGAGAGTGGCTTTGAACTCCTAATCACCCTGCCTCTCTTCTGAGAATTGGGATAGCAGATTTATGCCAGCACCCCTAGCTTGAATTAAAAAGCCAACCATAACACACCCAAATTCTGAGACGTCAGCTTGTCCTACTTGCCGTCTACATGGGTGGGATAT
0.5 GACTACCAGGCAGGCCCACGAAAGAATTAGACATTCAGTGAAGCTATTTAAAATGGAAAACCTATTTCTCTTATTGCAGATCCACCACAAGGCTTGCAAAGGAGTTGGGTTTCACTTTTGCTGGAGCTTTCTTCCTGGGTAAAAAAACATTCAGAAAGATTGTTCTT
0.5 GATGTTTGATTACAAGTTGTTGGTTTCCTGTTCTATTCTTTGAAAATGTCCTGTTGTCCTTTGATCTCACTCTGACACCCTCACCAACCTACTTCTCTCTTCTTCAGGGGTCCCTGTAAGGTCTGAGGTCAGGAGGATAGAATAGAGATCAAGTAGCTGAAACTATT
0.5 CACTGCAGAAGACATCACTGCAGACACTGCAGAAACTGCAGAAGACAGTAGTACTGCAGACACTGCAGATGAGACAGCACTGTAGAGGACAGCACTACAGAAGACACCACTGCAGACACCGCAGAGGACAGCCTGGCAAGACTCCAGAGCAGTTCTTAGTGGGAGGA
0.5 ACCCTGGAAGATGGGGATGATTTGATTCAACACACTCCAGAGGGAAGAGAACACGTGACATAGACTCCCTGCAGATCAGTGTCTGGCTGCCCAGCAGCCACTCTGAGCAAGGAGACAATGAAGCCACTTTGCAAGAAAGATTATCTCCAGTCTAGACCATATGCCCA
0.4381717123574649 GAGCTGGCCTCCTCCGCACAACTTCCCAAGAACACGGAGTCCTCCACCCCCATCTCCGGTTCCCACCTCAGCACACCGCCCCCTCCGCGCTCAGTCCAGAAGTGCGTTAGGACACGTTTGAGTGGACCACTCATGAGAACCATGTAAACAGTGGTTTCCTCACATTC
0.1264844295254051 TTTTTTGAAGTGTATAATTAAAATATTCAAATGTGTCCTGATAAGCCACTCTCCAAGGCTCGGGAGTGCTTCAGAAGGTGACTTGGAAAAACCCCAAGTGCCGACTTCCTGTATTCTTGTGTTTCACAGCACCTGGTAGACACTTTGAATAATTTGTTTTGAAGTAC
0.2169642301478138 CCCTGCCTAGAGCTAACACAGTTTTATTATTAGAGTTTGTTATGGTCCCTGGGGGAACAGAGGAGACTCCTCCAGGCCTCGAGGAAGGTGTGTTGGAGGATTGTATTCCTCTCATTGTTTTGGATTTCAAGTACACACAGACTCCCTTAAACCTGGCACACCCTGCA
0.3465792813220474 CTGAGGTAGGGTTTCTGTCTAAGCTTGCCTGGGCCATTGTTCTAGGACAATGAATGCTTTTGATCTGCCTTACCCTCTGTGCCTCCAACTATCATGTGACTTTACCTGCTGTGCAGCCTTCTCAGCCCTAGAAGTGTTGCTTTCCAGAGGACAGGCCCTGGACAGGG
0.0211045009747331 GGGAACAGAAAGTGCTTCCTGTCCCAGCCTGGGACAATAGACAATAAGTCCAGCCTGCTGGCCGGGGCCCTGTCCTGGGAAGCTTCAGGAAGGCACCCCCCTCACACACACACACACACGCACCTGCCCTCTATGAAGCTCTCTGCATTGTTCCAGGCTGAAGGCCA
0.3496934178003493 ACTGGGCCATGGAATCAAAGCGGCTGCAGTGACTCAGGCGTTTCCCATTGCCCAATTCTCGCATCCTCTACTCTCAGCGCCCAAGCTTTTCATGTCCTATTTGAAACTGATAGGAAACCCTCGCATTGTTTCGCAACATGGATATTAGCGCCGATGAAGGAAGCGCT
0.3292911998805729 TGGACACACCACCACACCCTGCTTTCCCTGGCTGCCCAGGTCACACAGGAACTCCAGTGAGCTACAGCTCCTCCCACATTTTGCTCAGGGGAAAAAGCTTCCAGGCTGGGGAAAGACTTAGTCTGCTCCCACCCATGAGGCAGGCGCAGACGATGGCTGAGCAATTT
0.5 CCCAAGAAAAACAGCTATCTTTGGCAGCAAGAGAATGCTTTCCCTCCCTGACAGACACGCCTCTAAGAAGAGCGACACGGAAACAGCAGGGCTGTTATTAACTCTGAGGTCAGCTAACACTGGTGGCATGGAGACCTGAGGAAAAAGGACATGCCTTCCTTAGAAGA
0.364139626969791 CAGCTGTTGTCATTTCTCTTTGCCTCGGGTGGTTTGGAATAGCAGTTGACACAGCTGGGCTCTGAGCTCTCAGTTAGTTCCTCCAGCCTTGCCTTTGGGTTGTCTGCCCCTTTCTGACATGACTGTTTGTGGAAACCCTGCTCGCAGCAGAGTAAATCCTTCAGCAA
0.5 GGGCACCTAGGCTCACTTCCAGTTTTGGCTGTTGTGAACACGGTAGTGCTAAATACTGATACACAGCTATTTCCCTGCTATGCTGACTCACATCCCTAGAACACACCCTCTGAGTGATGCTAACACTTTAATTATAATGAGGGTTTTTTTCCCCCTAAATAGAAACA
0.5 GAAACCAGTAGGAGAATATCAGCGGAGAACTTGACAGTTCCCATAACAAGGAAGGAAAATGTGGCCAGCGGAACCCTTTCATGATAATCTCAACAATGCAAACTGTAAAGCTGGGTGAAACCCCACCTTATAGGCTGCGTGCCAAGTACAGGGGTGGCGAGAGGACG
0.5 GCTGTTTGGTTCAAGCGTCAGGGTAGCCTCAGCCCCACTAATCAGAAAAGGCCCTTTCTCTTCCAGTCAGAGTCTGGCATCCTGTAGGCATGAGCATTGTGAGTTAAAGCATCTCTAAAAATTAAGCACTGAATCAGGCCCTTTATTTATAGCTCATTTTACAAATG
0.5 CCAAGAAAAGCAAGCACTCCCTTCTCCTTGAAGTGGCCACCCTGGAGGAAGATATGAGTAAGTCACAGGGAACAGAGCTATAAATAAGTCCATGCCTGTGCGGATAGGAGCCACTGCTGCTCTGGTTCGCATTCTCTCTTCCTAAGGAATGTATCCTTGCTTCCTCA
0.5 TAATGATGGGACCTGAGTACTTTAGAAGCTTTTACTAATTGAGTGCTGAATATCCCTATGAAGTAGGTAACTATTATTGTCTCCAATTACTGTCAAGGAGCTGAGTGGTGGTGACATTAAGTGGCTTGCCAGATCCGTGAAGCAGAGTTGTGGGCAGAGTCTGTTGG
0.5 GAACAGTAGATGGATGTCAGAAGCAGATGATTTAAGCCTTCTTAAAAGCTGAGATTCATGACTCAGTGCACACTGGAAGCATTCAGATGGTGTTTATTACACAAACACTATGCACTCGGCAGCAATTTGGGAGCCCAGCGGTCTCCTTAACAAGGTATAATGGAGAT
0.3952870904668546 TTTTAGCGCTGCTCCATCCCACCGACCCCTTATTCCTGTCTGTTTGGAGGCACAGCCTTGCAGTGCAGCTCAGGCTGCTCTAGAACTGCTCAGCCTCATGCTTTAGCTTTCCAAGTGCTTGGCCTTCTGTAATGTTTTCTAATGCTTATTGTTATTATTAATATAAA
0.1786001626071874 TACTTACTTACTCAGGCTGCTGAGGAGGTGTGATTAGCTCACTAGGGCTGCGAGGCCCAAATTCTAGCAAGCAGTTTCTTAAGAATGGGCTAGGTAGATAAGAAAGCGCACAACCACGTTTTGGTGTTTACTTTAGCAGCCCATAGCCTATTTTAATTATTCTGAAA
0.4484391134598156 CTACAAGCCCTTTCAATCTAACAAGTACATAAACATGTGGCCAGGAGCACATGGGTTCAGAGGCCTGGATCTAGCTCTCATAGCCTGGGTATTAGCTCCGACTCTGTCTCTAAGATCTCAGCATTGGAACGACTTTGGGTAAGTCACTGAAGCACCTGGAGTCTCCA
0.1648921464088156 TTAAATTAGTTTGAGCAGTCCAGGCTCAGTGTGTTTTCTATTGGGGAGTTTGCAGCAGATGGCCTGGATATTCTTAAGCTGAAACAAGTTTGAGCTTGCCAACCTCAGTTAAAAATCTCTCAAATGTTTGCTTTGGACTGAACGGCTGCACAATGGGAAAAGAACCA
0.5 TGTCCATGAAAGATGGATGCTTAATGGCTTTTAACTGCCGAGAGGGCCAATCTTGCTTCTTAGGAGCTTCAAATACGCTTCAATAGTCAGGTGCTGCATTGCATTAATTCAGCTCAGTACTTTCCAATCAACTACATTTGCTATCTAATTAGTACCTACGTTGCATT
0.0454382936280605 AAATTCATAAAAAGCATTGTTTTCTTATAAGGTAAGCGACTGAGCTGTTGGTAGCCATGGACGGAGGAAGCTTGTGATGTTTACAAGCCGTTGGAAGTTCCTTCACAGAGATGTGTTTACTTTGGCAATCTGAATGTGTACAACTGCTACAAAGTAATAACACGTGC
0.1245385684563594 GTGCTGTTGTAGAACGTGGCCACTGTACAGAGTTCCGTCTCTATGGTTCCGTGCCTGTTTATACAGCTGTACAGAGTTCCGTCTCTATGGTTCCGAGCCTGTTTATAAAGCTTCATCTGTGCCTAGCTTAGCTGATACCCCAAGCCAAAGAAAAGCTCAGTTTACAT
0.0005059134977785408 ATTCAGTGTATGAACTAACAGATGCAGCCAGGAGAGGCCAGATCAGGGAATTTGCTTCAGAACAGAGGCTCAGGCAATGATGCACCAGGCTCTCTGAGAGCTGCAGGGGAGAGGAGTGAGGATCCATATGCCGTCAGCAAGGGTCTAAAAGACAGCTCTGCCATCAG
0.05139043387219373 GCATGTCCAGGGCAGGACATATCCTCAGATAAGCTATAAAAAGAACTGAACTTTCACTTGTGGCTTATCTTTAGCCTTATCCCAAGTAGGATGGGAAGGCTAAGGCAAAGCTATAAATGGCCTTGGTGTTGGCTCAAGCACAAAGCTAATCTGCAAGTAAATTAGGA
0.3384360004483956 TTCCACCAAGATCCTCAAGGAAAAACTGCAGCTTCACCAGTAATGGAGATTTTGCTCTGCACGGAGTGTTACTGTGAAGTCTGACCTGTGGCTGTCAGGCCCATGAGAGAAAAGATTTGCTGTTGTGGATTGAGTAAATAAACATCTCTGGAAAACAGCAGTGCTGG
0.4052685954451186 TCCTGACAAAGAACCCAACTAGAAACAAAATGGTCACCTGCCTGCCAAGCGCTTCAGGAAATAATCATAGTGGACCGGAATAACCCACAAACTGATCCACGAGCCTCTGATTGCCTAAAAGTGTGGACAGACCATAATATAAAGCAACATGTGAATGAGGTGAAAGG
0.5 GTAGCTGCACCTCCTCTGTGGTGTCCTTGGGTGGAGAAGGTCAGCACTGGCTGTGTGAGCATGACACATATTTCCTTCTGGCAACAATTGGTTTCCTTTTTCCAACTCTGTTCTCCCACACACCCTCTGATAAACAGTCTGGTGTCGGAGGGGACCCACTCACCAGG
0.5 AACCAAGTAAATTATAACAAATACAGGGAACAGCAGAGTGGGCAGACACAGATATCTGTTAGCCCATTAAATCACCCCCTCCTGAGAACAATGCTTCACAGAAAAGGAACTATGAAGTCATCTGATCAAGCCTCATGCCAAAGCAGGTTCAAGGCCAGAGCACTGCT
0.03732645791918099 TTCAGAGTCGGTTTCCAGTAACCCCATAAAGGATCCCAGGTTCTCGCAATAGTGGAGGAGGCTGGAGAGGGGACCTGAGCAGGGAGGGATACTGGCATTGCTAGAAGCTATAGCCCCGCCCTCCCCTTAGTGTTTCTCAGCTGAGGTGGCAGGGCTGAGGGGTGCAC
0.1464674082231142 CAACAGCCAACGAAAATAGATAATTGTGTGCCTTAAATGAACTGCAGATATTTTTGCAGTTTGTGGCTGTTGAGGTAGGAAGGAACACTTTTCTTTGGCCTCTGAAAGGTTTCCTGTGCTCCAGTAGGTAGTCCCACCCCTATGAATATATGGGCAGCATTTATTAG
0.3557731183945877 AACAGACCAAGTCACCTGACTTTACCTCTGTGTTGAGATGTAATGTCAGGAAGACAGCACAAAAGGGTGAGGTCATTGTTTACCTAACCCCTACTGGTCCTGAAAGAATAAGTGGCGAGGAGCCCTCCAGAGCCAGTGGCAGAGGTACCAAACCTCCTAAGAAACCC
0.06204595040078052 CAGATGAGTCATTTACAATCGGCATGGCGACGGGTCTCAGCGGGACCAACTCAGAGAACACTGTGCGCTGAGCGCTGACCATGTAAACAGTGCAAACTCCCTCTTGTGATTCTAGGAAAAGAATCTTAGAACCTTTAGACAAAGAAATCAGAGAGGAGTGTGGCTGC
0.2873675229864367 CAGCTGTGAGGTCAATAAGTCACGGCCTCCCTCCGCCCCTCCTTTCTCCTGCTTTCCTCCCTCATTGCTCAGGGGGATTGGCTTCTACTCTGACCTTTTCATTCCCCAAGGCCAGAGCTGTCCTTCAGCCTTGCTTTGTTGCTAAGAGAATTCTGATGGAAAATACC
0.5 AACACTTGGTAAATTGTTCATTTTGTCACCTCATATCCTTCCTCTCAAAATAAACAGTAATTAAGCTGGAAATAACTTCTGAGCAAAACAGATGTCATGACTGTGCAAAAGAGGGAAGCTGTACTTCAGGGACTGAAGCTCTGCAATGGCCTGCCTTCCTCCTGACA
0.5 AAGGATGCTCTTTAAAGAAGACAGCTCTCTAAACCCTCACTGTCAATTAGACGCTATTCAGAATCAGTCTGAATTGTTGAAACTCTGGGATGTTCAGTGTTCTTATGCTTGGTGTTCAGAGCACTGTATAATTATCCCAGAGGGTGCTTCACTGCTGCTGATCTCTG
0.2632347393187952 AGTAAGACTTCAAAAGACAGCATGGACTTTGGCAAATGGGGCTCAATCTTCAGTGCTGTGGTCCGTGTGTTGAACTGACAAGCTTCCAGATGGGGTTCCTTAGGTCCTTATCTCTCAGGAAACACATATCCTGTTACTGTCCACTAGCTCCCAAAGTTTCACAGGAA
0.04335480942036638 TCATTGCCTACAAAATTGCACTCTGGTGCTCCCTAAACGAGGGGGGAGAGAGGGGTTAGTGGTGACCTTCCACCCAGCAGAACAAAGTGTTATTCTTGATTCCACTTCACTGCTTTCTGGCTAGCATAGCACTTTTTGTATTGTCTTATTTCCTTCTGTTCATAAAT
0.5 ATACGTCCATGTTCATATCAGAGCCTGTTTGACCATGTTTCTACTCAATTTTAGACCCTCAAAGCTCTCTGTATTCTGGCACCATATCACATACTTTCAAATTTGCTTTGATCCCTTTATGCTTTTCTCTTTAACAAACTACCCCCCCCCACCACCATTGTTTAGAA
0.5 TACTTTGTCCTTGAGACCTCACGGGGAGAGGTAGATCTTGTTGATATTTCTCCCAAGAAGAAAAATAAAAGCTTCTCAGAACAATGACTGGCTCCACATGAAAATTCCCAGTCTCCAAAACCAACTGGCCAGGGTGAGCTCATACCATGACTGTCTGCATTTCTTAT
0.05412840699074786 GTGGAGCCTTCCCCATTTACATAGTTTCATTTCCAAACATGCGTGCCTTTAGATGTAGCAGGTTGTAGAGTCTGGAGCCACCGGCAGACCAAGATTAGTATCCTGCAGTGAGCCAGGAGCTCGGCCACTAAGCTCTGTGAGACAGTCTGCCAGGGGCAGCCTCCTTA
0.3698232054318847 GAAACAGACTATGCCCGTCACAATGACATCAGCTTATTGTAACCTTCCCTCGGTGTAGACAAAATAACCCATAGGCCTCTCAGATCTGCCCGTGAGTCACCTTTTCTGTACCCAGTGACTTCCTTCAGGACATCACACAGCGCTGCCTTTGAATGGTGCCTTTCAAA
0.1125266424254669 GGAATCTAGTCCTTACTCTCCAGCTTCCTTCCCCCAGTTTCTGGATGCACTTCACTTTGATCTGCTGTGCTATGGGGTTTGAATGAAAGAGAAGGAAATGCTGGAGCCTGGGAATGAAGCCAAGCTACCCTGGTGATGCAAGAGATTCGGAGTGTGGCACTGGCTGT
0.2605485902244518 CGACTTGCTATTTTCTGCCTAGAGTGGCTGGGGCCCAGAAGGCTCAGGTGACTGACTGGAGCCACACTGTAGTTAGTGGCAGAGCCAGGATGTGCCTGGGACCAGTGACTCATGTCAGAGTTTCCTGGGCTCTGAATTCAGCAGAGGAAATGCTTTGTTTTCAAAGC
0.0599249765714762 TTCAAGTAGCACGGATCTCAGAAATCTCCAGCCTTTGTCTCAGTTTAGCATAATTTATGAAATCAAGCATAGCTGAGGGCTGAGCAGAGCGGCCTAGCTTTCCGACATCAGGCAGGGTGTCTCGGCCTGCAGCAGGTGTGGCAGCCGCTCGGATTATTTGTTTTTCC
0.005002869545759309 TCTCAAGTTTATTGGATGCTGAGATGTTTGTCCTTGGTACTGCTGCCCGGCTTTATCTCACTCCACAGCCTTCCTATGGAAGAAGCAGGGAAGTGAGCGCTTTATCAGTGGGGATCGGAGGTAATGTTTATGTTTGGCTGACATCGCTCGGAAAGTATTTTTGGTGC
0.5 TTGATACCTGAAGATATCCCCAGGGAGGCAGGTCATTATCCTTGCTTCTCTGGCAGGCCATTAGGCAGCTTCCAACAGTTTAAGCTGATGGCATGGTGAGAGGTGCTTTCTCCATAGTACTGGGCTGGAGGAAGTGATGGAAAGATGATCCCCCAACACCGCAGCTA
0.206845025844843 CAGGCAGGGAGTCAGTGGCCTTTGGCCCTGGCTACAGCCTCTCCTTGCTCTGCAGTCTCTTGTCATCTAGCAGCAAGGCACAGGCTTCTCCTGGCATCACCAGGGTTCTCACAAGTGATTTTTTTTTTCCTTCCCCAAATTTGAACCTGGAGAGTGTTTACTTCCTG
0.1412479718362195 AAAGAGACTGTAATTAGTTCATTGTCCACGAATAGGCACAAAGGAGGCGAAGCCCCGGCCTGGACTCCCTTTCAAGGGAGGATCTTGGGGCAGATGTTAATTAAGTGAGTAACTTCTACCATCTCCTGGGAATGCAGAGGAACACCACTCCCCTTCCAGAAGAGACA
0.5 CTCTGCGAGCTTCCCTTTTTGGGATGGATCTAGGGACAGGAGTTCCTGCATGCCAGGAGCAGTTGTGTGTCACGGCGGAAATATTTATCCCATGCCGGTTTAATAATAGAAGCCTTGCACATCCACAGAGCTGGCGGCTAAACTTAGCTGCTGTTCTCACAGCTTGC
0.5 TGCCTGTTTGATGCCTTTGCTGCTGAGGGGCCTGCTTCTTCACAGTGGGTTAGAACGGAATAATTATTTCGTAAGTTTGACATGGATAATTAGAAGGGGAGAGATGCACCCGCCTGCCGTCTGGAGCCTCAGCTGTAATTATCCGTGGCATTAATTTAATCTTAATT
0.5 TTTTCTCTGGGGCATAAAGAAAAAGATAAGACACCAACCCTTTCCCTTTTCTATTTCTAGAACAATACGCTGAAGGCATTACCACTCCCTTTCCCACTCACGGACTGCCCTGCCGACCTGCCCTCTCATGGAAACCATCCCCCATACTGTCAGCAGAGAGATGTGAT
0.4367314039258256 GATCTTTCTCTCCACCACCATACACAGGATTCACTGATGTTTAAGCACCAGGCAGTGCACGACTGTGTTTGATTCTGGTGTTTTCCAGAGTAGCTCACTCTCTGCCCTTGGTGACAGGCTCACAAGGCCTGAGATGAGGTTTCCACTCGGTGTCTATTCTGAACCTG
0.5 CTAGAGTCATCCTTCCCAAAATTCAAGCACCCCGAATCCTTGCCTCTGCTTTGACTTCCAAGACATTCCTCCATGCCAGCTCCTCACTGCCTGTCATGGCACAAGCTCAGAAGGTTGCAAGAAAAAAAAAAAAGTCACAATTTTTAATGAAATCATTTGGCTTACAG
0.03334117809621728 CTAGAGTAAGTCTTTCTGCCAGTTAGCTCTGCTCTATCAAAACCTCACAGAGCTTCCAGAGGCAGCCCTAGCTTTGGACAGCATCTTCCATTGCATTCTTGCTGTACCGTCTCAGCACTAAGGACAGCTCCCAGACATGCTTAGCCTCTGTTGCCTAGGTACCAAGC
0.5 TGAAATAGAAGTGTCAATAATATCTACAAAAATAATTCAGGGTACAAAATTTTATTCACAGCACGGTTATAACTGTGTAAAATATGCACAGAAGAACTTAAAAATCATAGCCATTGTGTTGAGACTACATAGCGTTTGGCTTTTGGATTTTAAGTGCTTTGCTAATT
0.298770062231967 CCCTTGCTTTTCTGCTCATCTGAAAGGCCTGGTGGGCCAGTGCTCCTATCCAGCCTTTGAATGGCATCACCTGTACAATGAAGCCCTCTTGTGGCCTGAGGCATCCAATGTGAGCTCCTGGGCTCACTCTCCTGAAAGAGCATCAACTGAAAAAACTGGCAGCTAAA
0.5 ACATACAAAAACAAAACAAAACAACCATGGGAAATGAATATTGTTCTTTTAGCGCCCTCTATGGACCAACTCTGATGCAAGTTTTATCAGCCTGTTTCAAACGTTTATCAACTTGCCTGATGTCACTCACTAATAAGAGGTAGGACTGATGGGGAAAAACTGTCCTT
0.1390422018157157 GCCTGCGCCAGGGTTTGCAATCCCAGCTCCGGACCAGAGAGGAACGGCAGTACTGTGAAGTGACACCAGAGAGCAGCATTGCCTGCAAGATCTCAAGGCTGATGCTAGATGCTTCCAGGAGCTGCCTGCTGGTGGCAAGAGGCTGCAGGCTAGTCCCAAGCTTAAGC
0.5 AGAAAAGCGTAGCCTCTTCTTCTGCATCAGAGCTCCATTTATCCGGAAGAGTTTCTCATTTAATTATGCATGGAAGGTAGACTCAATGGGAATCTATTTGCATAATAAAAGAGGTGATTGAATCCAGTGCTGTGGTGCCTTTACCTTTCAGGACGCCCCAGTCTCTT
0.5 TCCACGTGTACAAACGCAGGCTATTTCCGACAAGTGATATGACTGCTTTCTTCCCCTCTCTGAAAGCTTTCTGAATCAGTGAATCACCTACAGTTGAGTCTCTCATGAAAGCAAGGAATTATATGAGCCATTACAGTGTGTGAAGTTGTCCCGCTGGGCCAAGGACT
0.5 TTTAAAAAATGCTATTTACAAGTCATATTCTGCCACAATTTATAGAGATTTACCTCCTGGGTTGCTGGGATTGAATTGGAAAGTAAGAAGAGCTGATTAGACCACAAATTTGCATATTTATTGGTGTTTGTCTGAAGACAGGGGCTCACCACATTTTCCTTCTCAGC
0.2438973211448896 CGCGTGCTCTGCAGGCACTGTCAGTCACACAAGAAGGCCATGTCCAGAGCATAGAGGAGTCCTGGAGCTGACTGCGGCTCCACTCAGGGAAACGCCCTCTACTGGGAGCTCTGCTATACCTCTTCCTCTAAGATTCACCAGACCCTTCTTTTGCTGGGCAATTCTCT
0.5 AGGTTAAGTGAGAATCTCCTAGCTGGTTTATCTCCTCCCCCTCCCAAGCCCTGACATCATCTCATCTTGGCCTAACAAGAACAACCATAGGACTCAGGTTTCCATCCGTGCTCACTGAGAGGGACCCATTGTCCAGATGGGAAAGTGAAGACGCAAAGAAGAACAGA
0.4991089748944491 TTTGGGATTCCTGCCCTAGTGGGAACTGGACACATCCTTTTCCTTGGAAGCAATCAAATGTGACTTTAGATACTGCCGGAAGGGACTTGGCAGGTATAATCAAAGCCCCACATGTGTAAATTGCTCAACAGGAAGTCCTGGTTGGGCCTCATTCTGTAAAGCTCTCT
0.5 AGGTAAATGAGCTTCACTGGGCGGCTTGGATTTTTCTGAACATAAAAGGAGGAAATGGGAGGTGGCCTGGCAACCTACAAAGAAGCCTGCCACTGGAGAGATACGTCAACCTCAGTCTGCTGACCATGCCAGGTCACGGCCAATACTTGACGGGAATGACCCACCTT
0.5 CTGGGAATCCTTTGGGCTATCCCAAGCCTGCTCCTTGTGGTTGGTGACTGTTGTCTAAGCCCAGGAATAATTTATGTTAATATAATCCGTTTTAAAGTGTCATGAGGTGGGGAGGCCTTGGTTCAGCACCCTAATCAGGAATGACTAGTGAGCCTCTCAAGTGCCCT
0.3978735324942057 TATCTTTGAACTTATCTCTGAGAACAAAGAGCATTCAGAGCTGGCCCCCTCACTTGTGCTTTTAAGCATGTTCATAGCTCAGAGCTAAATGGGAAAAAGAAGAGAGAAGAAAGGCAGTCTTTGCCGATTGCCCCTTTGTAGATTCGGGTGACCCTTTCCTGCAGGCT
0.2181504224011787 GACTATGTAATGCTAGGAAGAACTAAGACTATGTAATGCTAGGAAGAACTAAGACTATGTAATGCTAGGAAGAGCCCTTTTATCGCTCCGGCTCCCCAAGCTCCCTCTGATCCAGCCAATACAACAAGTACATAAAAACACTTTCATTCTTAAAAGAGAACTCATGG
0.4667778506685945 TAATTGAGTAATTGAATGGATTTCTGGGTATTAATGCTATCCTTAAGTATACCAGAGCTGAACTCTGCTGGTAAGACTTTGATGAGAAACTCTGCCCTTTCCTTCTGTTTATTTTTTCAAGCATGTTCCCTACAGGAGGGGGTTAACCAGAAAGTTTCCTTTACTCC
0.459272515799211 TCCTGCCTCAAAGTCAGTAAGAGTTGGTGATGTCATATCCGCGCCTTATCCTTGGGAACTGGTTATTGCTGTGCACGGTTCTTTAAACATGCGAAGGAAAGGAAGGAACACCCGTCGGTCGGTCGGAGCCTTTTGAACTGGCTGCCTGTGCCCTCTAATATGCAGAA
0.5 ACATAACACAATGATAAAAGCATTGTGCTCCCCAAGTCAAGTGTATGCCTCATCGTTTTCTTAAGAAATGTCCCTGCAGTGAGGACATGCGCGAGTCAGGAATGTTTGTGAGCTACACAGTGTGACCTTGGACAGGCTTACCTCTCTACATAAGAGTTCCCTCCCGA
0.3085542096159196 TATCTGTCTTTTGATCAGTGTTGAGTCTCTGGCTTTTAAATCTTTTGAACTCATATCCATTGTTCCAAACAAGCTGCTGCTGATTCTACAAGCCCTGTTCTCTTTTGATTGTATCATTTTGGCTCAAATACACTGTCCTTGTTCTCTCCTGGGCTAATGGAGTGAGG
0.5 CAGGGCCATTATTTTAAAATGATATTTTTGAACTGCACAAATGTACAAGTTCTCCTGTTGCTTCTGAGCACAAAAGAGAGCACTCTGGTAAATGATTGCAATTGCTCTCTTTATGCTAATTTGAGCATAAACTTATTGGAATGAGTTTATCAGCCCCGGAACACCCA
0.5 GTCTCTCTTGGCATAAAAATCAGGGATGCCTGTAATTTAGAATGAGTCAAGAGCTGCCACCATGTTTGAAAGAGACAGTGTCTGACTTCCAGATGAGGCTCGCTCCAAAGACTGTGACAGTCCTGCTCCTGCGATTTGGCACTGTCTTCCCTGCTCTCCCTTTAATA
0.4013354824070682 CTGTGTCCTCTCCGATCTCCCTCCTCCCCTGACCGACCCCTCAGACACACACCACTTGTTTCCCTTCACTTTGTATGGTTTTGCCAAGTTTCTCACAAGGTGGAAATGCGTGTCGCACTGACATCAGACTTCAGAAGCCCAGCTGCTGCAGCTGCATTGTCCTGAAT
0.2762823227750419 GGGCACACAAAAGAGAGCAGGCGTAGTTGTTAGTTGCAGGTGTTCTTTGGAGTGTGCAGATTGGCAGGGTCTGCGTGGTGGAAAACGTATAGACTTCCTCTCCAAATAGAACCTGGGAAATCATCCAACACGTCCCACTTTCCTGAGAGGAAGCAAGATGTGGGGAC
0.2490399307093325 CCCTTTGAAGCTTTCTTAGCTATGATTTCATGTGTGGTGAGTCAGAGGGAACAAGCAGGATCAGGAAGTGCTGAACAATAGGACTGGGAATAACCGTTCTCACCGGTTGAAGGCAGCCGATAAGGTCACAGGGTGGGGACTCCCTCATCTTCCTACCCTCCCGAGGC
0.5 CATCAGTTTCCTGTTGCTTTCAGTGTACCTACCTCAAAACCTTTCTTCTCATGTTTAATTTATGACTCTTGTGCTCCCTGTGGCTTTTCAAATTAAATCACACAGGCTATTAGTTACAGTCCATTAGTTTTGCCAGAACAGTCATGCACTCAGGATCCTTAATGGAG
0.5 GTCCTCAGCCCTGTGCTTAGGTAATATTCCATTCTCCCTATTAGCTTAGCTCTCAGCAGTGTCTGGAGCTGGCAGAGCCTGCTGCTGGATGGTATCTCTCCTCCATAATTGCTCATTAGATCCGGAGCCATCGCACTGAAAAGCTGTTTACCCTATCAGTTGGAGCT
0.120112151151059 TTTTTTTTTTATTATGAAAAGCTTGCTGGTTTTCTCTCCCAGTCTGCTCCTCCTTTCCTGCCTGTCAGTCTCTGTTTTGTACTGGGAAGGGGCGGGAGAGGGCGGAGGTGTGTGGGGGCTGGGGGGTGGGGGAGCGCTTAGGCTCCTGGAACCTCAAGGCCCTGGGA
0.5 CAACACAACACAGCAGATAGTACAGCACCAGACAGAGACCTGAACGCTCTTAGCTCCGTGTCTGTGCTCTGTGTGAGCGCCGCCCTCCTCGACCTTTGCGCATAAAAACTTGTGAGTTGGGGTTTCTCATATTCTCTTCCTCCGCCTCCTGTTAGGCCATGTCTCCT
0.1299497346916308 TGTAATCACTAAATTAGCATTTGGTGAGAACATAAGGATCAACAGCTCAGTCCCCAGGAAAAATAACCATCAGTTATTTAGGGCCCTGAGTGCAGGTGCTCTCATCTGAAAGGCAGCAGGTTCAGCAATTTAGCATCTCTCACCAGCACAGCAGGATGCTGATTAGT
0.5 TTAAGAATACAAAATTATCTTAATGAAGTCATCTTGTTATTGAATTACATTACTTATTGTTTGCCTGGTATTCTGAATATATAAAAGGCTCCCCAAAGAGATGATGTACTTGGTGATCAAATAATAAATGAAAAAAAAATAGAGACAATAATGTAATCCTGAGTTAC
0.3946547520433888 CTGTCTGTCAGCTCCTACCCAGGATCTGAAGGGGAAGAGGGTGTGGTGCTTAAAGATGAGATAAAAGACCAGGAAATTCCTAGTCCTGTGGGAGAGACCAGGCCCTATTAGTCAAGACTGAGAAACAATTCCAAAAAAGGGAAGGTCCTTACTCATCCCTCTGAGTA
0.5 GTTTCATTTGGCTGTATTATGTTAATAATCAGCTAGATGCTGTAGATCTCTTTCATCATTATGTACTCATGAATCATTCAGCAGTGTTCTCTTGCAAGTGAGGACTGGAAGAATTCAGTTCCCTTCTCTCCAAAAGGGTCAGGCATGCTGTGCTTTGGTTTAGAAGA
0.1559549413110863 CCCTTACAGAAAGCCTGTGGCTGATCCAAACAGAGCAGTAACTATTTGCTATATGGGAAAGGCAAGAGGGTGGGGGATGGACGTGAGCATAATTGCACATTTCTTATCTAGGCAGAGAGCAGACTGCACCATTCACCACGGGAGGCTTCTGCTGTTGTGTGAGAGGT
0.5 AGTAACGACAGCTGAAGCATTGTGACTCTGAGCCACCACCCTTCCCCACCCCCACGATCTTCTCAGAACTTCTTTGTGGGAGGGTCTTAGCCAACAGAGAGTGAGTATTGAATGATGAAGTCATCACAGGGGGAAAAAAAATCAATTCGGGGCTTTGGAGTACCAAT
0.5 GCTGCTCTGATCTTTGAGCCATCTTCCGAGTTTGGCTTGTCTCAGCTCTCAGTTCTGACTGCTGATTCAGACAGAGAGGGATTATTGGATCTGGTCAGTTTCAGACTTCCCGAAGCTATTTTGAGTTGTTTACCTTCCTGATTAAGGAAGCTTCCCTGTGGGATGGA
0.251783204871935 AGAAAATAAGCCCAGAGAGCGTCTGCAGTAATCAAGGGGAAGTACATAGGCGCCGAGCTGTGCTGGGCTACGTTGTTGCTCTATGTAAGAGCTCGGGAATGAGACTATTCAGACAGTGCCAGTCACCCAGAATATCCGGCAGAGCATCTGCGTATGACATATGCCTT
0.1420973266772005 CACACAAACAATGAGCGAATCTGTTCCATTAGCAAGGCCACCTGTTGATCTCAGACATCCTCAGCTGAGCGCAGCGGACACAAACTCAGACATTCTCAGCTGAACCCAGTGGACACGGACAACAGAGTGGCTACATCAGTCGAGTGCCCCGTCCACAATTGCTAGCA
0.2904554618927109 TGAGTGTCTAACTTTAGAGCGGCCAAAAAGAAGCTTGTTGTTGTTATTGTTTGGAATGTCTGAGGGTTGATTCTCTTTCCCCAAGAATGCAGTTCAGAAGCCACATGTGTTTGTGGGAATTTTCAAAACAATAGCAGGAGGCATTCTTAAATATGGTTCTAGGACTT
0.5 AGATTGAGTCACCCTCCCTCCCTATGCCTCAGCCACCACATTCTCTTCCCAGGCAGTAACTACTGCTACCAGGTTGTATGACTCTTTCATAGTGGCCCTGCTGAGCACCACAAGCTTGCACAAATAACAGCAAGCACCTACAGCCCCTCTGTGTGTGTGATGTGCTT
0.2198827652191972 GCCTGGTCACAATTGAAACTGAGTCAAGTCAGGAAGTCATTCACATGCCAGGGCCATTTCCTCTGCCTCCCCCACACCTCACACCACTGCCCTGGAAGTCAGTTCTCACAGTGTTCAGTGAGTCAGGCCTAAGCACTTTGATTACGGCTCAGCTGATGTCATCCACC
0.5 TTGGTCACAGAAATAACTATGACACAGAGTAATAGCACACACTCTCTCAATCAGACTATTTAGTAGTTTTTGAAGAGACAAAGTCTGATAACATCTCCTAGGCTGGCCCTAACGCCAGGGCTCCAGCTGTTCCAACCTCAGCCTTTATGGTAGCTGGGACCACCCAT
0.1991656915928774 TCACCCGGCCAGAAATAACTGTTCCTGTGTCAACAAGAAACCTTTGTCTGTGTGTACGTTTCCTTCTCCCGGGGAACATTTTGTTCTTGCTGCTGGTTAAAAGGTGGCGACTTTTAGATAGAAGTACAGCAGGAAGTATTTAAGTTAGATAAAAAACCGAGACTACT
0.1219500764785885 AACTTTTGACTCCACTCTTAAGCTCACACACCAGAGTGTACATTGTTCTATCTTAAAAATGGAAAACAAGGAACTATTCATATCTTGTTCTCAGAGCCTTTCCCCCTCTTGGAGACCGCGCCACCCCCAAGTGCGTCCAAACACCCCAGGAAACCACCCCATCATTG
0.2363268542930101 AAGGGCATGGCCGCTTGAAGTAGAGCTTAAGAGCTACCTCTCGCTCTAATTATCCCTGTTGCCTGGGATACTGAAGGGCTCTTCAGTCTCCTTTGACCTTAATTAAACTCATTGCACAGCCCAACCCAGTCCCTGTTATCAAGACATAAGCAAACTAAGACAGCTAT
0.5 TTAAAATAGGCAGAGTATATAAATGCAGCTAAATGAGTGCTCAACATAAACTAATACGCTAACAAAATGTTTTGAAATAAAAATCTTGAAGCAGAATCCATATATAAATTCAAAACAAATTTTCAGCTAATAAATTAGAACCCTGGTGTTATTTCCTTTATTACCAT
0.4880973098183938 AATGCCGATGTGCCAGGAATACATGAGAGCTTTCCCCCACCATCACCGTGAGGGCCCGTTGTGTAGCTGTAGTTAAGCTGGGAAACATTAAAAATAGTTTTCAGCCTCCACTTCTCCTGTGTTATTTTGGGGAACGGAGGACACAATGGTTGAGTCCTGGCTCATGC
0.5 TATCATGCTTACAAAGTCATTATTTCATATTGCTGGAGATTTTTATCTCTGCTACCCTAGTGCTCTTCCAAAGTAGAATGCTGTGGAGCACTTAATTACAGGCTTTTGCTTAGAGAAACATCTATGAGTATAAACAAATCCAAGATATGCTGTCTATTTTTGGATTT
0.5 CAATAAATGTAGGCATTATTATCCTATTATCAACCACAGTTGAGAGTGAATAGAGAAAATAGCCACACAAAAAGGAGAAAATTGGACTCCCTATGGCTATGTTGATTAAAAAATGTCTAAGCATGTGAGAACTGAATTGAAGTTGCATCTTGCTTTCTTGTTTATAA
0.5 TGTGACTAAATGGGGTTAGAATTTACTAAACACATTTTTCTATCCTAAATTCCGTTGCAGAGCATGAGCTTAGAGCAGCTGATGGCTCCTCGCTTGGAGTCTCACTGTCTTCCTCAGAACGATCTTCATTTCCAATAAATCTAGACCATGTGAGGCACTGAGTCAAA
0.18300178258409 CGTTAAACAATGTTATGAGCTCAGGATTTCCTTTCAAGCCTGCAATTCACATCAGTAATGATCTCAGAAGAGGGACTGAGCTTTGAAACAAAGGAAAGTAGGGACACCTGCTGGAGTGACAGGGTGAGGAAACAGGAAGGGGCCCTGACAAAGGCTGTGGCATTTCT
0.3394207985699083 TTGGCTCCACATCCAGCTGGCTGATTCAGTAAGAAATCAGCTGGCCTCAATTTAGACTTCTTTTCTTTTAAAGCAGTGCCAAATTGAGGATTACTACATTGTGGAGAGGGAGGCGGGCAGCCCCACCCCTGATCGGCCATTCTTCATTCCCTAGAATGGGCTTGCCT
0.5 TCCTTGATTTCTGAATTAAGAAGTACTTAGACAGTAATGACTTGCTTAGAGTGCCTGTTCTTTAATGGTGCCTACAGAGCTGGGCTCTTACACCACTGCACACAGAGGATATTTTCATCAAGTTGCAGTCAATTGTCTTAAAAAGCTGAAGTCAGAAAGAGCAATGT
0.08222138709980334 GACTAAAATCAGGAACAATAGATGGTGATTTGTTTTCTTCATGCTCATTCAACATAGTACTTGAAGTCTTAGCCATCACTAGAAGAAATTTCCTCCTACAGCAAATGGGAACAAACACTGAGCCACACTCCATGCATTGTGCAGAGAGTGAGAGACCTTGGAATGCT
0.5 CTGGCCTATACCACCAGCAGCAATTATCTTTATGCTAGCAACCCCCACTGCTAGTCTGGCATAGAGATGCTTACCTACAGGGTTTCTAATTGTCAATGCATTTTCCCTTTTCAAAGTGTCAAACAGCTTTCTTTAAGTGTAATCATCTGGTTTGCCACCTGTGGCCA
0.5 CCAAAACTTCCTAGACCTTCCCAGACAGCCTCTGTAGCTGAAGATCAGCACGCTAGACATATCACATACTGAGTAACATTTCACATTCAAATTGTAAGATAAGCTTTCTAAACATTGAAATAATTTTAGCAATTGAGCAAAAGTTTTCAAAAATGCAAAGCATAATC
0.2733301361489557 GCCTGTTTCAGAGCTATTCATAATGAAGTGGGAAACAGTAGGATTAAAGGCCACACTAACAGGCACTACCAATTCCTCGCCACAGTCAGTCTCAACTTCAAACAGAAAACGCATCTCTTTTAGACTTCAAAACAGTATTTTTTTTTCCCTAAGAATCACTGCTGCTT
0.5 ATTTCAGTGAACTGCTTTAAAATGAACAAGAAATCGGTTCTCTCCCTCTCTCTCTCCCTCTCCCTACCCCGCTCTCTGTCTTTTTCTCCCTCCTCTCTCCCTCTCTCTCTTCTGTCTCTGTCTCTGTCTCTCTCTGTCTCTGTCTCTCTCTCTCTGTGTGTGTGTGT
0.5 TTACCTCTTTTTGTTGTAATTATAAGACACTTTCCTGTGAACACTGTCTGTCTCTTAATCACAACTAGCAGCAGGTACTGAGCAATTGATCTGCCACACACCTCATTCTGAGCCACATGCACAGAACGAAGAACATGAAGTAAAACACTAATGAGTTTTAAAGTAAA
0.0896249822790196 CCAGATTACAGTGAACGCTCAGTAGAGGAAGGGGTGCACTTTCTGTTTATGCAATGACTCGGCTTCCTTGATTGATCTTATTTTAAGCATCGTGTTTTCCTTAGTTCTCTCTTGGGAACAGGAAACATCCTTTGAACTTAGTATGATTTAAGAACCATAGTTTCCAC
0.001754011982005173 GTGTTCCCCTCACAAGACACAGTTCCTGGGATCTGAAGTGAACTGGCAGGAAGCCAGCTTGGTCACACTCCAGACTGCTCAGCAAAGAGGAACTTCTGTGGTAAAAATAGAAGAGGAGGAGAGTACACACCGCTTATATTCTAGCTTATCTTGTAACATCCCTGGGA
0.3661739079621202 TAGCATCGCAGGAAAATATCACTTTACATATCTTACAGTGGCAATTATTCCCTTAGCAGAGTACAACACCCCTGCTTGGGCAGCTCCGGAGAGCCCATGAATAGAGGGAAATGAGGAAGCTACTTGAGGATGTATGTAAATGAGCAAGGTAGGAATTTCATTGACCT
0.5 TATTTTCTTTTTATTGCACCTTCTAGGCACCAGACTCACTGGAGACATCCTGACACATAATGCCTTATCCAGCACAATGAGATGCCCTTTACCTAGTCTTATGAAGGTACTGCCTTCCCTCCAGAACAAACAACGGAAATGCATCAGGAGGGCTCAGCTGCAGACAG
0.2240480430820971 GGGTTGACTTAAAAAATCACCACCAGACTGTAACATAATCAGGAACAGGGTAAATGCTACAATAGACGGAAGTGAAGTGGGCTGACCTTTCCCAAGCTGTTTTAAAGCTAACATGGGAGTGGAAGTTGCTGGTGTGGTTTTGTTGTAGCTTGTATTTTCCTAAGGAA
0.003257662283678021 GTTCCCTCACACCTGCTACTGGATCCAGGGAAGAGGTTTGAAATCACAGAGTGACACAGTCTGCAGGTCTTAGCTCAGCACCCCTAAAACTGGCTCTGTTTGTTTATTTTACAACAAAAATAGCCACTTCCTCTCTGAAGGGCAGTGATAAGCACTACTGAAGGCTT
0.09814658107265402 CGCCCACATCTTTCATTGCCTCTCCGGTGTTTCTGTGAGACAAAGAAGCCAGCTGAGACTTCCACAAAGGAGAATGCAGGGAAAGGGGGCTGAATACCTTGAGCAAGAATAGCTTGGAAGGAGCCAAAAGTGGAAAAGGAAGTCTAATTCTGGCCTGGTCCGGTGGG
0.5 TTGGCAGTCAGTTCAGAGCATGTTGACATCTCTGTTTTTAACAACCCTCTGGTCAGCCTGGGCGTAGTCACTCTTTTGAAAGTCGAGTCTTGAGGAAGTAGGTCACGAGAGCCAGTGTTTGGCTCCCCTGAGCGTGACTGAACCCAGGCGTTCACTACTTGTGTGTG
0.1241563161529062 GTCTCCTTTCACTGTGTTTACAGATAATCCAGCAACTTTGCAGGCCAAATGACTTTCTGAATATGAGCCCACAAAGCATCGAATCAGACAGGCTCCTGCTTAGAGAATGCTCAGCCCAGTTCAGCCATAAGGCAAACATCAATAATTGCTTTAGAAGGGAAAGTGAC
0.3776305527317685 ACACTAATTATCTGGCTTATTATATGTGGTCAGATCATCGATTCCCAGAAAAACTACCCCGATGCTATTGCACAGTCCTGCATCCCTCCTAGATGATGTCATCCTCAGGAGTCAAGTTTCTGGCCAGGGGAGCAGATTTGCAGAAGTAAATAAACTGGAACTAAAAC
0.5 TAGATTACGCCTATCATATTTCCAACCTTCATTTCTCCTCCCTTTGAAGTCCAGCCATATAAAGGTTGTTTGTTGAACCACACTAAAGTTAAAGCAAACATTACTTAGGGTGATTCATACTGGCAAGAATTTGCAATGAAGGCAGTGGTGTGTGTGTGTGTGTGTGT
0.3617584128186658 CCCTCCATGGGTCAGGGAAGTTCATGAGACAGGAGAGCAAAACAAGTGGTCACATGGCTGGGGCAGCAGAAACTTGGAAGAGCCTCAAAAACCCTCCTAGACTATCAAAGGATTTTACGGGAAGAGGCTCAGATCACTCTAGCTGCAGAGCAGAGATTTTTCAGGCT
0.5 CTGCTGAGGGCATCTGATGCACCCTGTGAGCATCTTTACAGAATCTCTGATGCAGACTCTATTTTTAGCACTTTAATTGCACAGAAGAAGGAGCGGGGATGCTGAGAGGCAGAGGAGCTTGCTTGGAGTTACTAGCTGCTGAGTTCCAGTGTCCAGAGAAGGCCTAG
0.4612918283921172 CTTTAATGACAAGGAGACTTGGGCCAAGGCCTCTCTTGTCTGTTCCCGTGAGAGACGCCCTGTTAGCTTTGATCTGGATCCTGTGAGAGAGAGAGCCCTTCTGAGTGGACTCGTTTACCCTGATGACTTTGGCAGCAGATCAAACCTCCTCGGGCCTGAGCATCTGA
0.3729821774252505 AGTCCACTGCTGGTCACATGGAGTCCAGGGGTGGTGCTTCTCTGGCAGCATCAGAGGCCCAACCCTGTGGTGTGAATGCAGTCCTCCCACACATCAGGCTCCTTGACAGCTTCCTGCCATTATTCTGGCCCGTGTGAGGAGCACACACTCGAACTCAACTCCCTTAG
0.2641922461157999 GTTTCTCAGAACACCATCTCAAAGTGTCCAGCCCCCTTTACTGTTAGTTTTGTTTGGAGTGCACGTCCTATCCCTGTCCAGTCCCCACCATGACTCATTGATTTCCTGCCATTCTTTCAACATCACATACGGACGGCGGCTGGAGGACAGAGAGATGTTTACTTTGG
0.1141511576857923 ATCATGGGGAACATTTTGTGGAAACTCTCAAGTTACTTATTGTAAGAGGAAGGGTGGCAGCCACCTCTATGTAAACACAGGAAGCCTCACAGTCACAAAGGCATCTCCTGCAGGAGGACCTAATTGAAGACTGCCTGAGAGACCAAGGATTGCTGATGCAGACCATG
0.3124333834982903 GGTCCACGTCTTTCTTTGCTCTCCAGAAGCCTTCCCATGTGCGGTCCCTCTCCCCTGAGGATACTTTTGGGACAAACATCGTGCAGATGTTGCCTCTCAGTTTTCAGAATTCCCGTTCCAGGATGACTCCTGGGAATCGGACCCAGCTGTAGCTGCCTCTCCTTGTG
0.5 GGAGAAAGATAAACATGCCACCCACAAAGGGGCCCAACCAGTGGTGATTCCCAAGGAATCCTACCTCCCCACTCACAGCAACCTCTGGGGCTGGAGACAACAGCTTTTCCCAAAGTCTTGGCAGCAATGAGCACCAGCTGTACTAGCAGGGCAGCTCTGTGAACCCT
0.3906127667551195 AAAAAAGCCTATCTTCAGTCGTAGCACTCAGGGCTGGTTCTTTGATCCAGAAATGGATGGGAGTAAGTAAAAAGGGATGTTCCCTCGGTAGCTTGATGATTTTGGCAACAGTCCAACCAGTGTTGCAAGAAAGGAAGCGGCCTCAAGATGAAAATCTCTTACAGGCT
0.4828256896857815 GAAACAGCACACTCAGCTGAAAACAACTTCCACTCTAGATGCTTATTTGATTTCAAGACCAGGAACTGCAGTGATTAGAGAGTCTCTCAGCAGCTGCTAGATCTGGGCGGGTCAGTGTGTGCGATTCTGTGCTGCTGGAGCCCCAGGTATCATATCGTATCTGGAAA
0.5 TCTCTACTGGGAAGCTACCTAGCATATGCATTAGATCTACATTATCTTTTTTCCAGGCACAGCCTTGCTCAGTAATGAGTGAATTAAGCTTAAGAATTTGGACTGAAGCCCTATCTTGCTGAAAGATAAGGCCAATTCACTTCCCTGTGAGAACAAAGAGGAAGAGA
0.5 GTAGTTACATTAAAAAAATAATCAGAGGAACACCCTACTGCCAGTTTTCCTAGCTGCAGAAACTTCTAACCCAGTTCTGTTTGCTTCATGACTGATCTGAAATAAAAGTCACCACACAATGTCCTTGCAAACTTCTAGTGCATTACCACTGCCCCAGTGTATTAAAA
0.06126872308645537 TGCTATTTGTCACGCTGAGGAAAAGCTCCTGAGATCATGAACTTACTCAGGAAACCTGAGAGTCCACACCCAACCATTGTGCAAGTTCCAGGAGAGGAAGTGCTGCACAAATGGTAATGTGATGTGCATAGCAGTTGTGGCAGGACCCTGAGTATTATTTATGGCTT
0.5 TACGTCAGTTTGTCTCTTAGATCTTGTGCTATTATTATTCTTAAGATGATTATCTTATTCCTTGTCCTGTAACAACAAAGGCAGGGAACAGAGAAGAGGTCAAAAATATGAGAACAAAAATTACTTTTAGTTTTGTTTATTTGCCTTTTGAGCCACAGATTCTTTTT
0.5 TTATACTTTCAAATAGTGATGATGTCATGAGGTCCTGGGCACAATGGATACTGAAAGATGTTTCTTGCTCTGAGGTCTAATTATATGAGGTTGTTCCAAGACAGAAAAGAGGGTCAGCAGGGGATAAAGCTGAGTGATAAATGTACCTGGGATTAAAGCACACTGTA
0.5 TTCCACTTCTTAGAGCTGACATTGTTTGGTAAGAATAAACTGTAAGTTTTCCAAAGAGTCTCTTTCTCCCACTCAGCTGCCCCGAGGGAGTTAGAGAGAGATTCTGCACACAACTTATTTTCGTTTCCCTCTCCCCAGAAATGATCAAATAAGGACCGTTTCCCCGC
0.08441559229776567 GCAGCTCTGGGTCTCCCACAAATGAGGGAAAAAAGTGTATCCAGAAGTTTCTGCAGATCAAAGACTCCTAGGAGTGAGTTCACAGACGACCAAAGGAAACGCAAAGAGTCGTAGTGGCGCGCCCCAGCCCTGAAGAGAATGGGGAACCGTGCAGGCTGGAGAGAAGC
0.1681163399978363 CAGGACAACCTGAAGTTTGCTTTCTGCTCAGAGAGGGAAGAGAATACACAGTGGAAAGTTTCCTTGCTTTGTTAACACAGCTGTGGGCCTGAGCTAAAATTATACCATGCACGCAGAACTCTGTAGGCCTTTGTGCGTCAGGATGAAGCCTCCGTCCAAGTATGTTT
0.5 GCAGTTCGCTGCGACCACAGTGGGTGTCTAGAAAGTAAAAGGGAGTGTTCTGTTTTATGTAACTTGACTTTGGAAGCTCTGATGACAAGTAACTCCTCTCTAAAGCTCCACTTAGGAACCAGCGCTGAAAACCAGCTGTTAGCCGTCCGCCCCCGCCCCTCCCCCGC
0.5 AGTTTGTGGTGATGTAACCTACCAAGCCGAAATGCTCAGCTCTGCTGATAACCAATAAAACAAAAGCATAACTACCAAATTATTTTAAGCTTCAACATGACTTAAGAAATGATTCTGCTTTATACTTTTGTGAGTCCCGGTGGGATTTATGAAGCTCATTTGTAAGT
0.3174387155945091 TACTGACCACTAGAGGGCAAGACAATCTAGCAGATTCGAGTAAGCCTAATTTTACCCTACAGAGGGCGGTACCCACCACGCTGGGCAAACGCGCCCACGTGCTCCACCAGGTCCCAGCCACTCACATCTGCCTTCTCCTTGAGGGTGATTGAAGAGCGGAAGAAAAG
0.1331723295173835 AAAAACATCTAGTTTCTAAAACAGAGCTCAGGAGGAAAATTGCCAACGACAAGGGTGGAAAGTCTGTGCTGTTCCCACACTTTGTAAACAAACCCCTGTTAACTGCACGGAGCCTCAAGGTGCCGGCAGCTGCTCAGGCTATCCTGGCTGGCTCTTTCTCCTTTGTA
0.5 AAAAATTAAGACTCTCACCAGTACCAGTGATCAGTAATGCTGTGCACATTGCCAGACGCACAGATTAGATAAGCATTTTGGTTTCCAGTAGTGTTTTCATGGAATTATCTCTATTCAGGTCAAATTCTATTTTGAGAACTCCAGCTGATTCAACAGCCTATAATTTG
0.3550266987854817 TTGAAAGAAGGATTCACCAGGAGGCTTCAAATGGGAAGCAATTAAACAAAGAGCCCACTGACAGACGCACAGTGTTCAGGATCTTACATCCACTGCACCAAATAAGGAATGACCATGTCTGGGGAGCTGTGTTTTTCTGAGGACTTTTAGACAAGCATTTCCTGCTT
0.1695780843741934 TGGCTTTCCAGAAGAATAGCTGGGGACAGGCACACAATAAAAGTCCCATCTCCCAAGTTTACCCAGTGGACTTCCTAAAGCTTACACGAACATCAAAAGCCTCATATTCAGGAAGCAACCTGAACTGATAACATTCTGGGAGTAAACAATATGAGCATAAAAAGAAC
0.2055720422811952 ATAAAATCTGATAAAAGTCCAAGTTGTTCAGCAGTTCACAAAAGGCAGGAAATGACACAAGCGATCTCACTGGGAATAAAACTACAAAGACTCTTCAACCACGGCCTTCCTGAACTTAGTCCCACTGTTACCAGACAAGAAGGGCATCGAAATAGGCAAGCACAAAC
0.5 TGTTCTTTGTCATAACAAGAGCACCCTATCTGCTCTCATGTTTTGAAGGAAATGAAATATAACAGAGCTGGATTATCACAGTTTTAAAGCCCTTGGGTCAATGAAGACTACGCCTCAGGCATCCTGTGACTGTTTTGCATTCCATCAAGCCTGCTGGCAGTGGAACT
0.5 GCAAACCTGCTGAACTCTGGCCATCTCCACTCATATTAAGAGGATGTCTCTTTTACCCTTTATGGCAACTGGATTTTTCCTCCGCTGTTGATGAGAAGAATCTCTGTCTTTATTGAGTGGATATTTCCCTCAAGTGTTGCTCTCCTTAATGGCAATTTTACCCTATT
0.5 TGATTCCTTTTAAGAAGCTGCCAATAGATTTTAGTCATGTTCTGGCAAAGGTTTCCCCGACCACAAACACTACATAGTTGCTGAATGAGTCACTACCTTGAGTAATCTAATTCCTTGACCAGTGCATGCCTGCTGCTCACAGCTCACAGCTCAGCGTCTGCTTGTGG
0.5 TTGACAATATTTGGTTAAGTAAAAGGCAATAAAGCACTAAATCAGGCATAATTATACTCATTTAAATACTCTTCTTTACACAGATGTACACTAAAAATATTTTTCAACAAATGTTGACTCAATAGCAATTTTCCCTAATTTTATCAGTTATTCAACTCAGAATCCAT
0.5 TCCCAGGGTTTCCCTTGCTCAGCAGCATTTGAGAAATAGAGTGGGAAGGACAGTCAAGAAACCAGGAGAGCCTGGTTATTCTGCTTTAAAAGGAGCTTTGGTTGGGAGGGAAGGAAGAGGAAAGCTACTTTGAGGAGGAGACACAGCAGAGTCATTTTCTTTGCCGC
0.5 TTTTTTGTTATGTGTTGCTCCTGTGACCTCATAGTTCCCTTCAGAATTTTCTTTTCCCTCAGAGTGATAGATTTGCTCATTTCTAAAACACAATTAGAGCTCCATTATCTACTTCACCTCCCACCAGGACTGCACTGCTTTCTTGATGGCATAAACAATACTCAGTT
0.2066787509860266 ATGATGACATTCCAGAAAGAAAATACGTCAAGACAGAACACAGCCAGACAGCAGCTCTCCCAGCCTGGCATGGGTGAGTAAGGGCCATCTGGAGGAAGATGGAGAGAGCCAGGTGCAGCCTAGATTCCAGCCTACACATCTGTAAGCCCTGCTATTGGGAGGTGAAG
0.5 GCAACTGATCCAGTTAGGCAGTGTACCAAAGTCTAAGAGAAAAGCTTTCCTGCTTAAGGAAGAGACACAGCTGGAGGTTGATACAGACAATTAGGGCTAACTGTCTGACTCAGCAATAAGATTCCAGCTGCCACAGTTAGGGATAGTCCACAGGAGGCTGGTAGGGG
0.005295440314915935 GAGGGTGGAGTCTAAGGCAGGACATGAAGATGAAAGGCCTTGGGTGCCAGCCAAAGCAGTTTGAACTTCCTCAGTGGGCACACAACATTCTAAACAGGGAGGTGGCCTTACTGACAGGAAATGAGTCAGCGTAATGGTAAAGTCTTGTTCCATTGAACTTCAGGAGA
0.5 GTGTGCCTCCCCACTCTAAACCCTCTAACGCCATCTCTCAGCGCAGCCCTGCCTGCCTCCCAGCAAAGTGCGCTTGTGTGTGGAGCTCTTGCCTACTCTGGGTTTAGAATATCATCTTCATCATTCAGGGTTCTCTGTCTCTCCTCTCCCCACCCACCCCTTCAGCT
0.5 AGTATATTGTCAAAGCAGAAACTCACTTCAGGGTGAAGGATTTGGTAGCACATTAGAGGAAAGCAGTTGACATTAAATCTGACATGGATAAGAATTGTTCCAGAATGAAGATGAGTTTTTATCCATACTGGTAGAGGACTGTCTTTTTTTTTTTCTTCTTCTATTTT
0.5 CTGCAAACACTGACACACAGCGTGTGCTCATTCAAAAAAACATTTCTCGGCTCCCAATATGTGTTAGGTGCTATTTTGAGTGTTTGGGATCCGCCCAGGTTAAAAAAATATCCTGTCCACTCAGATCTTCCATTGCAGCAGAAGGAGCCAGATAGTGAAGTATAATC
0.5 CAGCTCTTACTCATAACCCAATGAATTAGAGTCCATAATCTGTGACACCTGCCATGGTTATTATGAGTCTGCAGTTTTGCAAGACAATGCCTTAAAATCAAAGACCTGACTGTTTGATTTGAGGCATATACTGATATTGCCCTAGGAAAACAGATACGTTAATAAAG
0.5 TGGTCTCCTAAGATCATGCTATTTAACCCAGGCAGGCAGGATTTCATTGTCTCATGACTAATCTGTTGTGCTTTGAACACAAGTCAAGCTGACATTGTTATCTTTGTACAATCCAGTCCTTGTAATATTGTGTTACTATAAAAATTTTGCCTTAATATGTGATGGCA
0.4805864067000614 TTTGCCGGACCTGGGAACCTCCTCCAATCTCAGCATCTATCCTCCCTCCTCTCAGCCCAAACTGCTTCCTGTCAATCATCCTGGAACACTGAGTGCCTGTGGGACAATTTTGTCTACAGGATGTTTGTCTGAAGGCAATGCCTTGCCAAGACTCAAAGCTCAAGGCT
0.5 CTGTTGGCTTGATTTCCTGAACACGAGGCTTGGTTTCTCACCTCTCTGTATACATGCCAACTTAAAAGACATTTTTCACTGAGAAAATGAAACCACAGTGATGTGGGGTGTGGCGACCTTTGCTCATGATCCCAGCATTAAATAGGTAGAGGTAGAGGGACCAGGAT
0.1638584059550472 ATAAGGACTCCTTCCTGTGTTTATTTTCCTGCGAATAAGCAAACATGTTGGAGGCTGGTAAATTCAACTTCCTGATTAGCAGCTGTCAGAGCAGGCTTATACCAACACCAGCCATCTTGAATGCTCAGTGGATATCTTGAGAAAAACCAAACAAGGACCACAGCTGA
0.5 TCTCTGAACAGTATGTCAGCAGCTCACCTCCTCCCAAGTGGAGCTGGAAGCCTGCATAAATGCATTTCAGCTCATTGCTTTACTAATTACATCACACATACCAGAGTCACCAAGGCTGGCTGAATCTAATTACACTAAATGCATCTACACGGAGATTTCCAGTACAG
0.5 TTCTTTAACATTCCTATGAGATAACGAAAGCAGTGTGGGTCAGACTTGAAAAGGAAACTGCACGCAGAGAGGTTTCATGCTTGTGCAGGATAAAACGGGCTTGGTTGAAAGAAGGAAATGCAGCCAGCCAGGGGACATGATGACTCAGTGCAACCAGTTACCTCCAG
0.5 TGAAGAGGAGGTGGCCGACTTTATTGTGCATGACGAAGGCTCGCTTGTGGACAGCAAAACAGAAGATACTTTAAGAAGAGCAGTCTCTCTCCTTGCAAGAGTCTCAGATAACACTTTCATTTTCCCAGACCTGCTCAGAATTAGCCCAACTGTTGCCACTGTCTTTC
0.1377287550359216 CAAATGTCAGAGTGGGGCTATTGTTCTGGAGTCTGAGAACTGGAGATGAAAGGAGCCTCAAACACTGCAAGAGTAAACAGTGAGGGACAGGGGGAGACCTTCTAGCTAGACCAAGCACCACCTCTCAGAGCCTCCTTTGAAGTTCTGGTAGAGAGTGCATGCTGTGG
0.3262912670243464 GCTTGGAAAGGATGCAAACAGAAACTTATGGAGACATAGAGCAGTCCCAGCCATCTTGGCTTCCACATACCAGCAAGGTGTTGACTCGACTCTGATCAACACAGCATGTTCATGATCCCGTCGCACACTCAATTTGGCTTAGGATCACCCAATCAAATTTGCTAACA
0.5 GCTGATTACACAACCATTTGTTAGTCAGCTGCATGCTGAGCTCAATCATACTGTTGTCTGCAGATACTTACTGCTGTAATTATGCATCTCAGCATCGTCATGGCTAAAAGTAGGTACTATTTTATACCCACTGTAGGAGCCAGTCATTAGACCAGCACAGACTTCAG
0.5 AAGGAAATCGACTCGTCAGAGAGAGTTGGGAAATAGTTGTTGAACGCCAGACTTCTTGCTAGAAGTTCGTCTGTCTCCGGGGACTTTTCTCTGGGAAAGTAGCTGTGGGTGGAATTGCTGAGCTCCTTGGTCTGTTAGAGCCAACGTCTGCCTTCCCACACTTGTCT
0.5 TAGGCCATTTCAGAGCAGTCATCGGGGCTGCCTTTGGGTTCCTGGATGGTGTCAGCTGACTGGAAATCTGCTGGGACAGATACAGACTGGGGACAAAGGTCTGTGATCTGCACTGCAATCGTCATTGTGGAGAAAGAAGTTAATACGTGTCTGTAAACAGTGACAGC
0.5 CCAGACTCAACTCAGAGCCCATTCTGGCATCCGAAGAGTTAATCTGCTGCCACCTAGTGGCTCTCAGCCAATATGCAGTACAGGTTGACTAGATTGGAGGGGGTGCTTGGATGCAGGGCGGGTCTCTTCCATCTCAGAGGATACTGATGATGGAAGCTTTTTTGAAA
0.3567982768763382 TGTGAATGGGAAATCCATGTTACCAGCTTGTCTTGGCTCTGCCTCAGAGGTCCTTCCCATAACAAGGGTCTAGGTCATTGTATTGTATAGAGTTGGCTCTCTAAGATCTCTTTCAGAGAGCGTAAGGGACATTCCTTTTCTTTTTGTTCTTTTCCTTATTTTTATTA
0.5 CGGTCGGGAACATGGGGGTCAAGTGAGAGAGCCAGGTGTCTCCAGCACTCAGCATGATATCTGACACAAATCAGACCCCTCACTTTTAACACTGTACCCTAAGACTTGGGGCACAGGCCAGGGACTTTCCGTTCTAGGCTCTCTGGCTCCTGCTTCTTGGATTCTGA
0.5 CTCTAGCAGTCTCCAGAGCAATGGAACGAACGCCTAGCACACTCCCGACACGGAGAAACTCAGAGAAGTCCATTCCTCTAGTTGGTAGAGGAGCCACGATTCCAAGCTACTCTGCAGAAACTGCCTCCAATTTAGAAGAGCCAAAGATGTGTGAGATCATGAGCTGT
0.5 GAACGCCCATATCTGTATTGTTTGACTGCTTAGCCTGTGCCATGTAACCAACCTATCAAACCCTTCCAGAGAACTCTCCTACTGACAAGAAGTCAGGCGTGAAGACACCATTTGGTCTCAATGGCCAGTCAGAGTATAAATGAGTATTAGCCACAAAGAAATAATGA
0.4901152341355494 TCCAGGCCCCTCCCTGCTTTCCTTTCTACTTCAAAGCCTGCAGGGCGGCCACCACCATTCCCCCTACCTCCCCCTCAGTGAGGTGTCTGTCCATTGTCTCTCCCTGCAGCCCTGGTCCAGGAGGGGAGGAGCTGAGTTCCCAGCTGCAGCCGTCCTCATCCCAGCAG
0.2070253755063281 CCGCTCCACGCTCCGTGTCTTTCTCAGGTTTCAGGTTTCAGGCCTCCAGGGATCTCTGGCAAACACACCTCCACCCTCAGTCCAAATAAACCACTTCCTCCGGGGATCCACAGCACAGAGTGCAGGGCAGCTCCTTGCCGCTTAAGTTGTTTGTGTAACTCGAGGTT
0.3926874521608992 GTTTGTAAGTCACCTCTCTCCAAATTCCCGAGGGTGGATGCATTCATTCCACACATACTTACTAAGGGCTGGCCTGTACAGGCTGCTCTGTGCGCGCTGACAATTGAGGGAAACAAACAAGTCACATGGGGGCGGGGGCAGCTAAGGTTCACGTCCTGTGACCACAG
0.2832671738823657 TCCTCAACTGAAGCTCCTTCCTCTGTGATAACTCCAGCTGTGCCAAGTTGACACAAAACTAGCCAGTACAAAGAGCCTGAAGTATGTGGGTTGAAAAACCACATAACAGGAAGCACCTGTATGTTGGGCAGGTCCAGGAGGAGTTTCTCCAGGGAACCAGGGGGAAA
0.5 CTGAGGAACACAACTGTCAACAATGTAAACGTCACTGTCCCCAGAGCTGGAAATGGCAGGTTACATAATGCATCCATTCCGCTCACGTGTTCTCCCAGACCGGAGCTCCAGTGGCTGACCCTTGTGCCTCCTCCAAGAGCTGGAGGCCTGATGTCTGAGATCAAGGG
0.5 TACCTTGTGACCTCAAAGGAATGTCATTAGGCTAAGATGTGCAAAGCATCCTGAGGACTTCCAAAGCAAGTGCTGAGTCCCAAGTGACACTCCTCTCCCAGCAGAACATAGAGGAAGGGAATAAATATTTGTATGATGGGCTAATTATTAGCGACAGCTTTGATGTT
0.1695305987246338 TTTGAAGGTGTCCCACCCCAGATCCCCACAACCCAGCCTGCACTCAGGCAACCTGACCGGATCACAGTGGGAGGGGGAGGGAGCAGGGAACAACAATCATTGTTTTAAGTGTTCCTGTTAGGGAGAGGAACAAGCATTTAAACAAAGAAGCATGCAAATTTTAAGTT
0.5 AACAAAGTAGTTGAGAAAGCCAGGAGAAGCTAGCTAATAAGCTATGTTCTCCCATGGTTTCTGTTTCTGCTTCTGCTTCCTTCTCTGTCTTCCCTCAGTGATAGATTGTGACCTGGGGGTTGTAAGATGAAATAAACCCTTTCCTCCACAAGTTGGTTTTGGTTAAT
0.5 CTCACCGTGCGACCTACCTTGTAAGAATGACTTAAGGAAGTTCTGAAAATAGAAAAGAAATCACAAACCCGGATACTTGAACACCACTCTCTACTGAGAGCTCTAAACAATTGTGGGAAGTGAAGCAGAACGTGGTGCTGTCAAATGTGGTTCTAAGTGCACCTTAC
0.167996588595714 TGTTCAGCAACAGAGGCTGGAGGTGGGTGTGGGAAGGTCCATGCGCACCACTTCCTTCTTCATAACTGACTCACCCTGATTGGACACAATGCCAGCCTCTAAGGATATCCCCAACTTACAAAAGAACAATTAGATGCTGTGTATCCTAACACTTCTAGAATTTATTT
0.5 CTTATCCTGAAGGTAGCCTTGCTGTAAAGTACAAAGAGAAGCAGTATGAATCAGCTATGAGCCCGAGTTTAGCATGCTTAAATCCCTGGGCTGCAATCTCCAAAATCTAGGTCAAGAGTTGGGTAAGATGGACAAGTGCCATATTTTCCTTAGGACTTACTGTTTAG
0.08911084935657664 AATAAACCCCAAGCAGCCCACATACCAGCACTAGAGCCTTTGTTCATCCCACAATAAGCTGAGTGTACAACTTAGTTTATACTCCACATAGAAACCGTATCCAGGACACAGCTAACAGACGGCAAGAACCAAACCATAAAGTCTCCAAGCATTTAAGAATTACAGGA
0.01161382198340647 GCCTCAGACACAACAAACACTTGGGAGGATGCAGGCAATCAAAAGAAACTGGAGCAGGCTATTCACAGGGAAGGAGTCAGGAGCTGCGCTCTGGGTGGCAACGTCAGGAAAGCATTCTGCATGGCTGGAGCTGGCTTGGAAGGGAAACTCACCATGGCTGAGAATGT
0.3059052437103021 TTCCTCCATCAGGGGCGAGCAGGACTGCCTGCTGGGCCGTGAGTCACTTCTTGCTGGCAGACACACTTCCAGGATACTATGCTTTCTCAGAGCACTGCTTGATTCAAACAACATGTCTCTAGAAAAATAAACCCTGTGTCCTCACTTCACCTAGAGAGTGCAGGCCA
0.09735214099199795 GTCAGCAGGAGGCCAGGCTCCGGTCAGAATGCACTCATCCGGAGCAGCTCTGGGAGCAGCAACAGCTGCCATGGAGAGCTGGAGGAAGACCTTTTGTAGAGCCCTGTGAGGAATGCAAGGCACGTGGTGTGTTTGAGTAACCAGGCTTGCCAGATTGCCTTTCAAGT
0.5 ATATTTTATGATATGCACAGGCCTGAAAAGATGAAAAAATGTTCTGGGCTTAATCAGAAGTGTGTTGAATAACAATGAGTCCTGCAGCAGGCTGGTAAAGAAGCGGATCAGACCCACTTAACCATAATGGTCCTACAGAGTAATGGAGACTCAAGTGGTCCTTATTA
0.2772217799648474 GCTCAATATACAGAATATTGCATTGAGTTTGCAATGTCAGCTTTGTTTAAGAGTCATATTTTCAACTGCTTGCCTGTAGCCTGCAGCAGTGCAGACTGGGTTTTAAAGGGAAAGCTTCCATTTCCATGACTGCTAAATGAAAACATTTCAGACCTGGAAATGAAGTT
0.5 AAATTATGCCTGAAGAGGAGCCACCAGCTGCTGTAGCCACTTCAACTAATGTACCCTGGAGGTGCCTGAGCACATCACTTGAGTGGAACCACTGATGCATCCTGGGTATCTGCATGGATTCATTTGCCTTGGAGCCTTCTGATTGTCAGGGAGTGGCTGAAGGAGAG
0.5 TGAAAGTATTCCCAGCAAGGAAAAAAATTGGAGTGCCTTGAATCCATAGTTGCAGAAACAGCAGAGGCATCTGGCAACGAGAGCAACTTGCCAAACTTGCGGCTCTACTGCACTTGTGGTGGGAGGATGTGCCAGTTTTCCTCGACTTATGTCATGTGCAGCTGGAA
0.5 ACCCCCACCCCCTTCCCACACACAAACGCATTCAGGGAGCCCAGCCAGCGTCCAGAGAACGTCGCTGTCACATCTCTTCCTTTTCTCCTCGTCACAATTGACAGGCTGGGGAGGGGAGGACACTGGGCTTGGGCTTGGCAGCAGGGTAGGAAGCTCCTGTTAACAGC
0.1524872667985214 GCGGTAAGCACATCTGCCCTCAAGATGCTCAGCTTCCATGGGAGATCCCTCGGAGTTTCCTGCTTTGTCTGTGTCACCCGCCTGTGGCAGCCCCTCCTCCACCAGCTTGCTATCCCACCTGCTACGTTTGCTTCCTGCTTCCTGCGGTGGAAGTTTAACTTCTCACA
0.1826781060711076 AGTCTGAAAGTCGGGGTGGGGCAGGGTTGTGAGGGGAGCAAGCGAGCTTGAGAGATTTCCTTTCTCCCACCCACACACTTCCTCTTTCCCACTGGCTCCTGCCTCCGGTCAGGGCTACACAAACACTGTTAGAGCAGATCCAAGTCAGGCCACACCCTTTCCTTGTT
0.5 GCAAGAGGCAGCCAGAAATTCTCAATCATCTGAGGGATCTTTGAAAATCCTGCTTTGGGTGGAGTGACATTTGCTAGCAATGACAACAGTGAGGTTGGCAGGCAGCCCTGGGTGCAGCCAGAGAAATCCAAGCATACTGTTTCTTTGGGGTCTGTATCTCAACACTT
0.5 AAGCAGAACCCAGCTCTCAGCTTGTTATCAAGACAGGAAAGGTCCGAGAATCTCTCTAAAGCACAGCTGGAAGGAGGTCCTTATGCAACCACATTCCTCTCTCTTGCTCACAGTAGCCATCTCCCCCCAAAGCTCTCAGATCCACCTGGGTCTCCCCTTCACCTTCC
0.5 TAATGGAAAATCAGGTCCTTTATTCCAGCTTTAATAACAGCAGCTTGATTAGAAGCGAAGAAAAGACTGTGGCTAGAGAAGGGGGAAAGGAGAAGGACTGCCAAATTAGTTCTAGGAGAATTCTCAACCTGTCTGCTCCCCGGCTCACTATTCAAATGCTAATTGAG
0.5 AAAGGAAGAACGAGGTCCCCTGCTCTCTCAGTTTTTAGTCATCTGATTTAATTGACCAAGAATAGGATTTGGTACTCAAGTCTTCACCGATGCACAGCGTTAGAAATAATGATTACAGCAAATCAGGGCTCATGAATATGCAGTTTATTTCTGCTTTGAGACATTTC
0.5 CTGCAGGAAGGAAGACATATTTTGGCTAATAGCTTTGTAAAAGAGTTGGTTAGAAATAAGAACTATTGCTAAGTGGCAAGATAAGTGTGCAATTAGTGACAACTGTGTAGGAAGTAAAGAGCAGGAAAATATTACAGTGAGTCTAGGCTAATGGCATGAAAATAAAA
0.5 TTGAGTTTATGTAAGGTGTTAGAGTTTGTACTGAACTCTGGCGCTGTTGCTTCAAGCTGGGTTGATTGCAGATAGCACCATTTAAGTGTTTTCACGGTGGGATGTGCACTCACTGGTCACCCAGGGGAGGTTCAAACCATCACTTAGCTCTTTAATGGAGGCAGAGG
0.08419235307233491 AAGCTGACCCTCTTATCTGAAGAAGTGCCAAGCACTTCCTCAGTATCATAGCCAGTCCTGGGCCCCCAGGGAACAGGCATGCAGGAACTGGGTGGGAAAGTCCAGAGTGGATACTGATCACCCGTGTCCATCCCCCTCCCTCCCACATGCCAGGTAGGCTTTGACAC
0.5 CCTCAGCCTTTGTTAATTACGAAATAAATAATTCCAGCAGGAGGAGCTTGCCTCTTCAGGAGATTGCTTGATGGGGAGGTTGTGTGGGTGGGTGAGGAAGGACGGGCACTGTGGTACTCTAAAAGCTCCAACCCCACTGCTAGGCTGATGCTATACCCATCTCCCTC
0.2360740521549945 AATAGGCAGCCGCCAGCCACAGGGCCTCCCTAACCTCCTTGTTTGTTTTCATAATAACTTGGGACCTCACCTCTTCCCTTCTCAGCATCTATGAACTCTCAGGGTGGTGGGGTGTTAAAGTTGTCCAAGACTCCTCATTTCCTGTTTCCAGCTAGCATCCTGGAAAG
0.2865360668437865 CCAAAGAGAACTGAGTCCAGAGGCCACTTCCTGTCGCTATGGTGAACACTAGAAGAATGAGCTCAGGTTTATGCAGCCTCCAAACCAGGGCTCCTCATACCCTGGCAGAGTACCAGGTCTCAGTCTCCAGCACCTCCCAGCATCCAGTCTCATTGTGGCTGCACTGC
0.5 ATGTGGCCGTCCTCCGACTTGGAGTCCTTATCGTGACTCCCTTTTATGTCGGTGCCAAGCTAAACATACTTGGGGCCTGTTATGTTTTTTTTTTTTTCATATTTCCTCATGAGTCACTCTCCCCGGCTTTTAAATCATCTCTCCCCTTGTGAATGGTTGGCAAGAAG
0.1303725255112778 GCTGCCTGCAGGGTCTGCTGGAGTCTGGGAGACTCCCATTCATGAAAGCAGTGACCAAACCCACTGGAAGCTGCAGGTCAGCTTAGGAAAGAGAGGCAATGGCTTTAGTGACAGGAGACAGGAAGAAAAGGAAATAGCAGAGTGTTTCTATAATTGTGACCACGGAG
0.3906245583990427 GATAGAACAGAGCAAAGGGTCACACTCTCAAAATGCACTGATTCATGTATCAGATGCTAGAACATTGTGTTCAGAGGCAAAGGCTCAATATAATAAAATCATTTCAGGGGAAAAAAAAAGCACAACAATGCTAGCCTGCCTTTGGCAACTGATCACAGGTCTCCACA
0.2494804210545244 AAAGTATGACTCATTAACTTTCAGAGTATGTCTTTACTTCTCAGGAAATGTTTCTTTTCTGACAGGAAAACGGAAGGTTCCCTTTTATCTACCCTTTGCAAACCATATTGACTGCATGTTTTATTCCAACTGAATACACAGTAACCATCCTATTATCTTCCTGTTAG
0.2446005608334551 GCAGGATTGTCGTCTCTGCTGTTGCCCGGTTTCTCATTCTCCTCCCCTAGGAGTGCCCATTCGTCCTGGCCTGACTCATTTAAAATCCAGCCTGACCGACTGAAGGGAAAGACTTCGGAACTCCTTGAACTCCTAAACAATTCAGCCCACCCTTCCTGAGCCATGAG
0.5 GCCCCAGTGGGTAAGTGTGCTTGCTCTTAGGCAGACTTCCTCTGAATAGTCCACAGGTGAAGGAGGCAGGCATGTTGCTGAGAGATTCTAGGGTGCCTCTGCTGTGTTGGCTGGGGGTGCCCCAGTGCCTTGGCAGACCTTTTCTCAGACAGCACAGCACCGGACGA
0.1757621828124112 GGGAGACAGAGGGGCAGGGATGACGCAAGCGGCTTTGTCTCTGTACTACCAGATGCTTACAACCAGGAAGAAAATACCTCGCCAGCCCTTGCCACAGTCTCCCAAATGAGTTCAGATCACTGCAGGTGGACTTCCTGTTTCTCAGAGGAAAGAAGGTGCTGCCTGCT
0.3075574605480462 GGCCAGGCAAGCCTGCTGGATGGGCAGGGCTGGGCTTCCTGTGTTCCTCACAGCAGGAATCAAGGACAAAGCTGGAATTATATAATATTGGGCTACGTGCTGGCACACACCAGTGGAAACTCATCTCAGACCCGGTTATGAAATAAAAGCAGCTCTTGCACTGTGAC
0.5 ATACTGGAGCACAGCACAGCGTTTTGTCTCCAGGCTGACAGTTCCCTAAAGGCCCCGTGTCGAAAGACTGATGTCATTCATTGGCTTTAAGAGACAGAGTCTAGAGGGAGGAAATTAGTCACTGGTGACAAGCTTTCAAAGGGGATTCAGGGATACAGGATACATCT
0.1767534559887309 TAAAAATAACTTTGAAAGTCTCAGATCCTGAGCTGTTAGCACTTAGCCTACACAGCTAAGGTTATAAAATCAGCATCTGGCTTGGGCTCAAAGAGCTGACTCTGTTCTCCGTTTGAAGGCAACGGCTGAGGGATGTATATTGGAGCCTGCTTCTAATTAGCTCTAAA
0.5 TCTTTATTATTCATGGATGCAAAAAAAATCCCATCATTAACCCATCATAAATATTCATAACACTTTGCAATTGTGTGCATTTCATTTAGCCACTTGGCAAACCTTCTCTGAAGTAACCCCGGGTTTTAAGGAAATCTTGCTAATGAGACCAGAGCCCAGGAAATGCA
0.5 TCCATTTGCTCTTTCGAACTCCAACCAGCATTTCATCCTCCACTGAGGAAGTCAGTGACCGCCTCCGGAGTTGGATGATGCAGGGGTGAGTGTTTATCTCCTGAGCCTGCAAGTATTATCGATAAATTCCAGTTTAACAATGTCAGGCTCAAAACCAAGTTCCTGGT
0.3107685089825059 CAAAGCAGCCACTGCCCTCAACAGGAATCTGGGGACAAGGAAGTGAGTTCCACTAAAAATAGACTCACTCACCAGAAGTGCTGGTTTAAGAGAAACCGCTTTCCAGAAAGGGTTGGGCCCTGTGGGTGTTAGTCAGGGTTCATGACTCCATCCAAATGATGATTGGT
0.5 TCAGCCACACTGTCCTCCTCCCACGTTCTGCAGAGCTGGCTGTAATTAGTTCGCTTAACACAACACCAAAAAATTTCCCCTTGCCAGTGATGTCAGATCTGCCTTCCCTTTTATTATTCTGACTTATAAACTGCAGTGACCCGTGAGTCACCCTCGCCATCTCCTGG
0.0942025512212369 TGGGTACTCATCAGCCTGTTGGGTCTTTGTGTGTTTCAGAGCTCCTGCCTGCCCTGTGTCTCTTGCCAAAGATGGGAGCAGCTGGGTGTTGCCTTCCAGGATGTCAGCCAGCTTTTCTTGGCAGGAGTAATGCTTATTGTTGAAGTTCCCGAGTTGGCTGCTCACGG
0.3322068966584573 TGCCTTTAATAGTACATCTTAATTGGCTAGCTGGCTCAGGAGAAAGGATGTGTGGGCCTGCTGTGGGCTCAGTTGCTTCTGGTACCAGTCAGATCTGAGCTGACAAGATGAGCTTGGGACATTGGATCTTATAGCCACTCCCGGGTGCCTAGAGAGCCACCCCCACC
0.04917266221982071 GGGATAAAAACATGCAAAGCCTAGCAGGGGGAGCAGAGAAAAGAGATGGAATGGCAGCCGGCGCTGGAGCTCAGATGCCAGCAATAATCCGATGCCCTGCATCGCTCTGGGGAGAGGAGCCAAGACTTCCCAAATCCAGGCGCCCCAACTGGATTGCAAAAGACACA
0.5 GCGAGAAGAAAGAGCTGGGACTTCGGGGTATGGTGACTGCTGGTTTCCAGAACTGTTCTCACCCCTGACCACAGATATACTGGAGCTGAGTTTACATAACCCATGGTCCAGTCCCTCCTGGGATGGTTGAAACCCCACTGAACCCAGATCCTTTGTTGCCTGTGGAG
0.5 GGAACAGCTACTCAAACATGATCAGGAAACGCCATGAAAAGGCGTCATTTGAGGGCATTCTCCATGCTGTATTTTCAGGAGTGTTCCTGGGGGCGGAGTCAGTTATGAGCTTTGTCTAAAGATGCTGGGGATGCCCTCTGCAGCTCACCAGCAGGACTTTGACAGAC
0.5 AGGGAGAGGGAAAAGGAGAGGGAGACTATAACTTCACAGGCAAGTCAGTAATTTTCCTATGTCATCCATTTGAATTCTCAATTCAAGTGCTTCTGTTTCACTCCTGGCTTTCTTACAATTCCAAGATGGTTCTCCCTATGGCACAACGTTTATTCATGGTTTCATGT
0.5 TCTAAAAGGCAAAAAGCCAAAGTTGGGTGTGGTTGTTTATACATGCAATCTCAGTACCTGAGAGTGGAGATAAGAGGATCAGGTTATTCTCAGGTACCCAGTGAGTTTAAGGTCAGCCTAGGCCATGCAAAACTGTCTCAACTCTCCACATGCCCCCCAAAAGAAGA
0.5 CTATTCCAGACCACACCTAATTAGATATCTAAAGCTCAACCTGTTGGGCGGCCTTTGAAGAAGCTGCAAACCAATTAGCGTTTCTATCTTTCAGAAACAGCCTAGCAAATAGATTTTAATTCAAACTCAGCTTGACTTCTGGGCTGTGTGGGAAAAAAAGCATCGAT
0.5 GAATAAAGAGGGCCCTCATTAGCAGCTGCTGGGCGATGGTTACTTAAGGGCTCCGTGGGGGTGGCGGTGTGGGCCTTTCTTAGCTCAAAGACACACCTTACCAGCTGGTTTTTAAACTCACAGCAGGACCTGCTTTCTCTGCATCTATCCACAGGCAGCTGACACTT
0.08483665399653328 AGGACCGCTCGGAAAATGGGCTTTGACAGCTTTACAGGCTGTACACTGCCACGTGGTTCCCCTCCATCTACCCCGCTTTCTTCCAGAACAAAGCCTAAAGAGTTGGAGGAAGAGGGCTTTGAGCCAACATAAATAAGCCGGTCCTAAGCACAGGCCTCAGAGGCCAC
0.5 AGAGTGGCCAACCCATGACTGGTCCAACATGAGGTCCACATCATAAGAGGGAGCCCATGCCAAACACTGCCTGAAAGGCTAAGAACCAGAGGCAGGACAGCCCAGAGACATTTTGACAGATGTAAGATGCAATCTCATAATAGTTTTGATTTGCATTTCCCTAATTG
0.5 ACACAGCTACATATGTATCTTGTCCTCTTTCAGACTGAAAGTGGTAATAACCTTCCACCAGGCAGTCCCCTACTGAAGGGACTATTTCTTCCTTGGCATACCTCAAATTCTTTACGTGTTTTGGAATCTTAAAACAAGCCCCATTTACGATTTGATGAATTCAGAAA
0.3876118828545835 AGAGGGCAGGCGCCTGCTTCCTACCATTGTTTTCAAAGGCTACTTTTTGTATACACAAAATACAGAGTTTCCCATTGTCCAAGAGTGTGACCTCATCTCTTATGACAGAGCTAGACAGACCCAGCAGTACTTAACCCCAAAGAGACTGAGGGTGTGAGAAACATGGG
0.3784299000687129 TTGGTCTGCAGCTGGAGAACATTCCCTGGTGTCTTGTAGCTGTTGGGAATGCACTGTGATGTAGTCCTCAGAGCAGAAGTGAGCGACTCCATGTTGTCTTTGAAGATTCCCAGGGTGCCTCATTCCAGGCTCTCTGTTTACACTGTCAGCTGGGAAGAGGGATAAAA
0.5 TCTAGTCTTAGATCAAGCACTGTCTTAAGAGTGTTCCCACTGCCTTCCAGTAGTTCTACATTTGGAAATCTGAATGAGACTCTTTCCCTCTTGGCTCAAAGATTGCCTTAGGGATTTGTTGGAAAGGAAGAATGGTCGGAGACACAGTACTATTTAGACAGCTGTTC
0.5 GTGTGTGTGTCTTGGCATCTCCATCTGACCAGGCAACTGTAGCCAGTTATCATTATTTCATGACTCACAGTGCCAAGTAGGAGACAGACAAAATGGGCTGAAGAGCAATGCAAATTTAACAGATCGTCTCCGTCTCCCATGACTCTTCTTCTGTCACTAAATTATGC
0.5 TTTCAAATCCACAAGCAAAATGCACAAATAATGAAGGTTTCAGCTCTTTTAAAATTCACCTTACTCATAGGAAGGCTTCTGCCAGAGTAATAGAAACCTTCACAGAAATCACGCCTCCTTTACATTTGTGAGAATCAGCAATTACTGAACATAAAGAATAATCAAAT
0.5 GGCTTTTGAATTAATCACTGAGTCAGTTCAGCCACGGTTGTCTGTGGAGGCTATTTGTCATCATTTCCAACTGCACTTGCATAGTGGAGGATGTCCCACTGAGGAGCCACCCGCCCTTTTGTGTTTGTGATAAATAGTGGCGACTCCTCAGTGTGCTAAGTCTACTC
0.5 GCCAAGCTCTGCTGGAAGAATCTTTTAAAGTTCCACTCACAATAGGCCTTACACTTTAAAAATGGGTCACTCCCCATCACCATGGCAATTCTTCCAAGTTCTCCTGGAACTGGCCGCTGTTTGCTAACGAGGACACTCCCCACAACTCGCAACTCTAAACAGATAAA
0.5 ACAGCTACTGTCTGACACTCTTCACACACACCCACTTGCCTGGGGAGTCCCAAGTGGCCCCACAGACCCAGACACAGTCACACCCAGGATCCCAGACTAGTAGCTCCCACGCACCCAGACACACCCCCAGGATTGCCGAGCCCTTATACCAGGCCTTCATTCCCAGA
0.5 CCTGGTAGCCAGAGCAGAGTAGAAGCAGCTCCATGAACAGCTGTTTCTCCCTGCAGAGGAGAAAGGCATGCTAATAACCATCGCAGCCCCAGGGGAAAGTCAATCATTTATTTTGGCAGTGCTGCGGACAAAACCCCAGTCGTGACATGTGCTAGACAAAAGTGCTC
0.07685371660303285 GCATTGTTGTGAACGGAGTTGCAGAGAGAGTCAGAGAACATTGTTTCAGGGGAGGGGCCTCTCTGTCTTGGAAAGCTGTACCGAGTTTCCTCTGAAAACAAAGAGGGAGGGGGGTCGAGTGGCAGCCTCCAAGAGACACAATGCATCAAAGTGATGAGATCAAAACT
0.5 GGTGAGTGCAGGATCAAACCGGGAGAAATAGGGTTAACACAGCCAGCATGAGAACAAAAGGCTTTTAGTGCTGCCTTCCAGTTAAGGGGAGGGATTAAGAAGGATCAGAGTTACTTACAAGGATTCAGCATGCTCTCAGAATTCCAAAATCCACCGTGGTTCTGAAT
0.1766334065454623 CACTGCAGCAAAAGACCAAAAATAACTCACACGTAAACTTACAGGAAACCGGTGGAGCGTACCATGGGCACCCTGAAACGGTAAGAGCCTAAGGGAATCTGGGAGTGGTTGTTATTCTCCTGACTGTATTTATTTTAAAACTGTTGTAATGAAATCATAAGTACTGC
0.4222401221507703 GTTTTTTATGTCATTTCCTGCCACAGATCTGAGCACATCCTGTGCCTCTAGGATGTGGGGTAAAGTGCACAGCTAAGCCCTGAAAGGTGAGTCCCACATGGGGGTGGCCAGCAGATATAAGGTTCCCTATCAACACGAACTCTCCCTGAGCCCTGCCGGTCTGTGTA
0.1036934516525711 TTCTGTCCTTAGTCACCAGATCCCTACCCCAGTCAGACTCAGCTTCTGCATTCGGGCAGGAAGTGGTGAGGAGACAGGGCGGTGACCATGTCTGGAACACCACACTTCCCCAGGCGCCCCGGCACCCGGCCACGTGCAGCTCACTGGTCAAATGGATTCTCTCCAAG
0.5 CTAAAGGCTGGAGAGCCGCGCAACAAACCACCTCTATTTATAGCTGAGAATAGACAGGCTTGCCGAATTCATCACCACGCCTTCTTCTTGCTGCTCCCAATGAATGGGGCTTTCAGCTCAAATCCCAAGTTGTGAACGACAATCCACACCAAGTTTTAGATTTAACA
0.1062393353472791 TTTGGAAGAAAATCAAACTGTGAGGCTCACGGCGGAGCTCTGTGCCTTGGAAGGCTCTCACGGTCACAGCATGGTGCTTCCGATATTTGCTTTGCTAGGTGTGTGTGTGCAATGTGCCTTTGCCCTGGTGTTTTACCTTCCTGGCCTTGAGCCAACATAAAGGGCTG
0.5 ACTTGTATATGACTTAGAGAAATAATTAATCACTTTGGCAATTATCTCCATCTCAAATCAGCCTCCCACGGAGCTGCCCAGCACAGCTTCTCTTAATTTCCTGGGACTAGCACTTCCACATCGCAGCTTCGGGCGGCCACCAACCAGGGAAGCAAATTAAAGATCTC
0.1868535455681277 GCATGCATGTGTTTATGTGTACATGTGTCTCTGGAAAGGAGCTGACGGTTCTGCTGTCACTGCTAGTTTGGCCTGTGGCCTCCTGCAGGGTGACATATGAGATGGGGACAAAGCAGTCTGTTTTCTTCTTCTGCCTGTATTTTTCCACCCTTTGTTTTTTATTAAAC
0.5 TTCTTTTCCTTGGCTGTGAGAAAGTAAATATTAGTAAAAGTCTGTGCCTGGGCTCTGCAATGCCAATTGTCATCATAGAGACTGTCACTGTGCAGCTTCCTGCCCTGATTCACTCCACAGTGAGATACAGGGGATGTTTATACATTTCTTGCCAAGGAACAAGCTGT
0.5 GATCCCTCAGAATGGAGCTGGATTCTTCTGTCAGATAGCCCAAAGGAAAAGCTCTTATTAACAGTTCAAGAGATGCTAGCAATAGGTATCGCTGATAAGGCAAAACCCTGGAACCCTGCACTCAACATGTGCATCCTGTGCTGCCAGGAAGAGAAAGGAAATATCTG
0.5 CATCAAGGCAGGAAAGGCGTTACAGGATGAGGATGTGGGAGGATCTGTTCATATCACAGAAAATCAGGAAGCAGGGACCAAGGCTGGCACCCATGACCTACTTTCATTACCTAGGCTTCATCTACCAAACGTCTCACAGCCTCTCAAAATAGCACCATCAGAGGAAG
0.5 TCCTCCTGTTGCCTCTATCCCTGTGGGATCCTCACACCTAGCACTGAGCATCTGTCTGGTCCACCATCAGATTGAGAGCTGCGGGGGAGGGGGGGGAGAATTCCTACCCAGAGTCCTCTGTGTGTCTCTAGGGACTATGAGCTCAGAAAAGATTTCCAGAATTAATG
0.1562228472930611 GGCTTAAAAGAACACAAAACAAGGACAAATAATGACTGGGCTGAGGAGAGATTGGGGAAGTCCTAGATGACTCAGCCCGGTGTACCCTGCTATATATAGTAGGCCTCCTCCAACATATCCCAGGAGGAGAAGCAACTGCCACGGACGGGAATCATAGTAAGAGATTC
0.4694283671982863 CAGCTTTGCAGAAAGATTAATGTAGGTTCTGCTTCATCTCCTCATAGAATTCAGTTAATAATTTCCTCCTATTGTTTAGGCCAGTCCACATCCTGTTACTGAACAGAGACATTCAGTTTCGTTTCTTAGTCAAAGCCAATTTCTGAGAAATGGCTATTTTTCACCAC
0.5 CAAGCTGTCCATTAATTCTGCTTGTGCCTCCTCTCTCCATATATCTCCTCGAATAATTAGCAAGACAGACACTTAAGGAAAATGAGTCTGCCTTCCTGGGCAATCTCAGGGCTCTGTGACTCAGATACAACCCAGGCAGGTCAACACTCACACGGGCACCACACTGT
0.2643887593302924 GCATTTGCTCAGTTGGTCTTTGCCAAAAATGGCAGGTGCTTTGTGTCACTGCCTGTTGACAATGGCTGAGCCTCAAAGGCATAGCCGTTCCAGGGTAAAATGACTTGAGGACCAGAGGTCTGGAGGGGTCACACTAGGTGTCCCTGGTCTTCCAGACATTACTATTA
0.2744325058991521 GCTTGTGAATCCTTTCCAAAGCCCACAGCCTCCTCAACAGGGCAGGGCCACCGTGGGTGGAACTAAGGGTTTCAGAACAATGGCAGGGATTCTAATCTCTCAGAAGAGCAGGGTAGCTGGGAGGCAGAGGAAGGTTGGGGTGGGTAGACTTCCCTGTGACTCTCCAG
0.5 ATGTTTGTTGAAAGAAAAGAGCAATTCAAATGAGGTTTGCCTGGTAGAGATTCCTCAAGGATATACAAGAATGGATGCAATTAGCATACTCATTCTTAATGTATAAATGGGTCCTCCTGAAGTGCTGAAGTATGCTTAAAAGCAATTTGATTACGTATCTTCATCTC
0.3125153410721373 CCTCCAGCCAGAGCTCTTAAAGTCTGACTACCCTGCGCCTGCTGAGTTCCTGTCTTCCGTCTTCTAAGATGAGCCTCAAACAGTGCTACTCCTAAATTAGAAGCCGCGTCCTGTAAGTGCTGACTTGGCAGGGGTAACACTGACATAATTTCACAAATAACGATGTT
0.5 TGTAACTGTACACACTAGAGCTGCCAAGATCAAGCCAGACAATATCCCAGCAGAGAGGGGAGAGGGACTCTAGAAGTCCCGCCCCAGCTGAGGTGCTATTGGTTGCTACTGGGGAAGAGTCAGTTTTCTTCAGGAAGTGACTCACCCCACTGTCTAGTAGATTGTCC
0.5 CCGGTGCTAATTGTTCTAGTCAACCCAAGACTAGCTGCGGTAATATAGGCTGCAATTTGATTGGCTCAGTAGTGTACTCATTAACATACAGCGCGACTACTGGTTGGTGCTGAGTCGGGAGCTATTATTCTGTGGGGTCATTCAGAAGATTCAGGTCCTTTCATGCT
0.5 AGAGGAGACAGATCCATAATTACAGTGGGATGATAACCTTCACCTTGTAATCAATGCAGAGAGTAAACAGAATCAGCAAGGGCCTGAGACGGAGCTGCGCTCTGCCAGCTAGATTTGATGACACTCAGGACACTGATACAGCAGCAGCAGGGGTGACAGTGGCGTGG
0.5 CTAGGTGCTGGCAGGTCCACCCAAAGGGCAGTAGAGCCCCACCCACCATGAGACTTGGAGTTAAATAAATAAATAAATAAATCAGAAAATGGGATGGTCTCAGATGCCAAGAGGTGTAGTTAACCTAGGAGGAAGTTGACTTTAATGAGGAAATCCCTTAGTGCAGC
-1 CATGCTGCTCTGACACTAGTGAAACATGAGGCAGAAAGAACATGAGCCCATTGGATTCCACATGAGTGCTGTCAGAGCAAACCCACGGATAGTGCTGTGGTTATACAAGGGAAAATGATTCAGCCTTTAAAAAGAATGAAATCCTGTCATTTGCAATAATATTCATA
-1 GGTGCAGCTCTCATTCTCTGGCGCTCTTCACTCTATCAACAATATTTTCACAAATTAAACATGAACAAAGTCAGGGTGGGGAGTATAGCTCAACTGTAGAGTGCTTTCCCATTGAATGTGTAGGATTCTGGGTTTGATCCCCAACATATGTGCAGGTACACACACAC
-1 TCCACAAGTATATTCCTAGACATGGGTGGAGTCTTTGCAGAAACTCTTTGTGAATTAAATTAACACTGACATTGTAATGATACCTTGTCTGTCACCTAAAATAAAAGACCTGCCAAGTGCCTCAGTAAGTAGAGGCTTCTGCTGCCAATCCTGTCTACCTAAATTCC
-0.422198893377457 GCTCGCAAAGGAATAACTCTACCTCCAACTCAGAGGAGATAGTATATAAACAAAATTCAAAGAGTGAAGCAGCAGTTGCCATGTGATCAAAGTGTGCATAGTGTGTGTGTGTGTGTGTGTGTGTGTGTGTGTGTGTGTGTCTGTGTGTCTGTGTATCTGTGTGTGTC
-1 AGGCAACACTGAGGGGAAGGGGGGAGGGGAGGCAGAAGATGATCCTGGTAGTGCTTTGTCCCTTCCCGTTACAGACACAGAAGCATGCCTAGGTACAACATATGTGAGTGACAAAGAAAACCGGTAGAATTCCACGCACAGAAGATTCAAAGGAAGAGACACAAAAA
-1 TAGGTTTCACATCACTCAAGAGGAGGCACTGGGTATCAGGAATTCTGAAAGAGGAAAGGAAGGGCGTGGAAGCAGACTCAGGATTGAAACTAGAGCTGTCATCCAAGCCACCCCCTCACTCCTCTGCAGGGGACTGGAGAACTCACCATCTCTCATAAAAGCCATAA
-1 ACCAATTCTAGAACATTCCTTACAAGAGCTTCAGCAAGTCTGTCACCCTGCAGAAGACACTCAGCTTTTAATGCTTTCAAGTCCATAGACTTGGGACAACTGAAGCTGCACAGGAAGGAGAACAAATGGGAAGGGCAATGCTCTGGGCCACTTCATTCCTTTAAACA
-1 CTACTTTAAGCTCCAGAGCAGCATTGAAAACAGGTGAATCCCCAACCCTTCACCCTGCTTCCTTATTCTGTGAACTGAGACATTCAGATCAGAGCAAGAGCAAAGAAAGATCTGACTTCTTATAAACCGTCTCAGTTTCCATGTTTTCTTCCAGGCACAGTTGTGCT
-0.6747786362642745 GTTTTACACTAAGGTGCTGAACCTTAAGAGAGAGCAATGCATTAGTAGTCTTGCATGGAATCTTTAATTAGAGACCGAGAGCATCAAATGTGACAAGACATCGTACCTATCCTTTTTGTCAGATGCTTCAGATTGCATTTTGAAATGCTGAGGAACAATTTAAACAC
-0.7442279353668582 AGATGGCTCAGCTGGTAAGGTGCATGCTGGGAAAGAGTGATCATCTCAGCACAGATCTACAGAATCCCAGTTTTAAAAGCTGGTGTGGTAGCACACACTGGCAACCAGAGGAGTGGGAGAATCTCTGGAGCTCAGGGCGCAGCTAGTCTTGCCTAACTGGAGAGCTT
-1 AGAAAGAGGGGAAACCATGGTTGGTTCTAGAGAGATAGATAGGACCTATTAGAATGCATTGGAATAAAAACTTACTCTTAGGCACAGATAGTTATCATAACAGAGATATATTTATTAGGACAAGAAATGGAAGCAGGATTCATATACATGTGATAGTCTCCTGGCTG
-1 TATAGGGAAAAAAGGAGGTAAAAATAACTTTTTAACATAGAAATGCATTAGTATGGCAAGGGTAGTTTTGCCTTGTTCCAAAACTAAAGGTGTTCTTTTCCTCTATATTTCATTGCATTTTAAATATTTTTAACAATTAGAATGTATTGTATTTATTACAATGTAAA
-1 GCCCAGAAAAATAACCGCAGCCCTGTCAAATTGTCAAATAGAATAGTTGGCAGCTGTTTCTTCCCTTTTAGGGGTTTTCTTGCTAGAGTTCACATTCAGGTTAGAGCAGAAATTTGTTCTGACTTACTGCAGATAGAAGCTGTCTAAAAATGACAGCAAGCAAATTC
-1 AATACCCGTGATATCCAATACATCCCATTCTCCTTCAAAGCTGGCGGTATGACAGTCACTGTCTTGAAGCCAGTGAGGTGGCTCTGCAGGGTTCCACCCTCAGCACCCACATGGTGACTCACAACTACCTGTAACTCAGTTCCAGAGGATGGATGCTTTCTACTGAA
-1 CTTCAGCAGCCTCTCCCCGCCATGGGCACAGGCCCACTATGTCTGCCTGCCCAGGCTTGCACACATTGGGGAAGTGGCGTCTCTTTCTCTCTTTCCACCACAGGGGACAGAGGGACAGAGAGGGAGAGGAGGAAGGCATGCTCAGGATTGATTCAGTTAGCCGGCCA
-1 AACTGTGGAGAAAAGCTTACTTTCTGGCTTGCTCACCTTTTCTGGTTCTTTTTTATTCAGCCCAAGCATACATAACTAAGGTATGAACCGTCATCCACAGTGAGCTGGACCCGCCTACATCAATTAGCAATCAAGAAAATTATCCACAGACATGCCCACGCACAATC
-1 CACAACATACTTTCACTACCCTGTTTTCTCCTCCCTTCTTCGAACCCTTGGCAACCGCTAATCCTTTTACTGTCCCTGCTACTGTGTCTTTCCCAGAGTGTCAACGAGTTAGAACCTGACAGCATGTAGCCTTTACACACTGGCTCCCTTCATTGGTGGTCCTTTCA
-0.9329403348890878 TTAACCCTCACTCAGCATCAGCCAGCGTAAGCTCCACAAAGGTTGCAAGTGTGCCTCATTGTATTTTTCATGCTGAGACCTGGTAGGTGCTTATTAAATAAGTATGAATAATGATTCCCTTCTGTGCTCTTCTCAGGCAGTGGGTTAAAAAATGGGGACTGGGAAGA
-1 GGGGATACTAGTCATACCCTGTAGCAAGTAGGGACTGAGGGATGCTGGGAGAACCCGTGTCTGCTTTGATATGTTAATGAGCACTTCAGTTAGCATTTGACTCTGGTTTGACACTGAACAACCCACAGGTTCTCTCCCTCCTAGTGCACTGCTAACATTCTTTCATA
-0.1192668257911824 TAATGTACTTGCACACACTAAAGCAAAAGAGATGAGAAAATGACAAGCTGTCACTTAATGCATTATCCTCCTCCAACCAGAACCTGCATTTATACTGCCATGTTAAAGTGGATGATGTTGGCAGGTTTTAGAGAGAGGGGTGTGAGTTAGCATATCGCTGCCAGTGC
-1 AAAGGGAGGAGGTTCCCTTCCCTAAGAATTTCAAAAAGGAAACCACGATATCAGCTCCAAAGACATTACATAAAAACAGCACCCTAGTTAAGTTCACATCATGCCTGCTTCATTCCCACTAAAAGAATGGAGAGACCCTACAATTTTTTTCAATTCCTTGCAAATCC
-1 ACAATGGAGTACGATGGCAGAGATTTTTCAAAAGCAGAGAGCAGCATATCAAATATTCATGAAACCCAGTTTGTAACTCAGTGCAAGTTTTTCTCCCTGCAGTTAGTGAGTCACGCTCTCTAGACAGGGACTCATGATGTAGCCCTGGATATCCTGGAACTCAATAC
-1 TAAGCTGCCTTTCTCAGCTGCGTACTGTCATTCCTAAACAACCCTAGAGCTAAAAATTTTAAGTGCTGTCACCCAGAATTGCTAAACAGAACTTACTCTTTAATTTGTCTGCCACTCTTTCTGTCACTTCCCTTGCACTTTTATGGTAAGGCATTCATTCAACTGTC
-1 GTTACCTAGGAGAATCCAAGATATACTTAAGGAGCAGAAGAGCCTGGAGCTAAGACTGACAGGCTGAATAGGCACTTGGGTGACAATCAGTAGCAAGCATGACAGATAAAGGGAAGTCAGGTGTAAAAGCATGAGGAAGTCTGACAAGGTCTGGCAACACTGAGTAA
-1 ATGAGCACCGAGCTGGGGACCATGACATGTCATGCTCCTCATAACTTGGAACAGGAATACTAAACTGTCAAAGTGTCTCTCATGCCACCACCCCCGCCCAGCTGCATAAATCCTTTCTGTTGAAGACACTTCAACCTTAGAGATTAGAGAGTGATTATTATGAGTGA
-0.4964892992372554 AGCCTATCATTTCTTAAAAAATAGAGATAAAATGTCACAGAACTGATTCCAAAATAGCTTAGACTTATGTGAAATGCTATTCTCTTAAACATGGAAATGTGGGAAGAAGATAAAAGGAAGAGAACTCAAAATGAGTTTGAACTCCTTATTAATCTTTCTCTCCTATT
-1 AAGAGGGATTCAGAGTTCTGCAGAGATGCATCCTGCAGACAAGAGGCAAAGTTTCTATGTTCAGTGCTGTACTCTCAGGTTTATAAGCACTTCAAATGTCACTGAACCCCTTAGGCAGAATTAATCACTCCCTAATATCTGCTTTCCTAGCAATTTTACACCTGTCA
-0.4836786652529804 TAGGAGTCCCACACCCCACTCAGTTAATAATAAAGCATGCCTCCCTGTTAAACTAGCTTTCTGTAGGTGTCATCGCACAGAACAGTCGCTTTGGAGCACACCTGTCATAGATGAAGCTTTGTGACTTGATGTAATTGTTAGTTGCACTGTACATTTCGCTAGCTTCA
-1 TGATATTTTAGGATCTATTATAATATGGATTATTGGAAAACTTACCAGCAGGTGGTAGCACCAGTTAACAAATACGCCTGCAGTTCACAAAGCAAAGCATTCTCAGTGGATCTCTGGCTGCAAGATCAGTAACATTCTACTCTGTCAGAATATTGAATTGGAACAGG
-1 TCAGGCCAGAAAAGGGAGTCTTGAGAGAGAATGTACAAAGACGTAGTTATATGGATTATACCCCAGCTGGAAGAGATCAACAGTGAGTAGCGGAGAGGAAAAGAGAGTCTCTAGTGAAGGAACCTCACTGGAAGAGCTGACATTTGCAGTTGTGGTAAGAGGGCAGA
-1 GCCCAGAAGGAGACATTTATCTTTCCCAGCCCACTTCTTAAGAAGCCCAGCTTCTTCTTTTGGAGAAAATAATGATGTTCTAATTCTAAGGAGAATAATGCATGCTAATTTAGTCATGGTTGTGTCACGCGTAACTCTCCTTTCTTTTTTCTTAAATACAGTCTCTG
-0.6333284921430351 GAGAGTTGCTTGACTTGTTTAAAGCCATACACGTGGGCGCGTGTAATATTTCAGTGGTTTCAGAATAGCCCATCCCCTTTTGACAGACATTCAGTGTGTCTCCGGTACTTTGTTACATAATACTGTCATTTTGGTCACATAGGTAGGAAGGATGAATTCCTGGAAGT
-1 GAGCCCCCAAGGAACAGATCAATGTGTATATCAGTTGGCATTTCAGTTAGTAGCTGCTCTCTTTGAAGGCTCAGCTCTGAGGCAGACAATGGAGAATCTACTGACAAGAAATATGTTAGGTCTGTGCTAAATATATCCCTTCAATTGAAGACCTCCAAAATGAAGGG
-1 GCAGACACAGTGCAGAGGAAAGCTTGCCAAGGCATGAAACCCTTCATCTCAGACTAGCAACAGCTACATTAGCTACGTGTCATCCACTCTTTCTTAGTCCACTGAGGACTAAGGCCCGTTTAGAAGCTGAAAATGCCAGGACCCTGCACTGTGGGTGAGCCTCATAG
-0.9779423181980927 GTTAATTGAGGAATAGATCTGGATCATAATTACTTCAAATGAGAGAATAAGTCACTAAATTACACTCTGGCTTTAAGCACTTGTCACTCTGCTCTATCATTTGTACTGCTTAAATCATCTATTTTTTTAATTAAGAATTCCAGGAGAAGAGAAGAAATAATAGCAGG
-1 CATTACAGACATGAAAGGCAGACTACATTACATAATAGTAGAAAGAAGGATGGTTGTGACTTAAGAAGGAGCTGGAGTATTGTATTATTCATGAAGGGGTTAGTAGAACGGAACTCCCCTGGTGCATGTTTTTCACTAGGCCCAGAGGAATAACATAATTAGGTATT
-1 GGTATCTCAACCAAAATGATTTATCTTGAAAATATGTTAATCACTTTTCCTTGATCTCCAGGGCTTTCTCAGGAGTACGCCCTTGTCTGATTTTACTTCTTGATACAATATTTATGAAGGCAGGAGATACCCTTATCTATCAAATTAGACACTCTAATTCAGCAAAC
-0.7947323753922779 ACTAAATTATTGCACCCTTCAAAATCTCCTGTTCAATGAATGAGCCAAGAGTATCATTGAGTGATATGGCAACATAACCTGGCATTGTAAAAAGAAGTCCATAATGGAAAAAAAAAAATGACAGACTATAAAATCAAAGTGAATGATTGACATGTATATTAATTATA
-0.3585661789987697 TGCTGCTGTCAGCTTTCTTATTTATAAAATGAGAATGCTGGAAAGGATAAGCCATTTTTAAACCTGACTTTGAGGAGGCGAGAGATTTTTCAAACCTCACTTGACAGCATGTACTTTTGCCATCTTTTTTTTTTTTCTCATAAGAACAATGTGCTCAATCAACGGAG
-1 CCCATTAGCACAATAGACTGTGATATGTCTATACAAAGGTGCAAAGATAATCTCCACGTACTGAGATTTTTCCAGGATACACTATCACATGGGAAAAAAATGTGTGTAATAATAAACCAGGCTAAAAAATGTTTCATGTTCAGATTAAAGTGCAAAATGCTCTAATG
-1 CAAGAGGAATCCCTGCAGAGGTGGCATTTCAAACAGCCTATGGGGATTAGCTTTTGATTTTTTTTCAGCATGCAAACCCAATTTGAGGAATTATCTCCTCAGGCATAAGGATGACAGTTTTGGAAATGTCACTCAGAAAGGAATATGAAATAGTCCAGCTCCTTTTT
-0.7833096920843682 TTCCGTTAACATTCTTCTTAGTCATGAGCAAAGGCAGCTTACCTCATACTCCTTCTAATTATTTCTGTGGCTTTGTGACACATGTCAGGCATTTTTCCAAACTTGCTCATTATGAAACATTTCCTTAGCAAAACATTGAGGCATCCTGTGTTAGGATTCATGACTCA
-1 GAATTCACACCAGCAAACACACACCACCAGAATAGCAACTGGGAAAACTCAGTGCCTATGACAGGTGCCTACCACTTACAATGCACTCTGGCAAACTCTGGCAAACTCTGGCAAACGCCAGGCTGTGTGCCGGCTCCTTCCTATGTTGTCAGACCCAATCCTTCTTA
-1 TGTGGGTGCAAGAGAGCTGGTGGGCTGACCAACTCACTTACCTGCCAGGCCCAGATCCAGGGCTTTGAGATGGCTCACCCCAACATCTATCCCATCTATGATCTGCTGCAGCAAATGGAAGGACCAGTCCTGCAGAGCCAAAGCTGCAGGAGCTCCATGACAAGGAC
-1 ATTTTCTCAGTAGCTATTCTCTGAGAGATGACAGGAAGACTGTGCACGAACACAGACAGCTGAAAATCACACAGCCACACTGACTTTGGAAGCCCTGTGGGAGGCTTTAACTGTGGAGGGCAGGGAAACAGCAGACACTGAAGAGTCACAATGACAGTTCTGAGACT
-1 AAAGAGAACTGACTTTTTTTTTTTTTTTAATACTTCATCTTACTTGCACAAGAGATGTTTGACAGCCGAGTCCCAGTGATTTACAGAACCCGTGTCTGTCTCAAGGAACAGTCCCTCCCCTAAGCAGGGACTCACTCTTACGGTGACTCATCCTGTGGCATGGCTCC
-1 ATCGGGTGTCTGCTTCCTTTAACACTGAGGCTGGGTTTCTGTTGAGAGAGGAGCTCTGTGGTGTGGTGACTCAGCTCTCCTCCCACTCATAGACGTGAAGCCCCCAAGGCACCCGTGGGAGAGGACGGCTCAGATGCGCTGACTTCTTTCATCCACAAGGTGGCACC
-1 TAAGTGGCTCGGGTACAGCTGCGCCCCCGGAGCTCCATGCACACCTTGCACGCAGCTCTGCCAATGGTAGTCTCCTCTTCCCAGCAAGTGCTGCGCATGGCTTACATAACCCACCTCTGAGAGGGGGCTTGTCTTAGTCACTGTTCTGTTGCTATGAAGAGACACCA
-0.5791407281204125 TTTGCTGAACATTCTAAAAATGGATGTTATGTATCAGCTAAAAATATGATAATTAACAAGTAAGCTTGAATCACATAATAGCAAACGTCATTTCTTCTGCAAGACAAGAGTGTTACTCATGAGTCAACCTGAAACCACTGGCACCTGAAAGAAGCTGACAAGGGACC
-1 ACTTAAAAACCAATTTGAAGTCATTGCACCGACAGTCGGCTCCTCTGTGAGTTGAAGAGTCAGGCTGGCAGCTCCACTCTCTGAGAAATGACAGCATTCCTGACGCCTGTGTGTCTTGGGAGCAGGAAAGACACTGTCTAGGGTCCCAGCACAGCCCATATGAGTTT
-0.6807059410663122 AAATTATGGCTTGTCAAAAATGACAGATTTCTACAAGGTGCTTCCTTTTCGCTTTGAGGAAGACCTTTTCCCACCCAGCAATTAACTTTATTCCCATTAATATTCAGTACCATTGACAAGGCTGACAGAGTAAATCTGGGTTTTATAAAACTAAAGACAGATTGATG
-1 TTGAGGCAGGGCTTAATCAGAGGCAGATCTCGGAGCACTATGAGGGGAGTGGGAAGGGCAAGGAGAACAGAGTGAGGGAGTCACCCAGTATTCCGTTGTAAGAGACAAGGAGCTAGTTATGTAGTGGAGATGACAGATAAGGAATGAAATGGGAGAAGGAAAGAAAA
-0.9135661204615032 TCCTCCCACTATGCCTCAAGATGTGGATCATAAGCATGTTATCTTCCAGCCTCAAGATCTGATTCACAGGTAAGCCCTCCATTTATAGATTGTAGATTCCTTCAGATACAATCAAGTTGACAACCTATAATAGCCATCACAATAGGTAGTATCAAAATTAGACATGA
-1 TGTTCTTCATTGTATTATCCTTCGGAAAGAATATACCCTCTGACAGAAAGAAAATCACTCTTAAGAAAAAGCTTTCAGGTTGGCTCTGAGCAGCTCCTGGCATACTGATAAGTAAGGATGCATATTTAATGTTAGGGATAAAAGTAAAACCATCAACATTTTGAAAT
-0.8968026829986532 GAAGGCGCTGATGCTGGTGTTGCCATGGAAATGGATGTTCTCAGCTCCTCATTCTGACTCACCTCACCTTATAATGGGATCGTTTTGGTTCTGATAGTCTGACAGAATTCCAGATTGGGGAGGAGACATCTTCAAGGTCTTTGAGTGCAAAGACCTCATATTCTTAG
-1 TTGGGGCCCCTCGCTGACTCTCAAGCTTTGGGTAACAGGGTATAGAGTACACTGGATGATTGGACTGGCTGAGTCATCAATCATTTCACTTGTTGGAACCAGAGCGGGCATGTGACTGGTTCACAGTCACACAGTAGGATGCTAAGTCTGGAGCCCAGGACCTAATG
-1 AAGTATGTACTTTCCAGGATTCAATTAAAATGACAAGAATTCAAAACACAGCAATTAGATCTGAAGCTCCAGAGAATATGACTTTGGATTTGTGTGGAGAGAAGCTGTCACAGCACACATTCTATTAATAAGTAATTGTGAATTCCTTAGAAGATCGTTTTTGAGAA
-0.6584823460229127 AAAAAAAAATCAATGAAACAGAGAGCTGGTTCTTTTTAAAGATAAATGAGATTGACAAAGCCTTATTAACCAATCTCAGAAAGAGTGACAGGGCCTCAAATTAGCAAAATTAGAAATGAAAGAGAGCCATTGTGAAAGACACCAATGAAGTCTTACCTTAAAACATT
-0.8932386529810878 ACAAAAGACTCTGGCAGAGAGAAGGGTGACAGTTGGTTCCTCCCAGCGACTGCAGAATTCTGTGCTGTCAAGTAAACCTGGCAGAGCTGACTGAGGCACTGTCTTCCAGGTGACTCATCTTGGCAGCAACGTGAGTCCCAGCCAAGGTCATGGTGACATCCAAAAAA
-1 AAACTTCTTGCCTAGTATTACAGGTAAGAGGAACGCTCAGTAGTCAGTCTGACAAAGCTGCAGTTTTATGCATGATGCAGAACAGGAAAAGATGCCTTCAGCTCATTAGACTCTGAGGGCAGAGGGGGGTGTATCCCAAGGCAGAGGGACTGTGTCCCATGTGGTTC
-0.6929743881876179 GTGAACAATATGTCAATGAGCTGACAGCAACTTTGAGGGAGATATTTTTAAACTGCAGAGTGCTTATTAGATGTCTGCATATTAACCAACATTAAAGCAACAGCAGAAAAATCTCTGTCATGCTCATGTATTCTGCAAGAAATAATGAAAAGTACTACAATTAGACT
-1 AATTTTTAATCTACAAAATAATTTTAGGAAATAAGAGGGTTCAAAAATTAAAGTATTTCTTGGTTCTGATAACATAGCTCAGCAGATAAAGGTCCATCCTTCTTAGCCTGTCATCCTGAGCTTCATCACAAGATGGAAGGAGAAAATGGTTTTAGAAAGTTGAACTC
-1 CACACACACACACACCCTCTGCCTGCTGAAGTCTCCAGTTTTTTGCTCAAATGTAAGCTCTCCGTTACTGTTCCAGCAGTATTCCTAGCTTGTACCACATTTCTTAGCATGGTGGTCATGGACTTCAGCACTCTGGAATTGTGATTTTCCCCACTTCTTTGTCTCTA
-0.01618121691583482 ACCTGAGTACCAAGGAACACACACTTCATGATTAATTAGTCACTTTTTCAGGCTCGGTAAAATAAAGAGGCTGAGATAGTGACTGACAGGAGAGATAAACATGGGTGTGCATAAATTTTCTCTGACATGGTTTAAAGACTTAAGGTGAACATTTAACATCAAAATGG
-1 ACTTCCATATCTTTGCATTTCTCCTGGATGAATCAGACAACTCAGGTTCATGGAGAGGCCGATTTAACCCAGAATCTTTCCAGTTCATTACTTCCCTCAGTATTACCGCTCTGGGAAAACCAATTGCAATTCTATTAAAGAAGTCCTTGTTATTTTGCCTCTTACCT
-0.5459903891679845 TGACCCCGTGAACGCTGGATGAATAATGTTGTCATGATGACTCCTGTAATAAAGTCAGATGCCTGTCTGCAGAATGAGGGTGTGTTTGAGAAGGAGGAAGGGCATGGCTCTGAGCATGAGGAAAGTGTGAGGCACCTGGGAACACATTTTAAGACAGCTGATGCTGA
-1 CCTAAGGTGTTTCTAAGGTGAAGTTTTTCTCAGCCATGTGTGCACTAAATCATTTTTCATTCTGACATGTCTGTTTCTCACACTTCATGCCTTCAATTATTTTTGTTCCCAAAATAGTAGGCTGCATCCCTAAAAGGAAAGATTTTTTTTTTTGTTATAAATTTGGC
-0.2780825337037298 TTCTTCAACTATTATCACCACTTAAAAGTGACATTTAAATTTCTCAAACTTATGATTAATCTGTCAGTCTCTTTTAAATAAAAAAGCATATTCAAAAAATAAACCACAAGCCTATAATTTCACTCATGAGTCATACATAAAAAGATATGAAGCTAATGCTAATTGCT
-1 TAAGTCTTCAGAACCTAACTTCTTATTCATGTCTGGCAGACACGTTATCTGAAAGTATAATTTCCACACCACCCGCAGTGTAGCAGCTGGGTATTTCCAGCTTCAAGGGTAGAAAGCTCACAGCTCATACTGTACTGAGCCTGCCTCCTGGGGTGATAGTGAATTGA
-1 CCCTCCTTCTTTCCTTTCCCCAGTCAGCAGAAATCTACACACCAGGCTTTTGATCTTTGCCTACTGTTGTACTAAGGCTGACTCACAGGGTTTCCCTCAGGTGTGTCTCCTAAGCATGCCAGCTATTTAGGATTCCAGATCTGGAGATAGGGGAACTGATTTAAAAA
-0.4115011455808803 TTAATGGTTCCTGTCACTCAGATTATGTGTGTGTCATTTCCTTGGAAATATGGTGACAACATGTTATTAAACTGAGAATGCAAAAATTAATTCACCCAAGAGTGATGATTCAAGCGGATCCCTTCTCTGCATCCCTGTGCATCACTTTCACTTACCTTTGGAGTGTC
-1 CGTGCACGCTATGTCAAAAATGACAAAGACACCCAAAGTATACTCCCTGTCATGAGTAGAAGCTATATAACACTGCAGTGTCCTGGGAGACTTGGAAACTACAGATTATCCCTTATTATTGGCAACTCATTTCAGTTCATGTTATAAATAGATGAAGATTTTTATAT
-1 CCACTGTCTTGTTAGGACACCTCCACTTCCTGCACAGCCTGAGCCTCCCACCTCTAATAAGCTCATCTGAGCATATCCCTCACATTTAAATCTCCAAAGGAACTACCTAGAAAATGACAGATCCAGTAATTACTGGATCTCACTTTTGAATAATAATGAGGTTCTTT
-1 TTCCTGGAGGAAGGAGAGAATCATGCAGCAATTTTGCTTTGATGGCATAAAAACTTTAACAGCACATTTGAGAGACTGAGTTGGTTCATCCTGGTCTACAGACAGATGCCAGAGAACATAGAGACTCTGCATCAGTGTTTCTGGGTTAGAGCCCAGTAGCTTATTTT
-1 CCAACCACACCCTGTGCCGAGTCACTCACCTGTCCTTGTACAGTGCTCAGCAGTGCTGTATGTGATCATGCCATCTCCATGGTACCCACACCCGCCCACTTTTTTCTTCCCTAAGAGATGGGTTCTTGCTTTATCCTCTAATGTTGGGATTATAGGTATGTTCCACC
-0.9854265959132001 ACTGTTCATTTGAAGCCTGTCAAGGAATCAGCCTAGACTTCTCAACATGTAGTTGGGTTACTATTGTTAGAGCTTCTCTCTCTCTCTCTCTCTCTCTCTCTCTCTCTCTCTCTCTCTCTCTCAATTTCTTTCATCTTTAAGAGTGTGTGTGTGTGTGCATGAACAGT
-0.9810663502121896 ATGATGTCACTGTTTCTTCACATGTAAATCCATAAAAGCCAGAGAACTGGCGCCCGAGAGTTTAAACAATTAATAATACCTGCAATCACAGCCTGTCATGTCAAAAGTCATCCGTTTTCCTAATTTATCTCCTCATCAGTTCAGCTACGTAGCAATTGTTGAAAGCA
-0.9073712239645455 ACCACAACTAGCGTTTTCCCTGGGTTCTGCGTAGTGAACTCAGGTCCCTGTGATTGCAAGGCAAAATCTCTACTCATTGAGTCATCTCTCCTCCCCCTCCCCTCCTCCACTGTATCTGTAACTAAACTAGATGTGATCATTCAGTAAGTGGGTGTTACAGATGTTTG
-1 GTAGAAGGAGCATCTGGGGCCTGCCTTTGATGTCACTTCTTATACCTGGCTTTCCCTCTCTCTAGTAGAGTCATTCCCTGAGCAGCTCCAATGTTCACCTCCCTACTCTCTTTGTTCTGACATTAATTGCCATTTTGTTTTGCTAATTTGATATAGAGCTGTCAAAA
-1 CTTCAGCCTCTGTGCCTGGGTTTCTGCTTCCAACCTGGTAACATGGAGAGGAATTCTATTCTTCACTGTGACGCATCTGTGACTCCTCAGAATGCATAGTACCTAAGCAACATGATACTCTTGATCTCTGTTTTCTCTAAGCAAAGGTCCACAGAAACTTTTGCCTC
-1 TAGTTTTGAGATTCCTCATTGCAACTGCTCATATATTCAAATTAAAAAGACTGAGGTTAATGGTAATCCCAGGGAAAGGGAGAGAGATCAGCATGGGGAATTTTCTGAATCTAGGATGAGGCTTTAATACTGGAAGACAACAAGGTAATAAACAAAGCAATTATTTT
-1 TCTTACACAATCCAGGAGCCACTGCATAGGGAATAGGGCCACCCACGGTAGTCTGAGTCTTCCCACATCAATTAACTTGATTAAGACTCCCACACACAGACAAGCTTGTAGGCTAATCCAATGCAGACAATCCTTTAGTGACACTTTCATCCCTGGTAGTTCTAGGT
-1 TCAGCATGAATTTCATGAGATTGAGAGGATGACTAATTCCGTTCACATGGATGCAAGGTGAGTTTCTCAGAACTCTGCCAGGTTTCTAAAGCTATCCTCTGCTGTAGCTCTACCTCATTTGCTAGGAAGCAAATGTTCATCAGGAATGCAGAGTGATTTTAAAAGTG
