svm_type c_svc
kernel_type wgkm
L 10
k 5
d 3
M 50
H 50
nr_class 2
total_sv 5669
rho -0.116214
label 1 -1
nr_sv 2657 3012
SV
1 TTGTTTTGTTTTGTTTTGTTCCTAAACTCTGCAAATAATAGAAGAAAGGAGATTGTTTGTATTGGGTCACCTGCTTCCCAGCCAGGGTTACAGTGTTTTGTTTTCCTCTCTCACCCCCATCTCCTTTTATCTTGGCTGCACATGCTTTGTTGTTTGGTGGGAATTTC
1 GAATTGGAAGTTTCGTGCTTTCTTGGCAAGCACTCTACCAACTGAGCTACTTCCCCGCCTGTTCAAAAGCCGTTTCAATCTAATTAAACAGCTACTTCCTGTACCGTCTCTGTGGACTCCAGGATGCCAGCAAGCCTCTCACTAGTCTCCTTGCTGTAGCTTTTGCC
1 AAGTCACAGATGTTCGAAAAGAAATCCAATCTTGTTCTGCACTGTGCTTCTACTGTTTGGGAGAACATCAAATGCGACCATTGAACCGGAAGGTCTCACTTATCCGGCCAAGAATCACAAGCTGACACTCAGCCCCGTCTCTCTGGTGGAAGGAGCTTGACTGGGAA
1 ACAATGTACTGTCTGATAAACAGACCAAATCTCCGGCGGCGGCGCTGCTGGGCCTGCGCCAGTGTGTGGCCGCCTTTGATACAGGTGCTGTTTATTCTGCCTGGAAGTCCAAGGACGGGACAAACTGTTACAGGGCCTAGGGTCACAGCTTGTGCCCCAGTGAACCA
1 AGGTTGTCTAATCAGGCAAGGCCAAAAGCAACAAAGAAGCTATGTGGGTCACTAACCTCCAGGGAGAGTGCACAGGAAATGAGTGTGTTTAGCTTCAAAAAACGATAAGGAGAGGGCCATTCCCCCTCTCTGCGCTCCACTTCCTCATCTTCAAAGTGGTACTAATG
1 GATTCTTCACTCAGTGTAAGGGACAAAACAAAAGAGGGCCACGCCCCTTCCTCGGGTCTTGCCTTCATTGTTCAGTCCTGAGCAGCCCTTGTGATGTAAGAGACTGGGAACAGAAAGCTTTGACCAGATCAAAAGCTGAGTGAGTTTAGGAAAGGGAGACTTCCAGT
0.5098870156766142 GCCTGAACCTCACAGTGGCTCTCCTTCCGCAGCTCCCAGGGGGGCTGGAAATGCCCGCTAGTGCCATGACACCCAGCTTTTGAAATAGCTCCTCACACCAGCTCCCTTCCACTTCCTCTCAGGCCCCGGCCTTCAGGTTAAATCACAGTACAAAAATTACATCATGA
1 CTCCAACTGCTTTGGTTTGACCCAGGATTTCAACTCCAGGGAGCCATTCCCATCCTAGACTTCGCGGTTTTCCTGTAGGTGGCGCTAAAGGGTCTGATTCCACCAGAGTCTGTTTCTTATGACAAGATTACAGCAGAGGAAAGTGTATGGAACACCATTTCTTCTTT
1 GGCCTCTGATGGTTACTCACAGAATCAACAGAGGCTGGGAATTCCAGGGAGGAGCGCTTCAGAAAACCTGCATCCAAGTCCTTGACGTCTACTGGAGGAGAACAATGGGGTAAGGGCAGAGCCAAATAGTCATCTGTAGTCATGGTGAGACCGGAGTTAGAAAGCCA
1 AAGCCAGGGCAATTTCAGAAGGAATTCAGCCTGGGCTAAACAGGAGACATGCTTTTGTGCACAGCTCTCTCCTACAGGGAGAGACCTGCCTAGCCTGGGGGCTGCAGGCACAAGAGGAAGTAAGGCTACGATTGTAGCCCGGCATTTCTCTGGAAGCCTGATATCCA
0.5403496313091846 TCAAGACAGCCTATGAATGCAGACTTGCCTGGAATTTTGAAGTGCATAGATTATTAAGGTAGGGAAGAGAAAATGTGGGTGTTAGAGGGGGACCACACCCAGGCAGCTGCCTAGGATACAGGCTCTGTAGTGTATTCTAGAAGTCCCTGGCAGAGCTCGGCCTCCAA
0.09506593196352878 AGAAACCTTGAACAATACATAGTCCCACCCTGTCGTCAGGAGCAGTACTCCACTACTGGGAATAAGCTTTGATGTTGGTAGCCTTGCTCCTGAAGTCAGTGGGTGGGGTGACCTTCTGGATATCCTGACATTTGTTACTGCAGAGACTGCAAACTTTGAAGAAACAA
0.5673460045366975 GGGACTTCCTTTCTGAGTGCACAAAGCCAGATTTAAAGATAGGGCAAGCCACCCAGCATTCAGAGGCAGGAAGGTGGGGCTGGTTCCTCAGGGCTCCAGCTGGGAAAGTCTCTTTGATGGAGTCAAATGCAAAGGGGTGGTAACCCAGAGAGCAGCAGCAGAGGAAG
1 CTTTGTTGTAGGATGAAGAACTTCCATCAATTGTTGGGCTATATAAAGGTTTGCTCTCTGTTATTCACGGCGCAAGTTTTCCAGAATTAATGAGGAAGCTTGAACTTCTTGGTTTGTTGTTCTCTTATAGCTAAGGGAACATGCTGCAATACAATGAATGGGCATCC
0.9582648327745956 CTGAGAAGGGCTGAGCAGGGCCCAGCGGGAGCCTGCCAGTGGTGCAGGCAGAGGCCAAGGTGCAGGAGGGGACAGTAAGATGGGGGAATGACGTAAACTCTTGGCAGCTGTGTAGGAGACCGGACACAGGACAGGCATGTCCCAGGGCTGCATGCAAGCAACTGGAT
0.9219282849239194 AGCCAGAGATTCATCGAGAGAATCTGTCACAGATGTGCCTGAAGGCTCATCTCCTACATTATTCTATCAAGTTGACAATATTAGTCATCGCTTGTGTCGCTTGTGTGTGTAGGAGTCCTAAAAGCTCCTCAGGGGATCTGGTTCCTGTAACTCCTCAATCTACTTTG
0.6382768981172252 TCAGCCTCTCAGCAGGTAGTGGAGTCTTGGAGGAAGCAGCAGATGTGGCAGGACAATGGACTTTACCCTGATAGGAAGATTCCACCCTAGGTGGGCTAGCGGCTGTGACGAACACAAGGTCTGAATCAGCCTCTCAAGGCTGGGTGGATGGGCACATTCTTCCATGC
1 TGAAAGTGGTGGGAGTTTTAGGATTCCATTTACATCACCCACATGACTGTTCCAGGGGGATCCAGTGCCCTCCTCTGGCTTCTGTGGGCACTACATGCCCAAGGTGCACATACATGCATTCAGCCAGAACACCCATACACTTAAAATAAAAATAAAGACAAACCCCT
1 AAACAATCTAGAAAAAAAAATTTATTTTAAGATCTTGTTTTTGATCAGACTGTTCAAAGAAGGTCTTAAGTGGGTGAAAGTTCAGTAGGCTGAAACAATAGAAACATTTGGGAGTAGAATATGGCCTGACTCACCCTTCATGCAGTGCCTTCACTCGTCTCCTTCAT
0.8618171601606474 GAATCTACTTCTAATGGGAAAGGGGTGGTAAGACTGCAGAGCTGTAGGAGGGGCTTGGGAGAGTTCACAACAGGAACTGGTAAGAATAGTCTGTATGAGGGCTAGGTTTGACTGCCAATATTTGGCTCTCTGTGGGATAGCTTCCTTCAATTCAGTGAAGAAGCTGG
1 GAAAGCAGATAAGCATTCAAAATCATTTATTTATAGCACAGAACACAAAGCGTCAAAGAGACTACAGGCAAGCCACAGCCACAGCACCCTTCATGAGGGCAGCCGGGAGCCTCTCCCACCCTGCCGAGCCGGCTCAATAGAATGCTTCCAGATGTGGTCTGCCCATG
1 TATCAGTGTAGTGCCTTGTCCAGCTGAGATTTACTAGACAGCCCAGTATTAGCAGTTCCCAGGGGGCCTGGGCTTAGCTTGAGTCAGTCAGGGTGTGATAGGCCACAGTGCTGATCTCACCTAGGCAAGCCAACCAAGTTCTCTGCCCCCTCCACCCACCCCCTCAG
1 TAATTAATGATTGATGTGGGAGGGACCGCCTGCTGCTGACAATGCCATCAGTGGGCAGCTGCTCCTGGGTGTGTAAGATTGCAGGCTGAGCTAGACATGGAGAGGAAGCTGGTCACAGTGGTCTCTGCTCTACTTCCTGCTCTGGCTTCCTTTGATGATGGACTGTG
1 GAATCCATCAGCAGAGGAAGTCAGAACAGGAACTCAAGCAACCACAGAGGCAGGAACTTCTGGAGGAGAACTGATTACTGGCTTGTTCTCTGTGGCTCATGGCTTGCTCAGCTTGCTTTTTATGTAGCTTAGGACCACCTGCCTAGGAGATGCCATTGCCCATAGTG
1 AGCTCCGCCCCTGTCTACCTCAGCCACTCAGTACCTTTCACTATCTGACTCATCGAGGGTTTTCATGCTGTAAAGCACTCCAGGAAGCAGATTCAGGCAGAGTTTGGCTTTCCAGATGTTTACCAGGGAGCGGTGCTAGGGTCAACACCCATGCAAAGGAGGGGGCC
1 ATGGAGAAGGTGCTCTTTGGAAGTGAAGTATCTGCTAAGTAGACAGTCAAGCTTTAACAGCAGGCAAAGGGATACAGACTATTGCAGTCTGGACGTTCTGTGTTGTCCAGAGTTCCTTGCTTGAGTACACAGATGGGAAAACATTTGATTAAATGCCCTTCCTCCTC
1 AGGGCATACTAAGAAACGCTCTGGCCCTTGAAAGGTTTGGATGAGTCAGCCCCAAACGACAAAGATTTCAATGACGACAAGCAAGCCTGAGATGGTGGCTGGGCAGTGGTGGCCCAGGGAATGTGCTGCAGGAAGCAGATACGGCCTGACGTCCATCTTTCCCCAGC
1 CATTGTCTAAGGTCTGGAGTGTGTTGTTTCACTTGTGTATTAAATTACGAACTAAGGTGTGGCTCTTTGACCTTCAGAACCTAACATTGCTCATGAGTAGCACTGTTATTGTAGACCAGTCCACTGCCAAGACAAACATCCTCTCTTCGTGACTCTGGCTTTAGAGG
1 AGAACAGCAGACTCTTAATTAATGTTCTTGGCCACCAGAGCACGGCAAGAGGTAATTGAGCCTTTATTTATACCCCTAATAAGCGAGCTGCCTTTTCTCTGCTTGCACTGGGCAGGGCCAAGAATAACAACAGCCGGATGTCCTGCCACTCCTGGAGACTTCCCGTG
1 TTGGTCAGTGTAGCCTGTGCTGACATGGCTGTCCTCACGTCTCTGCAGACTCCTCACTGATCTGGATCATAACAGGAAGCAGGCTCCCCTTTCATGTCCCCTGCCAGGCCTGGCACTGTCGGCTTTCCAGCTGAGTTGCTCGACCACATAAGTCATACCCACATCTT
0.7166362692817173 TGTACTTGCTATAAAAACATTCCTTTAGACTTTAGAAATTCTAAATAAAACAAGAACAAAAGAGTGCTCCTTCTTTTTAACTCCCCACCCAAATGTTACCATTGTAAATCAAGGTAGCCAAGTAAATTAACCGCTGGCATTTAAATGCTTGCTGTCCCAAATATTTA
1 AGAGAACGATTTTGTAGAGCTTGAAACAGTTTCCCTTTTGGTATAAATAGATGACTTGCAGTGATCACTGTGTCCTGAGAATACTGTGGCATCTTTGGTCTTGGCTGTAACTTAAGGCCAAAGGGTAAGTTCAAAGGCTGTGCAGAGTAAACCTCACACGATTATTT
1 CTCCGATCTCCTTGTCCTCACAAGGCCATGAAAGAACTATGCCGGAAGCTACTTCCTGTTTCCAAGGATGTGAGAGTACATGGAGATCTGTGAGCAGGGGAGTTTCCTTCAGGGTCTACAATGGGATGTGGAGGCCACTGCTTGGAACCACAGGCCTCTGCTCTTAG
1 GCCTACAGGACATCACCCTGCCTCCCACTCCCTGCTGGTCTGGACTGGAAATGAGTCATGCTGCTGGTCTTTGGTTTGTTCTTAATCATCTCAAGGAAAACCTGTTTTGATTAATATTTAAAGCACCCTGGGGATTGCTTCCTGTTTTTCTTAAGCTGTCTACCCCT
1 GGTAAGTCATCGCCGGTTTCTCAACATTTGATCGCACATGTTTACAGGAAGGGCAGAGCTTCTAACCAGTCTCCCCTCCCAGTCTCTCTTAGCTGATTTCCACTTTCACACAGCCAAGCCACAACCGTTGTCTTACACTCTAGCTGTGATGTACTTGGAACAATCTT
1 AAGAGGGCACACCCTTAGCCTTGGCCTCACCTACATCTCCTGTTTCCAGTGCTGATCTTTCTTAGCAGACATTGGCAGCTGGTACACAGGAGCCGCCCTGGTCCCATGTGTTTGTATTTAACGATACAGAGCTTTGAACCAACCTCAAGCTGTGCCTGTGGGGGGAT
1 TCCAGAGCCCTCTGAGGGTGTGGTAGAACATGCTGGGCCTTCGGAGCACTGCATCAGAGAGAATGGATCATTGCCAGATGCTTTCAAGGCTGACCCTGAGGTGGCTTCCTAGGGAGCAGCCTTGTTTTATGTCCTCAGCCTTCCTCTCGGCCTTTGAGAGACTGGGA
1 AATGACGCAGTTTCATGGAGACCATTCTTGGGTAGTTTTCTTGAACCAAGCAGGGGAGTCTCCAGGACACAGAAGTCTCTCAGATCAAAGCATCCCCAAGGGAAGAGTGACTGCCTCCACTACTGCACAGAGCAGTGACCCAGGTGCAGAGCTAATGCAGTTCAAAC
1 CAGTGGCAAACCCAGCCCAAGCGGTGGCTTTGATTCTACTCAGGCTGCAGCTACTGAAGAGAATTTGTAAGGGAAAGGGGCCCATAAAAAGCCTTGCTAAGTGCAGGCTCCAGTGCTGGTCACCAGCATGCCTGGTGAATCATGCTGAATGCCTCCTGGGAATGAAT
1 AGCAGAGCCAATTCAGTGGGGCAGCACCTGGCCCAACTCGGGGCTGTGTGCTCACTTTGTGCTCACCCTCATTGTCCAGCTCTGCAGGACACACTCCCTGCAACAAGCCATGGCTTTGAAGTGTTTTAGATAGAAGCTTGGCTCACTTAAACAATTCTTCATGGAAA
1 ATAAATGTCATAAGAGAAAAATTAAAGCCCGCCCACTCGGGCAGCTGCTCCAGCTCATTGCTTCCTGGGGTTCTGAAGGCTTCCTGCATGTGCACTAGGGAGGAAAAACAAAGGCAGACAGTCTGACGAAATCTACTGCAAACAACATCCTGACTGAGAAAAGCGAC
1 TAGTGTTGCTGCTCTCCTAATTATCTCACTTGAAGTAAGTAGGATGTTTCAGATCAACAAAGCCAGACCTCTCCCTTCCTTTCTAGTGATAAACACGCACATTTCAAGCATTCTTCCCAGGAGAAATTAGAAGTTTCCCAGGGAGGGCTGACCTTCCGAACTTAAAG
1 TTGACAACAGAGGGCAAGTGCTCTGCAGGCCTGATCTACTAAAGTTCCGACTTTGTGATGTTGTCTTGCCCTGGCTTATTCCTTTGTTATCAAAGCTTAGAACTATGCACTCTTTGATCCTAATAGTAACAGCAGGAAACTCTTCTTATCTCTGGTTTTCAGATGAG
1 TGTGACGAAGACTTAGCCCCTTCCTTCCCTTGCAGGCTCATTGGTGAGATTCCCACAGGATGGCACCCTAACAGAAGAAATCAGGCTCTCCCATTAACACCTTGTCTGACCTGCCAGCTCTCTCAGAGTAAACCTTCTGTAAATATCCCCTGCTGATGAAAGCAAAG
1 AAGATAGGAGCTGGAATTCTCCTGGGTAAAGCTGACTGAGCTCACAAGTTTCACCCTTGGCCTACTTTGTTTATCTCCAGACCAATGAAGCGTTCAGTCTAGACCGTACAGTATTTCCAGTGGCTCCTGTCATTTTTTTTCCCAAGCATCTGGTTTTCCTCAGCACC
1 ATGTAATTGATAGAATGCCAAAGCAAACAGCCCGGAGCCCCATGAGGAATCTGCCTAGCCCACATTTTCCCTCACACTGTATTTTTCCAGCCTGTGGTTATTTGGCCCGCCTCTAGGCAGCCTTGACTTTGCACTAAGTGCCCCGCCCTCCTCTTTGACTTCTAAGC
0.9456970463451878 CTCCCTCCCACGAGACCTCTTTTGGGAAACAGACCCCGATGCTCTGGGGGCAGAAGATGCTGCCTCCATCACTCCTCCCTCTAGTGACTCATTCCCAAGACTGGGGGTGGCAGGAAGTGCCAGGGCCCGAGTACTGCAGCCCCATCCGGCTGGCAGCTTAGAGACAT
1 ACTGGCCATGTGTGTTTAAAAACAAGGCTGACTGTGAAGCCCGCGGCTCCAGACTGACTCCAGCCTGCTGTTAATGGAGGACAGAGGACCACTTACAGCTTCCTCCTCGCCCTGTAACAAATAACCTGCACTATGTAGACTTCCCCCGAAGCCCGGGTCACCGTCCA
0.09369844414589684 TTCAAAGACCAGAAAGCAAGCATCCTCCGTCCAGAAGGCAAACCTCAACAAACAAAACCTTCCTGCCTTTGAATTCACTGTAACAACAGAAGGAAGAGGCTCCAGTGGTTGGGATAAAAGCATGCACGCACACGCACACACGCACGCACTCTGCGCGCGCGTACACA
0.7985224485398287 AAAAGATATTCAGGGCGAGACAGCTACTACACTGCTTTGATTTATTAAAAACCTGTCTAGATGGCCAACATTTCAATCTCCAAAGCTCCCAGGGTTCTTTTTGGGGAAGGAAATGCATGTTGAGTGATTCACCGGGTTCCTTAGGGCTAATATTTTTAGGTATAGAT
1 CGCCGGCCAGACACTGTGGCGCTCCCCAGGAAAGAGGAAGTCTCAACAGGAAATTCCTCTTCAGGATCAATGTCCTAGGCCGCTGCTTATCAGCTCAGGGACTGGACGTGTGTCCCTTGGCCCTCCCGGTTTCTCCAGCTTCTCCACTTGCTGCTGTTCTCAGGAGC
1 TTTGAAAATAAATAAAGTTTCCAACAGACAAAAGCTGCTTTGGAGCCAGCCCTCACTGTAAACACCCGCCTTCCTTTCCTCTGGCCTGGAGCTTCCAGGCACTTCCCTAGCTCTCTGTGACCTCACGTAGCACAAAAGTCTGGTGGAAGTGGCACGTCCTGGCAGTC
1 CCTTCTACCCTCCTTCAAGTGAGAAGCAGGCACTGCCGACAGACCTGGCAGCTTGGGACCCTGGAACTTGAGTTTCCAGGAGACTTGAAAGGCAGGCTGCGTTTCCCCTTCCCCTTCATGTTTTATGAGTGTTGGCTGTTTACTAATTATCAAAGCTGTTTTTATGA
1 AATCCTGCTCCAAAAGGAAGTGGATATTGGCTCAGGGAAGCTGGCAAGGAAGTGACGGTCCCATGGAAGATCTCCAAGAGTGATTCACCGGTGCTGAGTGTGGGACCTTGGGGAGCCCATTGTGTCTAAAGAGACTCAGGAAACCTAAGCACTTAACCCCAAACACA
1 TGATCAGTGTATTAAGCTGATTCACAGTTGATTTCCCTGAACAGATCGGCCAAACAGTCATTATGTGGTGTGCTCCTGCCAAGGCAGAAACTTGATGTCATTTAGACAGATACTTACACGTCCAGGAGCTAATCTAGCTGAACATCAGTTTACTGGTAATCTACATT
1 TAAGAAGGTCCGCCCTGTCCATTGGCTGACTGCCAAGCCTTCAGAGTTCAGAGTACGGGATGATCTGATGACAACATCCGGCTGACTTTTAAGGACCTCACATCTCTGCTGTTGTTTACCCACTCCAAATTCCATCTGGTCTTGCCGCTAGGAACCTTGACACCGTC
0.2705926666927204 TGTTCTTTCAGGCTCTGTCTTCAGGGACCAACTCCTTTCCCCTGCCTTCAGCGTTAAAGAACAACTCCCACCTAGTTCCTCGGCAAGCATGGCTGACAGCAAGTTAAGACAGGGTAAGGGACAAGGGGAGAAAAGTTAATTTAAGGGGAAAATTATCTTCCATTTCG
1 AGAGAATATTTCCAGAGCAGCCGAAGCCCATCTCCTGAACAATGACGACAGCTCCTCATTTTCGACAACAATAGAGGGCACGTAGGAGTCAGCTCATTAGAATATCTGCGGCTCTTTTCTGTTCTCTCTGCATTAAGCCCCCATAATGTCAGTTGTCACTTATTAAT
1 CTTTATTGTCTGGCCCAACTGAAGTTTCTCCAGAGCCTGCCAAATATTTACTGAGCAGGAAATGAGCAACTCCCCTTCCCAGTGTCACTGAGTGTGACAGCCCTTCCACAGCCCTCAGTAGAGAAGCCCCTCCCATCAGCAAGGCCCCAGTGATTTAGCAAAAGGAA
1 TCCTAGGAAATCCTGCCAGTGTGGGGGAATAGATGATTCTCAATAGTGTAGTCTCAAATCTGGGCATTGGGTGCGGCATCTTCCTTTGTATATGTCCCCATTTTCAGAAGCATTGTTAGGATTAAAAAGCTTGGCTTCCATGTAATACTAACTTGAAATCAAGAAGA
0.1964397260441638 GTATGAGCCGCTGCCGGGTCAGGCTCCCTGGGTGTTGATTTCCTGCTCCGGAGTATCAGTGAGTCATCAGCCGCCTCCTCTCCACTTTAACTGTTGCTCTGAGACCTGAGAGTCTGCAGAAGGGAGGTCACATGGCATCTTTATTTAGTAGCCGGTTCTCAACTGGC
1 TCTCAAAGGTGCAGAGCCCGGAAACACAGCACAGAGGCACTAGCTGATCGATGCCCCTTCTGAAGGAAACAGCTTCCTTATACACAGGTTGTCTGAAGTTCTTCTGTGGGGAAAGGGGAAGTCAGCTCTCCTGGGCCTCTTTTTCTCTTTCCTCTTATTTCCCTCCA
1 TCCATGCCAGGCACTGAGCCAGGGGCTCCACCTGGGCTGTGTCACATTAGCCCACAATCACACAGCTAGAAATTATTAAAGCTGAAGTCTAAACATGGCTCCTGCTAACTTCAAAGCCTGTGGCTGCAACCCTGCTGTCTCACTGCCCAAGGAGGGGCCTTTTCTAG
1 CTGGCCGACATCCAGCTTGGAAGAGCTCACAGTGCATACTTATTCCTGTCCTCTGGGCAGTCCCCTTCCTCTTCCAACAGTGACATGTGAAGGAATGTTGCCCTGCATTCCTGACCATTCACGTCTCTGTGCTTTAGTCATAGGTCAATCTCTTGGAGCTGTGGACG
1 GAGGGGATGAGAAGGTGCTGGTTGTCCCCTCCCTCCCTGGTGTGCCCCAGGTGCTGCAGCAGCAGAAGATGAGTAGCAGCTTAGGTTGCCATAGTAATGATAATGCCTCTGGCGCTCCCCACTCCTTGTTCAGATGCTTGTCCTCCCACAAGGAGTCTTGGGTGGCC
1 TAGGCTGCGTTTTCTGTAGTCTGTGATTCCTGCCACTTGATTCTTCCCCTCTTCTCTGTAATTATCCCATCACGGGTGAAAATAAACCTTAGCAGGAGACGCCTCCCAGAAGGGCCCTGTGCCTAGTGGAGGTTGGGCGGGTGCAACAGCTTCCCATACTCGGGCTC
0.5230765592945841 TCCCCAAGCCCTGACCAGCCCAGTGGCCTGGCAGCAGGCCATATCGAACCCGCCTTGTCCCTGTCAGCACTAGGCGGCGGACAGCTCCCGCGCCCTGGCTGCTACCCAGCTAGGTAACTCCTGTGGAGTTGGTTTTCACGGAGCCAAGGACCCCTTCCCACTTTGTA
1 AGTGTGTTTAAGGAGAAATAAGCAGTACATGGGATTCATCAAAAACCTTTTGTCAAAAACACAGCAATGTGTTTGATAGAGGAACTGCCCGAAGTGGCCTCCCTGCAGCACTCAGCATTGTAATGGCTTCCTGAGAGGAAGTGTGTGGATAAGTGCCAGGAGGCCAG
1 CAATGTGAGCTATTTTTCCAGGAGTGGCCTGCTTGACCCTGCAGCCAGACATTTCCTGAATCTCAAAACCACTAGACCAGGGCCATTCAGCCAAGCCCCAGGTGGCCCAATAGAGAAGCACCAAGGCCTGCTTACTTGGATTCATATCCTTCCAGGCAGGAATTGTG
1 TAATTGGAGAAGTTACACAGGGCTCTGTAAGAGGTGCCTGCACCTTTTATTTTCTTCTGTGTTCTCAGGGCTTCTAGGGCTACAGCAGAAACAGGAAGGAAGTGTGTTGTGAATGCTAGGAAGAAACAATGCCCTATCCAAAAGGAACTACTCTTCCGTAGATCTCT
0.9713814830967152 TAATGTGTTTCATCTCTTCTGCGGGGGTTGGGGGCTATGATTCAGCACAAAATTGATGTAAATTTATGGAAATGGAAATGCAGAGAGGCTGCGAGCTCCAAGCTGCTGGAGGGTTGGCTGTATGGCCCTCAGCGAGGGGAGGTGACTGCTCTCTGTACTAGGGGAGC
1 TGGAAAAGTACTGAGTTCACCCTGAGACCTCTGTCTGCTGAGCCAGATAAGAGACAAAGGAGGGAAATCCTATCACCCTACAGGCAGCTTCTTGGAACCAGCCCAGCAACTGCACTGCGGATGACTTCTAGGAAGCAGCTACTCGCTTCATTCAACCTTACCCAGTG
1 TGGGTAGCTTTCAATAGCCATTGTTAGACCGTTTGCAAGCTCTTGGCAGCAGACCTGTGTTTGCTAGAACATTTCCATGTAGTCATTTATAGCTCTAAGAACTCCGAGGCAGAAGCTGTGGCCTCCATGGCTTAATATTGGAAGTCACACTTTGTTATTCCTGTTAC
0.740424371776784 GTTATTTTCCAGCTGAGACTCAAAGAAAGGACGAGAGGTTTTAGTTTACAGATAGGTTATTAACACTCCCATTGCTAATATCAGATTTGAACTTTCTGGAAAGCTTTTAGTTGGTGTTCCGATCCCCTCTTAAGGGTTCAAAGGCAGACATAGTTATTCCAGTACCA
1 CCCTCCCTCTGGGACAGTACTAGACTGTACAACTTGTTGGGTAGATTGACGCTCTTTTCCTGTCTCCGGGGACAAAACTCACTTAGACTCCTTTGTGAAGAGAAATACCACGTGAGGCTATGGCTTCTGAAGATTGCATCATGTTCCTCAGTAGAAACTTCACTGAA
1 TTTTCTTTCCAGAGCATGGTTAGCTGGGCCTGAGGGGAGAGGAAGCTTATGTTTCCATTGGCAGGTTGTACCTCCCAAAGAATGAAGCCAACCGATTTTGCGATAAGTGGACATCCAGGAAAATAAGCACAGGACATATGCTCTGGCCACATGCGGACTGTTGATGC
1 TTCCGCCGAGGTTCTTTCCTGTGGGCTGGAGATGGTATTGGCAGCAGCTTGGCTCCGCTCTCCTCCACCGCCAGCCCAGCCTGTGCTCCAGGGGCTGCTCGCAGGCTGCCTTCCTCTTCCTGTGCAGCTGGTGTTTGCAGAAGGACGCGATTTGGAAGTTGATTTAT
0.6019617746442578 AAACTGAGCGACATCACTGGGGCCGTCCAGGCTGTGACTCACAGGTCCACTTCCCTGCTCACCCCAGCCTGGATTCTAGTTCTTGGCCAGGATGTCTCAGCACCTCTTCCTGTCTCCATTCCACTCTGACCCCTAAACAAAGCCAAAGTCTGGAGTCCACTGTGAAG
1 TTGGAAGCAGCCCTCATCTCCCAAGGAGAGTCTCTCCATCTCTGCTGGATATCTCCAATGCCTGCTGTGCAGGCTGTCTCATGTGGTTGGTTACACACTAGGAAGCAAGACTAGAAGGCTGTGCAGCAGAGGCCAGCCGAGTTCCCAGAGCCTGGGCCTGCTAGGCT
1 TAATTAATTCTTAGACAGACTGAAGAGTGTGCCACCCACTAAGAGTGGGCAGTCCCCTGTCAGCTCACTGAGTCTGCACCATCCATCTTCCATTGCTGTAGGGCCCTGTGACAGACAGGGCAGGGGGCTGACTTTCTATGTAAGCCTGTGACTTCTGGAAATTCTGG
0.2039895178262497 CGCCTTTTCCTCCGTGAACGCCTTTCCTTTTTGATCTCTGTAGAACAATTCACATCGGTTAGTGCGGGAGGTTGCTCCCCGCCCCTTCTTCCTCCAGCCTTTTAAGTGCTCTGTGCTGTATTTGGATCTGCTACAATTGGTTTTAATTAATGTCCCTACCCTAAGGC
0.7611268786127766 ACTATTGGAAGATGGTGGAATTGCAGAAGGTTGCTCTTAATCATCAAAAGCAGTTGACTGGCAGCCTGTCCTTAAAGGACACACCTTGTCCTGGTCCCTTCCTGTCTTTGTTCTGCTTCTTGGCTGCCAGGAGTTGAGCAGTTTTGATCTGCTGTACCCTCTGTCCC
1 AAAGCAACTGAGTTCCTAGAAATGCCTCAGTTACAGAAGAGCTCGGTTGCTTTCAGTTTCCATGAGAATCATGTTCCAGGAAATGCCTTTCAGGGGCTGAGCTGTGTCAGGGTTGTCTCTCTGGCTGCCCAGCAACTCTGCTAAGCTGGAAGTGCATTCAGTTTGGA
1 AGCCAGACCTTGACATTGTTGCCACTAAGGAGATTACCTAGGGTGGAGCCTTCCTCCCTAGATCACTCTGTTGTTCAGCCAATGTCACTTTTCCTCTTCAAGATACTGCTACCTCCTGGGAGGCTGCTGAGCTATTCAGGAGACTACACCCTATCCTGCACTTAGTC
1 AGAGATCCGCTATCTCATGGCTCTCCTTCCCTTGCCTGATTGAACCTTCTGCAATCCCGTAACAACCCCACTCCATCCTCCCAGCCATCAGTCATTTCACCCACTGTACTGGCTGGTTTTGTGTGTCAGCTTGACAAGCTGGAGTTATCACAGAGAAAGGAGCCTCC
1 TCATCCAGGGCCACACAAAACCCCGTCCCAAGCAGTCATTTAACCAGCCTGTGTCTTGGCTGACACTGACCCTGAGTCCTGTAGCTGTCCTGGCAGGAGTAAAGACACTCTAGAGAGATGTGTGCCCCTCCCTTTGGCTATCAGACTACTGAAACAATGGACCCCAA
0.6362539425180914 GTCTTTTACTCTCATGAGCTGTGCTAGAAGCCAAGGAAAACACAAAAGTTTCCTTTATTCTCCTGTCATAATAGGAGAGTCAGGCCCTAGCCCTTCCTGCAGGGCTGCTCTCTGCTGAGTCTTACCCTCGTCATCGTCCCTGCCATGACCCTAATCTTACTCCTGGG
0.7417325342721409 TCCAATAGGCTACCGATCTGTCTCCCCGCGCAGCCCCATGGAGGAACCATCAGTCCCCTGCCACTACTCTGCCGCTGGCTCCTCCCCTAGGTAGGCAGTAACCCTGTGATCGCCAGGGCCTGATGTCAGCCAGAGCTTCCCTCACTCACTAGGTTGTTTGCCTTCTT
1 CTGTGCTGCGCCAGCCCGGCATCTGTTTGTAGAAACCCTTGCCTTTCATTTTGCATTCCCGTCTCAGATAGCGGATTTTGAGAACAGAAATATAATCATCTCTGTGCGAACAGCCCTCTCTCAGCCTGGGGAGGAGAGAGATCAGCAGCAGAGGACTCTGTGTTGGC
0.4630488284024958 ACAGCAGTAAAACTCTAAGACAGTTATGATGTCTCTTCACAGCAATAGAGCAGTGACTAAGACATCTCGTTTAAGAACTTTCTTATGTAATCGCACACTGGATGGTAGGCGTGGGGCAGATGTGACATCGGGATGAATAAGGGAGGTGTGGGTCTGACAAGACTCTT
1 GTGCCGACTATTCTTCAGTGTTTCACAAGCCCGAGCTCCTGCTGTCACCATGGCTACCACTGATTGCAGGAAGGGCGACTGTGTCCTTGCGCCCTGCTTGTAGCTCTCTGTGGTTCCACCCACTGCCCGCCAGCAGCTTGCTGCACTGCTGCCAAGGACTGGTTGGC
0.6996037266023267 GACCCATGTGGTCTCAGACCAAAAAAAACAAAGCAAGGGCCAGGGCCACCCTCCAGAGCCTCTGACCAAGCTTCCGGACTCCCGACTCCCTCACAGCCAGGGTGGACAGAGAATAAAGGTCACCTGCCATTTCTTTGAAGTTTACACAGGCTGGGGACTCATCTGTG
0.9719590644931987 AATCCGTTCTGCGAGACATTGATAGACTCGCTGCTCCGGGAAGCTCGCACAGCAGTAATGAAATTAGGTTAAAACTGCTGGCGGAGCGCAGGTAATTGCCCTTGTCTGTCACGAGGAATAACATCTCCCAAATCCAACACAATGATTGTTCAACTTGCAGGGATTTC
1 TCTGCTTCGGACCGTCACGACACATGTCCTTTCATCCCTTCTGGCTTACCCTCCTTCTCCCGCTGCGGTTGAGCCTCCACCCAGGCCATCGCGATGACGTTGACTCGATTTGCATAAGAGTCCCCAGCATCCCAAGCGACTGCCGCGTAGTTTGCAAAACACGGATG
1 TCAAAGCTGGAGGTGGAGGGAAGGGGGAGAGGAGGGCTGGGGCTGGGGCTCAGCCACTAGAGGGCGCTGCCTGACACTGCAGGAACTGCATCTGGAGCTGCAGCCATTCCAGCACAGAAGGGAGTAAGAAGATCGGAAGTTCAACGTCACCCCTACTATATAGCCAG
1 TGGAGGCCGCGGAGTCACGTGGTTAGCTGATGCTGGTGTGGCTGCCTGCGGGGAAACCAAGCCCGGGCTTTGCCTGGTGATACCATCTGGTTTGTCTTTTCTGCACGTGGGAGCCCTGCTGTCCCTGAGGATGAATAATGGGGACAGGGAGTCTCAGGTCACCTAGC
0.7595230345104547 TCCAGCTCATCTCAGGGCTGACGCCTTGCTCCTCTCTGAAGCTGGGAATTAAGAATGAGCCACAGGCTCCCGAACTGCGGTGTCAGCTCGCAGCTCTCACCACACCTCATGCCTCACAGGCTTAGTGCAAGTTCCGAGGTGTACAGAGGACCCCAGATCTCTCCTTA
0.1870000269802377 TCCACAGCGGCGCTCCTTTGGGGATATCAAGGGCAAGCCAGAGAAGGGTTACCTGGAGAAAAGGGTTGCTAGGCAACCAAACACCCACCACCCCGGAGCACCACCAACCCAAAACTCCGTTCCAGGCCTGCAACCAGATTAGCATATTAATGAGGCTGTAATTTCCC
0.5202245317637298 TGCACTGTACAAATCTGTGACCATCTGTCAGGCACTCTGAAGGACCAGAAAAAAAAGCCATCAGCTTTCCTAAAATAGCAGCAGGATTTCCTGGAGTGGGCAGGGCCGGCGCCGGCTAGAGCTGAAAAATGGGATCAGTGGGCGGTCCTGCACTAGGGACGGGAGAT
0.5516321756420728 TCTGAGTCTTTCCTGGTGATATTCAATCGCAAAGACCCAGGGACAGAAATGGCCCAAAAAACAAAAAAATGGTGGAGATGCCGGGGATCGAACCCGGGGCCTCATACATGCAAAGCATGCGCTCTACCACTGAGCTACATCCCCCGACCGCTCCGTAGAGCTTCTGT
1 GGTAGGGTCTGGAGAAAGAAGGAGACGCAGAGAGGGCCGCAGAGTGAGCCGGGTCTGGGTCTCCGTCTTGTTCCTGTTGGGGACCAAGGACACCGAAGGTCGGCAGCTGGAGAACAGGGTCTTTCTTGCGATCTGCTACCTAGGCTGAGATCGTGTACACTACGAAG
1 ACTTTGAGGCGGCAGGGAGAACTCTCTCAGTCTCAGAAGGGTTTCCATTAGAAGGAGTAGATTGCTCGAGCAGTTCTCCCGGCTCAGGGTGAGAGTCTAATTCTAGACCTGGGTAATTAGATCAACAGTTAGATCTAACTGCAGACAAACAATAGGATGGCGTTCAG
1 TTTATGAAATATTTTGGCTGAAAATAAGGGCTGGGGCTGGTTCAGGTATGTAAGTTAGAGACAGCCTCAAAGTCCTTTGTGTTGACTGAGTCTCTTTTATAACCCTAGAGGCTCTCTGGGTCCTCTCCATCACCAACTCCATCACCTTTACTCCAGAAAGGAGGACT
1 GAGAGCCTGGCCTTAGCCTATCTTAATCTCTAGTTTTGGTCCTCTTCAGTCACTGTTCTCCTGTGCCCAATATTGAAATGTCACATATTGGGGGAGGGAGTCAGTGGTCCCCAGTGCTGGAATTGCAAGGAAGCCAGCTAGAGAGATGCATGCGGTGCTCTGAATCC
1 CGTCTCTGGGTGTCTCCTTAGCCCTGATTCCTTTTTTACCTCTCTCCACCCCCTGCCCCCGCCTCTGTTGCCTCTCCTCCTTTGGAATCTTTGAAGAACAGAGCCAGGCATGTAATTGACTCGGCCCGTCTCCATGGTTGCAGCTGTGGCGTTACTGAGAGATCAAT
1 GTTGCCTCTTGGCCCCCAATGGCAGGGGTACAGGCTGCTCTGACATGCCTGGCTTTTTAGCCGGATGCAGGCGATTTGAACATCAGTCAGGTCTCCTGACTGAGCAGCAAGTGTTCTTATCTACTGGGACATTTGTCCAGCCCATTTTGTCCTTATTTTAGAGTGTG
0.5029395361508888 CGGGACAATACAGGGAAATGTTTGCGCCCAAACAGCTCTGCAGCTCCAGGAACTGTGACCCTGCCCAGGAAAGCCACCTCCGGGAGCCCCACCCTGCGGCTGCCTCCGTCTGCTTGCTGGATGGGACAGCCCAGCAGAGGGTCACCAGAGCACAAGGCAAGCCACAG
0.7878585645695552 CCCGCCCCCCTCCCCAGCAATTCCAGACGCCCTGAATCAATGATAAGGTTGTTGGCAGTGAGCAGACACTAGAGGGAGACAGAGTGGTGGAAAGGTGGCTTAGGGGATACCTTCCGCGGGAGGCTCCCAGCCCTCTGAGCTTCCTTGGCTATGCAAGATAAGAAAAA
0.5751641083063825 TAGAAGGTGGGACACCATTCTGCCCGTAACACATATAAAGCTCAGGGTTTTGTTCCGTATTGAACAAAAACCTTCTAAATATATAGTAGCAGGGGGTGGGGAGCCTCATCTAATGAGACACGTCTTCGCAATTTTCCATTGCCTTCATCCCATCTTCAGCTGGTTAA
1 CACAGCACCGTACAACAGCGAACTTGCCCTTCTGCTGGGCAAAGCCCTCTTCCCAGGGCTGCCCTAGACAGATGTGGAACCATCTACTCCAAAGCCGTTCTTACTACACTTACCCACCAGAGGGCGCTAGGCACCTTTCCAAAGCTGACCTTGCCCTCACTAAAGAA
1 TCAGCGCTGAAGGTACACAAAGAATAGGTACTTAGCTTAAGTACCCTCTCCCCCCTCTCTCTCCCTCTCTCTCTGTGTTGCTAGGAACTTTTGTATGCTAGGCAATGACTCTACTGCTTAGTCACATCCACGCCTCCAGCCCCTCACTGAGGGATTCTATAGTCAAA
0.1832869934231798 ACGCACGCGCGCGCGCACACACACACACACACACACACCCGGAGGGTGGGGAGTGGGGAGTGGCGATGGAGTAGTGACCTGCCATCTTTGGCCACTAGGGGGAGGCAGAGCCCGGCGACTGTCAGGCAAAGGCTTTCATGAGCCCTTGCTGTATCAGGTCTCCTTAA
1 TTTGGCTGTGCTTTCGTTAAGTATTTCCAGTTATTATAGCGACTGCGCTTTGAGCCACTGGTACAGTTTATACAATAAGAGTTAGAGAGTGCTCCAAATAAAACAAACATCTTGCAGGGTTTGAAAGACAATTCTAGGGAGGTCCCCAAAGTGACAATGACCTTATG
0.5633729720001726 ACTCAAAAAAAATGATAATTTTTACCATCTCACTATGTAGAAGTTGGTCTCACACTTTCAATCTTCCTGCCTTAGCTTCCCAAGTGCTGGTATTATAAGTGTGTGCTACCACAGCCTGATACATTTATAACAAGACAAATCAAGACAAGCCTTAAAGTGTGAACATG
1 CTGAACCACACTGGCGGTAGATCTAGTTTCCTTTGCTTTTCTTCTTTCACAGCAGGAAACCGGGACCGGACCTGGCCAGGGAGGACTGGGACAAAGCCTTGTAAAATGAGCCAATTCCTTACTGTTTTTCCTTTAATTGTACATTTATTTGGGGGTGGGAAGAGTGC
1 CCAATGACCTACCTCTAAGTACATGGAATAAACTAGCATGTAGCAAATAAACTCTGCACATCAGCCATGGTTACTGCATGAGGTGAGGCAGTGACATTCCTTAACAAAGGAGGTGTGTCGCTGATGGAATTGTGACAGGATGAGCAGTATGTGGCCAGCAGTAAGAA
1 TCAAGTTGTTCTTTTATTTTTAAACTGTATCCCACGTTCCATACATAGGCTTTAATTTGCTTTCCAGAGCACTTCAGTTAAATCCTCAACACAGATAGCATTCTCACCTAGCCTGAGTCTATGAATTTCCATTCAATGCTGATTTCACCCTTTCTTTGGAACATTGG
0.03443593032231416 TGTCAGAAGGGCGGTTCTCCGAAGGTTTTCCTCCCTGGCACGACTTCTTACTGCACTCTCCAGTGGCCCTTCCTCCTGAACCTCTCCCCAGCCCCCCTGCTGGCTCTCCTTCCTCTTAAACCGGAAGGAGCCCAACCTCAGTGCTTCAGTTAACTCACCTCCCTCAA
0.8433232162730058 GGTTTTTAAAGCCTTTTAAACCCTATTTTTACACCGAGCACATTTCTCTTCTCTTTCAAAGGAACAAAGGGATCACACAGCCCACATGCCCTTCAAACTGGCAGCTGGGGAGGAAAGGCAGGGTGCAGATCTGCAGCCACAGAGAGCTGGTTCCCCCACGTCCGCCT
1 GTTAGACTACAGCCATGGACGGTCCTTCTGCGCTGCACAACAACTTGATCAGTTAACCGTTCCGGCCTCTAGGCATCCAGCAGGGACTCTAAGGGCTAAGGGCGCATGCTCACTCCACATGTGTTCCTGGGAGCGTTTGTTTTAGGGTAAATGCCCGGATGTCGAGT
0.3381809461188982 TCAGCCTGCTCTGAGATAGGGTAGCCTGCAGGTCCAATTCCAGTAAATTACTCTGAAACAAACCAACCCCCAGCATCTTCCACAGAAAACAAAACGCACGACTTCCTGAGAACACGCTATTGTCTGAAGGTGGAAGTCTGCGATTTTGAAGGAAAAAACAAAGTTTT
1 GTGGAGCGACTGGCAGAGGTCACCCAGCAAATGGTGACCCTGGATAGCTCTGGCTCAGAACACCAGCCTTCATCAGACGCATTGTGCTGTCTTATCAGGACATAGATCCACAAAAAACCTCCGGGCTTTGTTTTAACAATATCCTAACTGTCCAGGTGGAGGCTCAA
1 AAGGGCCTTTGACCTTAGTCCCGAGTGGGGAACATTTGTTTGTCCTGTGGAAATTCCCCAAGTGGATGGGCTAACAACTAATTCCAGATGGACCTATGTTCCTAACTCAGGCCATGTTCCCAAAGCTTCCGTTCCCGTGATCTGTCCCCTGCCCCTTCTCCATCAGA
1 CTTATCATCTTGTGAGGCACACAGTCTCTGCTTGTGCATCCAGAGTAGACAGAACATCAATGTTCTCAGATTCTGTCCAGGCCAACAAATCTCACACTTCCTTCCCAGGAGGGGAAGAGTGATCTCAAGGGTGGAAGCCATTGTTACTCCTTCCTGTGGGCTGGGTT
1 AACGTGGTCCCTATCATCCTATCCCCAACTGTCTCTACATCTTGTCCCGCTAAAGTGCCCTGGAGGATTTCACTGTCCTGTAGGGGGCGAGCTACCCACACAGTCTCATTAGCCCTTCCCTGAGGTTCTGGTGGGGAATTCAGGGGCTTCTGAGGTTAATGGTGGAA
1 GCTTTTCTGAGCTGTCCACACTCCCTGTGCTGGCTCTTGCTCGCCAGCTCAGTAGCAGGCTTCAGACTTAGACAGCAAAGCCTTCCGGGCTTTGTTAAGGGCTCTGTGGGGGACGAGCACAAGCCACGGACAGCCCTGCCCAGGCTTCCATTTCCCCTTGCTTGGGG
1 CCCCACCCCCACCCCCGAAATGCAGACTGAGTGTTGGCTTGTGTGTCTGTGCAGGAGGAAGATAAAAGAGCAAGAACGTTCAAGGCCAGCCCTAAGCTGGCCTGAGGGGTTCCATGAGAGCTATTCTAAGAATACTGTTTGTTTGTATATGGAATTTCAAAGGGAAA
1 CATCCAGACATCCCGCCTGACATTCCTTCCACCAGCCTAGAGGAAGACAGACTTCCAGTGCCCCATACCACCCCCATGAACATCCAGTTTCCACTCCAGTCTAAACAATCACAGCCTTATCCTTTCTTAAAGATGAAACATTTTCCTATTGAAAACATTGGCCATGC
1 TGGTTCACGAGAAAGTTGGGCTGCTGCTAAGGGCGTGGTGTCTCCAGAGCACTCTAAGTATCCCTTGGATGGCATCTGTGTGAAGCAGGTCAGCGCTTTCATCTTTAAGAGTGGGTAAACAGGACACAGAGAAATTAAATGATAATGTTGCCTTGCGTCATGAGCTC
1 TTTGTCTTGCCTTTCTTGTGTGTGGGATTGCTTATTTGCTTTGAGATAGGATCTCACTTTGTAGCCTAAGTTGACCTGGAATTCACAATACTCTTGGCCTCAAATACCTTCCTGACTACCTAGTTAAGGACTTTTGGAAGGTGGATGTAAATATGGGTCCCTGCTTT
0.6504537289404702 CCTTGTATGGGGAGCCTGACCACACCCACCCTCTTTCTGGGGAAGATCAAGTAGTCCTTGGCAGACCCTCAAGTACAACTTCCTCTTCCCCTCAACCCTGTAAGAACTTGCACAGCAAGTACCTAGGAACCCTGGAATGCCTTGCCATACAAATGACGCAATCCTAG
1 GTGTGAACAGGGAGCAGGGAGCTCCGTGAGCAGTGTCAGCAGTGGGTAAGCAAACCGGATTGTGCAAGGACTGAGAGGCCGCCCTGCAGAGAACACAGAGAAATACCGCACAGGGTGTAAACACCAGAGGCAAGGAAGTATTATTTCCCTGTCCTCAGAGGAAAACC
0.5438177591838894 TTTTGGCTGAAAAGGAAGTGCTATGAATAGCAATGGTGTACAAGGACCCAGTGGCCCGGAGGAGTGTGCAGTAAGGGAGCACCGAGTCCCTTCCTCTCCCCTCCCTCTTCCTCCCCACCCTCCACTTGTAAGTAACACAACCCCAAACATCTCAGGCGGTTCAGCAT
0.1987938576612951 TAAGCAATCTATTCTACTGTCCTTCCCCAGAAGTGACTCCACCCTGGTCCTACTGTGGGGGGGGGGGGCCTTAGGGAGCCTCTGAATAGGGGCTCACAAAAGCCATCCAGGCAAGCTGTGCTCCCAGATCAAAGGTTCTTTGTTGTTGTTGGGTTTTGTTTTTGTTT
1 TCCTCCTCTGCCTGCTGCATCACCCAGGTCACTGAATTTTCCCAACAGACTCTGGAGAAACACACGATCTCTTGAGACTACGATAAAATCATTGTTTAAAATTCCAAGGTTGCAGCAACTGCTTGCCCAAGCACAGCTGGAGCCACAACCTTGTTATTTTCCCCTGG
1 TTGCATAAACTTTGGAGTTTCATTAGGTCCCATTTGTCAATTCTCGATCTTACAGCACAAGCCATTGCTGTTCTGTTCAGGAATTTTTCCCCTGTGCCCACACTAACTTTTTAAGACTGTCATTTTACAGCAAATTGTTGAATATGAATTTTCTGGCAGCAATAATC
1 TCTTTGATTGGCTTCGGGAAACTTGTAGCTCAGTTATTTATTAAGGTAAGTGACATGCTCTAGGCCTGGGCACATTAATTCCTATTTTTCTTTGCAGACATTCTAGAGAAGAGATATTTTTAAAATATCAGCTGTGCTTCATTTTCTTAAAATCAGGTGTTACATAA
1 AGTGAGCATGGTCTGAGGAGCCAGGGAGAAGACCGGAAGCTCACTTCGAGGTAGAGGTATCATTTTCCCCTCAGTGAAATGGATGAACTTCTCCAAGGGTGGCCCTGATGACTAACACGGGGAGAGGATGAAAGGAGAAGGCAGGAGGGAATTGTTTTCTCAGCGAT
0.04661418236373168 GGGATCCTCCAGGAAGCTGAGGGTTCCAGGCAGTCCCCAGAGGGGGATCCCCGGCTTCCCGTTCCTCACCTCCACACCCTGAAAAGGCGCCACAAGGGAAGGAAGTGGAAGCCGGAACTGAGGCTCCTTTGTCTGAGACTAGAATGTTTACTTGGCAGGGTCAGCTT
0.4857599004265817 GTCTGTGAACTTAGGACCGCAGAGCCTATTCTTGTGGGTTCCTTTGAAGCACAGAACTGCAGTGTATCTTCCTGTGTCAGAACTACAACAGCATAAAGCCTGTTCCGTCTACCACGCCACGGGGGTGTTACAGACTAAATACCCGGAAAGGGGAAAACACAGGTCCA
1 CACAGCACAGCACAGCACAGCACAGCACTTACTACCCTGCCTATACCTAGACCTCTTGCTTTGGCTGGTCTGCTGGTGACCTGTGAAGCTCTGGACAGGGCAGGGCAGGGCAGGCTTCAGAACTCAGCATGGCTCCCTGGCAGAGGCCAGCGAGTTGCTTGCCAACA
1 CCCTGTTAGCTCAGTACACGGCGGCGCTGGCGAGGCTGGAAGGGAGCTGTACTGAAGCGAATTGTTTGGTAATTCCTGGACTTCCCTTCTGAAGTCAGCTGTGCCTCTGGCCACTGGCCTCTTTTTGCCCCACCCCTCATGCAAAAGGAGCCAGGATTTTGAATTAT
1 TTATCTGTTACCGGCTTTGCTTCTCCAGCTCAGCCACTTGGCTGGAACGCCAGGAGGAGGGAGTCACCCAGACTCCTCCCATCTCTACTTCATCCTCCCTAGCCAGCTCCTCCCCCAGGAGTGGCTATGCTCCTAGGTCACTGACCCCTACTAGCTGGAGAGGGGAG
1 AGTGAGTGTGCATATGAAGAACCACAGTGAGACCTGGTGACAATAGTGCTCACAAAGGTACAGGCACTGTCCTGGGCAGCCCCTCCCAGCCTGTACAAAGCTGGTATGCAAAGCATTTCCCTTGCCTCCACCTCATCTGAGCCCCACTCCTGTCGCCCAGCAGGTGG
1 ACCACCCGAGCTGGCGAGGCGCTTCTGCGCTCTCCACAGTGGCAGAGAAAGGTGAAGTAGACAGTTCTGTGGGAGGCACTGCTGAGCAATTTAAATTCAGCACTTGCCTTGCCATTTGAGCCTAATCTTATTATAGCGTATCTCTTCGTGTTTCTTTTGTTTGTGAA
0.6152047764660169 ATCTTGAGAAAGGTCTCTAAGACAGAGGTAAGAAGTTATTAATAGCCTCATTATTATTCTTACCCAGAATGCCCAGGGAAAAGCAGCATGTGGCAGCCCCAGCCCCCGCACCCCACCCTTCCATACTATTTCTGTACCTGGAAAGCAGGTTCTTGGACTGTTCTTCC
1 CTGGCATGGTCCCAGTGCTGGTCAGGAACGGATGAGAGTGTTCACACAGGCCATAGCCTGTAAACTCAGCTCTGGTGGCAGCTCTAGTGTCCTCAGGAGACCAAGCCTGCCCTGCCAAGTTCGGGTTCTTGGGATCTGTGTTCGTTTTAAACAAAAGAAAACAATGG
0.5772934321367078 TTGATTAGAATAATTAGAGATGGAGCCAGGAATGATGTCATGCCCCTGCAGGAAGATGGAGGAGGACTTTGAGTGTGGCCTTGGCCTCCCTCCTCCTTGTTTGTTGACCCAGTGGGAGGGACTGCATTCCTGCGTGACATGACAGTTCTGACTTCAAGACAGGATCT
0.1495915822101478 GGAGGGAGTGCACCCAGTTCCACACCCGTCAGTAATTTCGGAAACTCCTTGGATTAGACTGCAAATGTGCAGACCGAGTGGGAGGTGGGGACCCACGCTCCCCGGAGTAGTGTGAACAGAAGCAGCTTGTGAGGAATGCAGAGTCCTGCTGCGATTTAATAAGATCC
1 CTGATTGGTCTGGAATTAGCCTTCTTATCCTGTGAAACATCTGTACTGTATTGTTCCAAAGGATTAGCTGCCCTCTGGGGATTCTGTGAAGTCAGGACAATGGAGGTCATTAAGGGTGCAAACATTTATTTTCCGGCCTTTTATTCAGCAGGGAAAGCCAGGCAGAG
0.5301114973315564 CCAACCACACTAAATCCAGATGACTGAACCCTGCCTGTGCTTTGTGTCTGCTCTTTCCCACTCAACCCCCTGTCAGGGCTTCCCCTGGCCTTTCCTCCTTTGAAGTCAGTGGGAGCTTGGAGCTTAGAGGAGTCACTCAGAGTACAGAGGGACACAGAGGACAAAGC
1 TGGGAAAGGAATCTGAAAGCTTGGCACATCACAAGGAGACAGAGAGAGAACTGAGTATGCCAAGTGCGTGAATTCCTGCCTTGTGAGCAAGCCGGAGCCATGGTGTGCTTGTTCTATGTGTCATAACTCTTTGAGTATATTAATGAGTTTTTAGTTTTCCATTTTGA
1 GCCCCAGTCTGTTGGAGGAGACAAGCTCTCGGTACTCAATTTATAATGCTTTGATTCGCGTGTACACTAGGGGGCGCAAGCAGGCTTGTTTTCCAGAATGGCCCTAACAAATCCTCAGCGATTCTAAGGAATGGGGTAGAGGAGGGATGTCAGGAGCCACACTGTCT
1 CATGGCAGGAGAGCACCCTGTTCAGAACACTGTTTAGAACACGGGAAACGGCACAGGGAGGTGAGGCTGAGCATGGAAAGCTTGGAGATTCTCTGGGCCGCTCCCTAACCACAAAAGCCGTTCACAGAAGCACTGGAAGGAAGAGCGGGCGGGGGTGGTGGTGGGGG
1 CAAGCTTCTAAGAGGGGCACCCGCCTGCTCTGTGAGCCTCCTAGCAGATTAGGTTCAGAAGCACACATGTGGCACGGTTTGATTCACATGATGCTCTTGAGGTAACTCAGACAAATGATGCTGCGAGTATAGCTCAGCGATGGTGCACGCTTGGGTGCACAAAGCCT
1 ATGTTGCTGCAGAGAAATGAACTCAGGTCCTAGCAAGAGCAGTGAGCACTATTAGGCAGAGAGCCATCCCTCCAGCCCTGTACTAGCTGAAGAAACAAACCCAGAAAAAGACAATGGCAGGAAGTCATGACTGTGATGCTAAGCTGCTTCCTCAGCAAATGAAAGAA
1 AGAATAGCTTAGTCATGACTTTGTCTGGGAGGATGAAGGGCTCCTGATTTAAAAGTGTAGGTTAAAATGACAGAAACTTAATTTGCAGTGAGTTGTGCAGTAGTGCTCCCTGCACACAGCGCTGCTTAGCAGATCTCTGAGACTCACATTCCACAGAGCTTTGATTA
0.6899089971442403 CACCAAGAATTTTATTTTTGAAACATGAATATGAAATCCCCCAGAAACATTTAGAGGGAGTTGTCAGACCTAAGTAAGGATCTAAAAATATAAAACCTTAAAATTTAGTTAAGTGTGCTATGGTGAGGATGGATAGATTCTACATGATTTAAAAAAAAATCTATGTG
1 TCTCAAGCTTTGGGTAACAGGGTATAGAGTACACTGGATGATTGGACTGGCTGAGTCATCAATCATTTCACTTGTTGGAACCAGAGCGGGCATGTGACTGGTTCACAGTCACACAGTAGGATGCTAAGTCTGGAGCCCAGGACCTAATGCAGAGCTCCCACCCACAC
1 GTAATGAGTCTACAGGAAGTGGGAAGATAAGCTGCACAGAGCCCAGCTGTCTCCCACTCATGCCATGTGGGGCCACGACACCAGCAAGTTCCCAGTGAAGTCTGAGATGACAAAGCGGTTCTCTTAGCCGCTCTCTTCTCAGTACTTCAGCAAGGAGTGCCCTAGCT
1 AGGGTCTGAGAACTCTGAACGCATATGGAACACTGCTTGGTGCTTGGCCCATAACAAGTAAAAGACCTAATTATAGCAAGGGAAGTAGATGGCTTCAGACACTTCCCAACCAGGAAGGGTGGAACCCCATCCTACTTCCAGGACTGGACTTGGGCCATGCACGAGCT
1 CAGCAGCAGGCTGCATCCTTACCCCACTTGCACTTCTAGATGTGTAATCTGCAATCAGTTTGCAGAGATCAGCCCTGTACTGTAGACATCTACAGACAGATCTAAAGGTTACATAACTGTATTATTGTAATCAGGTCATGGATATTTCTCCCCAAAATAGACTATTT
0.9594139451166351 CCTGGGCCAGGAGCACTGGGGCCAGGCCCTGGGATCTGCTGCCTGCAAACAGGAAGCTCACAGGGCGCCCTCTCCCTCCTGATATTGTGTTTAGCAAGGCAGGATTCAGGCTGTTTCCACACAGGAAGCCCTGGAGGCTGGGAGGAGCTGGGAAGGAATTCCCAGAG
1 TTTAACCCACAGCCCGAGGCCAGCAGCCTGGAAAACAGATCTCTTTCCACTCCAACCAGCCAGGAAGCCTCCTGCTGTATGCTGGGCTTTCAGAAAATTAGGTCAGCAGCAACAGGAAGCCACACAATAGACTCTGTAACTATCGGTACAGACAGCCGGACTCGATT
0.7770816326911261 AACCCAGATTGGAGCTGGAGTGAACCTTCCTCTCGCTCTCTGACCTCAGACCCCAGAGTGTGCTGGGACAGCTGAGGGAGGAGGAAGGAGTTTACAGCTTGAAAGGGGAGCAGCCCAATTTCCTCACAGGAGACCCAAAGCATGTCTGGCCTGGAGCCTGATGCTTT
0.9928051567984429 TCAGGAGCCACAAGGGACAATGGTTCTGGTGTCTCCCTGGGGAGGGGACTTCAGTCTACAGAGGAAGGAAACCCTTCCCCTCTACACTTTGAACTTGAGCCCAGGCATTCCCACAGAGAGAGGACGGAGGATAGGCTTGTAGGGCTGAGGGGCAGGGTGCCAGCGAG
1 GCCTCCAGGCTGCTGCCCTAGCCACCTCCCTGAACTGCAGGGCCTTCTGTTAGCATCCAGGCCTCTGCAGGGGCAGCATCCTATCCTCTGAGAGAGTAAACAGCCCCAGGGAAGCCTCCTTATCAGCAGGGTGTGGAAAGCACCTTTGTTTTCTTGCCTCCTTGAAT
1 TCTGAGAAGCAAGTTTTTTTTCCTTTCTAAGCAATCAGATGAATAAGGAGAACTCTCTGTGCTTAGCAAGTCTGCGTTGGTGTGGGCCCACACTCGGCAGAACATGGTAGAGGGGGTAGGCAGAGTGATCAAAAACTGAGTCCCAGATGGCGCAGGCATGGAGATGG
0.363085027725063 AAAGGAGACTTTGATCTTAGAGCCTAACTCAAGTGCCGTCTCGTCAATTAAATTCAGTCTCGCTTGCTCATTTCCACCCTGGGAAGGCACACTTAGTCTCTCCTGCGCTACAAAAAGTGCATTAGCATTTCATTTATTACTATAGCTTATATTTAGAGACTTGGGAC
1 GGTAACTCGGCTGGCTTCAGGCTCCTAGACGTCCTCTGGCTGGAGGGTGAGGGGGACTGCTTGGAAGGGCCAGGTGCATCGGCCTCTTTAGCCTCACCGCTTGGTCTCCGGAGCTGCAAGGCGGCTGGCGCTGAGGTAATGGCGTGCAACTACCTCACGTCCCACTA
0.3295463490935692 CTCCCTTTCTCTCTTCCCCTCACCTCCTCTCTCTGCCTTGTGCTTGTGATGAGAGCTCTAAGCTACTTCCTGCCTGCCTGCCCGCTGACATGCTCCCCATCATGATGGTCATGGACTCTGGTTCCATGACTCCTCCAATTAAATGCTTTATTTTATAAGTTGCCTTG
0.4751209575386575 AGGAGAGATGAGCTAGCACTATCCGGTTTGCGAAGCTGTGGTGAGGATATGCTAGGCAAATCATGAGCTGCCTTTTAATTTCCTGCTGTTACCACGTGGGCTGCTGGGTGGGGATTCTGGATCAGTGAATCAAGGAGTTGCCTTGTCAGGGATTCTGCCCTGGAACT
1 CAAAAATTGACATCACAGAACCTGACAGTTAGGAGGGAACTTTGGCATTTATTCTTTGCCATTACTAGTTCCCAAATCTATGCTGTGGCAGTGAGCACATAGACCTTGGAGTCTGGATGGCTTGATTTCAAATTCTGGCTCTGCCTCTCCGGAGCTATGGTACTGTG
0.1419133578175348 ACACAGGACAGAGCATCCAGGCTTAGAGCGCTCCCTGCGTTTGCTGAGTGGACTCTCTTCCCAGATGACATGCTCTTGATTTCCTTCCTCCGACTTCCCCGAGAAGGCTGCTGCCTGGAAGAACAAAGCCCAGGAAGCAACGCTTGCTATTTCTGCTTTGATAACCA
1 AGCTGATGTTTTCTGGACACACAGTTCTGACTCAGGCCACTCACTTGAATACCTAAGAGGATCAAAGAATAACTCCAGGAACTCTAAGGGAAGTGGCCTCCGATGATGACATCTGCTTACTTGGTTCAAGCAGAACAGGAATGAGCATGGAAAACAAAGGGCACAGC
1 GGGAAGAGAGACTGGGTCTGCTTCTGAAAGCTGCTGCACACACTCCAGACGAGTGGGGGATGTGCACAGTCCTGTTGTTCCTGGACTCCGAGGCCAAGTGGCTCTGTCTTCACCTAGAAGGAAGCAAATACCCCGGACGGGAAATGTGTGCCCAGAAGATTATAGCT
0.008769198040419399 GCAGGAAGGGAGGTCACCTCACCCGCTCTGGGAACCTGCAGCCTCCACCTGCTGAGGGGCTGGCTCTCTGGAGAAGGGAACACATACCACAGGGGACACCCCTTCACTCTCCTGTGCATAAACACCCTCTCCGCTGGAGAGCTGCCTAACTTTTCTATGGGGTTAGC
1 GGCTTGTGGCAATGGATGGTGAGAAGGACAGCTCACCCACGCCACAAAAAGGGGCTGGGACACAGCTTAGTCACAGAGCATTTGCCTTGCATGCATGGGACTCCAGCTTCCATTTCCAACACCTTGATAACAATATAAACTTGATATGACAGATATTTTAGCATATT
1 CAGTATAAAAACAAATGTTTTTTTTATACTGGCCAAAGAACAAAGTTGGAACCTTCTCCTAAGCACTGCCCGACGTCTGTGATAAACATGCCAGGGAACAAGTTCAGCCATGCTGTAGCGAACATGAATGGAAGCTCTATGGCTTTACATGATATATATTCTGTACA
1 CAGGCCAAGCCTGGGTGCCAAGTCCTGAAGCTGGACAAAGGCAGGGAGAACAGATAGGATCTGAAGCTCAGCTCCTGGGAACTGTGCGGGTGACCGCCCTGTGCTTATACTGGCTTCCTGCTCCTGGGATCTCAGTCTGGCAAGTAGGGTGAGGCCACAGTCTGGGG
0.6915478438416043 ACATTTCCATAGATAGAATCCCAACCCCAGGAGACCTTTTTCCAATCTAGTCACTCCAGCGTCATCAGGACTGTGAACTCTCCTTCCCCAGGAGAGGTGCCAGAATGACAATGCTAATGATCAAGGTCACATAGCTGTAACCAGATTGAGTGTGAAATGTCTGGCGT
1 AGCTCGTCAGTTTTGGCAGCGAGCACTGTTAGCTGCTCAGCCATCTGGCTGGCTGGTCCTCAGTCAATCTCTTCCACAAGAAAAATACAGCACTTGTACTGTCTCTGAAGTCAGACACAGCACTTCAAAGACCAGTAGTGTCCCTGAAAAGTCAATGTCCTGGGGAG
1 AGCTTGGCAGAGGTTCTTTCAGGGCAAAGCTGTTCTCTTGGAGCCCGGCAGCAGAATCATCCCTTCCGGGCTGGGAAATTGCTAAGGAGTTTCTGCCCACATGGGCAGGGAGGGGTAGAACGTGGGCTCGGGATGAATCGCAGTTGTTTTACTAAGGGAGTACATTG
1 TCCTATTGCACCACAGGAGAATGTTCCCGGCCCCTTGACGTTTACAGTGTGTAACTGATTTTATCGGGAGGAATGTTGTTTGGAGTGGAGTGGCCTTCTCCAATGGGTAGACAAGAAACGGAAGGTCATTTGAGGATCCACCCCAAACTATGTAAGTTGGTGCTCAG
1 CTGTAACGCCATTCCCGCCTCCATGTTGTGCTGGCCAGTCATCCCCACTAGGGGGCAGCACCTCCAAAGCAATATGGGCTTCAGGAACCAGCCTCAGCCCAAGCAAGGATAGGAAGGGGCAGAAAGGCACACAGATGAAAATTAGTCACGCATCTATTGTCCATATA
1 AGTGGTCAAAGCTGGGGTTACGTAATCCTATTTCTCTTGGGATCCAGATGGTAACGTTCTTCAGGGCAGCCAGTAGGGGGAGCTCAGGACGTTTATCAGAACTCCAGCGATCCGATGGTCAGGAGCCAAGTCAAGGCACAAATAAAACAATGAACCTTTGTGGTTTC
1 AAAGCTTCGGACAAAGCTGGGTGTGGCGGTTCACACTTCTAGTCCCCAGTCCTCTAGAGGCTGAGGCAGAATGACTGGCACAAGTTCAAAGACAGCCTGTGTTACTAACCGACAGACAACAGTGCACATCAGATAGGCCCTAGACTTAGCAAGCCACTTGGCGGGGG
0.9478226591504626 TCCAGGGTCCCCTCCACACTGGAGCAAACGATATTCTTAGGCGGGTGGGGCTTTGTCCCCGCCCCGTTCATTGTATTCTACGGTTTCCTGTACACTGCTTGTAACCCTTTACCAATCTGCCAGGCGCCTTTTAACACAAAAGAAAGGCGAGGGGGGCAAGGACCGCT
1 GCCAGTATTGACTCTGCCCAAACCAACTCTACCACCTGGAGACCGGAATAGACACAACACAGATAACTAGCAGGGCCACTTCCCCTGAACAGAATACCTCAGGAGGCTTTGATCCTGCCTATTGAAGGTACTCCTTTCATGTGTGTATTCTACCACAGCATTGGCAG
1 ATTTCCCAGGTTCTTTTAGAGACCACTTAAGAAGCCGGACATCAGCATGCAAAAACAAACAGAGGCAAACAAAACCGGCTCCTGGGGTGCTTTTCCTGTGACAGGGTGGTGTGGAAAAACCACTAGATGAGGGCTTTGCCGAGCAACTCAGGAAAGAATATATTTAG
1 CTTGTGTCAACAAACAACTTCCAGTCTTGCAAAAACTCAAAACAAACAGAGGCTTCCCATCCCCGCCCTCCCCTGAAGCTATGAAGGTGCCCAAGGCTTCCTACTCATACACTGAGGAAACTCCTCTGCTGCAGCCATTGTAGTCTCCTTGATCCTTAACTCCTGAT
1 GTTTCAGGGCTGTATGAAATGGAAATCAAAACAGGAAGTGAGTCATGGATTGTGCAAACCAGGAATTCGGGACGCAGATTGAGTAGGTCATTCAGGGTCAGAAGCAGGGACAATCATATCAGGAGAGCCAATGGAAATGATTTAGGCGTTGAAAGTTTAACAAAACA
1 TTCTTTTGCCCCAGGGGCTTTGGGTTGCTAAACGGAAAGCAAATGTTGCCATACCAAAGCCTTTCTCTTAGTTTGTTTTGAGAGATTAGGATCTTGGTGGTGACTGTTTCTTGACAACCCAGACAGTAGAGGACAAGCACCTTTTGCAGATGCTGCAGTGGTAGCAG
1 ATGATTAAAATAGCAATGGTGTGTTTATACTTCCCGAGGGTAGACGGGAAACGCATGAAACAAAACCTCTAAGCAGCTAAGTTTCGGATCTGCTGACAGCTGTGGTCCTTTTTCCTGTCCACGTGCGCAAGTGCTCATCCCAGCCAGCAAGTCCTCAGACCTTCACA
1 AATTTACAAATTCCTTTTTTATTATCCCCTGAGCATCTGGGTCCATGCTTTCAAAGGAGACTGCCCACACCCTTCCAAGGTCCTTGTGTTAGCGCCTCAGTCTGACCCTAACCAGCTAGAAGCATTTTTTCCCACGGAGAATAAAGTTGCTTTTGGTTTATTTCTGA
1 GGAAAGTCAACAGCCCACAGTCAGCAGCAGACCCTGCTGGGCCAAGGAATGTAACCATTGTTTTTCCAGGCTCGTATCCAACCAGGAAATCCTTCTTACTGCTTCCAACAGTTCATCCCTTTCCACAGAGCTGAGGCCTCAGTCGTGGCTGATTTTCTCTTAGAGAT
1 TTTCCAGTTTTGGCAGGTATGGGAATGTTTATAAGTGGTTTGTTTTCTTTGCTCTATCCAGTGTTGATTTAAGTCGCTCTCACCACTGAAACAATTGGAAGCATTTTCAAGGAAGGCAAAGTCTGTGCACAACTGATAACATTGTGCAATCCGGATCATTAGAGCTC
1 AATCTGTCCAGTCGCCAGAAGGGATACCTTCAAAGAGTTTTCTTGGCTAAGGTCCATTCACAGGGTCAGCTGTGACCTCCTGTTACTGTTGCTCTGGCCCCGGTATGCCCCCCCTCACCCCCGAAAGCTTCAGCTCTTGTCTGTTAGGGAGCTTAGAGGCCATGTTT
1 ATATGGAGAACCAAAACAAACACAAGAGAACAGGATGGGTGTACCTGAATTGAAAGAGCTCGAGGCCCTAGGGCATGTGAGGCCATGGGGTGAGGGTGGGGCACCCACTCTGTTTAACACTGCAGATTAAATGACTACACTGCTCTGGAAACTGCAGTGTTTAACCC
1 GACCCACTTGTCCGAGGTACTCTGTACCTGTTTTGAATATCTGGTCACAGCTGGAAGCACAGTGCTAGCAGAGATTTAGACTTAGAACATTTTTCCTCACTCCTGGATCCTTGCGTTCCCTCTCTGCTTCATGTATAGGAACTTCATGTGCAAAATAAAGTGAGCCT
0.759346491780026 GGTTTATTTATCTTCCTGAAGCTTTGTCTATTTTGGGTCTCACATATTCTGAGAAGGCTTGAGCTGTTACCCTTGCTCAGGGTGGGGTAGGAGTGCTTGTCTTAAGCCAAGTTGAGAAACATTTCTCAGGCTTTCGTAGGCTCGCCCAGCACCAGGGCAGTCTCACC
0.694918175143576 AATATTCTCTGACACACTTATCCATCCACTAATTATTATCATCAGTCAAATGGGGGTGTCATGGCTTATTTCATAGTAGGGTGGGTGTGAGGCTGAGAAGAGAAGCTAAGTGTGACAAGCCGTTGCTGGTGCTTGTGTTCTGCTCCCGTGGGTCTGTGGGGCAGCTC
1 GTTACCTTTGAAGAGCCAAGATGGGTTGGTTCTCTGCAGAGAGTGTGTGGGAGCCCAGCTGGCTTCCTGTGTCTCAACAATTGGGAGTAGGCTGAACGCAGGGATCTTGTCAACAGCAGGAAATCCCTTTTCAAACAAGAGTTGAAGGGACATCCAAGGTCAGAGCT
1 GGGAGGCCCGGGCACACATGACCTCCAGGCTCCTTCCCCAGCCTTCTGCTGGAACAGTTTGAGCAGTCCCTGCTGGCTCAGCATGCCCTTGGCTTCGTCCCCACACTGCTTCCTGAAGTGGTGCTGACGTCCCAGAGGCAGACATATCCTTTTCATCCCGTCAAGCC
1 GGAACAAAAATCTCTTTGTGTAGATAGGATGTTTATCTCTACAGCCATGGATTGAGCTTAGATGGGAAGTAAATATTTTTGGAATCAAGATCTGAACTTAAGGGAGGCCAGTACCTAGTCAGCTTCCCTTTGTCCCAGTGTTAAATATTTTAGACACCAGATACTGA
1 GCTCTTTCCACAGACAGGATGACCGTTACTTTTCTGAAGCAGAGCTGTGTGGTCACTTCTCTTTGTTCTCTGGGTCCTGGCCTACCAGCCTCACATACTGCCCCAGCGTGACTTATCAAGATGTATTCCCAAACAAAACTCTCCCAGGGGTGCCTCTGATGCCAGCA
1 GGTCATTTCCTATGGAGGAAATCGCCTTTGTCCTGGAAGTGCAAGTCTGGCTCCAGAAGGCCAGGCCTCTTGTGGGCTATTGTTTGGTGCTTCCTTCTTGGCAGCTGGCCTTGGACTCCTGGGCCCCTCACTGCCTGGCTGTCCATTCCTGTCTCTCCCAGTTGCTG
1 GGAGGAGATAGGAGGATCCCATATGGTACAGACCAGGGGAACAGTGTGCCTTGGGGCCTTGTCTTCCTCTGCAGTCTGTAGTGCTGTCTCAGCATGAGAGGGACAGGGAAAAGCCAGGTTCCCAGTTCCACTTGGACTTGCCCAGGCTTTCCTTTGAAATTCAGGGT
1 CCTTGCATTCCGGGCCCTCCTGAACTGTCATGCTGTTAGGGCTGACCAAGGGAGGCGTGGCAGTCTTTCCCTTCCCATCTTGATGGCCATGCTTCTTTTGGCTAGGTTCCTTTCTAGGTCCTTTCTCTACAATCAGGGTGTTGCTTGGTGGGGGAAGCTGCATTGTT
1 GCAGGCAAGATAATACCCATAGTTCCCTTGGTTCCTCTGCCCTCTACTGGTGAGGTCTCACCCTTGAAAACTTTCCCTTCCCACCAAAGTCTGAGTGTGCACACAGGACACTCCCACAGGAACGGGCGTGTGCATTCTGGTCTCCCCCAGCAGGAGGGGAATCCTGT
1 ACCCCCACATCCACTGAATATCCCATCAGCTGTGCCTTCTGCCCCACTGGGAGCAACTTCAAGAAGCTCTGACTGCAATATCCTGAGTTCCACCCTTCTTTCTCCTGTGGCCCTAGGCTGAGAGAAGGCAAGAGCCATGCAGTGTGACTCACAACCCTGGCATCTAC
1 GGTCTGGGAATGTCACGGAGATGACATATACACTTCATCCCAGGCCTGGACAGAGGCCAGAGAGCCCTAAGAGGCTCTATTAGAGCCCCTGCTCCCTTCACTTCCGAAGGTCCCCATAGTCCTCTCCCTCCTCTAAACTTCAGGAAATCGAAACTCAAATTCTCCGC
1 ATGGGTGTCCCCCAATCTGGCAGTGCTAATGGAGTTACAGGCGCAGTGTTACCCGGGATTGCAAATGCTTGCGGTCCCCACCCATTTCGTGGCAGGAAGTCCAGTGTTTTCCAAGGGTTTTCCAAGAACGCCCAGAAGCCCGCTGGGGCGAGCCGCGCCTCCGGCCC
0.9984355885191947 CCATCCTGAGAGACATAGAACCAAGAAGCACGGATCTGCAGAAGTTCTCACTGTGGAAAATACACAGCACCTCCACCCACTTCCCAGAGTGGCTGACTCATAGGCTAGGTCTCCTCCCACCAGCCAACATCTAATTTGGGTTTGAACTCCACCCATGGTTCCCTTGT
1 GAATCCGCACCCCCACCCCTCTTTGGGTACAGGATGGAATCAGATTTTCCATCTTTGAGGTACGCTGTGAACATGTGATTTGCTTTGGCCAATGCAATGTGAGCATAGATGACATCACTTCCATACAAAAAGCTTTAAGATCCATAGCAATCAGCATCTCTAGGTGT
1 AGCCTGAGTTAAACAAGCTTTCATTCCATAATCTACCGGGTCTTAGGTTTTTGGGTTTTTTTTTAACGGTAACAGAGAGTACATTAGGCTATCAATCGAGGAAATTGCAACTGGGTTATTACTGTGTTCGCTTCCCTCATCCCAGCCCCCCTCCCCACTAAGATGTA
1 GGAGGATGGAGAGTTGGAGTCCGTGAAGAGGACGCCCTTCCTGCCCTACTGAGCTGGGCAGGGCTGCGGTGGGGCATGCTGGGTTACACCCCAGGAGGTCAGCCTGGCCAGTCCTCCCTTTTTGCTAATGGCTATTGCTCCATGCAGAGGTACAGCGCCCCCTGGCC
1 CAGATCAAAGCAAGAGCATGGGACAGTGGCCGGGAGGAACTGGGGTGACCAGCCATGCACAGGGTAGGAGCACAAAGAGATTGTCCCTGCCCCAGGATGGGCTTGGGTGGTGACCTTCAGCTGGCCAGGTCTGGCCTTGCTGGATTCACTGAAACAAGTCAATTCCC
0.319233226026054 GTCGGCTGCTTCAAACGAAAGGCCCTTGCCTCCTGTTTCTGTCCAAGGTTCGCACCCAGCTACACCCACCGCCAGCAGCCCGCTTAACAAGCTCGCCACGCCCCCTTGAGACCGGTCGCAGCCTCAGGCCGGCCTCAGTGACTCTGTCCCCCTAGGGGCCAATGAAC
1 ATTTCCAGGACCTGCCAGGGCCACTCGCAGGCCACTTGCCCCAGCTTCCGCCAATTCTCATAGCTCCCGCCAGTCATCAGCGGCTCTCTTGTCCATCCCCCTTTGGTCCACTCCTCTGCCCAATGCTCAGGCCTCCAGCCTTCAGGCAAAGCTGTCTGCCAAAGCTC
1 CCGTCTTAGAGCAGATCTGGGCCAGGCCATGGGAGAGTTGGGTGTGGGCAGGATGTCTGGCAGAGCTATTGCTGAAGCTAGTCACTGTCCAAAGAGAGCCAGTACCCAGGAGGGGCCTCAGCAGGGATTGGAGCCAGCCCTGACAAGTTTGGCTTCTGTCACAAGCA
1 AATAGGGCCAAAGGTTAGGGGCCAAGCCTTTAAACAGTAGGGAGCCACTCCAGATCCAAACAGGACCCCTAGTCCCTGTGGACATGCTGTCCAGGAAGCCTGGCTTGCTACAGTTCTGACTGCTCCAGACTTGTTGATGTACAAAGTACAGTGAGAGATTCAGAGCC
0.538538539937591 AAATGACCTTCACTGCGGGCAAATGGCCCAAATCTGCAGGCTAGGGAGGCCAGGAAGGGTGGTGGACCGGCAGGGTGTGTAAACCCCTTGAGGATGGCTAGAGGAATTTTTCCTGCCTGTCAAAGGCCCCCTCTCTGTGGGTGGGATCCTCCACAGCTGTACAGAAT
1 AGCAAAGCAGGGTCTGGCACCTAAGATTGCTGTCCCGTGGCAGTGGCCAGCATTCAATTGTGGCTTTGAGAGACGTCTAGGTGGACCCTTCCCTGGGCACACCCCATTCCACAGGCAGTACTTACCTTCCTGGAGTGGGCCCCACCTCTTTCCACAATCTCAAGGCC
1 CTGTTTCACCTGCAGCTGGCATCTATGAGCTCCTCTTACAATGTCCCTCAGGGCTGGGTGGTGGCTCCCGTGGTGGCACCTGCAGCTTGCCTCTGTGCCTTTTCTGCTTTGGGAGGAAAACAGCTTCTCTGAGCTCTTGTGTTTGAACAGCTGCTCTGCCTTGAGGG
1 TGCCCCGGGAGCCTTTTTTGAACACTGTGGGCTCTGGCGTACTCAGTGTCCCTGGGTGTTACCAGTGTGGTGTCCTCAGCATCGGTCAACATTCCCATAAAATATGGTTTCCTTTTGCTTTAAAAATGTTTTTCTTAGGGCACAACCAGTCCACCCACCCTTCAGCT
0.9723727712037239 AGGTTACTGGTCTTGTAAATGAAGCCTCCTGGGGATCTCTAGGCCAGCATGGAGTTGTCACTCTGAGGACTTGGGTCAGTGGACGAAAAATCTTCCGGGCTGGAAGTTGGAGTTGCTCTTGCCCTGTCCCTCCCTCCTCGCCAGCACCTTTAAGGCGGAAATCGACA
1 TTTAGTGCCTCAAGTCTGGGACCACATAGCAGGGTGACCTGGCCTCCTCATGCAGGGAGCCCTGTTCTCTGCCGCCCTCCGGTGGCCGTTTGGATCTTCTCATGTGGCTGCTGAGGCTTCAACTCCGCAGAGCTGCCTCCATCGCCCCCTGGTGGAAATTTCATACA
0.9130301854127663 AAGTCAGAGGGCCCATGCCTCCAACAGCTTCCTGAAGTCTGTCAGCATCCTCACTTGGGAAGTCTGTTTTTCCCCTGGTGACAAGGAAACAGGATACTCAGGCTTTTGAAAAAGTAATTATGTAAGACTTAACACAGGGACTGTTTCCTGCTATTTTCCAAGTGATG
0.9237167071790777 GTACATTACCGGGAATAGGCTCTGAGAGTTTATAGCCTTGCCCTACTTCATTTCCTCTTCCTGCTTCCTGTTTGCAGTTAATAGATATGATCTCCCAGGCTACTGCTCCTGCTGACCATTGCCAAGCCTCCCTCACAATTATAGGCTTTCCCTCCGGAAGCACATGC
0.2781046036814877 ACAGCTTGTTTCTATTCTTAACTAGCGTTGGCCTTCCACACAAGAGCACCCTCTGGGTCAGGGTGTGCTTCCCCAGCCTAGGAAACTCTGCAGCAGATTTCCTTTGAATCGCCCAGCCCTTCAGCTGCAAGGCCAAGGTTCCTGTGGAAGGGAATTCCTGAGGCTTT
1 GGGAAGAGCTGGCTTCCGGTCCCACCCTGACAAAGCTGTGGAGAGCACTCCGCCCTTGTGTTAGTCTGGCTACAGCTGATAGAGTGAAGCCAGGGCTTTGAGTGTTAGTAGCAGGAAAGGCACGCAGGGTGGGACAGCCACAGAGATCCGGGGCAGACATGAACATG
1 GAGAGCAGAGAGGGCGCATGCGTCATCAACCCAGACACATCCAGCAGAAACGGCTGGGGAACTAAAGGCCGTCAGCTGGAGTTCATCACAGAGCTTTCTCTTTATGGCTGCGCTCCCCACGGCTGAGCTTCCGGCTTCTCTGAAGCAGTGCAGGCTTCCGGTCCACT
1 CCTCACCTCGAGAACACTGGCCCCTTCCAGTCACCACCCCTCATGTTGTCACATCCGCCTGTTTTGGTTCTCGGCAGGACACTCTAGCAGACTCTGCTGGCTGCCTTCCCAGCAGCCATTTCCCCTTCCTCCTGCCCGTACAACTCAGAGTTTGTTTGGGTTTCTCT
1 CCCTGGGGTGTATCTAAACACTGAGTTTCAAAACACACAGAATTGCCAGAGGACATAGCTTAGCTTGCTTCGAGTAGACATTGAACATGCCTATTCAGTAACACACAAATTTAGCCGACAGAAACAGGAAGGATACGGTAGAACTGAATACCATGAGCCAACAGGAT
1 TCTTTCCAGTGAGTTGACTTTGCTACAGGCACAGAAAGGCCATCTGAGTGGAACAAAGGCCCTAAGGGCCAATTAGCATCTAGACACCGTGGTGCCAGCATTGATACTCACGATGAGCTAAGATAAGAACACCGGATATCCAGGGAACCATGAGTTAGCAGCTTATA
1 GAAGGGATGGGAAATGGTGTGTCCTGTAGATAGGAGCTTAATTCTGCTTCCCTTTGAGATCCTCACTCAGCCAAGTCCTTCACTATAGACAGGAGAGCCTCAGAGCTGGGGGGGATGGGAATCATGAGGGAGAAGGTGTCATAGTACCAAGGTCCTCTGCAGTCATC
1 GGCCTGTTATTTTAATATCTGGTATAGTGTTGAATCTTCATGCTTGGAGAACAAAGGTGTTTATTTAAAACAGCAAATGGAAGCTGGGTGTGGTGGCATATGCCTTTGATCTCAGCAGGCAGAACTCAGCCAGTTGGAAGCCAGCCTGCTCTGCATAGTGAGTTCCA
1 TCTTGTAATATAATTTGCCCTGGCTGAGCACTGCCCAGCCTTCTCAACCCTCTCTGGAAGGACTGTGTTGGGACACTTCATTGTCTGGTCCACCAGGGCCTGAACACCTGTGGTCTTGGAATGGGCTTTTGGGCTTTAACAAAAAGTCTATTTTTAGGGAGGCAAGA
0.6968415589713877 AAAAGGGCTGGGAGAAAAAAATACATGGGGACGGTTCAGAGGACGAGGAACTGCTGGAAGCCACCACAGAAGGCCTGACAATGAATAAGCTCAGACTCGGAGAACAATGCACGGAAACAGAAAACCACATGACCAGGCTTTAAAGACTTTCTTCCTTCTGCGTTTGC
1 CCAGTGAGAGGCGGTCATATGCTGACTGGGGCTCTCCTTCCTCCCGGCAGGGTTCAGGGTGTTGTAGAAACTTGGCCTGGCTTCTGTAAGTCGGCTTTGTTTTCTATAACACAGAGTATTCTGTGTTCAGTTTCAGTTTCCCTAGAAGTAGGCCCAGTGGCAAAGGT
1 GGCTTACAGATTAAAGTCCTTCACTGAGGGAAGCCAGGGCAGGAACTGAAGCGGAGACAATGGGAGAATTACTCACTGCCTTGCTTCCCGTGGCTTACTCCACCTAATTCAGTTTGTAACTCAGGACTATCTGTCCAGTGGTGGCCTTGCCCAAAGGGGCCGGGCCC
1 AAAAGTAAAGCATTCAAAGTAACAGTGAAAGGAGGGGCACTGCTCACCCAGATCTCTGAGCCTGTCCACTACTGCCCATAGCCCACACCAAGGGAACATGACCTGAACTAGGCTTGCTTCAGACCCTTCTCTGAAAAAGCAAGCCATCCCACGAAGAGCCTGACATT
1 GATGTTTGATTACAAGTTGTTGGTTTCCTGTTCTATTCTTTGAAAATGTCCTGTTGTCCTTTGATCTCACTCTGACACCCTCACCAACCTACTTCTCTCTTCTTCAGGGGTCCCTGTAAGGTCTGAGGTCAGGAGGATAGAATAGAGATCAAGTAGCTGAAACTATT
1 GGCAGTCTCTGATACAGCACTGGCAACTCAACCTGGAACTGATTTAGAATATCTCTTATATTCTTAGAACTTGAGGAAACAACAAAGGTCAGTTGCCAACTTAAAGAGGACAGAAGTCACGGCTTAGAAACAAACAAAGGAAGTTCCTTAGCAATAAGACCATTTAA
1 TTTCACTCAGAATACCCAGTTTGTTTTTCTTGGACATTCCAGGAACCAACTGGCCACCCCATGTCAAAGCCCAGCAGGAATGCTCCGAGAACGCCTTGCTGTGGGGCACTCAGCTGCCTAGGCCTGGCAGATTGCACTCTCTTCCCTCAGGCCAGGAACTCCTACTG
1 CCCTGCCTAGAGCTAACACAGTTTTATTATTAGAGTTTGTTATGGTCCCTGGGGGAACAGAGGAGACTCCTCCAGGCCTCGAGGAAGGTGTGTTGGAGGATTGTATTCCTCTCATTGTTTTGGATTTCAAGTACACACAGACTCCCTTAAACCTGGCACACCCTGCA
1 CTGAGGTAGGGTTTCTGTCTAAGCTTGCCTGGGCCATTGTTCTAGGACAATGAATGCTTTTGATCTGCCTTACCCTCTGTGCCTCCAACTATCATGTGACTTTACCTGCTGTGCAGCCTTCTCAGCCCTAGAAGTGTTGCTTTCCAGAGGACAGGCCCTGGACAGGG
1 ACTGGGCCATGGAATCAAAGCGGCTGCAGTGACTCAGGCGTTTCCCATTGCCCAATTCTCGCATCCTCTACTCTCAGCGCCCAAGCTTTTCATGTCCTATTTGAAACTGATAGGAAACCCTCGCATTGTTTCGCAACATGGATATTAGCGCCGATGAAGGAAGCGCT
0.9758376046967556 CATCAGTGGGTCTATGGCAGAAAGTTCCCTTCCTCCCAGGGTGTGCTGTCGCTACCGATTTAGGGGTTTTATTTTTAGGTGATACATTTGAACCTTCTGATGAGTACAGCCTTCTCTCAGCTTGCCTGTGCTCAAGCCCAGGCTAGCTAAGCAGCTTTAGCATTCTG
1 GTTTGTGCAGGCCTGGACAATCAGCAACAGGAAAAAGTCATCCAAGGGGCGTGCTCAATGAATTATGGAGGCATTGTTCCCCGGCCTAAGGAGCCAGTGGTGCCGCTCTGAGCCCAGTGACCAGCCCAGGGCTGTAGGCTGCTAGCTGGGTCAGGACAACACAATGT
1 AGCAGTTTCCTGTTTTGAAGAAGGCTTGAGTGCTGTTTTCCTCCAATAGGCCTGCTCAGAGAGGGACAGGAAGCCTAGGGCCTGGCTGCCCCTGCTGTGGTGGTGTGGTGGAGTCATGCCCACGCCTGGCCAGCCAGGAGGGGCGGTGTGTGGAAACGGAGCCTCGG
1 TCCATGTTGAGATATAAGAAAGTCACCACCATGTAGAAGATATCAGTCTAGGCATTGTAGGATAATGCCTGCCTCCAGCTGTCTTAGGACTCGGCAGCTCCAGCAAACCTAAAAACTCTTCACAAAAGAAATCTCAAATTATAAGAGATTCCCATTCAAAGTCAAAT
1 CAGCAACGTGGAAACTGAGCCCTGCTCGGCGCTGTGCACACCCAGCTTGCAAGGTCTGTTTCCACTTCTCCAGACCAGGCCAGTCTCATAGGAACAGCTGTCTCCAAACCCTCTGTACAGCCGGAAGCCAGTTGCTTGGGTTAGGAGCCCATTTTGTGCCAGGGACT
1 TACTTACTTACTCAGGCTGCTGAGGAGGTGTGATTAGCTCACTAGGGCTGCGAGGCCCAAATTCTAGCAAGCAGTTTCTTAAGAATGGGCTAGGTAGATAAGAAAGCGCACAACCACGTTTTGGTGTTTACTTTAGCAGCCCATAGCCTATTTTAATTATTCTGAAA
0.1069215138636599 TCTCTCCACCCACTGACACCTCCAGGAGACCCATATCCACTGGGACTAGCCACTAGCCTGGGTGTGGGCTGGGTAGGGCAGGCTCTGGGACTCTCTGACGCATTCTAGGGCTCTCCAAGGTAAAAAATAGCTTTGCTTTGTTCGCCTAGACACACACCCACTGGACT
1 TTGTGAAGGGTGTGGGAGGAAAGGAGAGTCTGGTGCCAGGCACAGAAGAGCAAATGTAGTGTGCGGGAAGGGAAGGGTGTGGAGGGGCCAGAGACATCCTTGCCTTTGGAGCAGGAAGCATATGCAGAATGAGCAGTAGAGGCCAGAACACCTCAGGCTTTGGAGTT
1 CACGGTAACAGATTGGTTGAGCTCTAGCTCAACCAGTGAGAAACTCTATGACAAATCTGATAGAAGAAGACACCCAGTGAAGACTCCTGGCTCCTGCAGATGCACACACAGGTGAGCACACCTGCACACACATGCATGCATCCTCCTGCAAGCTTGCATAAAAGCCA
0.6777259676064679 TCTGAGTCCTTACGATCAGGGAGATGATCCAGTTTCAATAAGATGGATGTGATCTCTGTCGGAGGTGGGTGTCTTTATGAAATGATCTCTCTGTGAGTCTCCGTGGCCTGCATCTTCAGGAGAGTCACTAGAGGCCTTCCGATGCCCTCTGGGGGGCTGGGAGGGAG
1 CCTGGAAGTTGCCCCCTCCTTTCCCTTCCCTCCAAGGCTGACCTCAGCAGCCCCAGCTGGGCTTTTCCCAGAGCCGAGGCAGGAAACACAGGCCCTGAGTGTTTGTTCAGGCCGGGCAGGGCTCCGGGCAGGCGAGGTGGAAATAGCCACAAGATGTTTGTCCAAGT
0.4911712849967306 CTGACCTGGGGCAGGATGGGCCTCGCTTAAGAAAAACAAACCAAGGGAGACTCTCCCAGCAATTGGGGAGGAAGTTCAGTCAACGAGGGTTCTTGCACGACAGAGCATGGGCTGAACTGGACAGAGCGTCTGATTTAGAAAGTATTTTTATTCTATTACCTATTTTA
1 GCAGCGAGCATTCCAGAACGTTCAGGGGAAGTCTCTGTGGGTGTGCCCTGAGCTCCAGGCTGTGGCCATCCATTGTTTGATGGTTTCCTGCACTGAGCTATCCCAGCCAGACAGTCTGCAGGGCCTGCAGAGACCTGCCAGGAGGACTTCACAGCTGGCCACCACAC
0.7304018266017368 AGCTGCCTGGCGGATGTGAAAGGAGGTGGTAGCTACACTCTGGGCCCCTGACCTCATTCTGGCCACCCAGGGCTCTCGGGAGCATGGAACACAGAGGTTGAATGACGAGGGAGGAAATGAGCAGTCTGGTGGCCTCCAGCGACTGACTTCACCAGCCCAAGTGGACA
1 CTGCTACAACACAGTAGAATCAGGGCTAACCGCCTTTTCCTGAATGCGAAGGCAGCTGCTGTAGTCTCTGGGCGTTGCCAGTTTCCTTCCCCTCACAAACCACAGCAGTTAAAGCGAGCACTGGCTACCAAGGAGCAGGGAAGCTCGCCACATCCTTGCTAGTGTCT
1 TGGTTTGGTCTTTGTGGTGGTTTGAATATGCACGGCCCAGAAAGTGACACTACTAGGAGGTGTGGCCTTGTTGGGGGAAGTGTGTCACTGTGGGCTTTGAGACTCTCCTCCTAGCCACTGGGAAGCCAGTCCTGTTTGCCTTCGGAACAAGATGGAGAGTTCTCAGT
1 GTGTTCCAGGCAGAGGTGGGGTGTTTCATCAAGATTTCATGGCCAACTCTCCTGGGAAGCAAGGGAAGGCAATAGATACTTTGTCTGTTTTGATAGCCCATGAGTAGCCTTCCGGGTATTGTGTTCCCAGCATGCCCTGGTCATGAACACAGAGACCAGAATTCCTT
1 AAATTCATAAAAAGCATTGTTTTCTTATAAGGTAAGCGACTGAGCTGTTGGTAGCCATGGACGGAGGAAGCTTGTGATGTTTACAAGCCGTTGGAAGTTCCTTCACAGAGATGTGTTTACTTTGGCAATCTGAATGTGTACAACTGCTACAAAGTAATAACACGTGC
1 GTGCTGTTGTAGAACGTGGCCACTGTACAGAGTTCCGTCTCTATGGTTCCGTGCCTGTTTATACAGCTGTACAGAGTTCCGTCTCTATGGTTCCGAGCCTGTTTATAAAGCTTCATCTGTGCCTAGCTTAGCTGATACCCCAAGCCAAAGAAAAGCTCAGTTTACAT
1 GCATGTCCAGGGCAGGACATATCCTCAGATAAGCTATAAAAAGAACTGAACTTTCACTTGTGGCTTATCTTTAGCCTTATCCCAAGTAGGATGGGAAGGCTAAGGCAAAGCTATAAATGGCCTTGGTGTTGGCTCAAGCACAAAGCTAATCTGCAAGTAAATTAGGA
1 AGTGAGTTAGACTTTTCACTCCTCTTTGAGCCTACACAGGAAAAGTCTCCACCAGGCTCTGCCTGGCCCTGGAAGGGGTGAGCCTGAGTACAAGACACATTGTAAAGATCAGACGGGGGCAGGGGGCTGGGAAATCACAATGAGTTGCCAGTTTAGCCAAGGTCAAC
1 CAGATGAGTCATTTACAATCGGCATGGCGACGGGTCTCAGCGGGACCAACTCAGAGAACACTGTGCGCTGAGCGCTGACCATGTAAACAGTGCAAACTCCCTCTTGTGATTCTAGGAAAAGAATCTTAGAACCTTTAGACAAAGAAATCAGAGAGGAGTGTGGCTGC
1 GCAAAGGCCTTCTTGGGAAAGCGAGAGGAAGGCTGCGGTACGTACTTGGGAACTGAGGACACTTGGCCGCAGCGTTGTTTACATCCTGAAGTCCGCTACGCAGCGTGGTTTAGCGAGGAGGCTATGTACCTGAAAGTTCTAGCAGAAGAATGATCCCATCCGGGCTT
1 AGTAAGACTTCAAAAGACAGCATGGACTTTGGCAAATGGGGCTCAATCTTCAGTGCTGTGGTCCGTGTGTTGAACTGACAAGCTTCCAGATGGGGTTCCTTAGGTCCTTATCTCTCAGGAAACACATATCCTGTTACTGTCCACTAGCTCCCAAAGTTTCACAGGAA
1 TCATTGCCTACAAAATTGCACTCTGGTGCTCCCTAAACGAGGGGGGAGAGAGGGGTTAGTGGTGACCTTCCACCCAGCAGAACAAAGTGTTATTCTTGATTCCACTTCACTGCTTTCTGGCTAGCATAGCACTTTTTGTATTGTCTTATTTCCTTCTGTTCATAAAT
1 ATACGTCCATGTTCATATCAGAGCCTGTTTGACCATGTTTCTACTCAATTTTAGACCCTCAAAGCTCTCTGTATTCTGGCACCATATCACATACTTTCAAATTTGCTTTGATCCCTTTATGCTTTTCTCTTTAACAAACTACCCCCCCCCACCACCATTGTTTAGAA
1 TACTTTGTCCTTGAGACCTCACGGGGAGAGGTAGATCTTGTTGATATTTCTCCCAAGAAGAAAAATAAAAGCTTCTCAGAACAATGACTGGCTCCACATGAAAATTCCCAGTCTCCAAAACCAACTGGCCAGGGTGAGCTCATACCATGACTGTCTGCATTTCTTAT
1 GTGGAGCCTTCCCCATTTACATAGTTTCATTTCCAAACATGCGTGCCTTTAGATGTAGCAGGTTGTAGAGTCTGGAGCCACCGGCAGACCAAGATTAGTATCCTGCAGTGAGCCAGGAGCTCGGCCACTAAGCTCTGTGAGACAGTCTGCCAGGGGCAGCCTCCTTA
1 ATACACTGCCCTGTCCTGTTGTGAAATGTGTGTGTTCTCCCCCTCGGCCCACTTCCTGTCACTCGAGGAACAGGGCTCTATTGTGCTCGGACATTCTTGTACCTGGAGCACTCAGAGATTGCCAGGAAAGGACTGTGTCTGTACTTCTGATTCTAGGGACACACAGC
1 GCTGTTTATCAAACAGCAGCAGGCTCGTGAATAACTTCCTCGGGTACTGGCCCACATTCTCTGTCCCCTTGGCGTCTCTTGCCCAGCAAGGCTCATTCAGGGCGTCTTCCCAACATCCTGTCTGGGAATGCGCAGTTTTTCTCTGCTTACTAAGCCCCAGTGGCCCT
1 TAAAGGGGTCAAATCCATTTGGATGGAATTCCAGGCCCAACATGCTAACAATGGCAGGAAACTGGGTCCTCGAACTGGCTGGAGCTCAGGGCTGTTGAGCGATAGATTGTTGAAAGCGCTGGCCCTGGGGTAGGCTGTTTTGGCTTGCTTTGTGTTTGGAATGCCTC
1 ACAATGGGATTTATTTCTTCATAAGAGACCTGGGAGGCAGCCAGGCATTCCAGGGCCTTGCTCTGGAATTCTTTGATTTCTCTACAGTGCACAATGACTAGACCTGTGGTGCCCCAGAGCTCAAGGATGCTGGAGTCCCACGGGGGACAGCGGGACTGTTCACGTGC
1 AACACCATGATAGTGCTTTGATGAGCCAATAGGGCTTTCAGTTGCTTAGAGCAGGGGGTGAGTCACAGCTCCTGGGTCTCTGCCCACATTCTGAGAGGTTCTAGAAAAGGCTTCTTCTTGGCTTCAAATCCGTGACACTGCTGTGGTGCTGATCCAATAGCAAAGCA
1 TTGTAGCAAGAAGTTCTAGGGCACTGAGCCACTGACAACCAGGAGCATCCTTACTCTGTTTAATCCTGTACGAGCATCTAGGTGACAGACTAAGGCTTTTAGCAAAAGCAACAAGTGGTTGAAGCAGGGGGACAAGGGCATGTCCCTTCTGCCATCTCTTCATTCAC
1 AAAGAGACTGTAATTAGTTCATTGTCCACGAATAGGCACAAAGGAGGCGAAGCCCCGGCCTGGACTCCCTTTCAAGGGAGGATCTTGGGGCAGATGTTAATTAAGTGAGTAACTTCTACCATCTCCTGGGAATGCAGAGGAACACCACTCCCCTTCCAGAAGAGACA
1 AAAAAACAGCACGGCTTATTAGTAACAAGTTACCCATTTTTTTCCCTAAACGGTTAGAACACGCTGCCTCTCTGCTCTTTACATCAGCGTGCTGTTATTAAAGCTGTCTATTTTTCAGCGCTAAATCCCCAAGAGATTCTCCCCATGAATTTAACATGACTGAAGAA
1 ACAAAAGTGAAAGCTGCCCAGACAATAGACTCTGGGGTCAGTGGGCCACACCCTAGCTAAGTCCCGAGGCTCTGTGTACAGCCTACAGACACTTACAGACCTGCTTCAACACCGTGTGCTCCTTCTACCAGACTGCAGCAGGCCAGGCTTCCTGAGGATGTAATGAC
1 GTTCCCTCTTTGTTCAGGGAGTGCTGATGCACTTTAAAATGAGTTAACGATAATTCCTCTTAGCTTAGAATCAAACTGAATAGCTATGCCATAGAAAGATGCTAGTGGGTTTGAACCCTTTGGTTTTACCAGCACAGAAAATATGCTAACAGGAAAATGTTCTTCTT
0.6288453606011035 GTTGGGGACCCAGTGTCTCCTTCATGTTACGCAAGTACTCTTAGGCTGAGCTGTACCCCGTCTGCATCAAAAGCTTTTGATTTTTCTGTTGCTGCCTAAGTCATACTTGTAACTTTAATTTTTTTCAAAGCCTATTTTTAATGATGGTTCTTAAATGCTTTAACCTC
0.4373098806419532 ACACAGCGACGGTCCTCTCTGCAGTGCCAGCGTGCGCAGGTGGAGGAAGGGCTAGGGGCAGTGGAACAGGAAACAGGCAAGTGTACAAACAAAGCCTGCAGGGCCTGAGGAGAATTATGAAGAATGCCTCTTCCGGTGTGACTCAGCCGGTCTGGGGACCAGCCCGC
1 CACTAGCAATCGGCGTGGTTGGTGTTGGGTGTTTCTTCACTCCGCAACAGAAGGAATCAAAGCCCTCTGTGCTAAGCCCCAATGATGCCACCTCTGCATTTGAAACATGAACTTTGAGGGCTGGGTAGATGGCTCAGCAAGGAAAGAGGCCTCCAGTTAAGCCTAAC
1 GGTTTAAGGTACCCTTTGAAGCACAGTGTCTCTTGCCAAACTAAACAATGTTTGTAACAGGACCTGCACAGTAGATGGCGGTAGAGGCCTGGGTCTGGCTACACCAGACAATAATCTGGGTAGATCACCAAGGAGAACTCATTCTGGCTCCCAGGGGGTCTCCTGGT
1 ATTTAATGAACATCTTTTCCAAATCCTTCATTTTCTCTGACTCCTCATTCTCCGAGAACTGTCACTGTCAGGATGGTAGTGCGAAGGAAGAAACTTTTAATTTCAGCGTGCCTGAAGGCTCTGGATGTGCTGAGCGGCTATGGCAGCTTCGCAGAGCAGAGGGCTCC
1 CTGGGTAGATCTGTGAGGACATTTCCAGGAAGGAGGATGAACTAAGACCACTCCCAGCTGAGTGGGCGGCACTCTCCTGCAGGCAGTGGAGTGGGTGACAGCTGAATGGGTGACAATCTCAGTGCTGCCTGCTTCCAAAGCTTTGCTCCTTCTTGGTGAATGTATCT
0.3196907420362993 TGCAGGACCACCCACCCTCCGTTACCTTACAAGTCCTCACCCTCAGAGCCCTGAGTTCTATTCCAGGCTTCGGATGTGGGCAGGCAAGCCGTGAAAAGGGAAAGCAGTGACTGCCAGCAGTTCCCTCCCACGAACCTGGTGATTAATATTTCAAGGCCGACTTATCA
1 GGAGCTGTTTGACTTGAGAGACAGCAAAACCGAGGGATGTAAGATGCCAATCTTCTGGAGCAGCGATTATCTGTGATTAAGTCGCTGTGCTTTGGAAGGGAAGGAGAAGCCGCTTTGCCTGCACAGTGGTGTGACTCATGAAAAGGATCACATCCTTCGGAGGAGGA
1 CAGAGCTAACTGTGCAATGCCTCTGGGTCTCGCATGTTCTTTGCCGATCTTCACTTCCCTGAGAGAGGTACAGCCAAGAACTTTCCCTGGCATTGCTCTTGGTCCCTCGTGCTGACTCGGGCTGATGCTGAGGCCTGGCTGTCTCTGCTAGATAGTGCCACTGCTGC
1 CGGCACAGAACGAAGGTGCTATCCAAGGTACTGAGAGCCCCAAGGGGCTGTTCCAAGAAAGGGAGCAGGCTGAGCCCAGTGGGTGGAGATTGGCATGCTGGCTGGCACATTGAAATGCCACCGAGCTCTACTCCCTTCTTCTCTACGCAAGTGTCACCCATCCTGTG
1 AAGAACACCATGAACACAATAGATGGGCAAATGTCTATCAGTTGTTCATTCTGCAATAGATGGGGCATCTGCTCCCTGCTGAGCCTGGGAGGCTTGCGGGAAGGAGGCTGAGGGCACACAGAAAGGACTGCACTCAGCCTTCCTCTTGGACACAGACTCACCTCGTT
0.4752966843473775 GCAAAGCTCACCTTTTTCCCAAGGCTCTTCATCCCGCACCAACGTCATGGCCTTGGCTGGGGTGGCCGCCGATTGGCCTGTGGCAGCCATGTGACAAAGACGAGTCTTAGCCACCCTCCCCCGAATGCAGTCCCACGTGTGGCCGCTGCGGCCGCGTGGTGTTGTCT
0.2083835450665408 AAAATGGCCAGACCTGTTGTGTTCTCTCTAGGACAGGCCCCTCCCTATAAGCAGTTCCCAACCGGGAGGCTACAAGCCTTTGAAGGCAGATGGGTGGGTGCTGGGACAATGGCTCAAGCCTGTTCAAGTGCTCAGCCCTCTTAGGTTGGCTATCGTGCATAGAACTA
1 GAAACCAGGAAATGAGTGAAGAGGGCGTTTGGGTAAGGAACTGCCGCAGTACCTTCCTGTGAAGCAGCCTTGTCTCCTGTTCGGAAATGGTTTGCGGACCAGCACTGGCCTCCAACCACAGGGGCCATCAATGTGCTAAGGGGTGGAATTTACATCTCTCAGCTTGC
1 GTGCCCAGGGAGTCTTAGAATCATCAGTTCTTATAGTTTCTTAGGCTGCTTCTCTTTTTAGAACAATCCAGGATGTGTCAGCTAAAAAATATACCAGCTGCTGGAGATGGAGCGAGTTCTCTTTCTCCCTTCGCTTAGGAATACAGGGAGGGGAGCACAGGCAGGGG
0.8606339032971996 AAAGGGCAGAGGATGTGTGCACTTAAGCAGTGTCAATCAAAGTGAGGTCCCGCCCACCACTGACTCGGAGCCCGGGCTTCAGTCTCCTGAGGTAGTTTGACAAGATGTTAGAACTGTGTGAATTCTCTTCTGGGAGTCAAGTGAGGTGTGTCTCTTTCCCTGCGTGG
1 CCCAGAAGCCAGCTGAGGCTGAGATTAGCGTTTTTTGCTAACAGTTCAGAGCTCCCCAACCCAGGAGAACAGCAACAGTCCTGAGAGGAGGCTGAACTTGTCTTTGATGTTGCAGGAGCTGGAGTCCAGGCCTGCAGGCTGAAAGTTACTCCATGGCTAACAGCCAG
1 ATACTGTGCAGTTTCTTCAACCTTGTCAAAGCTCAGCTTGATGTGTTAGCTGTTGGACTTGCTACAGTTTCTATCAGCTGAGTTGGAGCTACACAGACATGCCTCACTTGATCGGCAGGCGCCGTGACACTCACACAAAGGCAGAAGCCCCCAAGAGTCTAAAATTG
0.5749082417540494 CTACTCACATTCGTGGTTATGGATTCCAACCCACACATGCTCTCCTGCTCCCAAGAAATCAAGTCCCTCTCCACCTCCTCCTGCTCACATCCCTCACTGTGTATCGGGTAGCTCTTTACGGCTCCGTCTCCACACTCACACTCGTTGACAAGTGATTCTACAGCTCG
1 AAATCACATAAATGGACTTGGGGAGGAGCTGGAGTGAGCTGTTGTTGACTTTGCAGTTCCCCATTCATGCTAATAGCACCCCATTTCCTTTCCAGGAAATTACCTCATTGCTGTTCCCTGCATTCCAGGGAATTAGCTCACCCTTGTGCTAGACTGTCAATCAAGGT
1 TTTGGGGGCAAATCCAGTCTCTGTGGTCAGGATACCAGCAGCTCAGCTCACATGAGTCAGAATCAGCAGCTCTATCCAGGAGAGACGGAAAGGCTCCTGCCAATCAGCCTGAGCCCACACAGAAGTGGCAAGAAGTCACTGGAAATTCTTTGGTACATTTCTCTTTA
1 TTTTCTGTCCAGAAAGCCTTAGTCTGGTCCAGGGCAGAGCAGATTGCCTTTTCCTTTCTACTCTGCTCCGGAGGGGCCAATTGTTTTTCTGGGAATTCAGGGTTGGCAGCAGGGTGTCCTAAAACCCTTAACTGACTGGAGCTGGTTACTGTGGGAACGGAGCCTTG
1 GGACCTCTTCTTACTTTAACCACCATGTTGTCTATTCCTCCTCTGTGAAACATGGACTAGACTCCTAGGAATAAGAATATCTGTCTATCTGATCACTCCTGGAACCCTAGGTACCTACCACAGTACCTGGCTCCTTACACTTGGTAAATGTTTGTTATATGCATGCA
1 TTTGGGATTCCTGCCCTAGTGGGAACTGGACACATCCTTTTCCTTGGAAGCAATCAAATGTGACTTTAGATACTGCCGGAAGGGACTTGGCAGGTATAATCAAAGCCCCACATGTGTAAATTGCTCAACAGGAAGTCCTGGTTGGGCCTCATTCTGTAAAGCTCTCT
0.260544633267591 TCCAGACATGCAATTTTAAAAAGCAGCGTTGTGAGCGACATCCAGAAAGGTAGGGGAGTATCCTTTGATGGAACTGTCATCTTCCTCCTGGAGAAGACACTTATTTTCTGCTCTGTTTTATGTAAATGTAATTCATCTTCGAGGCTCTTGCTCTGCCTGGTGAATGA
1 TATCTTTGAACTTATCTCTGAGAACAAAGAGCATTCAGAGCTGGCCCCCTCACTTGTGCTTTTAAGCATGTTCATAGCTCAGAGCTAAATGGGAAAAAGAAGAGAGAAGAAAGGCAGTCTTTGCCGATTGCCCCTTTGTAGATTCGGGTGACCCTTTCCTGCAGGCT
0.6995693620914201 GGAGACATATGCATTTTAACATATTCCAATAGCAGCATCTTGGGGGAGTGGGGGTGGGGATGTACCTTTTACCATATATGGTCATCATGCAATTCTCTCCAAGAACTCAGTGCAGATATTTATATAATAATATTACCATTCCTTACCCCCACCTCCAGGCTGGCAGA
1 GACTATGTAATGCTAGGAAGAACTAAGACTATGTAATGCTAGGAAGAACTAAGACTATGTAATGCTAGGAAGAGCCCTTTTATCGCTCCGGCTCCCCAAGCTCCCTCTGATCCAGCCAATACAACAAGTACATAAAAACACTTTCATTCTTAAAAGAGAACTCATGG
0.5798177628123383 TCCTGCCTCAAAGTCAGTAAGAGTTGGTGATGTCATATCCGCGCCTTATCCTTGGGAACTGGTTATTGCTGTGCACGGTTCTTTAAACATGCGAAGGAAAGGAAGGAACACCCGTCGGTCGGTCGGAGCCTTTTGAACTGGCTGCCTGTGCCCTCTAATATGCAGAA
1 ACATAACACAATGATAAAAGCATTGTGCTCCCCAAGTCAAGTGTATGCCTCATCGTTTTCTTAAGAAATGTCCCTGCAGTGAGGACATGCGCGAGTCAGGAATGTTTGTGAGCTACACAGTGTGACCTTGGACAGGCTTACCTCTCTACATAAGAGTTCCCTCCCGA
1 TTGCTAAGCTCAGGCTTCCCGCTGGTCACTGCAGTGCTGACTTGGCAGGGAAGTGGGAAGGGGAAGACTCTCTGCTGGGCCCTCACATCCTCAGCCTACACTAGCACCTCCTGGGACTCCAGCTTTGGACTGAACATGAACCCTGTAGTTTGTGAGTTTGTTTGCTT
1 CTGTGTCCTCTCCGATCTCCCTCCTCCCCTGACCGACCCCTCAGACACACACCACTTGTTTCCCTTCACTTTGTATGGTTTTGCCAAGTTTCTCACAAGGTGGAAATGCGTGTCGCACTGACATCAGACTTCAGAAGCCCAGCTGCTGCAGCTGCATTGTCCTGAAT
1 ACACCAGATGCAGGCAATATTGACACTTGCTGTGTAGACCTAGCTTATAATTAAACTGCTGGATTAGGATGCTCTATAATCAAACTCTTGACAGAGGTAGACAGGTGAAGTTGACAATTTATTCTTTGCAGGAGTGAGTTGAGATGTGGAATCAAAATCCTAATTAC
1 TATATTTACCCTTGTTTTCTCATAGGGTGCTCGCACAGGCAGAGTGGGAGCTAAATCAGGCTCTGATAGGGCTTCCTCATCCTGAACTGTTCTTTGAGAACACTGTTTTCATAAATAGCCCGCAAGGCAGTGGGTTTCTGAGGTCACTGTGCTTCACACAATTGTTC
1 AGCTGCAGACTAGCAGCACTGGCTGGCTTCTGTCTCAGACCTCCCGTTCTTCACTTGTGGCTTTCAGCTAGGTGCTATGGAGAGACTTTTCCTGGCCATTTCCACCCTGCTCTCTGGGGTAAATAGCCTGTTTCCTCTTCCGGGCTATTTTTGAAGACAGATTAGAG
0.17665766306988 CAACACAACACAGCAGATAGTACAGCACCAGACAGAGACCTGAACGCTCTTAGCTCCGTGTCTGTGCTCTGTGTGAGCGCCGCCCTCCTCGACCTTTGCGCATAAAAACTTGTGAGTTGGGGTTTCTCATATTCTCTTCCTCCGCCTCCTGTTAGGCCATGTCTCCT
1 ACATATCTAGAGAGTATTTAAACTATTTCACTTTATAAACTTCAGCAGGGATACGATTTCTGGTATTCTGGCTTATACAATCACTTGGGAATGAATAATTCATAGGCTTTTTACTAAGCCCCCAGTGTAAATCAGTCAAATATAGCAACATTATATTCATGCTCAGC
1 AGAAGAGCACTGAGCCAGCTGGGGGCAGGGTGCAGGTTTCCACCGTGCTCCCAATTACTGGCACCTCTGAGCAGCTTCTGGAAAAGGCCTCGGTTGCCAGGAGGAAGATATTCCACTGAAGCATTCCCGTCCCCACAAAAAGAGCCTTCCACATATTAGCCACATTT
1 AGCAGCACTGACTTGCACAGTGAGGTAGCACCTCAGCAGCCACCCTCTCCAGCGAAGAGAAGCCGCTCCTGTGAAACAGGAGCCCCTAAGTGAACAGTGGCAGCATATGCTGATGCTGCTGTTCTGGTTCTCAACTGGCTGAATGGGGGAGAGAAGGAAGCGTTCAC
1 GTTTCCTGTAGTCCAAGGGTCTTGGACAATAGTGTGAACGGCTGGCCCGAATGGAAAGGGCATTGTTCAGGGGAGAAAAAAAACAACACCCCAGCACAAAGCCAGGGCAGGATTTGTCTAAATGTAAGAGCCTGTTTACAAATTCACCATTCCCAAGGAACGGAACA
1 GGAAAGGCCTCCAGCATCTGACCTCCTTCCTTCCTTCCTCTGGAGCACAGAGGCCCGATGAATCCGATTCCCAGCAATGGCTCACTCTCTGACCCAGCTTCTGAGCTTCCCGTTACTCTGAGGTGAGGCCACACTTTCTTGGCACTCTTGGTCAAGACTCTTTATAG
1 AGTAACGACAGCTGAAGCATTGTGACTCTGAGCCACCACCCTTCCCCACCCCCACGATCTTCTCAGAACTTCTTTGTGGGAGGGTCTTAGCCAACAGAGAGTGAGTATTGAATGATGAAGTCATCACAGGGGGAAAAAAAATCAATTCGGGGCTTTGGAGTACCAAT
1 GCTGCTCTGATCTTTGAGCCATCTTCCGAGTTTGGCTTGTCTCAGCTCTCAGTTCTGACTGCTGATTCAGACAGAGAGGGATTATTGGATCTGGTCAGTTTCAGACTTCCCGAAGCTATTTTGAGTTGTTTACCTTCCTGATTAAGGAAGCTTCCCTGTGGGATGGA
1 GCAAAACCACTCTCCCCCAAAGCTCCTTGAAGTGCAAGAAGACTAAGAGGATCAAAGGGACCATCAACCGCTCCGGAACTTCAAAGGTTTCTCTAGTGGGAACCGAGGAGCGGCTGGCCCTTTCTACTTTGGAGAGTTCCATTACTGTGTGGAAACACAGCATTACC
1 GAACAGGAAAGGGATGTGAGGCAGGAAGTGGTTTGAATTCCTCAATTTGAACACCCAGCATAAAACAAAGCTGCTCTAATGGACCCTAACCTCCTTCCTCTTCCTGTCAACACACTTCAGACATTTCCTTTGTATCCAAAGACTTTCACTGTGGTTTTTAATAGAAG
1 GAAGTAAATCAGTCTTGGGAAAGAAAACACTGGCAGTGGTGGGATTCGAACCCACGCCTCCGAAGAGACTGGAGCCTAAATCCAGCGCCTTAGACCGCTCGGCCACACTACCAAGCTGTCTGCGCATTTCTGTATACACTAACTATTTACTTGATTCCATTTCTCTT
1 AGGGAGGGGCAGAGGCACAGAGCTCTGACGTTTATAAACTATTTGGAAGAAGAAAGGCTTGGGGTGTGACTGCAGACTTGGCCGTCTAGCCTTGTTCCCAAGTGCTCATATTTCCCCAGGCAGCATTCACAGCCAGCTCTCTGATGGCTGACCTTTGCAAGGCTGTG
1 CTCTGCAGGGCTCAGGGCGCCTAGGTTCCACGCTGCAGTTTTGTTCTACTGTCTGACTGTGGCTTAGTGTGCAAACAGAAACCTCTTCCTCTGACCCAAGGCAAGCAGACCAAGAGGAAGCTCCCCAGGGACTCTGTCCTGCTTGTCCCCACCCTCCAGCGTCAGAA
0.9168380847020968 GCTGCAAACCCCTCCTTTCCATTCACATCCTATTCTCGGGATCCCTGTAGGAATCTCAGCAAGTGTGACACCCACCAAACAGTCCTTCAAACAAAGCTCCCACAGATCCTGGGCCCTACTTCCTTCTCCACGAAGCCCTGGCCTGACTAGGGAACACACACAGATTA
1 TGTCCACTATGAGTCCTGGATATTCCTGAACATCCTTGTTGGGTGTGTCAAAGCTTAGCTTCCTTTTATTGTTAAGCAACTTCCTTAGCTATTCACAGGAAAATAAAATTCAAGGCAACTTCAAAGCCATTGTACTGTGACTGTTGCTTCCCAGGGTGCAGGAGGAG
0.1504136472144545 AGCCAGGAAATCCAAGAGCAGACGCTGCCATGGAAACAGTGGGGGGAGGGGGGGGAGCCAGGAGATTAGAGAAGTTGCCCTCTCAAGCACAGCTCCATCCGAACTTTCAGGAAACTGCTTTATCCTGTGCGTCCTAACCTCATGCTATCAAAACCTCAAAATCAAGG
1 TTGGTCACAGAAATAACTATGACACAGAGTAATAGCACACACTCTCTCAATCAGACTATTTAGTAGTTTTTGAAGAGACAAAGTCTGATAACATCTCCTAGGCTGGCCCTAACGCCAGGGCTCCAGCTGTTCCAACCTCAGCCTTTATGGTAGCTGGGACCACCCAT
1 TCACCCGGCCAGAAATAACTGTTCCTGTGTCAACAAGAAACCTTTGTCTGTGTGTACGTTTCCTTCTCCCGGGGAACATTTTGTTCTTGCTGCTGGTTAAAAGGTGGCGACTTTTAGATAGAAGTACAGCAGGAAGTATTTAAGTTAGATAAAAAACCGAGACTACT
1 GCTGACCTTCTGTCCTCCACAAGGCCATTTGTTTTCTTAGCTGGGAAGGTTGGACTCCTCAGGCTGCCTCCCCTCTTTCTCCTTATAAGGCTTTTCTTTGTTTCTTCTGGGGCCCCTTACTGGACCCCCCCCTGGCTGTCTTCCCTTATAAGGAAGTAGCTGGCCGG
1 AACTTTTGACTCCACTCTTAAGCTCACACACCAGAGTGTACATTGTTCTATCTTAAAAATGGAAAACAAGGAACTATTCATATCTTGTTCTCAGAGCCTTTCCCCCTCTTGGAGACCGCGCCACCCCCAAGTGCGTCCAAACACCCCAGGAAACCACCCCATCATTG
1 TGTCTGTCCCTTGTGTCCATAAAGGGGTGTTCCCTGACAAAAGGTCACCCTGGCTGAGCTCCAGTACCTCTTCAGAGACTTGGACTTCCTTCTGGACATTCAGGACAAAGGGCTTAATCTGCGTGAGCTGAGTTCCTAACGCGGATATTTTCGCCCCAGCAGAAACA
1 GGCTATGCTGTTTTAAACTCTGAGCTGAACCAGATAGAAGTAGCTGGTGGCTGTTTCCTCTTTAGGGCGTAGACCAGGCAAACCCCTGCCAGGCCTTTGGGTCTCCCGAGGTCACTTCCTAGCCACACAGCAGGCACGGTGGAAGGACACAGGCTACTTTGACATCT
1 ACAAGTGCACTTGAGTCCCACTCTCAAGAGGCCTCCAGAGCATGGCTTTCCAAAGGCGGTGGATTCTCCTGCAGTCACATCCGCATAAACATCCCTCGCAAGTGGCCCTCTGAAGGCGACTGCACACTTAAACGCTAGATTCGTCTATTTAAGTCCCAGAACAGGAT
1 CGTTAAACAATGTTATGAGCTCAGGATTTCCTTTCAAGCCTGCAATTCACATCAGTAATGATCTCAGAAGAGGGACTGAGCTTTGAAACAAAGGAAAGTAGGGACACCTGCTGGAGTGACAGGGTGAGGAAACAGGAAGGGGCCCTGACAAAGGCTGTGGCATTTCT
1 TTTCATGTCCCACAAATGGCAGTGTCCTCACCTGACCCTTTGCTACTCAGCCATGGAGGAAAGGGGAGGCTGAGCGCCCGGCGGCCTGCTGCCCTGTGCACTCAGAGCCTTATCCTGCCTTTGAGCCTCCTAGGATATCAACAGGATGCGGCCTGGATATTTTCCTC
1 CTGCCCGCCCATCTATGAAGGAAAAATAGGGTCTGTAGTCCCTTTCAAATCAAAGCTCTATTCTTGGGTCAAAGGCACAGGGGGAGCCTCCTGCCAAGTCTGTTGAAAAGGCTTTGTTTGGTTATCTGAAACCATCAGAGGACATGAAGGTCATCATCGTGCTCACG
1 GACAAGAAGGACCCCATTGCTCTAACCTTCCCTGCTGGGTTGCTGAGCCAGCTGCAAAGAGCTAGGGCTCAGGCCAGTAGCTCTGCCTGCAGGAGATAAACCAGCCTGGGTGTGTGCCTGGGTGTGTGTAATTATTGTGTTCAGTTTCTCTGGAGGAGCGGGGCTAA
1 GGAAGCTTCGCGCAGAGACATCCTACATGCACAGCTTTGATCTCTTCGATATTTATTTCCGTATCAGCGGGAGTGTTTCTGGCTCAGGGCTGCTTCAGGCTGGGCGGGCAGATGTTGACATGTCAAACAGAGAGGACTCTAAGCTTTGCCTTCCACGTCAGTAGGCT
0.2245614221581849 TTCAGTGATTTCCTGAGTCAGGGGTTGCCAGAAAAGCAAGCCCTGGGATTGCTGTCTCCAGGCCTGCTTCCTCTGTTTCCTGCTGTAGGAAGGCCTGTTTCCTGCAGAGAGACGCCTGATTACAGAGCACTATTTTAGAAGGCTGCAGCCTAGGTGACCCGTCAGGA
1 TATTTTCTTTTTATTGCACCTTCTAGGCACCAGACTCACTGGAGACATCCTGACACATAATGCCTTATCCAGCACAATGAGATGCCCTTTACCTAGTCTTATGAAGGTACTGCCTTCCCTCCAGAACAAACAACGGAAATGCATCAGGAGGGCTCAGCTGCAGACAG
0.8526545063971765 TTTCTGAGGGAGGAGGCATCCAAGAAGTCCTCTCGTGCTCCGCCCTGGCGCCTGCCCTGAGCGCACAGAGGCCAGCACGTCTGCACCCAGCCAGGAAAGGGCAGGGCAGGCACCACCAGCTTGGGACAGCGGCAGGATGCTCAGCCCCTTCCAGGCTCCGCTGCAGT
1 CAGGAAAGCAAAAAGGCATCCAGTCTCTTAAGACACAAGGCTCTAAATACCTCCCAGGGTTCCACAAAAGGCCATGCTTGTTTTTTCTTTTGACTTAACTCATCCTGTTTCTGTTTCCAGAGCCCCAATGCAAGTGGAATTCATCAGCCAAAAATACAAATAAGAAT
1 AGCAAACTCTTCCTGCAGGAGCAGCCCCACTCTGAAGGCCCCTCCACAGCTGCGAGACGGGCCACCTGGGCCACGGCCCCTTTCAATAGCTGGATATCCTGTTCAGTTTTGCTCCTGCAGAGCTGTCCAGGACAATCGCCTGGGAAGTGAATTGTTACTTTCCAGGG
1 CGCCCACATCTTTCATTGCCTCTCCGGTGTTTCTGTGAGACAAAGAAGCCAGCTGAGACTTCCACAAAGGAGAATGCAGGGAAAGGGGGCTGAATACCTTGAGCAAGAATAGCTTGGAAGGAGCCAAAAGTGGAAAAGGAAGTCTAATTCTGGCCTGGTCCGGTGGG
1 TTGGCAGTCAGTTCAGAGCATGTTGACATCTCTGTTTTTAACAACCCTCTGGTCAGCCTGGGCGTAGTCACTCTTTTGAAAGTCGAGTCTTGAGGAAGTAGGTCACGAGAGCCAGTGTTTGGCTCCCCTGAGCGTGACTGAACCCAGGCGTTCACTACTTGTGTGTG
1 TCCCACGAGTTCATAGAACACAGTGTTATGATGTTAGAAACTCAAATGCCTTTTACACAGGATGTTAACCTCTCACAGAAGCCTGCTGCTGTGATGTGGGAAGTCCTGGCTTCCAGGTTTACAAGGATGAGGGCTGTAAACAGGATGCTGAGCGCCACCTAAGGACA
1 GTCCCTGTATTATTCTAGCAGTTTCCTAAATTCCATTCACATCTTGGCCATTTGTCTCTTTGTAAATAAACCTTCCTTGAGTTCTCTGAAGTGCCTGGACCATCTGTTTCCCGTGAGGAAGGTCTCCCACTGACATTTAGATGGCTGATACTAGACATGCCAAAACC
1 TCTAGAAGGGCCATTCCCATCAAAGTCCTTCTGTTTGCGTGTGTCACGGAGGACTCCTGCTCCAGGGGACAATTCTCACATGCGCAGTGTGCAGCATGCATCCTATAAAGGCAAGACCCCAGTGGCGAGGTGGCTGACTTCCAATTGTTTATAGAATAATGCCACAT
1 TTGACATCTGAGGAAGACGGGCAAGGAAGCAGGTCGACCTTTAGGACCCTACGGATTCCCTGGCTGTCGTCATGTCCTTGGGTACAGAGCGTTCTGGCGGCTACTGGGAAACAAACAGATCTAGGAAAGGCTGAAGCCAAGCCTGGAGTGGAGACCTGCCTTCTTTA
0.4585357575112277 AATGTTCTCAGCTCACCCACAGGAAACCCTGAAGAAGAGAACCGCACATGGCCTCTGCTGGGTGTGTTCTACTCTTGGCCTTTTATTCTCTCCCTTAACCTCGGTCCTCACTTTCACATCCTGTAACCTGCAAAGCCCACACACCCCACCCTTCTGAGCTGGTCCCA
1 GAGAAGCAGCAATGTGGGAGAAAAACAACTGCCCACAAAGTCGGTACTCTCCTCTGAATGGGCTCACTCTAGGCTGCCTCTTATCCTGACTTTTGGCTGTGAGCCCGGAAGGGAGGGTCCTTCAGTAATTCTCTCCCAGCTTAGGACATACGCCTTTCCCCTAAAGC
0.4502605242645675 TTATTTCTTACTGGATTTGGAGACTTACACTGTGACTCTTCCGCTCAGACCTCACCACTCCCTGTAGTTTCAATAAGAAACCCCTGAGGGCCCCATGTTAGTCCCCACTTGAGAGCCCCGAGGGGGTAGCAGGGCCTTTAGGAGCTGGAGCCCAGTGGGTAGCAGGG
1 TAGATTACGCCTATCATATTTCCAACCTTCATTTCTCCTCCCTTTGAAGTCCAGCCATATAAAGGTTGTTTGTTGAACCACACTAAAGTTAAAGCAAACATTACTTAGGGTGATTCATACTGGCAAGAATTTGCAATGAAGGCAGTGGTGTGTGTGTGTGTGTGTGT
1 CCCTCCATGGGTCAGGGAAGTTCATGAGACAGGAGAGCAAAACAAGTGGTCACATGGCTGGGGCAGCAGAAACTTGGAAGAGCCTCAAAAACCCTCCTAGACTATCAAAGGATTTTACGGGAAGAGGCTCAGATCACTCTAGCTGCAGAGCAGAGATTTTTCAGGCT
0.8182174784744478 GGTGTGACCACAAGGATCCTAAGGACCCTCCCTGCCTAGAATCCTCCAGTTAGAGCCCTGTGTGTGCTCAGGGGTGGAGCCCTGCCTAGAACCCCGCAGTGAGAGGCTGGGAGCAGACTCAGTCCTTAGCTCGACTCTAGCCAAGTACGCAGCTCGGGGTTTATGAT
0.6531570813599994 GACTGCACCTGTAGGATGAGGAAGAGGAACAGTACCGGCTGTACTCGGTCGGCTAACATGGCACAACAAGCGTTTGTCCTGTCCTCTCCTGGAGTTTGACTCTTGCGTGTATTCCCGCTTAAGCTCGTTTCTGTTGTCTTTTTTTTGAAGCAGTCTAGAGTCACAGG
1 CTTTAATGACAAGGAGACTTGGGCCAAGGCCTCTCTTGTCTGTTCCCGTGAGAGACGCCCTGTTAGCTTTGATCTGGATCCTGTGAGAGAGAGAGCCCTTCTGAGTGGACTCGTTTACCCTGATGACTTTGGCAGCAGATCAAACCTCCTCGGGCCTGAGCATCTGA
1 AGTCCACTGCTGGTCACATGGAGTCCAGGGGTGGTGCTTCTCTGGCAGCATCAGAGGCCCAACCCTGTGGTGTGAATGCAGTCCTCCCACACATCAGGCTCCTTGACAGCTTCCTGCCATTATTCTGGCCCGTGTGAGGAGCACACACTCGAACTCAACTCCCTTAG
1 AAAATGAAGCAGATGTCTCTCTGATCTTATCAAGCATTCATCCACACACCCCCAGACACATCACCATTGTCAGTACCTGTTTGGAACAGGAGTCTGGAAACTTGCCTGGAAGCCACATTTGCATAAGAATGATTTTACATAATTTAGAGGGATGGTGCTGATGATAA
1 GTTTCTCAGAACACCATCTCAAAGTGTCCAGCCCCCTTTACTGTTAGTTTTGTTTGGAGTGCACGTCCTATCCCTGTCCAGTCCCCACCATGACTCATTGATTTCCTGCCATTCTTTCAACATCACATACGGACGGCGGCTGGAGGACAGAGAGATGTTTACTTTGG
1 AGGCCAGAAGTTTGGTTCTTTGAGTTGTCCTCAGTACTAACAGCCATCAGTCACTGAATGCAAGCTGTCCCTGGGGAGGAAGCACGGACTTACACAAGGAGACTCCCTTTGGCAAAGGACAATGGCCAGAGAAACAGGGTGATTTCTGGAGAGGAAATCAGCTGTTT
1 GGGTGGGGTGGTTGTAGGTGTGGGGTAGTTGTAGGTGTGAGGTGATTGTAGGTCTCCACAGTAGTTATAGGTTTGAGGTGGTTATAGGTGTGGAGAGTTGAAAGTGTTGGGTGGTTGTAGGTATGGGGTAGTTGTAGACGTGAGGTGATTGTAGTTATAGGGTGGTC
0.7640326980400344 GGAGAATTCATTTAAAAAGAACACAACAGGCTCTCTGTGCCTCTGCTGCAGCAGACTCTCTCTCTAGCATTGTTTCAGCTTAACCCCTTTGAGGTGGGACCACGCCTTTGTTTCTGACTTCCTGGACTCTAAAGGTTGAATTTCAGGTCACCTTAGTACACTTAGAT
1 GTAGTTACATTAAAAAAATAATCAGAGGAACACCCTACTGCCAGTTTTCCTAGCTGCAGAAACTTCTAACCCAGTTCTGTTTGCTTCATGACTGATCTGAAATAAAAGTCACCACACAATGTCCTTGCAAACTTCTAGTGCATTACCACTGCCCCAGTGTATTAAAA
1 TGCTATTTGTCACGCTGAGGAAAAGCTCCTGAGATCATGAACTTACTCAGGAAACCTGAGAGTCCACACCCAACCATTGTGCAAGTTCCAGGAGAGGAAGTGCTGCACAAATGGTAATGTGATGTGCATAGCAGTTGTGGCAGGACCCTGAGTATTATTTATGGCTT
1 CTTCTCTGTCAAGAGAGTGATGTAGTGGCTGACATTAGTAGCCTCTGAAGCAGTGGGAAGCAAACCATTTGTAAATGTAGGAAGCCAATTATCAGTAATGAAATATAGCTGAATAACAAAGAGTAATTCTCCTGCAGACTATAGGAATGGATTGAAAACAAACTTTC
1 TTAATTATTTGCCACAGTTGGTCTTCCTTGACCTAACCCACCTAGGGTGGAGTCTTCCAAGGTAGGTGGAAGTCTTCTGCTTTGTCACACTTGCAGTTTCCTGCAGGAGCAGACTGCCTGCTGAGCTTGCTTTGCAACATTGTCCAACTGAAACAAAGCAACATAGT
1 TTGAGATTTGCTCATTGTAGCGGGAACGGCAGGGCTGCCTCTAAATAAACTCTGGGGTCCGTGCAGCTGCAAAAACATCTCCTGCAGGAGGACCTAATTGGGGACTTCCTGTGACACCAGCATTCCTTCAGGAGGACCTAATTGAGGATTGCCTGAGAGAGCAAGGA
1 ATAGTCTAACAGATAATTGAGACCCAGCCAATCAGAAGCGGCTGAGCGCCAGCTCATCACAAGCTGTGCACCCTCAGACCTTACCAACGAGAGGAAACCTGAGCATGCCCAGTTCAGCTCCCCTGACCCTCACTCCCCCTGCGGGTCTGTGCTCTCCCGCCTGCTTA
1 TTATCCAAACTATTCATCCCCAGGTAATTACGCACTGCCTGTGACTCTCTTCTGTTTAGCCTGGAACGGGGCTTTAAAACTGCCTGTGCAGCTTGATCCAACTCCTGCTTCATCACAAGGCTGTCTAACGGCTGTTTCTCCCTCTCCACAGTGCCTAGGAGGTAGAC
1 TGGCTTTCCAGAAGAATAGCTGGGGACAGGCACACAATAAAAGTCCCATCTCCCAAGTTTACCCAGTGGACTTCCTAAAGCTTACACGAACATCAAAAGCCTCATATTCAGGAAGCAACCTGAACTGATAACATTCTGGGAGTAAACAATATGAGCATAAAAAGAAC
1 GTCCTCTGCCACCCTTCCTGAATTCTTAGGGAAAGCAGTCAGCTATAAGCCCCTAGGGATTAAGAGGGCACTAATGGCCTGTGACAAAGGCAGCAGGATAAACTCGGCTCTGCAGACTAAACAAGGCTCAAGGGGCCAAGTCAAACAAAGCAGTAGTTTTGCGCTGG
1 CCCTGAGACACCAGAAACTTGATCTGTGCCCAGAGCGCTCCACCTCCTGGTGACATTTCAAGAACAGAGCCGCTGCTGGGCTGCCCAGTGCTCTGGCGACCTTCTAGCGTAGCTCGGATGACACATCACAGGATTTCCTCAACTGCGCCCTGGCGTCCTGCTGGGAT
1 GATTGATGAAAGCTTTCATCAACCTTTGCAGCCATTGCCGACCAAAATACTGCAGGGCCTGTGTAATTTGTTTTCATTTACAAAGGTAGAGAGGCTTTGAATTTAAAAATGGAACGTTTTCTTCTTGTGCCAAAATGCAAACAACTTAACATCCACTTCCCATCTAG
1 GCAAGGTGACTGAACCCTTTGAATAAATATATCTCCTGGTAGGCAGGAAGGAGAACCACATCAGGAAGGCACTAGGAAGAGGGCCAAGAACAGAACCAGCTGTGCCTTTGTGGAGAGACTGGAGTAGCCAAGTCCTAAGTCTTCAGAAGCACCCCTCCACACACACA
1 TGGTCTCCTAAGATCATGCTATTTAACCCAGGCAGGCAGGATTTCATTGTCTCATGACTAATCTGTTGTGCTTTGAACACAAGTCAAGCTGACATTGTTATCTTTGTACAATCCAGTCCTTGTAATATTGTGTTACTATAAAAATTTTGCCTTAATATGTGATGGCA
1 TTTGCCGGACCTGGGAACCTCCTCCAATCTCAGCATCTATCCTCCCTCCTCTCAGCCCAAACTGCTTCCTGTCAATCATCCTGGAACACTGAGTGCCTGTGGGACAATTTTGTCTACAGGATGTTTGTCTGAAGGCAATGCCTTGCCAAGACTCAAAGCTCAAGGCT
1 CTGTTGGCTTGATTTCCTGAACACGAGGCTTGGTTTCTCACCTCTCTGTATACATGCCAACTTAAAAGACATTTTTCACTGAGAAAATGAAACCACAGTGATGTGGGGTGTGGCGACCTTTGCTCATGATCCCAGCATTAAATAGGTAGAGGTAGAGGGACCAGGAT
1 CTTTGGAGTTAGGAAAAAGTTCTTTCCAGCCAGCTACTATGCCTTTGAAGGCTGAAGTCCCTGTGTATTGGTCTCCACCCTCTCAGATGGTTTGGGGAAGTATTTTCCAAGCTCCTTCCTGAGTGAATTTCCTCAAATTTGAGCCAAGAATTAGAATGGACTGTGGC
1 CCTCCTGGTGTGACTGACAGGCATCCATCCCGCGAACCTCCTCTCCCAGAACATCGCCTGAGAGCCCCAAACCCCAGCAGGACGTGCCCTGAGGCTGTAGTGTCCGAGGGTCCTGGCCCCCATCGCCGGCCTCGCCAGCGCAGCCGCGAGGTCCGGGGTGCGTTTAG
1 TTCTTACAGTGACTTCATTCAGAAGGATGCCCTATTGTGTCGGCAGAGTGAAGAACACTTCCTCTTGGCAGCGAGAACAAAGACTGAGCTCAGTGCAAGCTGGGTAAGGAGGTAAACAGAGTTAAACATCACAGGGCTTTAGAGTCAGACAGACGGACCTGAGCTCA
0.6365029500800613 GAGCAGAGTGGAAGCTGGGAATAGGAAGGAATCCTAGAGGCAAGTGCTATGGGAGGAGCTTAGTGGTGTGGTGTGGGCAGCCTAGCTCTGACAGTAAAGTCCCTGAGCAAGTTGTGCTGAACTGAACTGTCCTGAGGGGCAAGGTTGGGAGGTATCTGGGAGATTTC
1 AGGTGGGGTTCTTGGCACACTCCAGTTCAGGGATTAGGTTTTCCTTGAAAATGAATTTGTTTCCACAATTTCAGGAAGAGATGCTCCCCCGCCTCCTCCAGGATCCAACCCAGTTTAGCAGCCTGAAATAGAAGTGGACTTTTTCCAGGTAGAGACTAACGATCTGA
1 GCTAATCTCTGAATGGCCTTGAGAAACACTCCTCTCCCCATCACAGGCCACAGGAATAGATCTAATTCGGGTGCTATACAGACTATTTTGGATCTGAGACACTTCCTGGCAGGACTGAGCCCTTGTTTCCAGAAGGTTCTTTTGGAGTAGAAGACCCAGCAGTGTCA
1 TGTGAATGGGAAATCCATGTTACCAGCTTGTCTTGGCTCTGCCTCAGAGGTCCTTCCCATAACAAGGGTCTAGGTCATTGTATTGTATAGAGTTGGCTCTCTAAGATCTCTTTCAGAGAGCGTAAGGGACATTCCTTTTCTTTTTGTTCTTTTCCTTATTTTTATTA
1 CGGTCGGGAACATGGGGGTCAAGTGAGAGAGCCAGGTGTCTCCAGCACTCAGCATGATATCTGACACAAATCAGACCCCTCACTTTTAACACTGTACCCTAAGACTTGGGGCACAGGCCAGGGACTTTCCGTTCTAGGCTCTCTGGCTCCTGCTTCTTGGATTCTGA
1 AATCCTTGTCATTTCCTTGTGTTTGTTGCTCCTGCTGCCCGGTGAGGAAATGTTCTTTGACCTCATCCTAGGCAGGAGCTATTCAGACCTAACTCAAGACAATTGTCTACTGGGTGGGCTGGGGATAGAAGGTGGTGGGCTGTACAGTTTGCCCTCATCCTGAGCAC
1 AAAAACTTGTCCCACCTGGTTCCTCCATGAGGGAAGGTGAACAGGTCCTGAGCCCAGGGCTGCTTGTGAGTCATTCCAGCTGCTCTGGATGACACTGTGATGGCTAAGCCAGGTGCCACAGTGCGGTACGTGCCTGTAAGCCTGGGTGATAATGGCTGCTCTCCTCA
1 TTAGATAAGGTAACAATAATAGCTCCATCAGGCGTAGTGTTAATTGTCTCACTTCTCGCTGGAGCATTGTGCAGACACAGCAACCCGAGGCCACCTGCCTGCAGGAACAGGGAGGAGCTGAGCCAGTCTCCTGTGGTCAGGCTGACCTCAAGGTCATTGTGTGCCTG
0.5650806630947808 TTCTCTGGCGGCCCTGAAATAGCCAGGCTTTGCTCGCAGCCCCTGCACTGCGCTGACAAGCAGATCCCAGAATAGCTCTTCCTGCCGCAAGCTGACCTACTTAGCAGGTCTCCTGTCATGTGAGCTCGGCTAGGCAATAGGTTCACTTTGCCTCTCTCTACCTAGAG
1 TCACGTCTCCCTCCCCAGTTGGAAAAGAGGAAATGCAGAAGAAGATACTCCCTGAATCCACGCAGGGCTTGGTTGGCGGTGAGTGGTATGTTCTGTTTCCCAATTAAGATGCAAGTTGCATAACATGAAATGAACCATTTTAGAGGGAAGGATTCTGTGGCATTTAA
1 CTCTAGCAGTCTCCAGAGCAATGGAACGAACGCCTAGCACACTCCCGACACGGAGAAACTCAGAGAAGTCCATTCCTCTAGTTGGTAGAGGAGCCACGATTCCAAGCTACTCTGCAGAAACTGCCTCCAATTTAGAAGAGCCAAAGATGTGTGAGATCATGAGCTGT
1 AAAGCTAAAAATATCATTTTTCTGTAGCTGTCATAACAACATTTGGGCTAATTGATTCTCAATAGAATAATGACATCCAGTATGTAGTGAGAAATATTCATGAAGAGATCTGTGAAATCCTCGAGGTGCCGGGCCGTGCGCAGCCCAGGACAGCGGGAGAAGGCGGC
1 AGCATGCTTTTGGCCCAGTCCTACAAGAACTTGTCACAGTCGGGGCTGCTTTCAGACGACCAGCCTGTGAGACTATAGCAGGACTTCCTGTTTCCTCCAGGGAAACGGGCTGGGAGCCAGCCAAGTCCTAATGCGGTGTCCTTTGAAGGCGTGCCCAGCTTCCCCGG
1 GCCGGGAGGAAAGTCTGCCCTCTCTTGGTGCTTCCTATGAGCTGTGAACATATTCAATCCAGTGAGGATGCTGCTAGTGAAATGAGAACAGCAGTTTCCATAGAGAAGTGGGGGGCGGGAGCCAGATTGCACAAGGATTAAGGAAGGAGTGGGCGGTGAGGAAACGG
1 ATCCCCTCTGGCAGCCACGCGGGTCCCTCTTGAGCTTGGCCAACCTCCCCACTGCTGGCGGAGGACTTTTTCCTCTGTGAGCAAGGGAGGGATTGGGAGAGGTGCCAGACAGAGCCGAGAGGCAGTGGGTTTCTAGGTCTGGTACACATCTTCCCCCACCCCCACCA
1 TGGCAAAAAGCTGGGAGCCAGTGTCAATTCTTCCATCTGTACATGCTCATTTGACCACCAGGGGGAGACAGATGCCCGTTAATGGAGAGGTCGGGGTATCCGGCAAGGGGTTAGTCACCGCGAATGCTCTTTTGAGAGCGTCTCAGGGGACTAGCGAGCCTAGGGTA
1 GATGGCGCTGACATCCTGTGTTCTAAGTTGGTAAACAAATAATCTGCGCATGAGCCAAGGGTATTTACGACTACTTGTACTCTGTTTTTCCCGTGAACGTCAGCTCGGCCATGGGCTGCAGCCAATCAGGGAGTGATGCGTCCTAGGCAATTGTTGTTCTCTTTAAA
1 GAACGCCCATATCTGTATTGTTTGACTGCTTAGCCTGTGCCATGTAACCAACCTATCAAACCCTTCCAGAGAACTCTCCTACTGACAAGAAGTCAGGCGTGAAGACACCATTTGGTCTCAATGGCCAGTCAGAGTATAAATGAGTATTAGCCACAAAGAAATAATGA
0.7400613554325666 GCTCCAGCTTGCATCCCTTAACAGAAGATTGGTTGACCCAGGCGAGTGCCTCTGTGAGTGCATGCGCACTGGAGCAGAAGCAGCTAACACAGGCCCTGGAAACTGACAGAGGAGCCACGCGTTTGCTCCTGGAGACGCTGTCTAACATTAACATGCAGGTCTCAGCG
0.5569214629742999 TGCCTGGCTAATCTGCATATCAGAGTGGGAGTGGGGCTTCGGGTACATGAGTGGGTGGTTGTGTGCGTCAGTGTGTGGGGGGAGAGTCTGTGTGTGTATGGTGTGCCTGGGTGCAGTCTTTGTGTGTGTCTGCCTAGGCTTTGTACGTCAGGAGCTTGGATGTTGCT
1 AGAGCCAACCCTCATCTGGAGCAGCACTCTTGTGAGGAGCTGGGGGCCTCCCCTCTGGGCCTCGGGATGAGAGGGGGAAGAATGGCTGTTTGTTTCTGTAAGTCCAAGAGGTCACAGAGGCCAGCCCGAGCCTCCTTGGGAACAGAGTGTGCTCTGCTTCCGGAGGC
1 CATCGAAAAGGCATGGAGTTCTGGGTAAGGCAGCTAGTGAAGAATGTGCAGGAGAGGCCCGACCAGAAGTGAGCCGGTTCGCTCCGTTTGCAGCCTGACAGGGCTCCAGTGTATGCGAAGGTGTAGAAGCCTGCTCTGTGCGTGGCGCGAGGGGCGGGGGGGCGGGG
1 CCCAGGGTAACTGCGCAGTCATCAGGACAGTTGTTCCCAGTGCCACCTGCTGCCAGGAAGCCACTCATCCCAGGTCAGGGCTTGGCTATGCACCCTGGAACAGCTGGACAGGATGACTCTGACGAGAGCATCAGAGACAGGGCCTGAAGCCTCCAAACGGAGACAGA
0.9548863066816937 TTGTTTTTTTTTTTTCTCCCCCACTGAAGAGGCAAGAATAGAAAACTCTACCTGCCAAGACAGCCTTCCACCCCCAAGGCACAAAGGACAGAGGAAGCTCCTGTCCCCAGCTTACTGGTGCCTGAAATGCCAAGGCTTCTTCCAGAGGCTCCAGGCTCTGTCATTTG
1 CGAAGTGTGCGAGGTCCCCAGTGGACAAGAGAGGTGCTTTGAGCTGCCTAACCCTGCCTGCTGCTATGCCATTTACGCTGCTCAACGATCCACCCCGCAGCAGGCTGAGGAGTGCCAGTGTCTAAGGTTTCCGCTCTGAGATCTTACCTGCCGCACCTACCCTGCCA
1 GAATGGGCAGAACCTCTGACTTTCACGGCAAGAGTTAGACCCAGGTCACTGACAATGATTCATTGTTACAGAGACCCTTTGAACCCTTTGGAGCCCATGCACTTAAAGGAAATCCTGTCCTCTAAGGCCTGGGCCTAGGCTGAGATGTAGGCCTAGATAAACATATG
1 CAGCAGCTCCAGATTATATCAGGGACTCAGGCCTGAGGCACACCTGTCACCTGGTGAGCCACGCTGAAACGTGCTGGTCTGCTATTTTCACGGCAGTCTATCTTTAGCTAACTGGAAGTCTGTCCTTAGCCTCATCATATAGTTCAGAAACCAAGATTCAGAAAAGT
0.08097716640401101 ACATTTGGGAGTTGGGCTGGGCTGGTTGGTTTGCTTCCTGCGAAGTCGAGGCGTCTAAGCTCCTGGAGCCAAGCTTCCTCTTGTATGTCCTTATTTGGGGCCTGCCTGCAGCCCTTCTTCCCGCAGAACGCCCTGTACCGCTGCCTCTGCCCTACCCAGGTCCACAA
1 CCGCTCCACGCTCCGTGTCTTTCTCAGGTTTCAGGTTTCAGGCCTCCAGGGATCTCTGGCAAACACACCTCCACCCTCAGTCCAAATAAACCACTTCCTCCGGGGATCCACAGCACAGAGTGCAGGGCAGCTCCTTGCCGCTTAAGTTGTTTGTGTAACTCGAGGTT
0.9639949331723823 ACTGAACTACACTGAGGAGGCAGCGCAATGAATGGATCGGCCTGAGGTCTGGAAGCACAAGGCTGGAGTCTTAGCTGTTACATAGCTGGATGAGGAAGAAACCACATGACCTCTCTGGTTGTCAGATTCCCGGCCCAGTGGGTAAAGTCTATTGTGATAATCAGGAC
0.420055893361981 GGGACGCCAGCTCTTTATCGCGGGACTTCCGGGTTGTTGCCGGAAGCGGAAGTTGATTGAGGGACTAGCGTAGCGGCAGCGTCGCTCTAGACCTCAACCGTGTCACGCTAGTCTATGGTTTTAACTCGCCTCTTCTCCATGCTTCGGGGCCAAGCGCTGTTTGGGCT
1 TTTCTCCCTCCCTCTCCTGCAGGTGGCCCACTGCCAGTCGGGCACCAGCCGGGTTGCCATGGGAACCGCTGAGCAGCTTAGGAAGCTGCCATAGATCTAATCACAGGCTGTGAAGCTTCAAGGAACAGCTCCCTTTCTGTAGAAACACCACTGACAGCCAATTAGGT
0.8488582271688536 ATGAAGAGAGGCAGGATCCAGGCTGCTGTTGCTCCTTTTTTAACCTGAAGATATGAGGCAGAGCTGAGTCCTGTGCAGGCTGAGCCATCTGACAGGGGGAGAGCGGCTGCAGAGAAATTGTGTCAGGCTCATTTGAAGTTCCAGGCAGGGAGCAGGAGTGTGGAGGC
1 CTAAAGTGAAGTCATCTGGCTGGGCCCTGACTCAGAGTCTTTGTTAAAAAAAGCGTGCTGGAGATAGGAACCTCTGGGGAGGCTGCACAGCAGTTGCCTGTACTGAACACTCATGCGTGGTGCTTTGCTGTGACAGCCTAGCATGGCAGTGCAGGCAGGGACTTCAT
1 GCCGGAGAGGTGGAGGAAGTGTCCCAGTGTGGTGCATGGCTTGGCCCAGCAGTACTCCCCAGCAGGGCAGCTTCCTTCAGTGTGAGTGTAAGAAAGACAGACAGACAATGCAGATTCACCAGCCCAGGTGACCACCCTGAGCCTAAGCCTTTATCTTCTGGGAATCT
0.7400320606177581 GCTTCCTCATCTTCTGACACTTGGGTCCTGAGCGATCCTGCAAGGGGAGAATCGACTGAGGGCACCGTTTTCCCGTTCCCTCCTTTCAGCACCGGAGAATAAGACGTTATACAATTAGCCAAAATCACATGAGAGGGTTCGGGGGAACAGTTTAGGATTAAATTTAG
0.3810503187930178 TCCATACTTCCCCAGTCCTCAGAGCCCAAGAATGAGCTCCGACTTGAGAGAACAGAAAGCTTTTTGGTTTAAAATGCCGGGTGGGGCGTTGTTTCCCGCTCCGGCTGGGGCTGGAATCCACCCATTGTGATTCAGCTCTCCCCGCTGTTCCTTGGAACTAGTGAAGG
0.9008749095701457 GTTTGTAAGTCACCTCTCTCCAAATTCCCGAGGGTGGATGCATTCATTCCACACATACTTACTAAGGGCTGGCCTGTACAGGCTGCTCTGTGCGCGCTGACAATTGAGGGAAACAAACAAGTCACATGGGGGCGGGGGCAGCTAAGGTTCACGTCCTGTGACCACAG
0.4588596252087744 AACCTCCATTTCTATTTCTTCCCTTAGCTGGAGCACACGCGCTCTGCCCACACCTGCCAGAGTGCTGTTCTCCAAAACCCCTGGGTTTCTTCACGGTCCCTGCCAACAAAGTTCCCACCTCCTCCTCACTTCTTGCCTGTTCTCTGCTTGAAACAGCCAACCAGCTA
1 AGAGAGGATGTGGGCTCCAGCATTCTCACACTGTCTCGGGTACACAGGCTGAGGTGACAAGCTGTGATGTATGCCACCTGGAGCCTCATGTCTTCATGTCACCAGCAAGCCGTGCAGTGCCAGCTGGAAGCTTTGGAATGAGCCTCCCTAGGTGGAAGAGCTGTGCA
1 GTCCCTAAGCTTGTGGTGAGATAGAAGGGGACAGGGACTAGAGAGTGAGTGGAAAATCCCCTTGGCAACTAATCTCTGTCCTCCAGCCTGACAGTATGGTCTAGAAGCCTGTTACAAACTCCAGGGTGAAGGTCCTCATTGATCAGAGGGATAAGGGGTCAAGGGCT
1 GGAGAAAATGAAGCTTGTTCAGAGGAGAAATGAGAGGCTGGGGAGGAATAATGAGAAATGCACCTGGGTGGCAGGGTAAGAACTCCAGGGTGCTTGGCTTTGAGACAAGAAGACTCAGAGCAGCCAGGAGAATGGCATTTTGGGACAGCAATCATGTCCTGTGCGAA
0.3913413322972287 CTGAGGAACACAACTGTCAACAATGTAAACGTCACTGTCCCCAGAGCTGGAAATGGCAGGTTACATAATGCATCCATTCCGCTCACGTGTTCTCCCAGACCGGAGCTCCAGTGGCTGACCCTTGTGCCTCCTCCAAGAGCTGGAGGCCTGATGTCTGAGATCAAGGG
0.922666291442947 GCAATTGAATCAGTGGGTACTGATGCCTCCCGAGAACTAAAATGTCACCACAGCTCTGGGCACGTGTCACAGCTCAGAGAAACTGCCACCTTCTTCTTCCTACATTGATCAACCAGCTGTCTTAGGCTTCCTCCCACGGCCTTGAGGAATCTGTTTCCTCGGGATTT
1 TACCTTGTGACCTCAAAGGAATGTCATTAGGCTAAGATGTGCAAAGCATCCTGAGGACTTCCAAAGCAAGTGCTGAGTCCCAAGTGACACTCCTCTCCCAGCAGAACATAGAGGAAGGGAATAAATATTTGTATGATGGGCTAATTATTAGCGACAGCTTTGATGTT
0.4048717106500686 CATCCTACAATGAGCAGTCAGGAAAAAAAAAGAAATCAGCTCTTAGTATCAACTCTGTTCCCTTTGTGCCAACCGTGGGTAGCACGACATCACCCTCTTTGCGCTGTAGGAGTCTAGTGGAGTCACCTGGCTTCTGGTGGCACCCTCGGAGAAGGGAAGAGATAAAA
1 ACTCGCTCACTCCCTTTCTTTTGACATTTTACTGCAAAGCGAGATCAGATGGGTATATTTAGTTCCTTTTGTTGGTGAACGTTTCAAAGGTGCTTCTGTGTGGCTCTCATTAGCATCAGGTATGCAAATGGGGAACCTGCTCCTTCTCCTGCTGAATCATGCCATAG
0.8404640721496859 GTTCTGGAGGTAGATCTTTGAGGAAATGGCATTTGAGGCAGCCAATGAGGCTGGATCACCTGTGTAGGGGCGGGTCAGACGCTGAGATCCTGTTCCCCAATTTGGTTCTTGATCTGTCAGTAAAGAAGCCATGGGCCAATTGCTGGGCAGAAGGAATAGGCGGAACT
1 TGGGCTTAGGAAAGAGTTCTGCTGCCTGCTACCCCTCTACACCCTCTGGAGCTTCTCCATTGGAAGGCCCTGGGTAACTGAGGAGGAACTCTTTCCTCTGAATCACAGTCCTTCTGGCACCAGGCTGGTGGGGGCAGCAGGGAAGACTTGGGTCTGTGACTGCTTGG
0.1614641178815929 AGACTCTGATTCTTGGAACTTACACCCTCTTGGGTTTGCTATTTTTACCCACCCTGAGCCTTCCGGTCTCCATGGCGACGCCTCCAAACAGCAGATTCCAGGCGGCAATGACGTCACCTTTCCCTTTCCTGCCGCCCAGGCCTCTAGGCGCTGCTGCTTGGGGCCCA
1 TGGTGAAGGAGTTGGGCTGTGGTGGAGCCTTGCCTGCTCAGTTCTCCCTGCCCCCATTCCCCAGCCTCAAAGGTCAGGTACGTCCCAGCCTCCCTCAGTCATGGCCATTTATGGCTCTGTTGTTCCAAAATGTGGCCAAATTTATAAACTCCCCTTTCCTGGAGACA
1 CCAAGAGTGCCAGGGCAGGGTAGGCGGGGAACTCTAGTAACTAAGGCTGTGACTGGGCTTTGCCTGAAGTCCACAATGGCAGGATGCCCAGCAGGGCTCCAGCTTCCTGCCTTCCCCAAGACCTGGCAAGGAGCCTTGGGGTCAGGACTGCATCCTTGTTCTGTGTG
1 GAAAAGGTGGCAGAAACTCAGTACTGGCTTTTATGAAGCTCTAGGCTAGTGAGCTGCACAGGACCTGTACATGCATTCCTTTCAACAAAGCAGGCGCATGGACCCAGTGAGGGCTGCTGGCTTTAGGGCTCTCCACCGCATTGCACTGGCTCTGTCACTATAATTTA
1 TTCCTCCATCAGGGGCGAGCAGGACTGCCTGCTGGGCCGTGAGTCACTTCTTGCTGGCAGACACACTTCCAGGATACTATGCTTTCTCAGAGCACTGCTTGATTCAAACAACATGTCTCTAGAAAAATAAACCCTGTGTCCTCACTTCACCTAGAGAGTGCAGGCCA
1 GCTCAATATACAGAATATTGCATTGAGTTTGCAATGTCAGCTTTGTTTAAGAGTCATATTTTCAACTGCTTGCCTGTAGCCTGCAGCAGTGCAGACTGGGTTTTAAAGGGAAAGCTTCCATTTCCATGACTGCTAAATGAAAACATTTCAGACCTGGAAATGAAGTT
1 TTTTTGAGGCTGCCAGGACTCTTGCAGCAAAGGAGGGTGTGAGCAAAGCTGCCTGTCTTGTTTCTCAGAAGGCCGGCTTGGCCGCAATCCTCCCACGGCCTCCCCTGTTGTTGCTTAGTCTTCTCACCTTGGCCTGTCTGCTGGGCAGATGCTGAACGGAAGTCACG
1 GCAAGAGGCAGCCAGAAATTCTCAATCATCTGAGGGATCTTTGAAAATCCTGCTTTGGGTGGAGTGACATTTGCTAGCAATGACAACAGTGAGGTTGGCAGGCAGCCCTGGGTGCAGCCAGAGAAATCCAAGCATACTGTTTCTTTGGGGTCTGTATCTCAACACTT
1 CACACGCATGCCCGGTGCCTTGGAGGTAAGAAGATGTTGGATCCTCTGGGATTGAGGTTACAGATGACAGTGAGCTGAATATGGGTTCTGGGAATCAAATATTCAAATATTCCTCTGGCAAGAATAAGAAATGTTCTCATCTGCTAAACCAACTCTCCAGTTTTATA
1 TGTGACTCAGACAGGAAGCCACCCCTCAACCTATTTATGCTTCCACCAATAACAGTGCGGGATGCCTGGTACCCACAGTGTCATCATCGATGCCTTTTGTCAGTTTAGCGGGTGACAAACAGCCTTTCCATTGAGTTTGGATCTTTTGGCCTAACCCAGGTGTGTGG
1 AAATAAAAGCTTTGGTTCTCGCCCACAGGAGTTCACCTTGTGGTTGCATAGGGTGGGGCGGAGAATGGAAGCTGGACTGTGACTGGATGAAGGCACACGGTCAACAAAACCTTGCCTGCTTCCTGGGCAGAGCACAAAAAGCTCCGTGTTGACTCAGCTATTTGCTT
0.6081879240908462 TTATAGCCAGGAGCAGTCACGGGGCAGCAACCAGCAGGGACAGGCCAGGAGGTCATGCTGCTCCTGGAGTCAGGCTCTTCATAAACACCCGCCCCTTCTCCAGTGAGCCTCCTGGGAGGGGACAGCTCTGAACACACGGCCCTTGCTGGGCAGAGCACCAAGAACCA
1 CAATAGAGATACTGCAGTACAAATTTTCTCCAAGGAGAGCACCAGATCAAAACGGTGTTGAGCCACGCACTTGCGGGGACTAGTTCCTTTGCTCTTTGGCGGAAGCTGGATGGTTAACATACAATTCAATCAGGAAACCGACGCCTGCTGGTTTGTTTGGTTTTTTG
1 ACATGGAGGCGCCCCAGAGCCATATGAAAACAGGAGCCTGCAGCCATGATTAGCCCTGGATTCTTGAGAAAAGCTTCTTGTGGAGGAAGGAGAGCACTTAAAGGAGCGAGAGCACAGGGCTTGGGGGCGCTCCTGGGCCATATGGCACCGGAAGCTCCGTGGGAGGG
1 CTCTGCCTTCTCAGTAAAGCCAAAGGCGGTCTGTGTGGAGCAGCAGGTGGGAGGCCACGCCCTTAATCCAACCTTTAGCTTGAGATACTGCCGCCCACTGGCAGAGTTTGCAGGGTTTAAGGTTCCAAGTGCTTGAACTGCTGAACTCTCTGTCCCTGGAAGGAAAC
1 GGCCTGGGGGCGCTGTCATTCAGGAATGAGGTAGGTCATGCTGAGTATTCCTGCGCACACCATCCTCTGCATAAGTAGAACAGATGAGTCAGACTCTGCAAATCCATCCGGAGCTCTTCCTGGGAGGCTGCTAACCCTCCTCTGCTAGCCTTGCTAAAGATGAGAGG
1 TTCTTTGTTTCTAACACCAGGTGCTCTGGCCTCACATCAACCACAAAGGGTTGCTAGCTTCTGCAAACGGCTCCTGCCTCCTCCATCAGCAAAGGGGTCAGCAGGCTAAAGCAGCCTATGACTGAGGCCCCAGGACTTCAGAGCAGGGTGGCCCAGGCTCAGGGGAG
1 GGCACCTATTTGCTACCTGCCTCTAATAGCTGATCTACTTCGAAGTGAAAAGTGCATTCTCGTTGGCGCCGTGGCTTAGCTGGTTAAAGCGCCTGTCTAGTAAACAGGAGATCCTGGGTTCGAATCCCAGCGGTGCCTGGTTTATGTGGGAAGTGATATATTATTGC
1 AGCAATCAGCTACCCTGATGCTCATTTTAGGGGCAGGCTGGGCAGGGCTGAGGGAAGGGGTAGGGAGCTGAATCATTTATAAAGCTTAATAAAGATGCAGATGAGCGGTGCTGAGTAGGAACCCCAGAGCTGGGCTTATTCATTATTCAAAGTTATGCAAATGCCAC
0.9061922496823953 CCCTCACACTGCAGGCTTTGGCGCCCCCTGCCGGCCCCGGAGAGCCGTGCCACGCTCCGAGTCCCAGCGATGCCAGAAGGGCATGTCACTGCTGGGGCAGGATTAAGTCACTAGAAAGAAAGGAAATGAGTCACCACTCTTCGCAGCTGGGGGCGGCCTGGGGAGAG
0.4547016077278543 CTGAGGTCCTGGGCATGGGGAGACAATATGCTTGGCTCCTGCCCAGAACAAGATGGGAAAATACTTAGAAGCATCTGAACTTACTAGGTTTCCAATCTTCAGTCCCCAAACCCCTCCACAAAGCCTGGAAGGAGACCAACCCGGCTTCCGAGTCTCCACTCATCTCT
1 GGGAAGCAAGGACAAGCGTGGGTGTGTTCCAAGCCACCAACCTCTCGCTAACAACCCTGGGATAATGAATGAGCCTTCAGCAGACGCCTTTGCTCTCCGGTGAAGGGAGCGCCCACTGCAGACCGTCCCTCTGCAAATACCATTGTGCTCCAAGAACCATCTGGCAA
1 GGCTGGCCCTGGTGGGAGAAGAAGCAACATGCTTCAGAACACCCTGTATTAACTCTCTAATTAATTCACTCTGCTCACTGCAGGGAGCTGGAACAGGAATGAAGGATGTGGGAGGAAGATGTACCGTTCAACAGAGGAGCAACATCTCAACGAATATGGATACAGGA
0.4711805299079206 TTTCCTTTTCTGCGAAATCGAAACCTAACAAGGGTGAGGCCTCAGGAAGGAAGTCAAACCTGGCCCTTTGCCTGGGCTTGCTTCACTGCTCTGGGTTCCAATGACTCTGTCTTCATCCTGAGGGTTTCCACCCAGCTCGGTCCAGCTCAGGACTCCTGAACAGGTTT
1 TCATGCTGGTGGTGAGAAGGGGGGAGGAGCATCCGCCAGCACAGCGACTGCCGCTCAAGAAACGCCAGCAGTTTCTAATTTTACACTGCCCTACATTTGTTGCTTTTTGGGGCTTTTGACTCACTCTACGAGCTTGGCCAAACAGAAATGCCTTTTATGTTTTATTA
1 GAGCTACATCCCCAGCCGTCCGTATCCCTGTCCTAACACACTGTTCTGCAAGCCTGAGCAGACTGTCTCCGAGTGGAGCGTGCTCTTCTCGGAACAGGCTTTGCCTGGCTGCGTGGAGCTAGTCTGGGTGCTTGTCTTGCTGTGCGCTAACCTTTGTAGATAGTGGA
1 AGATTTTAACACTAGGCTAGAACTGGGTCCTCTTGAGTGCTAACAATTATCCTACACACTTCCTAAGTTAGCTCAAAAATACCGACACTTAAGAACAGGTCAGAAGCACCTGATCGCTTTGAAGAGATAATTTCCTTAGATGAGACAAGAAGCAAATGAGTCGTCAT
0.2844751147992757 TAGAAACTGAAAGATCTGGTAATGCAGGTGCGCGGTGTCGTTAAACTCATAACCACCCATGGCTCCGCAGCTGTTGCCTCCTTAGCTGAGCCGTGTGTCCTCCTCCACCACAGCATCCACCGCTCCTTCCATCCTGATCCTTTCTGTTCCCAGGCAGGTATCCTGTA
1 CCGAAGGGCCCCTTTCCTTCAGGCTTTGAAGTGTCTGCTAGGTTAGTGGAGGATGTTTGGCTTGGGGCCTTGGGCCAGAATAAACTCCCTCTGCCTGCCTCTGCCTTCTGAGCCAAACCACTGCCTCCTTACCGCCAGGCTCCTGCCTCTCCCAGCCCTGGGTCTGG
1 CCACAAAAGGACAGATTCTGTATGATGCTTACATAAGGTACCTAGAGGAGTCAAGTTCACACAGATACAAGTGGTTGCCAGGGGCAGCAGTGGGAGGGGCCAGGGAGTTACTGTGCTAGGCAATAGTTTCCACTGGGAAGATGGGAAACACCTTTGCAGTTTGATTT
1 AAGGGAGTCAGGCTTACTCTGACAAACCCAGGAACTGTTTGGCTATTTTTCTTGGCGCGCCTGGGACCGCGGAATTCTTATCTTGGCATAGATCCTGGGCAGTAGAGCTCTATAATTTGCTGTCTCTATCTGGGGGCGAGAAGGCACCGAGTGGTGGCCACTGCGCG
1 GGCGACCGGGAGTCGCGGGGGTGAGGGTGGGGTCTACCACGAGGTTGCGAGGGAGGAAGAGTGGGCGTAGCCGAGTGCGCCTTTGAGCTGCTTCTGCCACCTAGTGGCTCTTCTGAGCCAGGCCACCCAGCTGCAGTTTGGTGAGGCTGGGATAAATATTCACAAAC
1 GCCTCTGCGCCTTTCTTATCTCCATTCTAAGCGGCACCTCAAACCGTCTCTGGATCAAGCATCCGCTGTTCTTTGGGCCTCTGTAGATCTCTGTGCAGCTGCTTAGGGAACCCGAGGCTCATGACAGTCCTCGTGAGAAGGATGGACTTGGGAGAAACTGGGGCCTG
1 CAAGGAGCAGACAGCCCTGCAGGCTCAGCTGCAGTGACCTACATTGGCTCTCCCCTAGGCCCAGGGTGTGGGGGTTGAAGTTTCCAGAGAGGAACTTGGGAATCTGGCACAGGTCTATAGATGATGACGTCAGTCAGGCAGACAGGCTGCAAAAGTGGCACTGGGGA
0.942390007726985 CGCATGGTGTCGTAAGTGCTCAAGAACTCCCTCTAGCCCAGGCTGCTGCCTCAAAGTCACCCTCAAGAGGGCACTTTAGTTCAGTGGCTAGCGGATGCTAGCTAAGTGGGAGCCGGAGGAAGGAAACACAACAATTGACCACGTGTTAGGGGTGGCTCTCGCAGGGG
1 TAAGTACCCTGCCAACTGAGCTACATCTCCAAGCCAAGCCTCCTGTTTCTCAGCATCTAGACACTCTCTCCCTTGCATCGTTGCACAGGTGAGGGCTTGAAGGTTGGTGGCAAGGAGATAGCAGGCAGGTTGTTTGTTGGCATCTCCTGTCCGTGCTCCATGGGCAC
1 TTATTCTTGCTTAGAAAGTCTGTGCCTGTGCTTGGATATGTGCAGTTCTCTCCCGAGTGCCTCTCTTTCTAATAGCCACCTACTTAAATCTATGTTAAAAATATCTTTTTTTTGGAGCTGGAGAGATGGCTCATCAGTTAAGAGCACTGACTAATCTTCCAGAAGTC
0.2351223635703621 TATGTAACTTGTACCTCTTTTAAAAGAGAAAGAACAGAGCTGAATTCCCATGTGAGTGGGCGGGCAGAGGTGAGTCCCTGACAAGGGCAGAGGAAGGGAATACAGGGCAGAATTTATCTGGGTTGCAGGAAAGGGGAGGGAGGGAGGGAATAAATTACAGCGTGCTC
1 AGGGGAAGGCCCGGGGGAAGGCCAAAAATCCCAGAGCACTAGTTCTAGCAAAGGAGCTGCAATCCCAAGGCTCCAACCGCCCCTTGAGGGGATGAGATCCGGTCGTCCTGGGCCGCCAAATACTTAGATAGATAAGAGAGGGGGAGTGTGTGTGGCCCGGTCTAGGT
0.5079160421492173 CTTAGGGTGACCAATAACAGTATATGGCTCAGAAAAAGAAAACGGTGACAGACGTGGGTTATATTGTAGGCCGAGGTGGGAAGCTACGACAGAAACAGACAGCTACCAAAACGCTCATGAGTAAGAAAAGCGAAGTAAGAGCCACAGGCAGGAGAGAGGAAGCTTCG
0.7429655700896941 GAGCTCAGTCTCGGGTTTAGAGTCTCAGTCTCACCACTGCCGGCTGCCTGGCTGGTGGCGGAGGCTGGCAGATGGTGAAGGCTCCCTAGCACCCTGCTTGTCATAAACGTCAGGCAAAGTAGGCGAAGCAAGTCCTGAAATAACTCCTGGGGTGGAGAGAACTTAGC
1 CCAAAGAGAACTGAGTCCAGAGGCCACTTCCTGTCGCTATGGTGAACACTAGAAGAATGAGCTCAGGTTTATGCAGCCTCCAAACCAGGGCTCCTCATACCCTGGCAGAGTACCAGGTCTCAGTCTCCAGCACCTCCCAGCATCCAGTCTCATTGTGGCTGCACTGC
1 TCACAGGTGCAATTTAAAAGGATACCGCCAGGAAAGCATTGGAAAAAGCAAAGCTGTAATAGCAAAATGGCAGAGACTGTGACACCGTGTAGGCAGACAGCCTTATGCTTTGTCGTTCCCGTCCTAACCCACGGGTCAGCCTACCCCGGGAACAGCTTCACAGCCCC
1 CCTGAGCCACATGAAGGCAGAAGAATAAAAAGAAGAAAAACCAATAGTTGTAGGATGAGCTTCCCGGCTCCCCAAATCTTACAAGTTCAATATAGCCTAGGCAGCAGGCTCGGGAATGTAATTACTTTGTTTTTCTCTCTCTCCTCTGAAAGTCTTGTTTTTAAAGT
1 AAGGTTTCAGCCTCCTTCTTAGGAATCAAGGTGTTATTTCTGTCAAGTTCTAGAATAGTAAAGGCATCCCTACAGTGTTCTGTCGCAGACAAGTCCCACCGCTGCTCCCTGGGCTGCTCATTGTCGTAGAACACTGAGCATCTTGTTCTGCTTCATCCCCTGTCCCC
1 GCTGCCTGCAGGGTCTGCTGGAGTCTGGGAGACTCCCATTCATGAAAGCAGTGACCAAACCCACTGGAAGCTGCAGGTCAGCTTAGGAAAGAGAGGCAATGGCTTTAGTGACAGGAGACAGGAAGAAAAGGAAATAGCAGAGTGTTTCTATAATTGTGACCACGGAG
0.4906664138092872 CCCACACACACACACACCCAGCTCTCCAAGGAGTCCCTCTTCCTCTCCTCCACCCCCAATAGCAGTTATCTGGGCTCAGGAAGAACAGCTCAATCTTCCTGCCGTCTGCAGCTGTCTCTGTCACAATAGAGTGGCTCAGGGCCCTGAAGACAGCACACAGCTTTGGA
1 ATAGTGGCAATCCCCAGGCTCAGCACCCAGACCAGTCCTTACTTGCCTTTTACCCCGGCAACCAGAGCTCAATGTGCTGGCCAAGCCCTGCCCATTTGCCTGGTTTCCTGTTTCCACTCCGTTGCCCTAGAATGCCTTAATGTCTGCTTCCTTGGATTGTAAAGGAT
1 AGCCCTCTCTGGATCAGCTGCTATTTGCACCAAGTTGCAAACCTGGTATGCATACAGTTATCCTGTTTCCCACCAGAGCCTCGTACAGTCAGCCAGTAAGTAAGACAGAACAGCACACGATTCCATGCTCTGGAATTTAAACAGCTGCTACCACCTCTCTCAAAACA
0.3768763293402791 TAATTGGGTGCTAACTGCTGGCCATATCCGGCTACAGAGCCCTCTGGGAACTTCCCATCCCTCAGGGAAAGCAGGAAATGCATCAGAGAAGGTGTGGGGAAGGAGAGCAGTCAGGCTCCTGTTGTTTTCCGTCCTAGGTAAGAGAGCCAGGAAATGCCAGAGACGTG
1 AGGCACGAAAACAGCCATGGGAGAGAGGTCGTGGGAGACACTTCCCAAGTACCTCAGAGTCCTTGGCAGTACGAAGCTAGAACACTCATGTTTAAATATGCCTTGTCAAGGCTCATTTGGTAGTTAGATCGTCGTGTGGTAACAAAGTTGAAAGGAATGAAGACAGC
1 GCCCACAGGCCGGCCACCTAAAGCTGCCATCTATATTTGGTTTGTGTTGCACACACTGCTTGCTCCACAGTGCCTGCCTTATTATGCAGGGAGTGCAGGCTTTGACTGGCACGTTAATCCCAGGGGACTTCAGATAGGCTAGAAATAACTAATACCTTCCAAGAACC
0.3250132414451975 CAGGCAACTAATGGTGTCTTCATCCAAAGGCACCCTGACATTCCAACTGCACATACTTCTGTACGTCATCCCTGGATTACATAAACCGGCAGGCTTACACCTACAGGTGCCATCCACCCCTGCAAAGGCTGCGATGATTAGAAGACGGGTGGCTTTGCCTGCATGCT
1 GCTTTTGTATTTAAGAATCCCATTTCGTGACTCTATGCTTGCCTTGTTCTAAAAAAGATGGAGAAGCAAGCGAGTGTGACTGCTCAGGGAGGCTGTGGGTGGCTTTTATTCTCTCCTCAGGCATTTCTGATTTAGGCACATTTCTGTACACGTGTTGTTTCTTGCTA
1 GGGCCATCTGGACAGCCAGGCAGTGAGTGCGCAGGCCACAAGGCCTGGAGCCAGGTACACTACCCTATCCAGCCTGAGCAGGCTCCTCCTTCCAGAACCAGCCCTGTCCACTCTCCTCAGCCACAACCCTCCCACTTCAGGGCTACCAAGCAGCTGGAGGAGGAAAC
1 CGAATTTAAAATACTATTTTGACTAGATCACAGAGCAGGCAGGCTCCTGCCTCCTCATCTGTCATCTGGGAAGCCAGTGCAGAAAGCTCTGCAGGAAGGCACTTAGCTTCCCCAGGGCCAGCATCTGAACGGGTCCCCAAGCTCCCATGGAGATGCTCCGTTACCAT
1 ACAAGGTATAGCCTGTATTTAGGTTCCAGTCCTTATATGGCGATGCGCACGAGCGCCAGCCGAGCGGCCGCACCATATAAGGACACACGGCAGGCGCCGGGCTGAGCTGGTGCACGCTCATTGGCCGACGCGTCTCTCGGCAACCGGGCTCTCACGAGTGGAAAGGA
1 AAAGTATGACTCATTAACTTTCAGAGTATGTCTTTACTTCTCAGGAAATGTTTCTTTTCTGACAGGAAAACGGAAGGTTCCCTTTTATCTACCCTTTGCAAACCATATTGACTGCATGTTTTATTCCAACTGAATACACAGTAACCATCCTATTATCTTCCTGTTAG
0.1474990555791641 GCAGTTAAGACATTTCCCCCCAACGTTTAAAGACCTCATATCAAAGCAGCTCTGGGGTGGAGGCTGTAGGTACAATACAAGGAAGCTGAGGAGTACAGAGCCGTGAGGTGCCTCTTGGGAGGCTCCACTTTCTTTGATCTATTTAGAAACATTCTGAATATGAGGAT
1 CAGAGGATGTGAAAGAGCAATTACTTTGCAGAAGGAACGCAGCACACTGTTGGAAAATCTTGACAGGTCTTTTGTGTCAAGAAATTCTTATTGTTACTTTGCTTTGTGGGAGTCTAGTGACTTACAGAGTTCTCGTTTGTCTCCAGAGCTGGCTGTCCTTGGAGGAA
1 GCACTGGCAAAGAAAGTGTTTGATTCCTTCAACTTGTGGAGACGTCATTGTGTGAAATAGCGTGGGTGATGTAACATTGGAGACTCACGGGAAGCCTTTCTCCCAATATCTCCATGTCCCGTTTACAGTCAATCAGTGTTTAGCTATAACATATTCTTGGTGTATTT
0.1705453591810782 CTCTGGAAAATAACACAGTACGTAGAGGTGCAGAGTCACACCAGACAGCCCTCCGAGGTGTGCGCATGCGGCTTTGCCCTGCCGCCTCTGCTCTGGCAGGGTGAGGTGAGATGGAAGCATGGTTGCGCTGTTCTTTCCGTGGCAGTAGAAATGAGATCTGGGAGATG
0.9732647352445442 CTGAAAAGGGGGAGTTGGGGGGAGCACTGCCTTCTCTTGTCCATCACTTAGAGCACAGCCCTGGCTTCCGCTCCTACAGGAAGGAGATGATGTTGGCTTCTAGTGAAGGGTGTGGGCTGGGGAGAAGCCAGACACAAAAGACAGAGCAAGGCCGGATGTTACTAACA
0.9745898750831269 GTGCCCAGATCCAGTGGCTGGGGCCAGGGTGGAAGTCGGCTGACTGGCCAGCTTGAAGCGAAGCAGGAGGCACTTTTGACTCACTGGATGTGGTTGAAGGACATGACCTTCCTGTGGGTCTTTCTTTTGGGAAAGGAAGTCTTTGGAAGTTTGTAGCAACTGAATAA
1 GTCTGGTATTACCAGTGTTTCAGACAAAACTTCCCCAGGTCCCCTGCTGCCTGCCAGGCCTGCGAGCCTATCAGAGCAGGTCATCGTTGTTTATGAGCTGGCAGGATGCCTGGGCCACAGGAGCACAGCTGTGTGGGAGGCTGAGCAGATTCCTCCGCTTGGGTTCT
1 TGCTTCTGAGAAGCAATAGGAAACCAGCTGGCCCTAAGAGACTTACAGGGTCTGTCCCAAGCCTTTCCTGTGTCCTAAAAATACAGCCTGTTCCTGCAGAAGCTATTTTGGAGTGAGGCAACAAAGTGCTTCCTCAAGATGAAAAGAGCTGAGACTCCATAAACAGA
1 GCCCCAGTGGGTAAGTGTGCTTGCTCTTAGGCAGACTTCCTCTGAATAGTCCACAGGTGAAGGAGGCAGGCATGTTGCTGAGAGATTCTAGGGTGCCTCTGCTGTGTTGGCTGGGGGTGCCCCAGTGCCTTGGCAGACCTTTTCTCAGACAGCACAGCACCGGACGA
1 AGAAGATATTCTGCTATGATAATATGCTCTATTTTTAAACGTTCTAATTTTTCTGACTAGCTTCCGGCAGAGTGGGAACATTCCTGTGATGATAGCAGCTGTCTTGGCATTACACTCTAAACGCAGAGCTTCACCATCTGAATTTTGTTTGGTTTGTGTCACTGTGC
1 GAACGGTAACCGGTAACTGCTGCATACTTTGCTCTAAATTCCCACATCAATTCCATCATTACTCCTCTCTCACAGAGGTGGCTGCCTCCTCCGCCAGGCTGGGAAGAAGGGACTCTCTGGCAGACTGGCGCTAGTTGCTAGGAGCTAGTGAGTTCCAGCCAGCTCTG
1 GGGAGACAGAGGGGCAGGGATGACGCAAGCGGCTTTGTCTCTGTACTACCAGATGCTTACAACCAGGAAGAAAATACCTCGCCAGCCCTTGCCACAGTCTCCCAAATGAGTTCAGATCACTGCAGGTGGACTTCCTGTTTCTCAGAGGAAAGAAGGTGCTGCCTGCT
0.3430557919370942 CTAAGACTTGCCAGCAAGCTCCTCCCGGCCCCTGGCTGAGCAGGAAGCTGCCCTCCCCAGAGCCTCTGCCGACCGGCTCCCCACAGGGGCCTCTCACAAGCAGGCTTTGTGACAGAGCTTGAGGACACGGAGGCAGCAGGAGCCAGCTTTAATTCAAAGTGCCTCTT
1 GGGTAAGGGAGGCACAGGACTTAGCCAGGCAGTCAGCTCCGCAGGCTGCCAGCTTCTGTTCCGTAAGGTCACAGGCAGCCCCAGTAGAGCAGTCCAGGCTGCTCCCCGCTTTACTTCTGGCATGGATCTGTGTTTCCTGGACACAGGATTCCTGGCAAAACCTCCCT
1 AGACAAGATGATAGGATCAAGAGCCCAAGAGTACAGGCAGCTTTGTTCCTTGCTGGGAGTCTCCTGTGCTAATGACGTCAACAGGATAGACAGGGCCCTGGAGCTAGCCAGCTGGCAGGTGCATGAACCTCGGACACCACTCTTACCCCAAAGCCTGAACCCTAGGC
0.2859137893951366 ACAAATTAGTGTGCAAAGAAAAGCCCAGGGCTGTGGGTGGCTCAGCTGAAGCATGTGGTGCCGTTAGCATCTGAGACCAAGCCCACGCCAAAGGGTGAGAAAAATGTGAGGTAGAACTAAAATAGCAGAGTGACTTTGTGAGTCAGTCACTTCAGGAAGCCAAGACT
1 AGGGAGCCTGTTGGAGAACTGAGCTCCTGCCACAGAGAGTTAGACGCTGTTCAGCGCACTGGCGCTGGCAGGGCTGGGCTTGGAACAATCCCATTCTAGGAAACAGAAACCTAGCCGTTCCTGGAAACAGCAGGTACTTTCCAGCGCTAGCGGAGCCTGCCAGCACA
0.7498188949329173 GGCCAGGCAAGCCTGCTGGATGGGCAGGGCTGGGCTTCCTGTGTTCCTCACAGCAGGAATCAAGGACAAAGCTGGAATTATATAATATTGGGCTACGTGCTGGCACACACCAGTGGAAACTCATCTCAGACCCGGTTATGAAATAAAAGCAGCTCTTGCACTGTGAC
1 GCATCTCCTCTTCCCAGAATACCACCGCAGGGCTCACCCTTGGCAGCAGATCAAGCCAGTCCTAACACGCGATCCCTAATGGCATCTGGCCAGCCCTCAACTTGAGCATTCTAGCTGAGAGGCTTCTCTGGGAGGGGACATTCCCTCCCAACCTTTAAAGAAAAGGC
1 CATATTGGAATGCTGCCGGTATTCTCACTATCGCGTCTATGCTGTTACTTGGTTTAAACGACGAGTGACTACGAACACTCTAAGACGCCTCTCTAGATGCCCATGCTATTAAAGTCAGGACATGGTTTTCAAGCTGGTCATTTTCCTTGACAGGCTTTTTAAAGACT
1 ATACTGGAGCACAGCACAGCGTTTTGTCTCCAGGCTGACAGTTCCCTAAAGGCCCCGTGTCGAAAGACTGATGTCATTCATTGGCTTTAAGAGACAGAGTCTAGAGGGAGGAAATTAGTCACTGGTGACAAGCTTTCAAAGGGGATTCAGGGATACAGGATACATCT
1 TTCTTCAGATCCGTTTCCTCCGCGATACTGCTGGGAGCCTGCAGGGGGCGCTCCTGTCCAGGGCTGGCATCCTCTCAGGCTCGCCTTTCTCGGTGGGGCTGGGCTTTCTTATGCCTGCAGTCTCTCTTTAACAATGGAGCTTGCGTTTGTTTAAAATTGTGACTGGT
0.1774310920879902 GCATTTCCAGGCAGCGTTCCTGCAGTTGGTGGTTCCAGGACTTCATACTGGTTCACTGCTGCTCAGGATGACACGTGGGCTCCACCGTGAGTGCTGGCTGTGGGGAGTCTGTCTACCTTACCAAGTGATGAGCAAGCAGCCGTAATGTCACGCATGCAACCAAGGGC
1 GGCCAATATACTGTATGCTTCAACTGCTACGGTGAGGTTGGACTTGCAGTTACCATTCACCAGGGGGATCTGCTTTTCCTCTGCATCCTGTGTTCTCCACAGGGATCAAAGGAAATAATCTTTCCTGAGAACACAGCTTCAAAGAAAAGAATTTATTTAGTTTTCCT
1 TCTGGTTCACACAGTCCTAGCTTCTGTTTCTGTGTTCAGTAGGTGTTGGCCAGAACCTGAAAGGAATCCAAGAGTTGAAAGTTTGGCTTTGTATGTAACAACTACTTTGTGGTACTGAAATCATAAAGGGAACAGAGAACAAATGATATGCTTCTCCAATGTGTACA
1 AATGTCATGTGGACCAGTGCTGCTTGTTCACTTCCAGAGCTCCAGTGATGGAAAAGAAAAGAACTCTCCATACAAACAATGGCTCTGCTCTGAAGTTATCAGCAAAATTCATTCTTCCTGTTTCCTTAGTTTCACATAACTGGAGGATTCAGGCGGAACCCAGGAAG
1 TTCCTCCACCTGGTCCATTTGCCAGGACACCTCCGGAAAAGCTGCTCTCCCCTCGGCTGCACTCAGCACAGACCTGCCTGGTAACTTAAGGGCTGGCCTCTGCTCACTCAGAGCCTGTCCCCAGCTCCCCTGGGCTGTTTATCTCATTCCTCTTCCTGAGACACAAC
1 ACTTTCTTAAGAGAAATCTTGGCTCACACTGCATGTCACATTAGTACAAAGAGTCCCAAAGTCCACAGACAACACAGATAAACAAAACCCCTCCCTGAAACAGGCTCCTTCCCATTGGAGCATCATTTCCAGGAAATCAAAAGAGATCAGAAATGCAAAATGCTGCC
1 CAAAGCAGCCACTGCCCTCAACAGGAATCTGGGGACAAGGAAGTGAGTTCCACTAAAAATAGACTCACTCACCAGAAGTGCTGGTTTAAGAGAAACCGCTTTCCAGAAAGGGTTGGGCCCTGTGGGTGTTAGTCAGGGTTCATGACTCCATCCAAATGATGATTGGT
1 GCGAGAAGAAAGAGCTGGGACTTCGGGGTATGGTGACTGCTGGTTTCCAGAACTGTTCTCACCCCTGACCACAGATATACTGGAGCTGAGTTTACATAACCCATGGTCCAGTCCCTCCTGGGATGGTTGAAACCCCACTGAACCCAGATCCTTTGTTGCCTGTGGAG
1 AGCTGTAACTGTGAGGGCCAGCCCTTGCCAGGAAGGTGAATGCTCTACACAGCGTATCCTGTGGCCATTGATCTGGTGTGTTTGTTCATTTACTAGCTGGAGCAGGAAACCTGCCTGCCGTGCTGGCTTCCCTTCGCTTGGCTGGTCTCAGGGCCTACACCCTGCCC
1 TGAAGCAGCGCCCATAGCAAGAGAGCCCAGAGGCCCCAGGACCTCAACTCCTACTGAGAACTATGGTCAGGGGAGGGAATACCAAAGACAATAGCCGTCTGGCCACCCCACACCCACCAACTCCCAATCAAAGCAAAGCAAACAAACACCAGGCAGTTGAAAAAGAG
0.5777096230320323 AGCCAGTGTTTCCCAATCTTACAGCCTCTGGGGGCTGCAGGGAGAGGCCTTGGCAGAGCGGGGGTTTTGCCGGCCCATTGTTTGCCTGCCCTGGCTCTGGTGGGCGTGGGGGCCGTTTGTAGGCGCAGTAATTCCCGGTCAGAAGGGGGAGGAGCGTGAGTTCTTGG
0.8380829489385744 AGAAAGGGGAGGAGGAAATGGGCAGTTAGACAGGCTGGGTGTCCACCCCAGCCTTGCCCTGGAAGTCCCACATCCGAAGCTGGTGGAAACCAGCCTGTTTCCCTTGGATGGCCCCCGCTGGGCCTCTCATTCATTCAACAGCTATTTACTGGACACCTACTAGGTAC
1 AGCCCTCCAACTGAGCTGGGTCCCTCCCCTAGAGTGAGCTGCAATGTTGCCTTTGTCTTGAGGCTTGATCACCAGCTCCTGGGAGCTGCCAGGCGTGACCATTGCTCCTGGGATGCTGAGCACTGTGGCGCCAGCAGCTGCTTCTCGGTGTGGGGTCTTTTGTGTCT
1 ACCCCTGCTCTGGGTGCCAGTCTGGGCTGACCACACAACTCCTGGAAACCCTAGCCATCGATGGGCTTCCTCTCCCTCCCCTAGGGACCTAAGCACTCCTGGGGCTGTGGCGCCTCTGCAACAGAGGCCAAGTTCTTATAAACATGTGCTGGGCTGCCCAAGGTCAG
1 GGCCGAGGCAGGCCTAGGGCCTGCAGCCAGGCCTCTAAGCCACAGGGTGATCTCCAACTTCGGGACTCACAGGCTTCCGGGACAGGCCTAGCAGCCTTGGTTTTGCGGCCAGCTGCCGGAGCCAGGAGGTTGGCCTAGGTCTCCCCAGAGGCCTTGTGAGCAGTCAG
0.8355477848859935 GAGAACTCAAAGCTCAGGAGCTGGATGGCAGTCCTGGTGTAAAACAAGGGCGTCCACCCTCGACGCGACTGCCGGTTGCCTGGGGGAAATACTTGAAAAGAAAAAGTCTGCTTTTTTGGGGCCTGCCTGGGCTTTTGTTAATAAATTTCCAGTAGGGCGCTTCCGCC
0.455516651954499 AGCCTGAGAGATATGAGCTCCTCATTACCCCAAGTGTTCAAATCGGGGCTACGGTATCAGGGGAGAATTGAATGGGGCCCCTGAGCGCTGGGATGTCTGACTCTGTAGGAGTTGGGTGTTTGCAGGCGGTTTTCCACCCAGAGCCCTGCTTCAGCACCAGTGTGAAG
1 ACAAACTAGGAAAGGAACCAAAAGGAGGAGAAAGTGCAACAGGGACATCCAAGGTGGCTCAGGGTGCTTGCTGCCAAGCCTGGTGCCCTGGCTTCAGTCCCTGGAATCCACATGGTGGAAAGAGGACAGACTCCCAAACGCTGTCCTCTGACTTCCGCATGTTTACC
0.1410770814456133 TTCAAGCTCCTAGCTTCTGCTTCCTGTTCCTTCGGAGCCCTGGAAGTGTAAGCATCCCACAGCACACACAACTCACATGTTCTTATACTTTGGAGCATGAACAGGGGATCCACCCCCACTCTTCTAATCTCTCCTACCCAGCCTGGCCTATCCTGGCCTCACTCCCC
1 GCATTCCTTCTCCCAAGGACCCTTGACTAGCACCTCCAGGCGTCCCTCAGCTCCACCCACAGTGACACAGTCCCTGCACCACACGTACTTCTGAGCTGTGTCTGTTTACTAGGCTTCTGAGTTCCCCTAAGGGTCAAAGGTAACTTCTTGGCTTGCTTGCATGCTTG
1 AACACTGAGCTGTCTCCCCGGTTCCCAACAATATTATTTTTAACACGAAATCCGTAAAACACGTATAGCTGGGTTGTGTCATCAGAATGTGAGCAGCGCCCACAGCTCTCTGGCTGACTAATGCCTCTGTCTGGGCTCTTGGTGAAGAACTGAGTGGTTTGATCTTG
1 CTTAGTCCTGAGACTCAGGACATACCAGGGCCATTCAAGCAGAACACATTGTAAATTCCAACACCACCCACACCCCACCCAGGGAGGCTATGCTTTTGTGCATTGTGCTTTTTGTGCCCAACCACAAGATCTTGGCAGTGCGTCCCCTGTGGCAGCATCCCAGGCAG
1 TTTATATTGATATTTCTTGCTGAAGGCACTTGACAAGCAGTAAACCCGGAAAGGGCTACAGGGCCCACCCTTTCCACAGCAGCAGGCCAACAGAGTGTCTTTGAGGAAGTTGCTTTGACCGCGGCAGCATGAAAAAAAACACCCGGGCTGCCAAAGAAAACACGGAA
1 AGGGAGAGGGAAAAGGAGAGGGAGACTATAACTTCACAGGCAAGTCAGTAATTTTCCTATGTCATCCATTTGAATTCTCAATTCAAGTGCTTCTGTTTCACTCCTGGCTTTCTTACAATTCCAAGATGGTTCTCCCTATGGCACAACGTTTATTCATGGTTTCATGT
1 TCTAAAAGGCAAAAAGCCAAAGTTGGGTGTGGTTGTTTATACATGCAATCTCAGTACCTGAGAGTGGAGATAAGAGGATCAGGTTATTCTCAGGTACCCAGTGAGTTTAAGGTCAGCCTAGGCCATGCAAAACTGTCTCAACTCTCCACATGCCCCCCAAAAGAAGA
1 TCCCGTCAGTCACTTTGCTTTGTTATTGTCTCTTGTTGTATCGAGGTTGGTTTGTTCCACGGAAATAACAAATGCCTGGATTTCCTGCTTCCCAGAGCTCTGGGGTGAGTTAAGTGTACAGATGTTTATTCCTGGTGACAATCCCTGTTGGCAGGTCATGCAGTGCT
1 ACCAAACAGTTCTTGGAGCCTAGAGCTGGCAGGCCAGGCATCTTGGCGCACACCTTTGATCCCAGCATGGGTCTGTGATTCAGGCCAGCATCGTCAACATGAACTACACAGGACTCTGGGAAAAAGGCAAATGAGAGCCAGAAAACTTCAAAGTGGCAGAGTCAGGG
0.7298337381915365 GAATAAAGAGGGCCCTCATTAGCAGCTGCTGGGCGATGGTTACTTAAGGGCTCCGTGGGGGTGGCGGTGTGGGCCTTTCTTAGCTCAAAGACACACCTTACCAGCTGGTTTTTAAACTCACAGCAGGACCTGCTTTCTCTGCATCTATCCACAGGCAGCTGACACTT
1 AGGACCGCTCGGAAAATGGGCTTTGACAGCTTTACAGGCTGTACACTGCCACGTGGTTCCCCTCCATCTACCCCGCTTTCTTCCAGAACAAAGCCTAAAGAGTTGGAGGAAGAGGGCTTTGAGCCAACATAAATAAGCCGGTCCTAAGCACAGGCCTCAGAGGCCAC
1 CAAGCAGGGCAGGGAGTGGAAAGGCTCTTCTGAGCATTGCATCCTTTGAGGCTGGATCAAGTGGATTCAGCGTCTCACGTCTTTGGCTCCTTTTGTGAGTATTAATAGGCCTTTTGAAGGCTCCAGGAAACAGCTTTGAAGGAGAGGCTCTGAGAGGCTAGACTGCC
1 CAGGAACTCAAGCTGGGCCGGAATCTGCAGGCAGCAGCTGATACAGAGGTCTTGGAGGATCACCAATTACTGGCTCATTTGTTATGGTTTCCTCAGCCTGCTTTCTTAAATAACCCAGGATCACCAGGCCAGGGATGGCACCACCCACAATGGGCTGAGCCTTTCCA
1 AGAGTGGCCAACCCATGACTGGTCCAACATGAGGTCCACATCATAAGAGGGAGCCCATGCCAAACACTGCCTGAAAGGCTAAGAACCAGAGGCAGGACAGCCCAGAGACATTTTGACAGATGTAAGATGCAATCTCATAATAGTTTTGATTTGCATTTCCCTAATTG
1 TAATGAGTTTGAACTTGAACCAAGAACTCTGAGTCCCTTTGAAAAGGCTTTGTATTGGAGGATGTGAGTCTCTTCCCCTTGGCTTCACCCAGAGGCTCCGGGAATGACCACTCCCACATCAATAACCATGGCTGTGTTCTGGACTTAAAGTGACCTTTTGCTCCAAA
0.1376877243678156 TTCACCCGATCTATCTCACAGCGTTGGAGGTAAAGGAGGAAGACCGTGACCTGCTCAGTGAGTGGAAGATGCTATTTGTGACAGACCACGCCTCCCTGTGGGAGATGCTTTCAGAATCTCTTGAAGATGTCATGCTGTGTCACAGGATGTTCTTTGGAGCTGAGAGA
0.8172560767331597 AAGGAACGAGAATCTTCAAAGGCTGAGTCACACCGCCGCGGCCTACCCTTCCTTAGAGTAATGTGAGGTTGAACTCTGACAGCAGGAAACAAAGAGTCTGCTGGCTTTAAATCAAAAGCTCTGCAAGCTGACAGCACTCACTGCCCGAGGAAACATCAGGACTCCAT
1 GACAAGACTTGGCCTTCTCAAAGACTGGCAGGTCATCTGAGGAGGGAGGGGAGCTTTCCTGTCTTTCCCTTCTATTTCCACACCAGTTTCTCAAACGCTGTAGAGAGTTAGCAATAGGGCGTGTCACAAGCTCTCAGGACAAATCCTAGCTAGGTACACGCTCTAAA
0.9857357527180697 TGTGTGGAGGGGGCGTGTCTGTCCTGCAAGCCGCTCTTTTTCCTCCCCTCCCTTCGGGAAGTCAGAGTGGACGGTCAGGACTGCTGCTCCAATGACCTAGATCAAACTTGGCCAATCTCTGGTTCAGACTGGAAGCAACAGACTTAGCCCAGAACCCGCTCCCAGCT
0.8978768279154775 CACGCAGAACCAGCTCCACTGAGGGGAAGGGAGAGGTTCCCAAGCCAGATTTTCTTTTTATTGATGGGAAGAGCTGAGTTAAGAAAAGGTGGGGGCCAGTATGCAGCAGCAGGGGACAGCACAAATAAATACAGAAAGCCCTCTCCAGGGCCTGCTATTGTGTTCTG
1 GGCAAGAACGGGTCTGTAAACTTTGCCCCAGGTTTATGGTTCCAAGTCCGTTGCCAACATGGCAGGCAGGGGTAAACGGACACCTACATCAGGGAACCATGCTGACCCAGCAGCTTACAGAGACTATTTCCTGGAGGCTCCGGACAATCTTTTTTTTTTTTTTTTTT
0.924896257801413 GCTCTGCCGTCCTGGGCCCCATACCCACCGAGCACTTTGGGGGGCCCATTTGCCATCGTCCTTCTCAGCCCCGCCCCAGCAGAACCTCAGCCGCTGGCCACCATGGTGTGCGGAGCCACTCTGAAAAGGACTTTGGATTTCAACCTGCCGCTGAGCCCTGCATCTCT
1 ATTTCGCAGGCGGAGAAATAACAGCAGCAAAGTTTCACTTTTTTGAGTTAGAGACACAGCAGGGCAGTGCCAACGTGCTCTGCGACTGTAATGAGCTGTACTGAGCAATGAGAGGAGGGGCCTTCAGGGAGGAAAAAGGTTTTAACAAGAGAGCAATCACCAGGGGC
1 AGAAGTTCTTTGGCGCTTTTCTCTCTCCAAAGTGAAGAGCAGCGAGGAGCAGCAAAGCATTGCGCATGCGGTGTTGCAACGGAACTGCGCATGCTCTCACTGTGGGTTCTACTTACACTCTTTCCAAACGTCATGCGCTCTCTCAAGCATCTGCTTCAGCAAAACAT
1 GTCGGCCCTGTTTTTATCTCATGGAGACTCTGACTCAGAACTCCACAATCTCTCCACTCAGCTCACTAAGTTCCCATTGGTGGGTAGTTACCATGCCAACCCCATGCTTCAAATCCCCCACAGCCTTAGTGGTGCACATCTGTCAAACCCATGCTTTGCCATCATAC
0.3916070289775583 AACAACTAGCTGCCACCGGGAGGCAGCAACACACCATGGGGCTGCCGTGAGCGCGGCGCATTGTAGGACATGTAGTCTTGCTTATCAGATAAGTGTCGGCTCCCGCGTGGAGGAAGAACTACATTTCCCAGAAGGCATCACAGACACCCTCGGCCTCACCTTGTTCT
1 ACACAGACGATCTTCACCAAACCCTTGCAAGTCAAATAAGGAAAGGCAATTACAGGAGGAATTGCAAATGACTCCCATACATTATGCAAATGCTTCCTCCTGGGGCTAATATTAGCTGCAAATCAGACCCAGGCCTCCCGTGAAAGCCAGTAGCTCTCTACCACCCT
1 ATGCTTGAGAAGTGAGGCCAAGCACAAACAGGGGGCCCTGCAGGTTCCAGGCCTCACGACCTCGGCCTTCTGTCCTTATCACAGTGCATGCCACTCCATCTCTTCCCTAACCACCCCTTCCTTCCTCCCAGGCCCGGCTTCTGTGGTGAGTGATTTTTGTAGCAAGA
0.7588206988336311 TATCTCAGTTGTTGAGCCAAACTGCAGGAAAGCCTCTCCCTGCCTCAGTCACTCAGAACCAACCCGGCAGGATGCAGGAACTGACACAGCCCTCCTAGCTGCCTGGGCCAGAGCTCAAATCCAGTCTGGCTTACTGTCTCCCGTGGCAAAAGAGGGACTTTCAGCTC
1 GCATTGTTGTGAACGGAGTTGCAGAGAGAGTCAGAGAACATTGTTTCAGGGGAGGGGCCTCTCTGTCTTGGAAAGCTGTACCGAGTTTCCTCTGAAAACAAAGAGGGAGGGGGGTCGAGTGGCAGCCTCCAAGAGACACAATGCATCAAAGTGATGAGATCAAAACT
1 CCAGAGGGTGAGAGTGGGAGGAGCCTGAAGCTGGCTCAGCACACAGTCTCACACAGCAGGAGCCTGGGGCCCCAGAGGCAAGAATGGAGCCTGTCCAGGGTTGGGGGACGGGGCGGGGCGCACAGAGGCTCTAGGACATAGAGTACCTGTTCTTTCCATGTTTCTCT
1 TCTAATTTATCCTTCCTCTCTCCTTCCTACTGCATTTTGCATTTGGTTTCCATGGAAATCCACTTTTGTGGATGATCTCTTCTCTCAGGAGCTACAGGCAGATTTTTTTTCAATTTGCATAACACAGTGATTTATGTAGCAGGCAGGGAGGGGACAAAAAGGAAGGA
0.03352148680954949 GTTTTTTATGTCATTTCCTGCCACAGATCTGAGCACATCCTGTGCCTCTAGGATGTGGGGTAAAGTGCACAGCTAAGCCCTGAAAGGTGAGTCCCACATGGGGGTGGCCAGCAGATATAAGGTTCCCTATCAACACGAACTCTCCCTGAGCCCTGCCGGTCTGTGTA
