svm_type c_svc
kernel_type wgkmrbf
L 8
k 5
d 3
gamma 2
M 50
H 50
nr_class 2
total_sv 5735
rho -0.123328
label 1 -1
nr_sv 2536 3199
SV
1.998840708771968 GTGAACTCAAATCCCATCGTGCCTCCCCAAACACACACTCTTCCCCGCATTGCCACAGGCACATCCGTTTACACAGAGGTTTACATAACGAAGCCAAAACAGACAAGGAAGCACAGGCCAGACGAACAGCCTGGAGAGGGTTAAGTTCAGCCAGTGGTATTGACACA
2.753902903792396 GGTGAGTATGATCAAATCCATTACACACATGCATGAGATGAGGTTGCCATTAGGAACTCCTTAGTATGTGTAATTAATATAGCCAATGAGAGAGTCAGACTCTAAAACAAACACCAAGTGAGAAAGTTATAGAAAGCATACACCTTAGACTTAGCTGTGGATTAAAT
0.4335578439830926 TATCTGCCTGAAGAAGGCCTCTTCATAAGTACGTCTTGGTATTTAAAGTGTAGGAGTGTGAGCTGGTTAGTAAGCTGAGCACACAGAAAGCAGAGGGGGGCCGATGTAGCCCACACCACGTGACCCCACACCATGTGACCCCCCCACACCACGTGACTCCCACACCA
1.646112723005579 AGGGCAAGCTCCTATGCAATGCACTTCTTATTCCTTTGGAATTTGAATTTGTCCTGCCATTTTTGACTGTGACAAATGATGGGGTAGGAGATGAAGTGGGTGTTAATGCTTAGTTATATAAAGGGGAGTTTTGCATATAGCTATACTTAGCAATAGGCTATTTGGGG
1.625179877533189 GGTAATAAGTAGCAGTGTGCAAACACAGCTCTGAATGAGCTAGAGAACCTTTCTACCACTGAGGGAATTTGGATGTTAGCCTACCGTTCCATACCTCCTAGACATCTCTGATACTTCACCCTGAGGGGTTTTAATCTACACAAGATACACTTTGACTTTGAGTACTG
1.665345892019122 CATGCTGCTCTGACACTAGTGAAACATGAGGCAGAAAGAACATGAGCCCATTGGATTCCACATGAGTGCTGTCAGAGCAAACCCACGGATAGTGCTGTGGTTATACAAGGGAAAATGATTCAGCCTTTAAAAAGAATGAAATCCTGTCATTTGCAATAATATTCATA
1.986111502836107 GGTGCAGCTCTCATTCTCTGGCGCTCTTCACTCTATCAACAATATTTTCACAAATTAAACATGAACAAAGTCAGGGTGGGGAGTATAGCTCAACTGTAGAGTGCTTTCCCATTGAATGTGTAGGATTCTGGGTTTGATCCCCAACATATGTGCAGGTACACACACAC
2.486740644172835 TACCACGATGTATTAGTGTTCCAGCTACATGACTCTCTTGCCTGTCAGCACTTCACTTCCTACCACTGAGTTCCCTAGGCAGTTAAGAACTGCACAAATGGAATAGTTGTGAAAAATCTCAGCAGTGCTTGTTTCATTCCACTAATTTTAGGGTAGTCTGTTATACA
1.544474621897197 AATCTCTGCAAGGCTCATGAACAGGATATGATCAAGGCAAAGTTATCCACTCATCTTTCAGCATCTTCCTGGCTTCCTGTGGGAGGAGAATGCTTACCTAATTGGAGGTATGATTAGAGTTTGACATTCACTTGTGAATGCCTTCCTACTGGACACAATTATGATCA
1.016883884393653 TGACACATTGACTTGACAGAGCAAGGTAAGACTTCAAAGTATAAGTAGGTGTAAGGCAAAAGAATTCTGCTATGCTAAAAAAAAATATTAGTTAGAGCTTCATATACTGTTTTTTAAAACAGTCATGTCTGTTGCTCTCAATCACTTATTGCTAAAAATGAAATATC
1.822811540284415 GCTCGCAAAGGAATAACTCTACCTCCAACTCAGAGGAGATAGTATATAAACAAAATTCAAAGAGTGAAGCAGCAGTTGCCATGTGATCAAAGTGTGCATAGTGTGTGTGTGTGTGTGTGTGTGTGTGTGTGTGTGTGTGTCTGTGTGTCTGTGTATCTGTGTGTGTC
2.429913660577681 TAGTACATTAGGCAAATACAGCTGGAGATCAGATCCTGGTTCTTGTTGGCTGTGCCGTTTTGAAGGGGTTCATTAGCCTCTTTGATATGTGGATTTTCACCTGTGAAATATAGGGAACAGTAGTTACCTAAATAGTGTAGGGATCACCCAATCCTTTCAGGGAGAGA
1.069626232991702 GTGCATTGCTTGAGATAAATGAGGTTATTTGCAGGTATGACGCACCTAACCCTGGAATAATGGTCTATTTTCGGTTTCAGTGCCTCATACTGCTTATTTTAGAGGTTTCATCTGTCAGAATGAAACTGATGTGGTACGGGAATTCAAGAGATATCAAAAAGAGTTCT
1.694743912607679 TGTTTCATTTGAGAATCCAGATCATTTTAGTGGGTGACAAGGAACACACACCCACAGACACTGGCTGCGGGGATTTGAGTAGCTTGAAATAAATGATTCAACATTCAGAGGCTGAGGGAAAGTAAGATTCACCCACATCAAGTGTTTCTTCCATGATGTGAGTCAGA
1.620584252950133 AGAAGGACAACTGGAGGATATGTGAGAGTCCCAGGGTTAGGACTCCAGCACAGGATAGTGTGCCGAAAGAGGCACCGAGATTAGTCATGTGTAATGTGTGCCTCAGAGAAAAATGTGGAATCAAGGACTCTTAGGTACTTAGGAGAAGCATGGTGTCATTTGTGATG
0.9788482609868118 ACATGTGATCTGGCAACCTCTCACAACACCATGACAGCCTCCTGCTTCCTCACACAATCTGACTTTGCTTGCTACTGTTTGAATTTTATGAATCACACTCCAGCTATTTGAACTCCTGAAGCCTCTGGGACTACATAAATAATTACCAAGATGCAATTGTCACAGAT
1.303889603485481 AGGCAACACTGAGGGGAAGGGGGGAGGGGAGGCAGAAGATGATCCTGGTAGTGCTTTGTCCCTTCCCGTTACAGACACAGAAGCATGCCTAGGTACAACATATGTGAGTGACAAAGAAAACCGGTAGAATTCCACGCACAGAAGATTCAAAGGAAGAGACACAAAAA
4.276222138553762 ACCAAGAAAAAAAAAAAAAAAAAAAAAAAAAAAAAAAAAAAAAAAAACCTGGGGATTCATGTGGAGAAGACACAAACTAAAGGCATAGAAAATATATTGCATGAAATTGTAGCTGAACATTTCCAATGCTAGGGAAATGTAGATGCCTTAGTTTCTTTTCCAACTGC
0.3167373738402871 GCTCTTTATTTCTCTCTCTTTTTTTTCAAAGCATAACCCTGCTAACTACCACCCTCTAAGCGTAACATTAACTCCCACGCTTCTCCCTGGATACGGAGCTCGCTCCTTTCTCATCTCCATGCCTCTTCCTCCTACCTTTTTGTCAAATCTCGTTCTTAAGAAAAACA
2.412026408935366 GCAGCCATTGAATTCCGAGGTCACTGTAAATGCTAGAAATTACCCAAGAACAGAACTGGATCAGAGTTGGTCTAAGTGGGAAATCTCTTTTATCTTCAAGTGCTATTTTAAAAGAAAATCCAAGCTTTATGTCTTTTGATTCATGTAAAAATTTAATTGTGAGGTTT
1.379177950444904 TTTTTCTTCCTATTTTTAATTTCGCCAAAAGTGTTCTTTTTGAAAATGTGTGCAGTGATTCACAAGTTATGTAAGAATATGTCTCAAATGGTACCTTTCATCTGTACTTTGCTTTGTTCTGACATTATGGAATATTAAACTTCTAGCCTTGTACATGCTAGGCAAAT
0.9571351337764304 TGGGGTTCATTTCTGTTTAGTTTATTTGGTTTAATCTTCAACCAGTCAGTCTTGGCTTAGGGTATACATGTTTTTACCATACCAGCTTATGCAATACATGTACTTCAGCTACTTCCATACTTTTTAAAAAAGTAACATAAGAAACTTATTTGAAATATATAATGTTT
1.882989376394054 ACGTGTGAATGCTTAATTAGCTTGCCTCTGCCATCCCTGCCATTCTGCAGAAGAAAGTTTAAGTAAAAGCAATTTAATGAAGAAAACACTGTTTCTCCTAGTGGGCCCTGATTATTCCTCCTCCACTGCTTTTTTTCATGGCTTCTTCTCACCCCTGCAGTTAATTA
0.1863766964314389 AGAACATAGCATTTTAAAATAGTGAAGCTGAAATGCTAGCATTTATAATTCCTAAAGGCCCTTACAGGATGAATGTGATCAAGGGAACTGACACCTTTGAATTTTAAATAATGTGTTCCATAATTGATGATGGAAGCACATTTTTCTTTCTAAGTGTGAAGGCTACA
1.945675710412906 GCCTATGAATATTCTTACTTATCAGGTCAGCTTGTAGAACTGTGTCAGTCTGCACTCTCTGCCTGCAGCTTGCACATCTGCTCTTGATTTACACAGGGAATGGCGGGTTATCAGCAGGGTGAGTTCAGCTCTAATCTGCTGCCTGACATAAGGCCATAACCCTCTGA
0.5264662714878674 CTTTTCGCCGAGCGTTAATGGCAAGGCGGAGTGCAGGGGTTCCTATTTGAGACGCACCGCCCCTTCAGCAGCCTCTTGGCTGCTCTGACAGCGCCTTTGGTGCTCGGCTTTTTCACAGAACTATCTTAGTTAGGCATCTTAGGCTTCGTGTGCTCATCTCTTCATTT
1.359944282565693 TTTGTCGTTTGCATAGAAATCCAAAAATAAATGTAACCCACAAACAGTTTTCAGAACAGCCATCAAGTTCCGATCTGCTGATGCCATTAATTATAAGTGAGTCAGAGGCAGGAGGAGGTTCAACAGCGGAGCCTTTTTAAGGAAAATGGAATCCTTTTCGTTCCAGA
1.735827069466779 TTGGATAGCCATTTATCATTTTGAAACATGGTAAATTCTGCACTTCCCTTTGTGCTCTCTAACATAAGCATGCCCAGAAAGTGCAGACCGACCTACTACATGTCTGTACTTTACACAGGTAGGCAGGCCATTCGGGAATGGGAAACTCGTGGGCTCAGCAGCTCTTT
1.247535613124013 GAAAAGGCTTTCCAATAGCTGCAGGAAAGAGCTGCAGCTTAAAGCCTCTCCATCATCACTCAGCCTGTCGCCGCCCTCTCTCTTCAGGACACTCTCTTCTCTGACGTGGGTGGGGATTAGTGCCCTGCCCTGTGTCAGGAATGGAGAGAAAATAGAATCAGATGTGG
2.02913653951088 CGCCCAGGTGAGCCTGCCTTTATAGTCTTTCCCAGAAGCCTTCGCTTCTCAGCTCCTGTTTACAGCTTACTGGCTGCTGCTTCCTGCAGTGCAGGCTGGGTAATGTAGTTCTGCAGCTAATTTGCTTTATCCCTCCAAGAATATAATAATAGCGTGAAGCTCAGAAT
1.69093400135149 AGAGCTGTGGTTTGGGGACAGTCAGCTGAGCTGCAGGAACATTGCACTCAACGTCTGAGATTCTTCAGTTGTGAGCACCACTACGGTATCTGATGTGCTGTGAAGAGTGTGGAGGAAGAGCCAGGCAGTGGTGCCGCATGCCTTTAATCCCAGCACTTGGGAGGCAG
0.3872780293849057 GTAGCTTTGAAAGTTTTCAAAATATGAACATTGCATGGAGCCAGGTTCACACAGTAGAGCATGCTGACAATCCCAGCCCTCAGAAGGCAGTGGTGGGAGGATTTTGAGTTCCACAACAGTCTATGTTACATAACAAGCTCAGAGCCATCTTGGGTGGCATAGTGACA
0.6352734837615847 CTGAAACTGACAAGGCTCACTATTGCCCCTTCCTTCAAGAAGAAGCAATAAAAGCTGAGACGCACCCTCAGACAAGAATAGCTGCAAAGAAGACTCTACCAAGCTATTTGGAAGAAGCAGAAATCAGCAAAGTCGCCTAGAAGAGGGTTATATCCATCGAGGCACCA
0.3795290410470406 TCCTTCTTGTGACCCTGGTTGTGCCAGAACTCCTCCGAGTCAAGCTGTCTCTGTGATCCTGTGATTCTGTGATCCTGAGATCCTGGGTGTGTCTGAGCTCCTGGGAGTCAAGCTGCCTCTGGGACCCTGAGATCCTGGTGTGACCAAGCTCCTGGGAGCCTGTGATC
2.864289034102539 GGAGAGGAGAGGAGAGGAGAGGAGAGGAGAGGAGAGGAGAGGAGAGGAGAGGAGAGGAGAGGAGAGGAGAGGAGAGGAGAGGAGAGGAGAGGAGAGGAGAGGAGAGGAGAGATGTCTGTGGATAGTACTAGAACCTGTTAACCAAATCTTCTGGAGTGAAGCGGACA
1.822205644991705 CTACTTTAAGCTCCAGAGCAGCATTGAAAACAGGTGAATCCCCAACCCTTCACCCTGCTTCCTTATTCTGTGAACTGAGACATTCAGATCAGAGCAAGAGCAAAGAAAGATCTGACTTCTTATAAACCGTCTCAGTTTCCATGTTTTCTTCCAGGCACAGTTGTGCT
1.480969126367112 TTATTTTCATTCTGTGCCTAGCAACTCCTTAATTAACATTTTAGATGAGAACGTCAAAGCCACCGAGATGGCAGGCTGCTACTATTCTTGGTCTTGCTGACACTTTCCCAGTGGCAGAATGACAGTCACAGCTGCAGTCATTCTAAGGAATTTGACTGGAATTAGCA
0.8573263962848803 CTCAAGACAGCCTATGAATGCAGACTTGCCTGGAATTTTGAAGTGCATAGATTATTAAGGTAGGGAAGAGAAAATGTGGGTGTTAGAGGGGGACCACACCCAGGCAGCTGCCTAGGATACAGGCTCTGTAGTGTATTCTAGAAGTCCCTGGCAGAGCTCGGCCTCCA
0.1826777635229449 AAAAAGGCATGAAAGGTTGTGAACTCCTGCCTCCTGCAAGAGGAAGAAGGAGCTGAACGAGGAGGTGGCACAGAGTGTACCCCTCCTGTCTGACACGTGTCGGGCAGCAGTAGGTGCTGTTCACAGAGACACCGTCTGCCTGCCTCCAGAGAGACGGGCACACACAG
1.487394288782361 CCTCCTCAATGCCTTGTCTCCCACAGACAGACATGTCTACTCAAACATGTCTTCTTGTTCTCTTCACTCTTTCTGCATTTTTACTCCTCTAACTCCTGCCAGCTCCATTGCCTCCAGTAATTGGACCGTCTCTGCCCCCTGCCTCTGATTTAATCAGCTGGGGGCTT
3.329330993243669 CAGTTTCCCAAGGCAAAGCACAGCCTGAAAAAACAAGGCTTAATACAACACAGAGTAACGGAGAGTAGTGCGCACAGCCTGATCTCAATGCAAACTGCTTTCTCAGCGTCAGCAGAGGGCGGCCTCCCCGGCAAACAAAAGACTCGGCCACATGCAGTTCCTTCTCA
1.968618046662805 TTCCTAAAGTGCACTTTTATAAATTGGAAGCAGATGCAGTAACATTAGCATGCGCTCTGACTCCAAGAGGAACTCATTTGGAAGCACCAAGGAGTGGGGAACCAGAGATCAAACCTGAAAAGAAGCTAATGGGTCCAAGAGCTTTGTTTTAACAAGAGGTAGTCACA
1.172775394813496 TCAGAGCTGATGGTACCTCTGAAATGATGTTCTCTGTGGATGCAGTTGAGGGTTCTGCAGAAGGCAGGTGGCTCCCTGTAATCTTCTCGTTTTCTCCCCTTCTGCTTAGCACTCCTCCTACACAGGCTCTTCCACCTTGGTGATGGTGTTTCTCTTCTGTGGGTCAG
0.5056727449755748 GAACTTCAAAAGCAAAGATGGTGAATTATCCTGCACTCCAAAGTAACCTCTTTGGGGTGTCATCATTTTAAAGTTTGATCTATCTTTGCAAGAGTCACTGCATAGTATTGGTTTAATGTGTGATGTTAATTCAAACAAAAACATTTTAACGGGGACTATCTGGAAAT
3.130636237906865 TGCATTTGTGAAATGCAAATAGATACGCTGTATCTATAAAGCGCAGATAGTCTCTGCAAGCTCATGCTCCTTCTGCCATCTGTGTGTGTTGTTTGTCATAGGTTCATCTCAAGCTTGCACAGTCTGCAGTGGCAATCAAGGAAAGGTTAGAGTTCAAAGCCCCCTAG
1.903892638936943 GCACAAATCCTTGAGTGCCATATGTAACAGCAGAAGTATGACTGCAGAGCCTGAATGTTTTCACTATTTTTAATTCATTATTATCTGCCAGAAACTTGGGTTGGAATAGCTTCCCTTTCTTTATGCATTGAAGTTGAGTAATTATGCGAGTCCCCCCTTATTAAGTA
1.802078399640164 GTGCATAGGGAAAGTACTACTTGAGTTGCTCACTTGAGTTTCATCAAAACTTCAGTGAAGTTTGACTTCAGATTACACAGATCATCCAACCATACTTATTCAAATCAGTGTTCTCAGCAATGATAATTAGAAAATCAAAATATTAATCAACTGAAAAATGTTTAGTG
0.2488300607078029 ACATTTTCCGAATACTAAAATAAAAGCTCGCACTCTGTAGAGTTGGGTTCTCACAGAGCTGAGTCACACTGGAATGCTCCGGTTCCTGCCTCCCAGTTCTGCTGCTGATGACTCTCATCTCCACCTCCACTTCCTACTAAATGCTAGCTTTATTATTGCTGAAAGTT
0.4237084372365073 TAAGATAAAATTGCCACCAACTCCACTACAAATTGCTTCCCACACAAAAGCTATAAAAATACAAGATTCTGCACCTGTTAGCAAAATTATGAATTGAAATTTCTTGACTTTCAGCGTTAAGGTACCCCACACCTGTATCGTACACCTCCTCCTCAGGCCTTATGTAA
0.728714524958239 AGATGGCTCAGCTGGTAAGGTGCATGCTGGGAAAGAGTGATCATCTCAGCACAGATCTACAGAATCCCAGTTTTAAAAGCTGGTGTGGTAGCACACACTGGCAACCAGAGGAGTGGGAGAATCTCTGGAGCTCAGGGCGCAGCTAGTCTTGCCTAACTGGAGAGCTT
0.7601254658310399 TCAAGCTAACCCAGATATCTCACCCCAACCCATTTAATTTTTAAAATCACAGTTTCACAGTGTAACTCCAGTTGACCTGGCTTTTACTTCATAGTCCCTAGGCTGGCCTCTCAAAGTCTTGACAGGCCCTGTGCCTCTGCTTCCAAGGGCTGGGGTTAGAGGTATCC
0.965437084723859 ATGCAGAACGGTGATAACGGTGTCAATCCTTAGCGAACCAATCCAAAGAGAGGAGACAAATGCAAAAGAGTGAAGAATCAGAAAACGTGGCTAGGAAAGACAGGAGGATGGGATATCGCTAAGAGGGTGAAGTAAGACAGGAAGGGGTCATGTGTAGGACCTAAAAA
1.194995949471256 CTTATTCTGCTTCCCTCTGTCTTGCAGAGACTTCTGTAAGCACAGGTCCGTGCATAACCTAGCACGATCTCCATCTCAAGATGATTAACTTGATACCATCATTACATCCTCCTTTCTCCTTGTGAGGTTTTGAGGATTCCAATAGATGTCTTGGGAAGAAGTCATTG
1.920765635857393 AAGCCAAGAAAAGGTAAGGTATTTAATATGTTTAGAAATTTGCTCTCCCTAAAGAGCTATGACTAGGAACCACATCTATGTTAGTTCTGACAGGCAGCCAAACCCAGAGTAAATATAGAGAGATAATTTGAGAAGTGAGGAATTAAAGTAAATTTGAGGATTTCTGC
1.793319563250012 AGAAAGAGGGGAAACCATGGTTGGTTCTAGAGAGATAGATAGGACCTATTAGAATGCATTGGAATAAAAACTTACTCTTAGGCACAGATAGTTATCATAACAGAGATATATTTATTAGGACAAGAAATGGAAGCAGGATTCATATACATGTGATAGTCTCCTGGCTG
0.1994333780191754 CGAAATGAACATGTATTTGTATGTTATATAACAAGGTGTGGGTGTGAAGACATAAAAATGAGAAATGTCGAGGCAGCACCTCCGTGCCCTGTTCCCGAGGTTGCCGGTTCTTTCTCGGAGACAATGATGGAGTGTGAGAAGAACTCACGAGTGCAAGATTGTGAAGA
0.2504471424102428 AGGGACTCCCTTTTTAGATCCTGCAGAATCTCAGCTAGAGTACAGAACACTCTTCACCTCCCACCGCCAGAGGAGTTTTGTAACAGTGACACAAAAGCGATGTTGGGGAGGCAGGAATTAGATACAAATGCTGAATAGTCTCTGTTCAGAAGTTGGCATATGACTTG
1.628162972686188 TATAGGGAAAAAAGGAGGTAAAAATAACTTTTTAACATAGAAATGCATTAGTATGGCAAGGGTAGTTTTGCCTTGTTCCAAAACTAAAGGTGTTCTTTTCCTCTATATTTCATTGCATTTTAAATATTTTTAACAATTAGAATGTATTGTATTTATTACAATGTAAA
2.067018536791529 GCCCAGAAAAATAACCGCAGCCCTGTCAAATTGTCAAATAGAATAGTTGGCAGCTGTTTCTTCCCTTTTAGGGGTTTTCTTGCTAGAGTTCACATTCAGGTTAGAGCAGAAATTTGTTCTGACTTACTGCAGATAGAAGCTGTCTAAAAATGACAGCAAGCAAATTC
3.020110298380727 CTGGGTGACTCTTACACATGACCAAGTCTAGCCATAGCACGAGGTACAACCTTGGCTCTCTTTGGAACACAGCTTCTTTGTTCTCTCAGAAAACACTTCTCAGAAGATTACACCTCAATGATGCTGGTCTCTTCTTAATCACCATCAATTTCTTAGCTTCAACTAAC
2.888634730043507 CTGGCAGCAGCCAAACAAATGACTTGAAGTCAAATCATGGGTTACAAGCTGACAGCCTATGTTCTGCTTGAGATAGGCTCTCCACACTGCTCCACACTTCGCTCGCTCTCTCAGTCTCTCTCTCTCTCTCTCTCTCTCTCTCTCTCTCTCCCTCTCTCTCTCTCTCC
2.447511899186455 ACCAGATATAATTCAATTGGAAGTTATATTAATGCTGCTACAATGAGTTACTCAAATGCACAAGAGTCCCAGCTCTCCATGACACCTAGTGAGTTCATGCAGAAATGATCATTGTTAAACTAAATCTCTTCTTGAATGGGACTAGTGTCCTTCTATAAGGGGTGTAG
0.7322785446000708 CAAAATATTAGACATTCAAAGAAGATTTAGAGATTTCATCATGCTAAGTATTCCTTTTAGAATCCTATTATAAGGGCTGTCAGATAGCAGCTGACAACTTTAAGTATTCTTTATGAGATTTTTATCTAAATATAATCTGAATTATTTAAAGCTTGAACTGTGTGAAC
1.410392732110958 CAAAGTACTCTCTTCTCTACCCTTTATTTGGAAAGGATGGGGAAGTACGGGGGCTAACATTCTCCCTCCACTGTTCAGGTGCTGACTCACCGCTGCTGGTGACATCCTCTTGCTTTAGAATTACCATGTTCATTCAGCTTTCAGGTTTAGGCATGCTGGCTGAGTTT
1.77823388042033 TCTAGCAAGCTTAATGTGGCTCCCAAGGTATGATCTAGAAATGAAGCTGTACTGTTAAAGGGCTCCGCGCTGTGCCGTGCAGGAGAGGCATCCTGCCCTGTACTGAAGCAGAAGGAAGTGTGCCCACACAGAGAGGCCCCACCCAGCTAAACTTCAGATTTGTCAAG
2.449848309878947 CTTCAGCAGCCTCTCCCCGCCATGGGCACAGGCCCACTATGTCTGCCTGCCCAGGCTTGCACACATTGGGGAAGTGGCGTCTCTTTCTCTCTTTCCACCACAGGGGACAGAGGGACAGAGAGGGAGAGGAGGAAGGCATGCTCAGGATTGATTCAGTTAGCCGGCCA
1.364921097329102 AATCATGGGATTCCGAGATCATCAGAGCAATAGGATCACTCCGTCTCCAGGGGAGCACAAGGCAAGAGCCAGAGCGGGACTGTTCTTCAGTCAAGGGGCAGGGGTTGCTGCCTCTCTCAGTAGAGGCTTTTTCTCAGAAATGGCTTCCTGGTCTGACAGTCCATAGA
1.740243095309213 CCTTAAGGAGTAAACTCAGGAATCTTGATCCGATCGCACAGGGTAAGCTCACTGTGCAAACCCAATCGCCTCTCCTAACCTATTCGCAGTGCTTGGCCCTACAGACACAGTGGCGCATCAGCCACCCTCGCCTCAACCCCTGTTTGTGTAGTCTACATTATAGACTA
1.158233385428109 GTCTCGTTTGCTAAGAACTGTGGGAGAACGAAAGCAGAGCTCTCACCAGGGCCACCAATCCCTCGTCATCCCACAAGCCACCGCGGAAAGGCAGTCTTGCCTTGACTACTCTTGGCTGGTTCCAGATGCATAACCTCTAAACTTCAAAGCCTTTGTAAAACCGGAGG
1.383698487794048 CCTGCACATATTATAAACACACACCCCTCACCGAATAATAAACCTAGCAACCTGTGAGCAGAATAGAACTCCATCTGCATTGAGCTGCACCCCTTCCATACTCCAAACAATGGAGTAATTATCTCCTCTCCTAACAGCTATCAATCACACTCGTTATATACAGGTAC
2.161765251170475 TCCTGTGCAGACACCTACTGGAGTGTTCTGTGAAACTGCTGATGCCAGAGTGTTCCAACGCAACGAACAGCCAGCAGCTGAGCCTCCCCCTCACTTCTCCCTCTACAGCCCTGCCACTCTGTATCCCTGGAGAATACAGAGCAGTGTGGTTCTCCTCTGTGGCTTAG
1.053205519799486 GCCAGAGATTCATCGAGAGAATCTGTCACAGATGTGCCTGAAGGCTCATCTCCTACATTATTCTATCAAGTTGACAATATTAGTCATCGCTTGTGTCGCTTGTGTGTGTAGGAGTCCTAAAAGCTCCTCAGGGGATCTGGTTCCTGTAACTCCTCAATCTACTTTGT
1.538844109782466 TTCAGTGATGGAAGGATCACTAAAAGACTAAGTGTAGAGCAGGAGATTAAATAGTTTAAATATACTCAAAGCAGCCTGTGTAGGAGTTGGTTGTCATGGTACTAAACCTGATGTGCCCCCACTGTGTTACAGAAAAGGCTGGTGCAAGTGGGGGAAGAAGAAATAGG
2.281028376967112 ATATAGCTATTTCTCCCAGACATTGCTACTTTAATGTAGCTATGAGGAAAAGCATGAATGGTTTCAAGTCTGAAGATACATGTCTCCAACAATATGCTCTTCATGATGACATCATTCTGCTTCTGAGACCTAGGATGTCCTATAACTGTCCTGAGCATCAGTGTCCC
1.927522064213684 AATTGGTACAGTCAACCTTCTCCAGGATTCCAACGCCCTACTTAAAATTCAACTAGGAAGTTGAATTCAGTACTGATTAGCATTATAAAGTCAGAGCCTACAGGCTATTCTGTTAGTTGTTTACTAGGACAGAAAGAACAGTCTTATCCAGAAGAAAAGTTAGGAAA
2.066933733444517 TCCCGACTTTGTTCTACGATTGACTTCTCCTGGTTTCATAGCCATGCCCACAAGAGGGCAGTAGAAACCAGAGCATCAAGACTGGGTGGCCTGGTTTCTAGCCGCTGCCCGGGTTCCACCCTAAGAACTCAATGAGACCACGCCCCCTCGGGCCGCGAGTCCTTGAG
2.078274123492274 CAGAGTATCAAACAGGCCGTTGTAGTGATCCATCCAGCAGAAGGTCTGAAAGTCAATTTCTTTCCTAAGAACTGCTGTTGGCCCACAGCGATCATGTGGTATAGCACCACCCACCTGCTTGTAGGTAGCTCCTCTCCACCAAGCCTTAGAAACTTGCCCCCTCCAGT
1.047493662672917 CTCCTCAAAGTGTCTCTTAGGAGAATAGGATGATTTGTGTGATAACTGGATCTGTCAACTCATTGAAGAAATTAAACCAAGAATGTTCCACGCACAGAGTTCAGCTCTGGAGGTGACAAGGGCTCTGTCAGTCATTGGAGGGGGTGCCTCTTTAAGAAGTAGGGAGA
0.806275455365718 GTGCTGCGCTAGACGCCAACTTTTAAGGAGACTCTTCTAAGGTCGCGTTTCCCACCGCGATCCCCGGGTCGAGCCAGCGTGCTGCCACGTATCGGGTCTTGATAGGCTTGAACAGGTCATGCCATTTATCTAAATGCTTTTGGAAGTCAGTCCTCTGCCGCAGTCCC
1.801465516944742 GTGAAAGAGTACGGTGGGAACTTCCTTTTAAATGTCACTCCAGTCAGTTGGCAGCCTCCCAATTCCTAGTCAGTCAGTAGGAGCCGTTATTTGTACTAAAAATGGAACACACTTGGAAGTACACTCTGTCTGGGGAAAGTGTTGGTAATGGAGTGTAGTGTGCATTC
2.515250756476281 TTGTATGACAAAAGTAGACCTGCACTTGACATTCTAGATAGCGCGCAGCCTCTCGCTATTCGCTTTCCTCTTGTCTTGCTTTAGAAAGAGTGTACAGTTGTAATGTCGACTATCAGCCACTCTGCTGGCCCTGGCTGCTCTTACATTGTTTCTTAGTTTCTCTTTTG
1.01436493297192 GCACACCGGCCTGCTGGTCCCGGGGGAGCTGGGGACGTTGGGGACGCTACCTGAGTGGGCAGGTGAGTGGCGGTGGTGACCAGCAGAGGGCAGGCAACTCTTGGGACTGAGAAACTGGAACCCCGTGTTGGGAGGAGGTCTGAGGCACAGGGCTGAGTTCAACGGGA
0.5158770114186444 AGGTCTTTCTGAATGGAGTCGCCCTGAGACCTGGGTTTCTAGGGCGCGTGGCACTGAGGAGCAGCCGACCGAGAGCGCGGACGTGGAGGGCAGGCAGTCCTTGTGGCGACCGGGTAGTGCGGAACCGGTGCGCGGAGACTTGAATTCCTGGAAGTTGACTCTTCTAC
1.068288648691069 GAATCGAACCCGGGCCGCGGCGGTGAGAGCGCCGAATCCTAACCACTAGACCACCAGGGAAGTTAGCGCCTCGTTCCCCTTTAGATCATATGGCTCCAAGTAACTGCGATTTGTGGGTGTGTGTGCGTGTGTGCGTGCGTGCGTGCGTGCGTGTGTTTGTTTTGTTT
1.878886308296121 TGCTGCTAAGGAATGGCAATTCATTTAGCAAGCAGCTGCCTTTCCAGAATGGATTGTCTTCTGATGAAAGTGATGAATATGGATGCACGAAAGGGAGGAAGCGGGGGCTGGAGAAAGATTACACGCACAATAACTCAACTGATTCCCGTCAAAGCTGCACTGCTGAG
0.6636406494916585 AACTGTGGAGAAAAGCTTACTTTCTGGCTTGCTCACCTTTTCTGGTTCTTTTTTATTCAGCCCAAGCATACATAACTAAGGTATGAACCGTCATCCACAGTGAGCTGGACCCGCCTACATCAATTAGCAATCAAGAAAATTATCCACAGACATGCCCACGCACAATC
1.09870273365397 ACTGCATGAGCGATCAACGCTCTTCCCGTTTTTTATTTGTCGGTATGAGGTTAACAGAGGAAAGCATCTGCCTTTCAAGGCAATTGCATTTGTGTGGCAAGGGGGGGGGGGGGCAGAGAGGTGGTGTCTGAGGCTGTCAGTCCCCAGCTGGCCTCAGAGAAGTCACT
1.822018336648832 GCTGGGAAAGGCGTGCATATGCCCTCTTTTCGTTGAGAAGGGTAATGCTGCTGATAGGGGAGGTGGGACAATGGTTGCTATGGAGACATATTCCCAGACATACAGACACACTCATTTTAATGCCTTTTTTTTTTCCAAGCAGGGGAAGGATCCAGTGCCCTATTTTT
0.8703185407104306 GAAGCAGTCTTTGTCATGGAGAGTTAACTGTCAGAGTTTTATAATTGGTGTGTCATGAGGCATACACACGTTAAGGAGCGTGTGCTCTAAGGTGACAGAGATTGGAAAGCCCTGATTAAATGACAAGCAGATTTGATTTTACTCATAAATAGCTCAAGCAGTATTTT
1.386801526988826 CTGGAACATGACTTTATGCCTGAGTTCTCTCTACATCTACAGGGATGGCGAAGAGCTCACAAATTGTCATCTGGGACCCGGCTGAGAGACCAAACAAGAAGGAAAAAAAAAAATCCAGCAACTGTCTTAAGCTATTTGGAAGACTGTCATGTTGAAGGGGGATTATA
1.237687825137791 AACCTGCTTCGGCACACCATATGACCCACTAGCTCTCACTTGCGTAACCTACCCAGCCATGAACTAATCCATAAGTGGATTAGTCACTAGCAAAATTAGCTCTCAGATGATCCATCCTCCTCTCGACAGTGCCACTAGCTGCGATCCAAGCTCTTTACACGGAAACC
2.064028538940389 TTGAATGTGAAATGACTCCCCCCGCAGGCTCTGCAGTGAGCTCCTCTTGCCAGCTGGTGGCGCTGTTTGGAAGGTCTCAGCGCCTTAAACTAATGAGACCTGGCTGTCGGAATCTGTCCTTAAGACTGAAAGGCTTAGAGGCAGGCTTTGACAGTTCCGGCCTGCAA
0.3758735141639585 TCTGGTGGGGGAGACACCCCAGAGAAGCCTCTTACTATAGTAAGTGGGGGTGTGTGTGTTCCCAGGGCAACAGGGTGGCACCCATGCCCTTCCTGTCTGTCACGCCAGGAAAAGTTTTAAACCTTGCCGTAGGTTTTTAATGGAGCCATTATTCATACTATAAAAGG
0.9592708227530607 TTAACCCTCACTCAGCATCAGCCAGCGTAAGCTCCACAAAGGTTGCAAGTGTGCCTCATTGTATTTTTCATGCTGAGACCTGGTAGGTGCTTATTAAATAAGTATGAATAATGATTCCCTTCTGTGCTCTTCTCAGGCAGTGGGTTAAAAAATGGGGACTGGGAAGA
0.3757356134785443 TAATAGAAGGAAAAGGGTAATTGAGTGGGGGAAGGTTGTGCAGTTTGGTGACAGATTTAGGGGAGGAGACACGATGTGACTGAGGTGATGGTGGGTGTGAGTGCTATGCTTTGAGACTGCTCACAAAGGCTCTGTAAGTCCCAGGCTGTCTGTTATCTATGAAATGC
0.7159904555398315 AATTCTGTCTTCACAAATAAAACTTTTTATAGTATCTTGAGATCAAGGTGGATAGATAACTCCTTAAGAAAGAATAATTTAAAGTTATTCTTAGCCCTTTATACTCCATACAAATTTTAAAATCAACTTGACAGTTTGTATCAAAATGACTCCTGAAATTTTCATTA
1.935643996593212 TCTCTCTCTCTCTCTCTCTCTCTCTCTCTGCCTTTCTCTGTCTCTATTCCTTCAGCTCCCCTCCCCATGCCCTGAATAAACTCTATTCTATACTATACTATCTTGTAGCTGGTCCCTCAGAGGGAAGGGATACCTCAGCAAGGGCCAGCAGAGGCACCCCCTTCTCC
2.208805932959325 GGAACCTGTTTAAGAACCACAGATGCTGCGTATGCATAGCTGAAAAGAAGAAACACAGAGTCCTTGAATGCTTTTGTAGAGATGAGTGTGCCAGGCAGCTGGTTCTGCTGAGGAGCCCAGTGTGCTGAATGAAAAATAAGACAGGTTTGAAACATCTGCGGATTCAT
1.091864720192625 GGTTGAACCGGGTCAGAGGCTGCTGAGAGGGGGCGGGATGAGCACTGACAGTTGTGTTGAGTAGCTTGGAAACTATACTAGTAGCTTGACAGTGAGCCAACTAGAATAACTGCAGTGGGTGGGACTGGGGAGAGAGCTTGCCTGTTCAGGTTTAAGAGCAAACAGCA
2.870383170536593 AAAGAGTGCTGAGAGAATAAAGCTCCACTCTGCCACAATAGGAAAAACCCACAGCTGCCTCCATTGCAGCTCATTTGGAAGCAGCTTGCTGGTGTGAAAGTTATTTTGCATACAATTAGCTGTTAGCTCTGAGCTCTCAACGCTATTTAAAGCTTCACTTTAAAGTT
0.4149346493298674 CCGACAGACCTAGATTGAGAGAGCAAGCCACCAGCAAGCAGCGAGGGTGGGGATTTTAAGAACCTGGGTTTTCTTCTCAGAGTCTGAGTCTCAAGTAGCTCGGTTCCCTTTGAAAGGCATTTCATTTCCCTCAATTTGGCTCAGTCTCGCCCACCCTTTCTGAGCTT
1.81007420593411 CAAAATCAATTCCTGTCAAGCTCAGCGGCTGTTCTTAGGAACAAACACGGCATCATCACTCTGCCATAGCACAGCTACCTGGCCTTGACTCTAGCTGTCTCTTCCATGCTGAGGCAGAGTCCCAGTTACTACACTAACCAGGATCTCTTGGGTGGTGGATCACTGCT
0.9688379535893603 TAATAGCAAGCAATCACCGGCTTGCTCCCCCGCAGATCAGGGGGAGCCTGCAGAGTTTGCAGAGCCATCCCAGGACACCTGTCTGGGTTACTTAGGAGCGGTGCTGTTCGGGAAAGGGAAAGGCAGGGAATAAAGCTGGAGAGTGGGAGGAGAGGACGAGCCAGAAA
1.714430666696659 CAAATGCTTCCTCCTCTCCTGGAGCAATCACCGTGGAAACTTTCTTGAATATATCTCTCTGGAAAAAAAAAAAAAAAACCAAACCCTCATGAGTCTTTGCGAGCTAGCACTAGGTACTATTTATATCTGACTATTCTGGGTCTCGGGCACCCTTTCCATGCCAATGC
1.915263533958086 ACTGCAAGATAATCCAGCTTCCTGCTGTTAAATTAGTAGAAAGAAAAAAAAAAAAAAAACTGAGCACAGTGGTACATGCCTGTAATGCAAGCATGTAGGAGATAGAGGCAGAGCAATCAGAGCTTCAGGAGTAGTGATTCTCAGTCTTCCTAATGCTGTGACCCTTT
1.938102594541345 TTGAATTCAGATCATCAGACTTGGCAGCAAGCGCTTTTGCCCACGGAGACATCTTGCTGGGAAATATACGTATATTTCCTCAACTATCCATGTCTGTCTAACTACAGGTTATCAATGACTCTATTACTACAGAATACTTAGACCTGCCTAGCAGCAAAACCCAGACT
1.826442416373128 AGGGAGATATTTCCATCAGAGCGAGCATAGCTCTGTCCTCAGGCAGCCCTGAGCCTTTGCAAAGCAGCTTCGCTCACATTTTGTTCTCTCCCCACCCTCTGGGCTGTTGCTCAGCCTTAAACAAGGCCATGTAAGGCGCGGAGAGGGGCTTTCTGGGGCCAGAGCCC
1.129122520033804 ACTGCAGTTATGGCTTACCTGGGATGTTAAATGTTGTCAAATGGGGAAGGATAGTCTGGGCCAGGCTAGGGAGGTACTTGGAGCTCCCACTGCCTCAGGACCTTCCCCTCCCCTAAGGATACACCCAAAGTCTTATGGACTCAATTGTCCCTGACAGCTTGGAGCCT
0.3790382851277237 GGAGGCGGAGGTAAAGGGCTTCCTTGGAAATGTCACGAGATAATGAATGCTATTTTACTCCCATTGCTGAAGTGTCAGTCAGAGGCTTGGGGAGAGAAGGCGTGACTCTCTCCTTAGGAAGGAATTCTGGGTGATCTTGTATGTCTCAGAACCAGAGGGGTGATGGC
1.388275694866087 GGGGATACTAGTCATACCCTGTAGCAAGTAGGGACTGAGGGATGCTGGGAGAACCCGTGTCTGCTTTGATATGTTAATGAGCACTTCAGTTAGCATTTGACTCTGGTTTGACACTGAACAACCCACAGGTTCTCTCCCTCCTAGTGCACTGCTAACATTCTTTCATA
0.7156279278949924 CTATAAATACCTCAGCCAGTTTTCCGGGGTTCTCATGTGACTTTGATGCCAACCTCGGCTGCGGGGATCCGTCACCATGGTGACTGGCCCCGTGACCAGCCACTCTTCATTCATAGCAGGTTACAGCGTCCTGGATTATTGAGGGTGGAGTGATGAAGGGAGGTGGG
0.7338393657888734 TGACACATCACGTGCACAATCGGAGAGCAGAGAGGATGAAGGCACACCCTTTCAGCTTCCTTTCTCCCCTAGACCTCAGTCAGGCAATGGAGCCACCTACAGCTGGCAGTTCTTCTCACCTGAATTAATATAAGCAAGATAATTCTCCCACGCATGTCCCTAGGCTC
1.207600450425492 GGCAGAAAAAAAATTCCAAAGATTGCTCAACATTCCTTTGACTCCAGGAGCGGGAGTTTGGCAGCAGCCCGTGGAAGCCTGAAGGAATGGGAGCCTGTGGGTGTGCCTTGCAGCGTGGCCAGCACAGGCTGGGGAATAGCCCCTCTGCTCTACTCCCTGGGGGATGA
0.7208707007615982 TTACAGGAGCAGAATGACTCAACGGCAGATGCATCACCAAACCCGACACCAGCATAGGTGACAGCTCACAAAAGCTGAATATCTGGAGCATACTGCAGAGCTTGCAGGGCGCTCAACAGGTTGAAAAGTGTCATTTCCAGATGACTCAGTTGGACTAAGCCTCTTCC
0.7265822970487638 GAGGACTGCTCCAGGGCATTGCAGCCTGCCTGTTTGCTGGGTTGCTGAGGGAGCTGGGGAGAGATCGCCTGGAGGAGAGGCTCAGAGGGTGAGGGGATCTGCTCCACAGAGCGGGAGCAGCAGGCAGAACTTCTGAGGTCACCTTTGGGGAGGATTTGTGAAGTCCC
2.089795835824714 CTCTGCCTCCCAAGTGCTGAGCCTAAAGGCATGGGCTGCCACCACCCAGCTTAACTACAGCTCTTAACTGCCTTTCTAAATGCTCTTCTCCACTCCCACAGCTATCAGCCACATCTAGCTCACTCCTGCCAGGAAGAGGCAGGACATTGTCCCTTCTCAGAGACAAC
1.932912025236584 ACTTCTGGAATACCCACGATCAGAAAGAACCATGCCTTACTTGGCTCTCATGCCCATCTGACCACACTCCGAGACCGTTAACTCTGATCGGCTCCTTTGGGATTGAGAGATGTCTTGTGAGTGCCCCCTCAGAGTGCGTGATAAAGAGTGCTATGTAGAATCTGTCT
0.4809918876282652 TGACAGGCTGGCTGCACAGAATTCTGATGCTAACGACCTTATTTGAGCTCAGACTTCACAGTGTTAGGGTAAAATCCTTCACAAGATCTAGAATTCTCTGGTTATGTAACTACCTTGGGGGTGGGAGTGTATCTCAAGGGTAGACTGCTCATTTAAATTGAGGTCCT
1.530115615061488 ATTCTTAAACTGAATCTTCAAGGGTTCATAATCAGTGGATTATGAAATCAGAGGGTTTTCAGAGAGAAAAATCCTCATTACATAAGCAGTGTCAAGCAGCTGCCCTCTTAAGTCTCTTAGCTGAATCCGCCAGATCTTTGTGTGCTCGAAAGGTGCGTTCCCCTCCC
1.245343957721992 TCTATCAGTTTGGACACATTTACAGCAGTGTAAAGAAATCAAAGATCACCCCTGTAATCCCAGCACTCAGATGGCTGAGGGAGGAGAATTCCTGTGAAGATCAGCCCTGCTACAGAGTAAGACCCTCTCTCTCTCTCTCTCTCTCTCTCTCTCTCTCTCTCTCTGTG
1.758563964938349 TGGGGCAGATTGTTCTGGTTGTTACAACTGGAGGTGTGCTACTCACCACTGATATGTTAAGGGGATGTTGCTAAGCACCCACCAGTGAACAGAGAGGATTTGACAGTGACACAGCTGAGAAAAAGCCTGCTTAGCACCATTTGTTAGGTCATTTGGTTATTACTTAT
1.839446568368423 CACAATTTTTAGGAATTAACTTTCTTACCAGCAGATGTCACTGCAGCCTAATAGACTGATTTCTGTCACTTTAGCTCCCTTCCAGTAAACTTAGCAAATCTTTTACCTTAGCGGTGTCCCTGATTTTCCCTAAGAATGTCTTCTGCAGTGAAGTTAAAGAGAGACTA
1.030268422648689 ATTAGGTTAAAGAAACGAGGGCAGGCACAAAGAACTACATACCATGACTCCTGCACATGACATTTTAGAACATATGACACTATTAGAACAGAAAGCAAGTCAGTGCTCACCTGGTCCTGAAGATGGACTTGACTACAAATGTGTGCAGGGAAACCATGGGAAATGAC
2.209037376751045 CCTTAGTGGAGCTCTGGAAGGGCAGAGAGTATACAGATTCTTCTGTAGAGATCCCACTGTCTCACAGTGCTAAGTATTATGAGTCAATGAGCACATTATTTTTGGTTGATTATAGACTGGGAAAATCCAACACAGGAGACAACAATGCATACCCCCATGTTTAAGGC
2.261712858074954 TGGATTTTTTTCATTCCTCCCATCTTTAGTCAGTGACTGCATGCCCTTCCATTAGAGAAATTGAAATGAGTAACTCATTTACATTAAGTTACTTGGATTCCATTGTCTTATTCACTCTAACGCTATTTTCTTTTCATTACCAGAGAGAAATGCTTAAAATAAAAGGT
2.878731596874502 GATCCTGCCCCAAGACAGAGAAGAAGGGAGCAGAGTTCCATCCCTGTAAAATAGCTCACTTGATATTTGATAACTGTTGCAGACAACTGTCTTCTTTTTATCTGCTGGTTTCATTTTCCTATTTGAATTTGTTTAAACATCGTGCATGCTCTAATAACTTGGCCTGG
0.770461596683639 TAATGTACTTGCACACACTAAAGCAAAAGAGATGAGAAAATGACAAGCTGTCACTTAATGCATTATCCTCCTCCAACCAGAACCTGCATTTATACTGCCATGTTAAAGTGGATGATGTTGGCAGGTTTTAGAGAGAGGGGTGTGAGTTAGCATATCGCTGCCAGTGC
0.9404540438446509 CCGCTGAAATATCACAGGCCCAGAACAAGAAAGCATTTGTCATCTCCAAGCAGAAGAGCTCTTATGTAATCACAGATAGCAGCCTTTAAAGGCATCTCAGAGTTAACCTGGGGAGGCTTCCTGCTTGGCATAGACCCTCCCATTCGTGAGTTAATCCCATCCCGTGT
0.8112809856629427 CTCCACAAAAGAACTGGAAAAGCAATTAACAAAGAGAATCCATGAGTTGAAATGAAGGTGGGCGGTGGGGACCAGGTGGGGCTAAATCAAGGCTGACATTTCCTAAGCATAATAATCATGGTTTAAGGGGTAATTATGCATACAAAAGAGTGGGAGTGGACAGATTA
1.885693067005846 GATAGCGCTTGCTACATTCACCCTGCCTGGTGACTCCCTCCAGAAGACAACTGAAGGCTTCACAAGATCTCTGACTGGCACTCCTCATCACTGTGATGAGCTAGTGGAAGACTTAACCCTAGGAACATATCTGTACTACGAACACGATGACGATGGGTAGTGTATAT
0.6805958618235783 GCTTACGCCGTTAAGTGGTTGTTAAGATTTTTGCTAATGCTCTCCCCACATGTTCCTTTCTGTGTCATTCTGAGAAGTATTAAAACAGAACATGACTAATCCATTCAAACCCGATGTTAGCGAAGACAGTTATCACCTCACGGGGACGCCCAGGCTAGAACTCAGGA
1.693169281003342 CTGGTCAGCTTCCACAAGTCTCCATTCTCACGCATGGATGAGCTGAGCTGAAGGATAACACGCTCCTTCCAGGCTGCTAGTATAGTCTGTGAGGTGACTAGGGCCTGGCGCAGGATGTCAGTGTGTGCAGCAGTTGGGGTTGTTAATCTTTGTTGTTGTTTGTCCCT
1.092086886657959 AAAGGGAGGAGGTTCCCTTCCCTAAGAATTTCAAAAAGGAAACCACGATATCAGCTCCAAAGACATTACATAAAAACAGCACCCTAGTTAAGTTCACATCATGCCTGCTTCATTCCCACTAAAAGAATGGAGAGACCCTACAATTTTTTTCAATTCCTTGCAAATCC
2.285825240157383 TCAGAGCAAACCATGCCAATGACTTGAAGCTCGGGTGCTTGGCTCATACTGCTACTGCCTCCAAGTGGCCCTCCCAGATGCTCACAATAATGATCAGCTAACAGAGGGATGAGAGTTTTCGTGAAAAAGCATACCACTTCGGTGTAATGGTGTACAGGGCAGTGGAT
0.7747744961882265 GTGGTTGTCATTAGATCAGTTCTAATTCCCACAGTGTGCTTAGCTACCAAGCCACACCTTCTCCACCCTCAGAATTCTGTTCATCTGGCTTTGTCACCATGGATCTGTCCCAGGTAGACTCATTCTGCTTGACACATGTCAGTTGCTTCACAGCCTTCCAACGCTCA
0.8965500612129207 GGAAAACTGACATCTTGCTTCCTCTTGTTCCTTCAAGCCTGTTGTCTTACTCCTTTTCTTCTAGCTTTGCTTCTTAATAGGCTGATATCTGAGGATGTTTGCCTCTGCCTCTGCCTCTGCCTCTGCCTCTGCCTCTGCCTCTGCCTCTGCCTCTGCCTCTGCCTCTG
0.6110113765483234 GCCAAGGCTTTTGCAAGGCAGCTGAGCACAGAGTCTGAGCAAATTGCAAAGCAATGTTCTGCGAGGAGCAGGGACCAGCCTCCCTCCCACTGCCTAATGCCATGCTGCAGCGCCCACCGTGCTCCCCTTCATTTGTCTTCAATGACAGCCTGACTCTCAAAAGTGTC
1.946240660428924 TTTTCAGGTGTGCATACATGAGTGTTCAGAGGTGTGTGGAGCCCAGAGAACAACCTCAGTTGTTGTTCTGCAGGGGCTGTACACCTTCTGTTTGAGACAGTGTTTGTCATTGCCCGTCAAACTAGGCTGACTGGTGGACCAGTGAGCTCTAGAGATCTACCTATCTG
1.32053951134648 ACAATGGAGTACGATGGCAGAGATTTTTCAAAAGCAGAGAGCAGCATATCAAATATTCATGAAACCCAGTTTGTAACTCAGTGCAAGTTTTTCTCCCTGCAGTTAGTGAGTCACGCTCTCTAGACAGGGACTCATGATGTAGCCCTGGATATCCTGGAACTCAATAC
1.572446953361123 GATCCCAGGACATGTTCTTCTTAGACCTGAATTAATTTGATTGCATCTCATTGGTGAGATAGACAGCTGACAGTCACCTATTGTGAGAAATGAAGTAGCAAAGAGTAGGTCTGCTTGTGTGGAGTTTTGATGTGTGAGGGCCGTCAGTACCTGCAGGAAAGAGCTCC
3.072559161678469 CTCCATTTAGTGTAGCAGAGTCCCTTATTGAATCCATCACTCACTGACTGTAGCTAGTCTACCTAGCTGTCTTCATCTTCCAAGTGCTGCAATTATAGGATGTTGCCATGCCTACCAGCTTTCATATGTGTCTAGGAAGGCTGAGCTCTGGTTCTCACACTTGCACA
1.245515293239932 AAGCTAAAATGAATCAGAGATTTGAAACAGAAACTATGAGTCTCTACCACGCTATTCCCACTGCAGTATCTTTAATCACTTCTGAAGTCTTAGGTGACAAGATGGATGTGGAGGAAGTGTCAGTGAGGCTCTGCAGTGAAGTCCACTGATCTGCTGTGCTCACAACT
2.479186296506042 AGAAAACAAAGGAACCAGGAGCTCTGCACTGAGCAATTTCTTCAGTCTGTTTGTCTCTGAACTGGAGAGACAAATAGCCCCTCAGCCAGAAGCATCGAGGAATCCATGTGGCTTTCACTTGCAGAGTCTCTGCGCCCTCAGCCCGTAGGAGGCAACAGAGATGCTGG
1.414814063937372 AACTTATGAGAGGAAGGCTGGGTTTTGGCTCACAGTTGCAGTCCATCATCGCTCTGGAGTCATGGTGGTAGGAATGTGAGGCTTCTGTGTCTCACCTCTCACTCAATCAAGAAGTGGAAAGCTCAGGGTGGAAGTAGAAATAGGTATCACCTTCAAAGGCTGCCAGA
0.7528088165034815 CAGTGCTATGTGTGTGAACATGCAGGTGACTAAGACATCTGAGAGAAGTTATTAAGATGCCTGTCAGCTTCTTTTGTTCCCAAAGAAAGTTGTCAGATTGCAAAAAGCCTTGAGTGAAGGGATTCACCTTATCTTCAGTGAGCTTTGACAGACAATGACATAACCAG
1.972425894995217 AGAGAGAGAGAGAGAGAGAGAGAGAGAGAGAGAGAGAGAGAGAGAGAGAGATTACACAAAAAGTCACGTTCTTCTGAGTCAGGACTCAGGGAAGCTGCACTGTAATGATCTCTGCAGGCAGCTGTCCCTTTGGTCCTTTTATGACATGGTTGATAGATAGATTTTCT
1.267691044086435 TCCAAAGCATGACAAATCTTTTCCCTTCTCTGTCTCCTAGCCTGCCTGTGAGAACCTGGAAGTCCCACCTCTTCCACCCAGCCATTGGTTGGGGGCATCTTTATTGATCCATCAAGAAACAAATGGAGACAGGACCTTCAGTGTTCACATGCAGATTCCCAATCAAG
1.971872013580675 GGAGTGATGTTCAGCAAACTGTACTTGGTAAGGTTAACCTAGCTGCACTGTGTGGGCTAAGCTGCGTCAGAGATTCTGGAGAGAGGCATTCCATTTGAGCTATTAGAAAAAAATCCAACGGTGCTCAGAGCATCAACAAAATGGCAGTGAGAATGGGATGAGGAGGT
2.024261673525778 TAAGCTGCCTTTCTCAGCTGCGTACTGTCATTCCTAAACAACCCTAGAGCTAAAAATTTTAAGTGCTGTCACCCAGAATTGCTAAACAGAACTTACTCTTTAATTTGTCTGCCACTCTTTCTGTCACTTCCCTTGCACTTTTATGGTAAGGCATTCATTCAACTGTC
1.870826486738075 TTAGAATATGCAATACGCCTGAATACAGAAAGCATTATTGTCTGTGTTTCTGCAGAAGAATTACGCGTTATGACTGTAACGTCAGGATCTTTTTTGGATTTGTGCAGGAGGAAAAGAAAGGGAAAGAGAGCACATTAGATGCGAAATGAAAAGTGGTATTGATTAGG
1.071984573985229 CTGACAGGAGTTTATTTTATTCTTTGCGTTGGAGGGAAGGGTTCAGACTAACACGCTGGGAGCCTGCTGCCAAGGCTGGAGGTGTGTGGAGGCTTGCTCTGAAGGTATGATGGTTGATCTGGGCGCTCCTGAACATCCTTGCCACAGGCCTCCTTTCTCAGAGCCCG
1.349303154673285 ATCATTTCATGGGTGACTGTTCCACCCACCCCAACCTCCTCCACAACACTTAATGCAATATGCTGCAGGAAATAAGATTCACTACATAGTCAGCGCCCTGACTAACTGCCTGGCTAAATGTGCTACCTGTAATTATATTTTAAATCCTAATCAGGACAGTTCTAGGA
1.659723111925103 CACCACAGTGGCTTTTTTTTTTTCTAACTAAGCGAAGAGAAAAAGGAGTAGGTGGATGAAAGCTGCCGGGGGCAGTCTGCCTTTTTCTCAAGGAAAGAGCTCATAATGACAGTACAATATCTGGAAAAGCTTGTTATTTATGTGATACTCAAATCTTACATGGTTCT
2.018958619414681 ATATATATATATATTATATTATATTATATGATATGTAAGTACACTGTAGCTGTCTTCAGACACTCCAGAAGAGGGCATCAGATTTCGTTACGGATGGTTGTGAGCCACCATGTGGTTGCTGGAATTTGAACTCAGGACCTTTGAAAGAGCAGTCGGCGCTCTTAACC
2.35959012364868 TTTTTTTCTTTCTTCCTTTTTTTCCCCCCTAATAAAGTCAAATGAGAAAGCCACATGACTGGGAATGCTAAAATGCTTCTTTCAAGAGCCCAATTCTGACTCATGATTCAAAACTGCTGGTGAAAAACTATGCACAGACTGTCCAGTCGCCATTGGTCTCTTAGGCT
0.728542305883649 ACTATGATCAGGCGGTGTCTCAGTGTAACATGCTCTCTCAACCAAGTGAAAATGAGTGAGCTGGCTGCAGACACGAGAAAGCCACGCCCCTGTCAAACTGGTGATGAGGAACAGTGCTGGGGCGGGAGGTGAGCCTGGAGCAGATGTCAGGGAAGTAGAGCTGTTGA
0.9976051399186261 AGAACACGGTTGATGTCACAGGTGTGCCAAATGTTACATCTTTGTCAGGAAAATAGACTTGAAATTGTATAGCAGGGTGACTTTTCCTGGGGCGGAGGAAAGCTGCAATTCGTAGGTCTCTGCTCCTTCCCAAGAATGGATTTCCTGCTTCCGGATCCCAAGAGACT
0.7994424062048413 AACTCCAAAAATGCTGCTTAATGTCAAAAAGTTTCAGAGAAAAGTGGAAATAAATACAGAGCCTGTGAGGGCGGGTGGTGACTCAATAAGACGTGGGCACTGAAGTCTGATCTTTCTCTTCCCCTGTTCTCTTTCCTGTCTCGTCTTTGTGAGTTAGTCCTAGCTCA
1.463539616232848 GAAATCAGAATTAATATTTTTGGTAGAGATACTGAACATGCCCTCCAATTACCACTTCTGAAAGTACCAACCAGGTATCAAGTAGTAAGCTAAAAGTGTCACTCCAATCAGTCACCCTCTGCCTAGTAGGACATGAGTGTACAAATTGTTGCTAATGAAGCATAGTT
1.22497372574443 TGAACTAAGTCTAATGAACTATCTACCTTCATATTGGAAGGTGCAGTATGAAAAGAGCTAACTGCAAGTCTCCAAGAAGCACTGTACAGCAAATGAAAAATTGGGGGTGGGGGTGTGCTCTTCATTCTGGAACATTCAGAAATTTTATTTCAACCTTAAATCTCATA
0.09278998442437489 CCTACTCCCCTCCTTTCTCAGATGTTATTCTATGAAGCATGTCAAGCTTAAAATCCCACATCTCCAGCTCCCTGAACTCCTGAGAATTGTGTTCTCATCTCCTTCCATCTCCATCCCACTTGGATGTCACTCTAGGTGACACATGCCACCTCTGCTCCTAGGATCTA
1.446562466839699 TTTTCTTTAATTTATAAACTTCAAGAATCTAGAATAGTGATAGTGATTTTTTTCCCTCCTAATCTTAATTGTACAATAGAGTCTCACCCTTGGAACCTGCCGACACAGAGGAAGTAGAAACGCTGGCTGGAATTTTAAACACATGCTTACAAATTATTCTAAACCTC
2.255426007852705 CATTTTTCCCAGGTCTTGTGGTGCAGTTTATGTGTCATCAAGTCATGCAGATGTGACACTTTGGGCTGGTAGAGCATTGCAGCAGTACACTCTTCCTTCATAGCATCTGCACATCACAAAATACCATCTGACAGCTCCATTGTATTGCTCTTGACAGTTAAGAGTAC
1.21006484975782 GTGAGCTCAGGCAGAGTTGTTCACACTCTGAATCGCAGTCCTCTGCAGTGCAGGCGCCTTTTTCCAGCTCAGGAGAACACTGCTATTCTCATCTCCCACTTGGAATCCATCATCACCCACATGTCCCTAAGTATCATCAACCCTGACTCCAAATTCCTATTTTGGTA
1.907755345662853 AGGACAAAAATAAGTTCAAGAGCTAGATTTTATTGATAACCATTGTTAATAACAGCATGCTGCATAATTTAAAACGACTGCAAGAGTAGGTCTCAAATGCTCTTACCACAATAATAAAGCAAGCATCTGAATTGGTGGACAAATTAATTAGCTTGATTAATGATTTT
1.293871917635734 TGTATGTCACTCTTAAAAATCAAAACCACAAGGATGACAGTCTTTGCTGATTCTATGGCTGTGGGTGGATGTCAATTTTGTCTTCATGTGTCTTTCCACTGCTGTGATGAAACTCACTAGACAATCGCTCCACACCTCAGCTAAGCTCACCACTTGCCTTCTTCCAG
1.021284018019305 GAGAAATCTTTTAAAATTAATAAAACATGCTTGAACAATCAGACGTTCTGCTGATTCTCCTCCACCTCCACCACCCTTTGTTTCTGCCCTTGACATGGGTGATGGCTTTGCTCACAAGCGGGTTCTGATTCCTGTGAAGATGAGGATAGCAGGCTGTCAGTCAATCC
1.376362825433721 GTTCCCTGCTCCTTGACTTGAAAAGCCAGACATGCACAGCCATCCTTACACCCACGTCACTGCTGTTCTCTATGCCCATGTCACTCAGTGATTTCACTTCCTGCATTTCCAGAAGTTCCCAGTATTCATCTCTTCTGTCATTCCACAGAGCCAAGCTTGCAGCACCC
0.6054626012810437 CCACACAGGCTGGGCTCTGCTCTCTGAACATGTGCAGCTCATCACCAAATAGTGTGCCAGCTCTTACACAATCGAGCTGTGCACACACCCACCCACACAGGCAAGGCCTTTCGGGGATTGACAGCGAGGAGGCTTGGAAGAATTCCTGCAGGCAACAGGAGCTACCA
2.295678972968589 ACAGGCAGAGAGCAGGTGGGGTGGGGCCGGATGTGAAAATCAAGCCTGGAGATAGGCGCCTATGGGACAGCATTAGCACAGTGTGGGAGGCATTAGCACAGTCACTGCTAAAGCACAGAAGAGAACCCAGGAGCAAAGGCGCTTAGCCTTGTCTCTGGGTGAGGCTT
1.68129303846571 GTTTCAGGCAGGAAGGTAGCAGGATTGAGAATAGCAGGAGGAGCAAACACGACCCATTCAGTCAGCAGCAGATTCTGGTAGTGAGTCATCCGGGCATTTGTCATCCATCAGTCTGGGGGCTGGCAGATAATGCCAGTTCTGCTAGCACTCTCTTGGTCCCCTGCCAG
0.39535168039915 TTTGTGGCTAATTTAAGCTGAATGAATTAGGTTTTGTGAATCACCGTTTATGTAATAGTTGAGTCAGAAATGTGAGAATGTGAGTTATCTCCTCCCTCTCTCTCTGTTTCTCTCTCCCTACCTCCCTCTCTCTCTCTCCCTTTCTCTCTCTCCTCATCTCCTTTCCT
0.6596688848937914 AGAACAGGCTGTACTTTTTAGAAATAGCATCCACCTCCTAATCAGTTATTTTCGGGTCTGTGTGCTGTGAGCTGTCACCAGGAACCTCCTGAACCTCTGGGGTGACAGAAGGTATCCACCCGACAGCGTCATCCTGTGCTCTCGGCACACAGGGTCAGGTGGCCAAG
1.420766557359923 TCTGCTTATCACTGCTGATAGCCATGTCTGCTGTGTTAGATGAGTTTCAGATCTTTGGATGAGTCTTTAATTCCATCTCACACTTAATGCAATCAACTGTCCCTACCAGTCTTACTTCTCTTCCAACTAATTCAATTCTTCCATGACAAGGATTTGATCTCTGGTTT
2.882374260900324 AGAAAAGTCTCTCTACAGTGGGAGAGACGGACTTTGCATGGCTCTTTTTCATCATCGTTTCAAGCACTAGCTAGGCTAGTGTTCATTCTCCTCCATTCAGAGAATGCCTGAGATACATCCCTTATCCAACAGCAGAGAGCCACAGCCTGGGCCAAGGCCTTGAAGGC
2.523532260936932 GGCCAGGCTCTATAAATGTGAATGATTCCCCCAAAGCAGAAGAAAACTGCTTGAAATCCATCCTTTCTAGAGCACAGCTTGACACACCCAAGGGGCCAGGTACAGCTCCAGAAAAGCTTGGCCTTGCTTGGCACACGCCTGACTACTGTTGGTATACAGTGTACTTC
0.8455808303375323 CTTACCTGGTCCACCATGTTCTAAAGATAAAAAGTCACATGCTGAGAAGTGCCACTTTCCTCTTCTACAAGTAGGTCGTGTTCCTCTGCCTCCCCCGGAGCCTGGAAGCAGCAACTGTGCCCTTCACTCAGCACTCGCTCACATCAGCGTCAGCCTGGTGCTCTGAC
0.5641860015722572 CCAGTAGGAAAAAGAACAATGCATTTCTTGCAAGTGTACCCATAATGATCACCCACCCACTCCTACACCTCTCCATACATGGCAGGCATTGCTGTCACCAGTGGGATGACTAAGTATTGAAAAAAATCTTAACAAATTAAGTATTCTACAATTTGAATGCTAAGTTC
2.503509445132837 GCTAAGCCAAGTCTCAGGAATGAAGAGTGTCTGTGTTACACCACTCTCAGGAAGAGTCACACAGTGAATAGAGGCAGGATGACATCACTCTCAGCCTTCCTGCAGTCAACACAGAAGGGTTTAGCCGGATCTCATGAGCTAGCAAAGGAATGGAAAAATAACAAGTT
1.515444120807973 TTAATAAAATTGCAGGAGGCCAGGAAAGTCAAATCACAATTTAAAATCCTCCTTTCACTGTTGGCAGCCGGGGAGTGACTTGTGAGCGTGGGCGTCTGGCAGCGAGGCTTTCTTTGGCAGTATATTGTATCTCCTCCTCCTCCTCATAAACATTTCTGTTTATTTTG
2.127213738328345 CTACCACTGCCTCTGTAAACCAGCACAATCCTTAACTACATTCTAAACATCTGTCCTTATACGCACAGTAAGTGTGGCCCTCACCCCTCATCAAGGAAATTTCTTTTTGCAACAGACAGAGACCATTACCGAAAACCACAACCAATCAAGATGTGTGTTGTGGGAAA
0.07740101956975606 GTTCTGGAGTCTGGGAAGTTCCAGGGCATACAGATGACATCTGACAGGAGCTTTGTGACATGGTGGAAAACTAAAGGGAAAGTGGGCTTGAGAGGAGATGAGTCACACGCAATTCATGAGGGTTGCTGTGGTATGTGTGTGGAGGGGTGTGGGTGGGTGGTGTTTAC
1.445778291369224 TTAAATGACTCAAGTCTTGTTGTCATGTGAACTATTGTGAAGGTGTAAGAGCTGGGAAGTTGGTACTTGTCCATCCTTTTAGGCAAGCTACAGGTGTCCTCCACTGAGGATTTTCTCAGTTGCTCTCAGGGGATGCTCTTAGTTGCCAGTGCCCAGGCACTTAGCTG
1.711383196520411 CTCAGAAGACTCTCAGAACTCTAGAATAGCTCTTAAGGTTCCTAGCATTGGTACTCACGTGTCTCTATACAAGTGCCTCTCTCTAGCTGTCACAGAGCAGGGGAAATGTCTCATTTTGCCGTATGCCTGTGACAGCAGCACTTAAGGCTCCACTTTTCCCTCCTTCC
2.007737180527089 CATATTCCAAGGCTTCTCTTTATATCCACTGCTGCAAGATCCCATTTTAGCATAATTACAGTCTTGGGGTTGAAGAGACAAGCTCACTCTATCTAGCTCTGCAGCTGGCTTTCTCAAATGACAATGGGATGTTCACCAGCTTAGCAACAGCATTGCAGGCTGTCAGC
2.12837531492226 AAAAGCACACTCCTCAGTACGAGCTCTCAGCCTCGTGACTTGTGTGTACGAAGAATTTTTCCTGCATTCACTCTAAGCTCTGTCTAATGGGGCTGAGTCCCGTTCCTAGATCTCCATCTTCACCAGAGATGGGACTAGCTATGCAACCTTTCTTTTTTCTTCTAGCC
1.318171224535043 GGACACAGGCAAGCCTGAAGTTCTAAGCAGGAGAGGGGAGTGAGCAATAACTCAGTAATTCATTAGCGCATAGCACCTATGTAGAGTGGGCTGATGCTCTGCACAGGGAGCTCTGGATTTGTGAAAGCCCGCGTGTGCTTTTGCATAGCTTCGGGGGTTGTTTTTTA
1.521142048063034 GTCAAAAGGAGTATGCATGTTCAGACTTCCAAGCTCCTTGTCCTGTTGCCATGGAAACATTCAGGCTTCCAGAACTCTAGGCTCAGGGTCTGCCCCCTGTGGTGCAGGGGAGGAGAGGAGAGTTGACAGGTGACAAAGAATAACTGGAAAGCCTTTTAGGAGAAGGT
2.675569927613194 GACTGCGAGCCCTTTCTCACATACAGATGGGAGTCAGCAAGCCAGCCACATTCGGTTCTTGCTTTAATGCAAATGCTAAATTGGGAAGAAGAGCAGTTTCACACTCCATATTTAGCCTGGGAGAGAAAAAGTGAGACAGCATGGGTGTTACCAGGGAAAGCAGGCTG
0.4961756766464912 CACAGATTCTGCATCCTTGACTTTCTGTTTCGGGAGAGTGAAACCTTTCCTCTGACTCAGAGCTTCAAGTGTTTCCCACCCCCACAGGCTGCTGCTGGGTGCAAGAGTGGAGTGTGGTGCAGAAGCAGTCTGCAAAGAGCTCTGGGAGCCAATCCACTGGAGACCCG
0.7978698625160849 GGAGGAGGAGAGCTGGGGAACTCTGCTTCCTGAGAGCCGCCTCTCCATCCTTCAATCCAGCACCTGCTGCTGAGCTCTGCCTGGGGCTCCTTTTAGAGACTTCTGAAATCCCGTGAGGATCCGCATCAGTCTTCCCACGTACAATGGTGGCACTTGACGCCAAAGTC
1.276898189741246 AGGTGAAGGGGAGTCAGCAGACAGCTGGGAAGACCGTCCCACTCACAACGACAGGGTGGCTACTTAGGGCTGTGCCCGCGCTCAGGCATGCTTCACCCGCATCAGTGAGCACCGGTCGGTCCCTCTAGGTTGCTGAAAGCGCGCGACCGAACTGGGATTACCAGGCG
0.7016732237842458 TGAAGTGGTTCAGGAAGATCAGGCTTCCTGTGGCTCCCCATTGACTCCCCGCTACCTTTCGCCCCCTGCTGGCCTATGCCTCCTCACGGTCGAGGGCAGTTCAGGGTGTGGAGGCGCTGACTCCTGAAGCTGGGAGATCCCGGGCTGGAAACCAGAGAGATATTTAT
0.1165082585453991 GAAGCCAGTGACCAGGATCCTGTGGGGTTTCTCAGGCAGCCTGGAGGTAGGAGCTGAGAAAGTGAACCCTGTCAGTGCTAGAATTAGCGTGGGAGGAATGGAATGAGAGGGTGCAGAGGAAAGAGAGGGAAGTGTGGGAACAGACACAAAATGCCGGTGGCCCTCTA
0.6572013341224475 CAGCTCTCCCTCCCACGAGACCTCTTTTGGGAAACAGACCCCGATGCTCTGGGGGCAGAAGATGCTGCCTCCATCACTCCTCCCTCTAGTGACTCATTCCCAAGACTGGGGGTGGCAGGAAGTGCCAGGGCCCGAGTACTGCAGCCCCATCCGGCTGGCAGCTTAGA
0.5995400989751609 TGAATTAGGAGAGGCAGTCAGAACTGAATAGTATAATTGGGCAAGGAGGAGCAGGACTCCACCTCCAGTATGATGGCCTTGAGATGTAAGGGAGGGGATGCAGCACAAGAATAGCGTGGTGAGTGGGAGGGTGTCAGGAGGTTAAGAAGGGATCCACCTCGGAATCT
1.671781604539863 CCATTACTACTTAGTCATTCCTTAGGTCCCTGAAAGTTTGTTCCCATTCATACCACACTACCAAAACCAACCTCTTGATGTCACCAAAAAACCTCTTACATATCGATTCCAGTAACATTTCTAGATCTTGAGTCTCCTCCTCCCCTTTTTTCTGGCATTTACAAGAG
1.759227013681123 GCAAATAGCTGCAGGAAGGGGCTGCGGCCAAGAAGGCACATTTCCCTATATGTCCACGAGATGGTGCTGTAATACCGAGCCACTGACCTCTGCCGGCCAGTGGGCGCCACCTCTCCTCTCCCCCAAGGCGGAGGCGTTGTGCGAAGCCCTACCCGCTACCACTAACT
1.180012581386519 ATGGGAGGATTTGAGGCTGTTTTGTCACTGACAAGCTGTTGTAAGATCATATTGGAAGCTGAAGACAGTTTATCTTCATGTGTGTGGTGGGGAGAGGGGAATTCTCCGTGGATTTTACACCCTCTTCAAATTAATGTGATTTCCTAGGCTGGTCCTGGGCACGGAGT
0.4752802422236986 AGGGTGTTCTCACAATGTTCTCAGAGGAGCTGGATTCTAAGCAACAGCTGGCCCAGCAGAGGGAGGCTGTGAGCGGCAGGGGCATGTGTGGGGGAGACTGAGGGCTGGGTGCCACGTGCCCAGGAATGGGGGGGCCTGTGTCTGCACAGGCGTCCCCCCCCACACAC
1.693924701030736 AGGCATTTGGGATCCCAACCATAACAGCCACTCACCAGCTGTGTGACTTGGGCAGGCTGCCTCCTGTAGAAATAATCAACAGTGCCACCCTGTGAGTGATGTTCTATTTAAATGAGATACTTAGTGAGCCACACCCCCAAAAAGGACCTCCAGGAGGGAACAGGGCC
1.735021652420916 GGACTCGGCTCATAGCCTGCAGCCTGACAAGGCAACCCTCCATCACTACTCTGAGCCCCACAGGAGAAGACCTTTGGCTCCACCCCTAACACATTTGAAGGGAAGAGGTGTTGCCAGCAGAGGACTCAATCAGGGTCCCCTTCACAGTGGCCAGAATGATTCCACCC
0.367465616754662 GAAACAGAACTGTAAGAAATTAACAGGCTGAGAAATGCCTCCTCTAGCCCGTGTTTGTATTGCACCCTCAGTCTTTCTCTCTGCAGCATGATCCTCCTGCCCTGCCACCTCCACTCTGGCTCCCCACCCCCACCATCCAGCGTGGGCGCCTGGGGCTTCGAGGTTGT
1.07216068004989 TACCCAGCCTTATCTGCCATTTAACCCAGAAGAAATACTCTCATCTCAAGACTCCAATCTGTCATTCACGTTCCCCTGTTTTCTACTCCTTTCTCAGTGCCCAGGAGCAATACTACCTGTCCCCCACCCCCCAATCCTAGTCCACGCTCAGCCTTCTACCCCAACCC
2.32930921770087 CTAACAGGTGTAATTATGACTCCAGAGCTTAAGCAACACCGAAGAAAAGATTGACAGATATGTGACACTCCAATTCTGCACCAGCAATTCTAGCTGCTCAGGGTTTGCTTGCCTAGGCTGTCCAGGGACTCAAGTTCAATTTCTAATACTGCAATGAATGAATCCCT
0.4556051963487174 AATGGGCACCGAGGTCCCCGCAGTTCAGGGCTGACATAATTGGACAAGAGATCAGCAGCCAGTCACCATGGTAACAGCCAATCCGGGGTGCTGCGCCTACAGCGGCAAGGAGTCAAGGTTTCTAAAGAAGGGACTAAAAATGCTTCCTTTGTTCTCTCTTGCAGTGA
1.162444605828788 GTGACAAAGGTGTCATTTCACACTGAGGTGACTGGCAAAACCGAAATGTCTGACAGTGCCAAAGATTGACGGGGATCTGGAGGGCTGGAACACTAAAGCAGTGTGGTAGGTGGATAACTGACAAGCCATTTTGAAGAGCCATTTGGCAATGGTTTGTAAAATTAGAA
0.8689887869053433 CAGGGTTTCTGCTTTAGTAAAATAATTTGAGAAAATGGTTTGCTTTAATTCTTGAAGAGTACAGTGCACCTTGGAGCCCACAGTTGAGTGACATGTTTTCAACTCCAAGAGCCCTCACACTTTAATTTAAATCAGCTAAAATGATCTGGTACTTTTTATTTTTTTGG
0.8270579039863839 ATGAGCACCGAGCTGGGGACCATGACATGTCATGCTCCTCATAACTTGGAACAGGAATACTAAACTGTCAAAGTGTCTCTCATGCCACCACCCCCGCCCAGCTGCATAAATCCTTTCTGTTGAAGACACTTCAACCTTAGAGATTAGAGAGTGATTATTATGAGTGA
2.42632540580198 TGATGCTACAATGCGTTTGACAGGCTCAACATCATTTTTGTCTACTCTCTGGTGCCAGAAAATGCCTGGGAAAGCTTGTCACACAGCACCATACGCAAGTCAGGAGTGTTCATCTGGAAACTGTTTTGAACAGAAAAACAGTGATACTTCCCTGTCCCAGCAAGAAT
2.018487128686434 GTGAATTAATATGTGAGTAGCATATTTCACCTGGCTTTCAGAAAGACTTGCTTCAGTGTCAGAAAGCAGCTCTGAGCTAACATCAGCATGAAACAAAGAGGAATTAGCTTAATCACGAAGCAGTGCATTTATAAAGAAAAAAAAATCTTACTTTATTTGTCATCTGA
2.771728621420784 AATTCAGGAGTTAAAGGCTCCTAAACTACTATAACCCATTTTGTCAGTCTGGTAAGTGCCTTTCCTGTTCCTTATTGCTTGAGTGTAAATTAGATTAAAACACACAGAGAGATACAGACACACACCACATAGACACACACACACACACACACACACACACACACACA
1.56017739480489 TACAGGAGTTGGACTGGGGAGAGAAAGCATAATCATGTCAGAAATATCTATCCAGTTATGTGATGAGTCAGATTTCACAAAGAGTGTGGCACATCAAAGATATGAAAGAATGTCAACTTGACAGGACCAAAATAGATAGAAGTGGGTCAGGAAGAAGGCTAAAGAGC
1.141493222612612 TCCAACCCTAGGGAAAACTCAGAGCAGCTTGGGATGTTCTCAGCCCTTCCCCTGGCAGGACCTCCTTTCTTCACAAGCAACTGAGATCACCTGCAGGGCCATCAGCACCTGTGCCTTTTCCTCCTGCCTCAGAGATTTATTCTCAGGTCCGACAATCCCAGCTAAGA
1.675214475971208 AGCATACTTTAATTTTGTTCTGAAAAGAGAGGAAAAAAAGAGAATCCAAACACTAGAGGGCTGTACGCCCTCCAGCTTCCTGTCATCCCTCAGTTTTCTGACTTGACCATGTGATTCCACCAGTTTCCATCTGGCAGTGCATGACAATGTCTACTCAAAGCCCTCAG
0.3708393008112834 CGGTTTAGGTAGTGTGGGTGGGTGGGTGGTGGGAGGGGGGGAGGAGAAGCTGTTAATTTTGGATCTGTAATTCAGACTGCTCATTAAATGGCAGTGATGTCACTGCGCCCTTATCTTCTCCATTCACCTTCTGAACTAGAGAGATCTCCTTCCCATGGGACCTCTCC
0.3044029694786325 AAAATGGCTGGCTGAGAAGATGGCAAATGCCACGAGTTAAATATAGCCTAGCATGGCACCTCAGAATGCCTGACAGACAGAACGTGGGGGCGCAGGCTCTGCTGCCAGGCAGTGACTCAACCTCTCCCAGACCGGCTCCTCATTTTGTGAGTGAGACATCAGTCATC
0.3374782403962337 GACTTATCAGCAGAGGAGTGTGAAGGAATGGTAAGAACTCACACAAGGTCACAGTCAGAAACAGAAATGACAAGATCTCCCACGCCCTTGAGTCAGAGTGCACAGTAACCCCTGAACTGACAATTCAAATTCATCCACAAATCTGAAGCGATCTTAACGAGAATTAA
0.5221100388706014 AATCACCAGTAGCTAATTGTCTCGGTGCATCCCACAGGCGGGCGCAGCGTATCATTTGAAACCTGGGCGGATTTCAGAAGAGAAATGTTATTGCATTTTAAACAATGCCATTAGCCAATCCGATCCCACTCACCGCCCTGCACCTTGTTCCAGCCTTCCAGTCAAAA
1.625522724699422 ATATGACATTGCTGACTAAGGAATGAGATCAGTAAATGTTTGGGGTGTATGTGCAAGTAATGAAAGAAGAAAAGGCAGAGGGTAGGTGGAGAAAGTCTCATAATGAAATTTCTTACAGTAAAGGCTCAGAGAGGCATAAGGATGAAACCAAATTTCCAGCCCAGCTC
1.385784030078064 AAGAGGGATTCAGAGTTCTGCAGAGATGCATCCTGCAGACAAGAGGCAAAGTTTCTATGTTCAGTGCTGTACTCTCAGGTTTATAAGCACTTCAAATGTCACTGAACCCCTTAGGCAGAATTAATCACTCCCTAATATCTGCTTTCCTAGCAATTTTACACCTGTCA
0.9102617947886801 AGAGAAAGTACCAATTAAATTATAGTGCAGATGGAAAGCCAGCAGTGAACGGCTTGATCATCATGGGTCTGCCTTCAGCTTCTGGATGCTGAGATCTGCAGGGACTGATCCGCAGGGATGCCTGTCTTTGATGGGAGTGGGAGAGGGGGAAGGAGTTGCCTGAGGAG
1.416357243715703 ATTTAGCTTTTCAGGCTCTAAAGGATGAATCAACATTCCCTGGGCCACCCTACCCCGCCAAATCCAGTGTTTAATAGACTGTAGGAGACAGCCCACGCTGTCACCCACAGCAACGGGAGCAGTTCGTGTCTGAGAGCCCTCCATCCTGGACTTCACTTCAGGAAGGA
2.555666734220081 CTGAGCCAGGTGGATCTGTGCGAACCTTCCATTCATAGATCCCAAGGGCCACTGTTACAAGTTTTGCTAAATACATGCTTTGCTCTGTACTGCTCATTATAAACCATCAGTATTCCACTCACTGACATTTAGGTTTAGAAGGAGACAATTTTATCAGATCCAAAAAA
2.607848666560947 TACCTTTTAGTGTGTTACCCCCACAGGCTTCTCTCTCTTGGTTCATTTGTGGTTCATTATGCTAATTTTCTCTCTCAATTTTTCAGTACTTCATTATTCAACACGAACACCAGAGCAAGAAAACAGACAAAGAGAAGCAGCAGAATTTCAGCAAATTGACTGCTCAA
1.1062846217798 ATCTGATTGGATTCTGCACGGCTCCTTTACCTCATCTGCTTCGACTTATCAGTTCTCCTGGGACTGATCATGCGCTTGTAACTAACTCCCAGACTCTTGATTGTCTTTCAAATCCAGAGACAATCTAGTGGCCAACGGTGTATATAGCTAAGAGTCTTGTAAATATA
1.215116694962673 GCCCAGAAGGAGACATTTATCTTTCCCAGCCCACTTCTTAAGAAGCCCAGCTTCTTCTTTTGGAGAAAATAATGATGTTCTAATTCTAAGGAGAATAATGCATGCTAATTTAGTCATGGTTGTGTCACGCGTAACTCTCCTTTCTTTTTTCTTAAATACAGTCTCTG
1.054505626203366 GATTTGGCGACCCAGTTCTGTCACTTGTTTGCAGCCAAGCTCCGCTGCCTGCTAGGAGCTTCCATACATCTTCCCACTCTCCTGCCTACTGCCTGAGTCACTGGAGATGTCTAGGAGGACAGCAGAGTAGCAGGTCTCCATGGATCAAACCCAACAGCTCCAGGGAT
0.4802034752196423 GAGAGTTGCTTGACTTGTTTAAAGCCATACACGTGGGCGCGTGTAATATTTCAGTGGTTTCAGAATAGCCCATCCCCTTTTGACAGACATTCAGTGTGTCTCCGGTACTTTGTTACATAATACTGTCATTTTGGTCACATAGGTAGGAAGGATGAATTCCTGGAAGT
1.996040474662905 TTCATTTTAAAGATGCAGAAGCTAACGGGCCGTTGTCTGGCGCTCTGATGTCACATCATCTGAACCTGCTGCTTTTACTACTCTGTGATTTGCCAGCTTAATGAACAGCTCAGGGGTTGGAAGATGAAGCTGTATGTTTTTCAGTGACACGAGAAGAATTTTAATTT
1.31505303373594 TGAATTGAATCATGTAGCCTAGACAGGCCTTGAATTCTGCATCCTCCTGCCCCTCCTCCACACCCCAGGGGCTGGGATCACAGAAGTGTATCATCACCGTGCCCAGCACTGTTAAATTCTTTCCGCACCACTACATCTGAAATACACAGCACAGTGCCTCAAACAAA
2.734210513999715 GAGCCCCCAAGGAACAGATCAATGTGTATATCAGTTGGCATTTCAGTTAGTAGCTGCTCTCTTTGAAGGCTCAGCTCTGAGGCAGACAATGGAGAATCTACTGACAAGAAATATGTTAGGTCTGTGCTAAATATATCCCTTCAATTGAAGACCTCCAAAATGAAGGG
0.7768973403128323 TCTTCGTTATCAACTAGACTAGATTTAGAATCACCATAGAAACACACTTCTTAGCATTTCCATAAAGATGATGTCAGAGAAAAATTTGACAGAAAAGAGAAATTCCACCTTGGATGTGGGCCGTGCAACTGGGGAGGAGGAATATCAGGCTGGATAAAACAGCAAAA
2.185323634695818 CTGCCAGAGTTACCCTTGCTCTGTCCTTCGTGAACACAAACTAAATCAGGTTAAATCAGTTACCTAAATGTTCTGTTTCCATAGTGAGTGAGTGGGTGCAGAGTCTGACCTTTGAGTTGCTTTCTGACGGGTGATGAGGTTGCAGTGCCAATACTTGGCATTTTGTG
0.9857909888182464 TATTGCATGAGCCTGAACCTACCTGACACTCCTTTCTCTGGTCCCCACCCCCTCCCTTCTAATTAATGACAAAGGACTCATGCTGAAAACTCCGTAGGAAGGACTGCTTTTCCTCAGAGTTCCACCTACAGAATTACTTCTGTTCTACAAATGGCAATTTTTTTTTT
0.234778437321011 AACACTTTGACATTTCTGATATTAAGATTCAACTTGTAATAGATGGAGCTTGAAATAGTAAGTAGTCTTTCTGCTTTCTTAGCTGAACATAGAACAGTGGCGGGGTGGGGGTGGGGTAGGGATGGAGAGATGACTCAGTGCTTAAGAGCACTTGAGTTCTTCCAGAG
0.8533690156804554 GAAATGGCACAGGTGTGGTGACGATACAACTCTGAATCCAGCCCCACCTCCAAGAGGCCTCAGAATAGGAGAGAGCCACCCACTGCCATGTCCTGCCCACACGCAACAGCAGAGGCTTGGGCGTTCCAACTCAGGGCACATGATCGTGATGACTTATCATGGTGTTG
2.471130852402019 AGAATTTAATGGGATCCCAACAGTGAACAAGGTAGGGGGATATCAATACCTAATGCTCAGTTCTAACGAGTGTTCTCTTTAATGCTGAATGGAAGGCCACAGATTTTTCTAAAGTTAGTGAGCTTTTTGCAATTCCTGTCATGTTTCCAGAGAGGCTTTTAGAAGCC
0.8377621395303737 CCAGCACAGTCATCCATGATGCAGTCTCAGAGACTAAACTACTGTTCTTCCAGGGACTCCGATGAGCTGGCTAAGGGGGTGACGAAGGGGTGTCAAGCTGAGATAAGCACACAGCAGCTTCATACCACACACACCTTCTAATGAGGGAACAGGTACCATCAACTGAA
2.014718010595066 TAGGGCAGTTTGTTCTGGCTGAGTGCATTAACATTGATCTACCTGTGTCTCCCCCTGTCCCAGACCTGTCCTAACTTCCAGACTCTTCCATCAGCCCTTTCACGGAGCGCATACATGCAAGGCTATATAGCATGGGAAAAGCGAGGCCAAATGGTACAGAAAATCCC
1.110249266979181 ACAGACCCTGTTCTTTCAGGCTCTGTCTTCAGGGACCAACTCCTTTCCCCTGCCTTCAGCGTTAAAGAACAACTCCCACCTAGTTCCTCGGCAAGCATGGCTGACAGCAAGTTAAGACAGGGTAAGGGACAAGGGGAGAAAAGTTAATTTAAGGGGAAAATTATCTT
2.957056783012587 AAGAAAACGGGCTGCCTCCGCGTTCCTGTGAGTCTTCCAAGTCTCCCAGGGTGTTTCTACAGCACACAGAACAAACATTCTCATTTTCATGCTAACATATTTTGTTTGATGTTCATGGATCTATCTGTGGGTTTGAGTCTGGCTGGCACTGGCTGGCCCTTTGCTAT
1.697487592929783 AGATGCCTGGCACTGGAGTTATACACAGTTGTGAGTTGCATGTGAGTGCTGGGAACTGAACTCTTCTGTGTGTATAATAAAAATGCCATACAAATAAGCAGAGTCGGCTGATAGACAGGGCGTTTGCACCATGTCAGAGGTGTGTTTTACCCAGCTTTACAAAACTA
1.901347240096161 ACTACCACACTGACTTAATGTACAACCAATTTTTCTTCACTGCGACAACTACTTTCATGTGATTTGTTCATGATGTGTATTTGACACCACCTTGTACCACTTATGTCTTGGGAGTGCCAAAGATTGACTAATTGGGAGCCTACCTTCCTACTCAAATCTATAGTGAA
0.7193558164594519 GCAGACATTGGAACAGGCTTTTCCTGTTCCTGCTGCTGCGGCTGCACTTCTTAGAGCTCGTTCTCTCAGCTGCTGAGATGCTCAGCGCAGGAGAGGCCTCGGATTCTGCCCCCTCCCAACCACCGCCCCGCCTTTATCAGCTCCTGTGGTCCCTGGAGTGAACACCT
2.947453600205241 TGTGACACACACTTGGCTCAGACACTTACGGCTCACATCAGTCTCCTCATTCTGGGCTGAGGAAAGCACTCTAGAGGAAATCCCAGCTCTTTGTCTGGGAGAACCAGCCTGGCAGAAGCAACCAGAAGGCAAGTGTCAGGAGCCCCTGCCCTTCACTACTGCACTGC
0.3931316287738827 ACACTGTGTGACACACTGTGACACACTACAGCTCCCATGACAAGATTTTTTAAAAAGTCTCTCTTATTTTCTATTCTTTTGTGGGGAGGTTGGAAGGGCAGAGGGTGGATATGAAGGGACGTGGAGATGAGTGGGACTGGGGTGTATGATGTGAACCTCACAAAGAA
2.334746021068356 TTCATGAAACACAGCTGGCTTCCTTCCCCTCCCGCTCAACCAAATTCAACACTAAATAAGATTTCTACCTTTCCCAATACTGTACTCAGGATCTGGTTGGACACATACCACACGCTTGATGCCAAGGTATTTTTTCTTTTTATTGTTCGGTAATAGCTGGGAAAATA
1.576109618977673 AATTTCAGTGACTAATTGTGTGTTCAACTTCCTCTTTGAATGGAACCGTGTCATTCATGAGAGGAGAGGGGAGCATCCTGAAGCTCTTATCTCCTGTGTCTGTGGTGAAATTAAGTGAACTAAAATTAGGCTGTGTGTGGGAAAGTTCTTAGGAGATGGGAAGACTA
0.8820710472105727 GAATATTTCCAGAGCAGCCGAAGCCCATCTCCTGAACAATGACGACAGCTCCTCATTTTCGACAACAATAGAGGGCACGTAGGAGTCAGCTCATTAGAATATCTGCGGCTCTTTTCTGTTCTCTCTGCATTAAGCCCCCATAATGTCAGTTGTCACTTATTAATGAC
2.096009004729265 AGCCCTCTGCTTTCTCAACTGTATACCTCAGAAATCTTCAATGCTTCAGATGCACTCTTCTCTGAGACAGCTTGCCATCATAGACAGAGTTGATGTTGGTGGCATCCAGCTAGGTTCTCTAATGTCATCAGCATGTGAGTTGAACCAAGTCCCTAAAAGCCGGTGGG
2.029228991893725 TGATGAGCAGGCAGACTTCTAGCCTGCTCTGTGTATGAAGGATGCCTGTAAAAAACTTCTAAATCTCCTTTTTGCTCTCTCTACCCCTTATCAGGACTAAATACACATGTTTCTGAGCAGCTCAAAAATCTGTTGACCTGTTTCTGAGTCTTGGGAAGGTGGGTAAG
1.483467503251269 GTTAATTGAGGAATAGATCTGGATCATAATTACTTCAAATGAGAGAATAAGTCACTAAATTACACTCTGGCTTTAAGCACTTGTCACTCTGCTCTATCATTTGTACTGCTTAAATCATCTATTTTTTTAATTAAGAATTCCAGGAGAAGAGAAGAAATAATAGCAGG
1.009484782051173 CCTTCACCCTGAGGAGGATGCTTGACTTTTTCACCTCTGTGTACATTACATCATTCATAACTCAACCCTTGCTGCATATTAACATCACCAAGGGAGCTTTTTATAGGTACTGAAGCCCAGCCTCCTCCCACAGTGATTCTTGTTAATTGCTTTGACATAAGGATCAG
0.5479976338968005 ATTAATTGCCTGCAATATCTTAATCCCTCCTTAAATTTCTTCTCCGGATATGTTACTCCTACAGTCTAAATTATTCACCTCACTGAACTTTCTAACCTGACAGAGCCTCTTGCTCTCTAAGTTAGAATGCCTTTCTATTATGAGAGCAGGCTTCAGCTCAATAATAG
0.9721948465928856 AAGTATTTTTGATACTCAGCTTGCTAATTTAAATTCCTTCCCACACTTTCCTTTTATTAGCTAGTCTTTTGTCTGGTACCCCAAGAAGTATTACTTTTAACTTATTGTTGAGCAGGTTGTTTTTAAGGTAGGTTATTTTAGATCTCCTAATGTTCAGTCCTGTAAAC
1.157595634634071 TCATTCCTATGGATATGGATGAGGCTGTAGGTGGAGGTGTCACTCATCGCTCTCATCTCAGCTTCTAATGTGAAGTGTTAATTGCTTTAGAAGTAAGAATTCTGAACAGCAGGTAGGTATGTTTTCTCAGGGACTATAAGTAGCAAATTTCAACACCTGATGAATCA
1.329354400395738 CTCTTACACACCCACAGTTGCTCCACATTCTTGCCAATATTTGAAGTATCAGTCTTTTAAATTCTAGCTATCCAAGTGGGTGTGTATAACACTATCTCATTGTGGGTTTAATTTGCATTTCCTTGATGACTAATTTCTACCTTTTCATGCTATGCTGTTTTAAAGTA
0.9744939272811821 CTTGGGGGCAGCTGTCTCTCAGCCCTTTCAAGGCAGTGTTTTCTAGAGGCAGAGAAGAGGAGGTGGAGCAGCGAGGTGGCTTAAGAAGGAAAGTAAGAAGGGTGAAGCCTGTGTGGTTGTCAGTCTTCATTGTTAATTTGACTGGATGTAGAATCACCATAGAAACA
0.8990311029530109 TATGAGCCGCTGCCGGGTCAGGCTCCCTGGGTGTTGATTTCCTGCTCCGGAGTATCAGTGAGTCATCAGCCGCCTCCTCTCCACTTTAACTGTTGCTCTGAGACCTGAGAGTCTGCAGAAGGGAGGTCACATGGCATCTTTATTTAGTAGCCGGTTCTCAACTGGCA
2.445863091131874 TCTCTGAAGAAGGCTCCACATTTCCCAGGGTGCTGCTCCTGGTGCCCCCATGATGCTGCTGTGTGAATTGCTCTGCTGGTAGAAACCAGGAAGGGATGAACTGAGTCTGCCTACTTCTCAACAGTATCTGTAGATGCTAAAAAGGAGCAGTCTTCACATGGTGGCAC
1.073706177832516 ATTCAGGCAGCATTAAGTGTTCCCAGTATAATTTTAAAAAATTAACAGTAAGGAAGGAAGGAAAAGGGGATAGGGAAGGAGTTAGAAGAGAGTGAATTGGAGGGTAGATTTGATTTTAAAATGCAGTAAAGCATTATGAAATTCTCAAAAAAAATTAAAACCTAAAA
0.3718042607236402 AGTGAAGTCCACAGAATGGCAGCTTCACGTGAAAAGAGAGAACTCTACGCACTCAGGCACTGCTGGGGAGGTGGAGCTAGCTCTTGCCCTCCCTACTGTTAAGAAAAGGATCAAGGATGTGGTGACTCACACCTGTCATCCCAGCACAGGGAACCTAAGCAGGAAGG
2.099995946300849 GCTATAATTGAGCTCAAGGGATAAAAGCAGTCAGAATTTTCTCTTTCTCCAAAATGCAGAAATTGTTCCCGAGAAGATTTAATCCATCAGACTCCATGCAGCCTGCCCTGTCGTCGACCTGTGATTTATGACAAATGGTCTCAGTAAAGTGACCAATCGAGTTACTT
1.434616842682042 GTTTACAGACTCATTCCGAGAACATTCCGTTTTAACCTGATCCCAGGAGTGACTCTCCTTGTCACATAAATTTTGTCTGTCTGATACCATTGTGTCACCAGGCATTTACAGAAAGAAGCCCCTAGAGAATGTTGGAATTGATAGGATTAAATGTTAAGAGCGACAGC
0.8371386066543298 CATTACAGACATGAAAGGCAGACTACATTACATAATAGTAGAAAGAAGGATGGTTGTGACTTAAGAAGGAGCTGGAGTATTGTATTATTCATGAAGGGGTTAGTAGAACGGAACTCCCCTGGTGCATGTTTTTCACTAGGCCCAGAGGAATAACATAATTAGGTATT
0.9369224854496599 AGGGCTGAGATGTTAGCGCAGTACCTGCACAAGGAAGGAACAGATGAGTGGGTGAGTGACAAAGGTTGAGGTGGAGCTCATTATGTGGTAGATGCAGGAGTGTTCACTGAACCCGAGAAATCTGTGAGGCTGGCAGTCACGAGAAGCACGCTGTGAGGTCATCAGTC
0.9059401764529805 TTTCTTGTCTTGGCTTAGCCTTCCATTTCACTGAATCATATCTTTTACTATAGTCCTAAGAAAAGGTGCGTGGGAGGTAAAATCTTTTGAGTTCTTACATATCTGAAAATACCTTTCCCCACGCTTAGCCTTTATTTGGCCAAGTGTAAAATTCTGGGATAAAAGTA
0.4512895345853721 TCTTCCTGCCCACCCCACCTACCTCCTGAAATGGCCTGACTTCCTGTACTTCCTTGCTGCCTGGTGTCACTTGTCACAATCCACCTCCACCAGGCTTTAACTGACATCAGCGTCTCTATTTTGCTCTCTCTATCTGCCTTCACTGAAGTCCCATCCACAAAATGTTC
2.477015036351496 TGCAGAGCCCGGAAACACAGCACAGAGGCACTAGCTGATCGATGCCCCTTCTGAAGGAAACAGCTTCCTTATACACAGGTTGTCTGAAGTTCTTCTGTGGGGAAAGGGGAAGTCAGCTCTCCTGGGCCTCTTTTTCTCTTTCCTCTTATTTCCCTCCAGATTCAATT
1.188262793844886 GCTGACGCTCCGAGTTCTTCCCTAGAAGAACTCACTTCCTGTTGGGAACGGAGGAACTTCCTGTCTGGCGCAGGAAGTTAGTGTTTAAGCATGCTGGGAGTTGTAGTCATTTCCTGCCTCGGGTGTTACTTCCTGTTTGCTACAGGAAGTGACATCACAAAAGCACC
0.927631410642761 CCTCCTTCTGCAGTCACACTGGTCTCATCGAAGTTCTTTGTGTGAGTCAGGCTTTGTCATTCTTCCTTCCATCTCAGCCTCATCATTATCCCTCAACCTTGCAAGCCGGTGACTCAGGGAGGCCCTCTCATTTCGTACATTTCTATTCTTACTGCTGTGACAGAAGC
1.284271248218782 TTCATGGCCACCCCCTGAATTCCACTAAGATGGTTACTATAGAAACACATCTCCTGGAAGTGACATCACTCATTTCCTAGGCAACTGTTTCTAGGGTAGTGAATATTAGATCACCATGGCAACTCTTCAGGAGTATACTTCACAGTGAAATGGGAAAACGGAATATT
1.320587366624421 ACCCCCTCTTCCTGTCCTGCCCACTAGGCACCGCACACTCACAGGGCATGTGCTACCTGGTGTAGCCATGAGGTGGCAGCTTCCAGCCACTTAGGGGCAGGAGGGAATCCTGGGAGAGATGCTTCATCAGCTGAGTTCTGTGCAGTTACAGGACTGGATGGCGGGAG
0.6650863452849046 AGCCAGCTCACCCCAAGCAGCAGGCTGGCAGGGACAGGGTTAAGAGCATGGTGCCTCCCCCGTTCCTTTGAAATGGCTCCCTGGTTCCGGAATGACTCTGGCTTCCCCTCTTAATCTGTATTTTACGAGTGAGAAGCTTTGCATTATGCAAATCGTTAGATAGGAAC
2.520121080500382 TTGTGGACAGTGGCTCAACAGGGCAGATCAGATAAATTCTAAGTTTCTCGCCTTACTGCTGCTCTGTGCTGGGGAAAGCTGGACTTTAATAATAGGTGTGTGCCTGCCAGTGAAACTTAGCCTAGAGAATAAAGCTGCATTGTGACGTTTGGTTCTTAGGAAAAAGA
0.583076031895695 ACCCATCTTGCTCACAGCCGTTTCTGTCAGGTGGCCTGTCACAGCGACGAGATGAGCAGCTGACCCGCCTTTCTTGCCTGCACCTCTCATAGCTGCTCGTCTCTAGACCACACAATTATCCTGTCAGCCTTGGAGGGAGGAGATTTTGCTGTGATATCTGACATCCT
1.509377201077044 CGCTCTGTGATGAAATCCCACGTACGAAGCAAACACAGGCACTAGTTACAGAGGCTAGGATTCCAGAGGATTCTGCATGACTGTGAGGTGGAGCTGGAGTCAGGACTTGGTCAGCTGTAGGCTGTGGTATTTCCTTCCCCAGTGTGTTTGGACTACCTGCTTCGGAC
1.291915161972176 GAGAAGGTGCTGGTTGTCCCCTCCCTCCCTGGTGTGCCCCAGGTGCTGCAGCAGCAGAAGATGAGTAGCAGCTTAGGTTGCCATAGTAATGATAATGCCTCTGGCGCTCCCCACTCCTTGTTCAGATGCTTGTCCTCCCACAAGGAGTCTTGGGTGGCCCCCTTAGG
1.425681362814007 GGAAGTAGGCTGCGTTTTCTGTAGTCTGTGATTCCTGCCACTTGATTCTTCCCCTCTTCTCTGTAATTATCCCATCACGGGTGAAAATAAACCTTAGCAGGAGACGCCTCCCAGAAGGGCCCTGTGCCTAGTGGAGGTTGGGCGGGTGCAACAGCTTCCCATACTCG
1.07304284034528 AGAAGCACCTGTGGGGAACAGACTCACCAGGTTCCAGGCACAAAAGGACTCACTGTTATCATGAAAAATAGGAGCCAGGATCTTAACACCCCCAAATGTCTTTAAAGAAGTAATTGCTTCACTGTAATTATCTTAGGAGGCTTAACTAACCACATGGGTGCTTTTGA
0.6204783880476303 TCACCACTCCTCAATTCAAGTGTGGGTTTTCTGAGAATGTCTCGTTGACTTAACTATTTTTCAACCTGGAGGAATAAATTGTCAGTCACATGCTATTTAGAGAACAAAAGCTTCCTTGCTAGCGCCGCAGGAGCGCTGGGCGCTGTGGGTGGGACCAACCTCACCCC
2.601130359456306 GCACCTGGCCACAGTATCCCTGACTCTAGGAGGAGAGCCAAGTGATGGAAGGCTTTGGGCCAGGCTCACTCCTGCCCTGCGGAGACGCAGCCTCCACTCTCACAGCTGGAATCACTGCCTCTGCGGGCAGGAGAGGGAGTTGTGGTCACCCAGCGTGGCTCTTCTCT
1.977498871591928 TTTCAGTTCACCTGCCCTGGTGCTTTATGTAAATTAAGTCAAGTTTCAGAATGCTGAACATCAAAGCAATGGTGACACTAGCTGTATTAAGTGGAGTCCTCCAGAGTAGCAGAAGTAGGAAGATAGAAAATAGATGATAGTTGATATTTTATATATCCCTTACATTC
1.431340614556091 CATACAGTAAAATAAAATTAATAAACCTAAAAATCTGCTGTATGAATGGAGAGATGGCTCAGCAGTTAAGAGCACTGGCTGGTATTCCAGACTCCCAGCACCCAGGTGGCTGCGAACCACAGTCTGTAACTTCAGTTACAGGAGACCTGATGATTTCTTCTAGCCTC
1.421666377575649 GCCCCATCCAGAGGTGGCCATGAGGGTTGGAGCCTTGGCTTGGTCAGCCTTAGGGAGCCAACAGCTGGCATCTGCCTACCTGAGGCAGGATGAGGGTGCTCTGTGGTAAAGGCTAAAGGAACCCCCAGTGCACCCCCAGATGTTAGGGAATGCTTTCTAGAGATGCC
1.910430430850875 GAGAGAGAGAGAGAGAGCAGCCTTGGAGGGAAGCCTGTGGAGAGCAAGTGAAGAGGCTGGTGTAGTGTGCCTACAGTCTGAGGCGCACAGACCTCAGCAGCACAGCAGCAGAAGGCAGACAGCGGCCTCTTCAGACTCCCTCACAGACAGGAGTCTGCCTGCCCACA
1.347758875076186 CTGAGCCATGTGCATCTCAAAGCTGAGTTAGGAGAGAGTCATCAGGCGGATGGATGGAGGAGAGCGAGCTTCCCGATGGCAGAGGGCTAGCCTGAGCTCTCTGAGTGCCTGTTAGTATAAGCTGGGGGAAGAACCAGAAGGACCCAGGGAACTGTGTGTGTGGGCTC
1.517055773853388 ACAAACCCAGGTAAGGACACTAAGGCTCACACACAAGCATCCACAGAGTATCCTAGTTTAATGCGCTATCTGGGGGCAGCCTCCACTCTAGTGCCCCCTGGTGGGCTCACCCTGCAGAGGCTGCAAGTTCTTAGAATGGGTGGAAGGCAGCCACTGAATTGTGAGCA
0.3371062549480644 CATGGTCCTGGGGTGTGGTCGCGCCTTACTTCTTGCTCCTGGCTTTGGAGGAAGCTGCAGTGGGAGGTCTTAGGGGTTGGAAGCTCCGCCCCATCCGGCGGGGCCCCTGGTTGCTCGCAGATCTCTTCTGCTGCCAACAGGGAGCTGTCTGTAGAAGCCTTCTTTCT
0.1077593822058042 GAAGATCTCTGACCCTGAAGACACTCCCTGCCCTGTTTCATCACCTGGTAACCTGGGTCCTCACACACCTGCAACAGCATCTGCTGGGAGCACCGGGGAACAGGCTGGGTGGGGAAGCACTTTGCAGACTTGAGCACAGAGAAGACACTTTATTTGGGTCATTCCTT
1.441606328445323 GGTATCTCAACCAAAATGATTTATCTTGAAAATATGTTAATCACTTTTCCTTGATCTCCAGGGCTTTCTCAGGAGTACGCCCTTGTCTGATTTTACTTCTTGATACAATATTTATGAAGGCAGGAGATACCCTTATCTATCAAATTAGACACTCTAATTCAGCAAAC
1.183737229383252 TTTGATGAGTGTTACCTCTGTGACCCTGCCAATCTTGTCATACTAGGGTGGAGATAAGTTCTACAAGTCTTAGTTATTAGTCTGCATAAATGTAAAACAGAAAGTGAAAGCGGGAGAAAGAAACGTGTGCTACGCCCACAGCCCACCTTTTACAAGCGGGCTCCTGC
0.7547358847613624 GAAAAGCTGATACATGAACACAATGAATGTCAGGTTAAGGATTTAAATCTTAGTCTGACAAGGTGGGGGCAGGGGACAGTACAATACTGGAGAGGGAGAAGAGGCGTGCTGTGAGCGGCTAGAGTGGGAGAGCTTGCACTACATAATTAGCCTCTTTGTAATTAACA
1.859483987627193 ATTAAAGTGTTACTAAATATTCACTTAGCTCCAAAAAAAAAAAAAAAAAAAAAAAAAACCACACACAGTGGGTGTGAGGTTTCTTTGTCATTTTTGGAATTTAAGCAGCACTCTCTGTCAGATTTAAGCCCGGTATGAAGCCCCCAACAAGCAGAATCTGCCTCCTA
1.141133416212524 GCTAAGACCCAAGGAAACAAGGCAGAAAGGGTAGCGAGATGCACCCAGTTGCCATAAATCATTACACCCAGCTCTCCTTCCTTTGTAAGTGATTGACAACTCAGTGCAGATCTTTTCTTTAAAAATAAAGGTTCTCACGCCTTAGACCAGCATATGTCAGTGTCAGT
0.2315297315862233 TCCTTTCCTGTCTCCTTAAAGATGCTGCGAAGCCTCCCGTGGCTCTAGAGCGGCGTTGCTGAGCGCCTGGCGACACCCACCGGGTCTCCCTTCTCTCTTCTTCCCGAAGAATAGCAAGCAGTCGAGTTTCTGCTCCCTGCGGTGTTGGTCGGAGCCACTTGCCCGGA
1.653472804528564 CCCGAGAGCGGCCAGAGGCTGGCGGGCGGGCTCTGGGAGAGAGACGCCGCAGCAGCCTGGAGAGCCGTGCGGGACTGAGCAGTTCCCTTCGGCACCCTCAGCTTCGCGGGCCCGCGCCCTCGGGTGCGCGCTCCACGGGGCCCAAGAACTCCCGGAGCCCTGGCCGG
1.166868004285208 TAGATGTCTCTTCTTTTCAGGACCCAAACCTTTTCTGTTAGCTGACTCTGCTAAGTGGCAAGGGGTAGAAAGGCAAACTCATGCTAACTTCAGTACAAAGAGCGATTTTAATGGTTTACATAATCGAAAACTCTAGATCTTCTATTTGATTAGTCATGCATCCCCCA
1.099680326213688 GTCTGCTGGTTTGAGGATAAGGAGAAGATGGGAGAAACCAGTTTCTGAGTGAGGGTAGTGAGCTCAGAGCAGGTTGAGCAACAGCAGGAAGGAAGACTTGAAGTTTAACAACTCGTAGGCAGTTGGATTTGAGCTCTGATGCCTGCTGGCATGTACAGTGGGATGTG
1.588018222894324 GAGGCTCAGCTTGGTCTAAGTGAATCATCTTTGCCTCTGATTCCACTGTCTAATTGTTTTAGAAAGATGAAGGATGATAAGGATAATGCCAAGGCAACCTTTCTTCTGCTTTTGATGAATATTTATATAGACATGTATGAATTTTTTCCATTCTGTGTCACCATAAT
2.222073669318605 GAAAAAGCTTTGTGTAGACATGAAGAAATTTCAGAGAACAGGTGGGAATGTGTTTTTCTTCCACGCATGCACACAGTATATCCCTCCTAGCGGCAGAGTCTTGTCTGTGTTTTCAGCTACGCTTTATAGAGCAGAGGCTCTGAGCTCAAGTTCAGTATGTTTGTAGG
0.5680258960562968 CAAACTTGATTCTTCATTAAATTTTAATTTCTGAACTTAGCTTCTCCAGGTGAGCACAGGCAGCGAATAATGCAGTCCCCACCCATCTTGCAAATGAAAATGTTCCCCAGGCTTGTTCAGGGCTTCCTTCAGCCCAGCCCCTGGAGAAGAAAGATTGTGACACCTCG
1.367516040858626 ACTAAATTATTGCACCCTTCAAAATCTCCTGTTCAATGAATGAGCCAAGAGTATCATTGAGTGATATGGCAACATAACCTGGCATTGTAAAAAGAAGTCCATAATGGAAAAAAAAAAATGACAGACTATAAAATCAAAGTGAATGATTGACATGTATATTAATTATA
2.556125499337266 TCAGTAATTTGAAAAAAATGCCCCACAGCCTTATCTTATAGAGGCATTTCCTCAGTTGTGGTTCTCTCCTCTCAGATGACTATAGCTTGTGTCATGTTGACACAAAACCAGCTAGTACAGTGGTTGACACAATATCAGCTCTTGGCAAAGAAAAACAAAAAGGCAGT
0.73868194920833 TGCTGCTGTCAGCTTTCTTATTTATAAAATGAGAATGCTGGAAAGGATAAGCCATTTTTAAACCTGACTTTGAGGAGGCGAGAGATTTTTCAAACCTCACTTGACAGCATGTACTTTTGCCATCTTTTTTTTTTTTCTCATAAGAACAATGTGCTCAATCAACGGAG
0.6568289217994439 AGCCATCAGGGTTCTAGTTACCATCACAGAACAGATTCGTTCTCTCAGCCCTCAGAAGGAACCAACCCTGCCCACGCCTTGATGCTGAACTTCTAACCTCCGGAGAAATGAGATAATACATTTCTGTTTTAACTCAGGAAACTCACACACTCACTACACATCGTCTC
1.763950878087666 CCCATTAGCACAATAGACTGTGATATGTCTATACAAAGGTGCAAAGATAATCTCCACGTACTGAGATTTTTCCAGGATACACTATCACATGGGAAAAAAATGTGTGTAATAATAAACCAGGCTAAAAAATGTTTCATGTTCAGATTAAAGTGCAAAATGCTCTAATG
2.076081742308385 ATCGTCCATAAAAGGTATGGACTTCCCTCCCGAAGTACCGGGGGCTCTTTCCTAGCAACTCTAGGAGCAAAACCAGAAGTTATTTTCCAGCTGAGACTCAAAGAAAGGACGAGAGGTTTTAGTTTACAGATAGGTTATTAACACTCCCATTGCTAATATCAGATTTG
1.876012809988461 ACAAGGGAATATGATGAGCTGTGGCAGTAGTTTAGGGGATTGTGGGAATGCATTTTCCATCCTCTGAATTATCAGGTTGTCTCCAAACGAGCTCAACTTGGCTGGTAGATACCTATTATGATTTGTGTCTGTTCATTAAATCCTGCTAGAAACAAAATTCAACCTAA
1.050984460764186 TCCTCTAGCCGGGAAGACTCTTTTGACTTTAATAAGGTTTCCTACTAGCAGGTGGGAGTTCCTCCCCTTGTGTGCTGAAAGGCAGAGAGCAAAAGCAAAGGCTTACAGAGGAGTCTGTAGGAGGGATATATTTGAAGTGGGGAGGAAAGAACTGTGAGAAACAGGTG
1.515813391877734 CTCAGTCCTGCTCACTGCTCTCCGGCTACCTAGTACCCGGCTCTTACCCCTTCATACCGGCACCTCTTCCAATTGTCTGTCTTCAAGTCTGCCCTGTGTGCTTGGGAGTTCTACAGGTGGATATGCTCACAGTCTTTATTCCAGAGGAACTAATATGATTGTGGATA
0.8389046302937641 CAAGAGGAATCCCTGCAGAGGTGGCATTTCAAACAGCCTATGGGGATTAGCTTTTGATTTTTTTTCAGCATGCAAACCCAATTTGAGGAATTATCTCCTCAGGCATAAGGATGACAGTTTTGGAAATGTCACTCAGAAAGGAATATGAAATAGTCCAGCTCCTTTTT
2.726945818197176 AGGAAGATCACAAAAATCTCAGGAGGAATCCAGTATACACAGCATACTTCAGGTCAGACATGCCCATATCATAAGATCTTATCTGCCAACAGAAATGATGCTGGATTCTATTTCTTATAAAGTCTGCTGTTAAGATAAATCTTACTACAAACTAGAAATACTATAAA
1.58562180839117 AATTATCTGATGTTTCCTTTTTCAGCTACGTTCTCCCTTCTGCTCATGGATAGATTGTGAAGCTTACTCATTTCTTTAATTCCTTTTCATTGTCATTGACAGATGATAATTTCTACTGAAATTTCCATGCTCCTTTTGCACCCATGATTCAAGCAGACTACAGGCAG
1.823186560081083 TTCTTAACAAGACTCTCAGAGACTAGCTTCTTCTTTTGTTCTATTAATAAAAACCAGGAATGCCATTTAGATACTGACTGTTCTGTGCGGGTACTATTTTCATCTGTTTCACCTAGATTGCATAACCCATCATGCAGAAGCAAGCTCATTTGTCAGGTTAAATACTT
0.7967997595796461 AGAGTGTTTCGCTTAACTTTCTTCCCAAGGTTTTGTGCTGAACTTCTCTGGAGCATAAACTCCCCAGTCTTGTGCTGGTGGGGGAGGAATAATCTCCTGGGTGTACCGAGTGTGGGAGGGGAGCTAGACTTCTCATTACAGAGGTTTTTTTCTCCACTTTTCTCTCT
1.02333703741385 AATGGATCCATAACCACAGGTTGAGATCTACTGCTCTACTCTAAGACGTGGTAAGATGCAAATCATTTTGGTTGTTCCACAGTACATGATAATTTCTTAGTTTTGACATCCGTGCCAGGTTATGTAAGGTCTCAGCTGAAGGAGAAATGGGAACCCTCACTTTTACC
2.401533666138069 TCTGTAGCCACTTGGCCTGCGAGGCACCTGGTGAGAGCAGTCTCTGTGTTACTCGGCTTCCGGCTTCTTCCTCTGTGGTATTCCCATAGCAACTCCGAGATTGGTTTTGTGCACAGAAGCGAACGTCATCTCTCTGGGCTGCCCTGATATTAGTACCCAAAGGGGCA
1.791223797921192 GTGCTACAGAAATCTAACTCAGACTGTTGGGGTTGGTAACTGCCTTTAGAATCCTTGGTGTCTCACCAGCCACTTCATAAGAGAACATGAGTCAGCCTTCAGTTAATGGCCTGTTCTTTTCTTTACTCAGTTACAATGGTTCCTAGTTCCTTGAGGACTTAAAGATG
1.68780709918902 AAAGAAAGAAATCACAGGAAGTTGTGGCTGTGGTGACAGCAGAGGGTGTATAGAGGGAGCAGGCCTTGAGCAGTACGCAAGCAGAGCTGTAAAAGCAGTAAGGCAGCCAGCTGCTAAAAGTGGAAGAAGCCCCCGGACAGTTCAGGAGCACCTGGAGATGAGCTTCA
2.509335685827164 GGATTGGTGTCATGGTCTTCTCGATGGTTCAAGAGACTCTAATAGAGTAGAAAGCTGGAGAATATGATGTATATTTAGAACTATTAATTAGTAGTCTTATTCCCTTAGAGAGGCAGGGATTCAGTCAGAGACATGGCATTGTACCTTCCACATACTAAATCCACAGA
1.247222754209213 GGGTGGGGGAGGATACGGGCGAGGCTGTCTGTGGAGGCAGCGGCTTATGCAAAGGCCAGGAGGTGGCGGGCGGAGTGAAGCACAGAGAAAGCTAAAGAAAGCAGCTAGGTAGGAGAAAAGCGTTAAAAGGCGGGCTGGCACCCGGAGGTGGGATACTGGAATGTAGT
2.708373126037884 GCCGACACAAGACAGATGGATCCGGTATAAGACATCTCCTTCAAGAAGCATAAGATGAGCAAACAACGAAGCAAAAGGAAACACAATGTCTTCTAGGCCCTACAGCAGAAAAAGCTGAGACTGCCTGTGGCATAATGTACGAAATGGGATGGTGAAGGTAGCACGGG
2.187730139360792 CCATGGCCAACACCATTTCCTCTGAGACGCTTCTATTTCCAGCCTGTCTAAAGGTTTCTATTTTTGGTTTCTGTGACTGGAAAAGCTACAGACTGTCATAGAGCCCAGATAGACTTTTTGATTTACAGAAGTGCATGTAAAGGCTAGGCTTTTGATTGAAGGTGGGG
2.846005574676675 TCCATTGGTCCTCTAGAAATGTCACAGGCTGTGCTGAGCTCAGTCTACAGTCCTCTACTGGCATCCAGTGGTACATGATGCAACTGTGTGAGCTTCCAGCTCACCAGCCCAGGGAGAATGGAGCCCAAAGCCAGGCTCCCAGAAGAGATGAATAGGGTGAAGAAAAT
1.214046546838099 TCCACCAGAATTCATCTGAGCTTTGCAGTGAATGAAGTAGCTGGAAGATAACCAAAGCTTTTCAAATTCTGAGCTGACAAGGTTAGAGTTTGTTACTAATTCTGGAGTAGAGCTGTCAATTCACACAGTTTTTACTAGAAAAGCAAGATTCCTACAGAGGTGGGTGT
0.8717217831560352 TTCGTGTGGTCCTTATCCATTTTCAATCTAGAACTTTTGAAATTATGTAACAGATCTTGCATAAGTCTATTTTCAGTGTCTGAGCTGGGTGACAACCACTCTTTTCTATGAAGAACGATCTTGTCTCCTGGCACACGGCTGGAGGGGTGAACTGAGCTTCTGTCAGG
2.0613550018915 GAATTCACACCAGCAAACACACACCACCAGAATAGCAACTGGGAAAACTCAGTGCCTATGACAGGTGCCTACCACTTACAATGCACTCTGGCAAACTCTGGCAAACTCTGGCAAACGCCAGGCTGTGTGCCGGCTCCTTCCTATGTTGTCAGACCCAATCCTTCTTA
1.570038281991502 TGTGGGTGCAAGAGAGCTGGTGGGCTGACCAACTCACTTACCTGCCAGGCCCAGATCCAGGGCTTTGAGATGGCTCACCCCAACATCTATCCCATCTATGATCTGCTGCAGCAAATGGAAGGACCAGTCCTGCAGAGCCAAAGCTGCAGGAGCTCCATGACAAGGAC
2.385427114504538 CCCTCACTAGTTCATTTATTCTTCATTATTGACAGCCTATAATTAGCCCTATATTTTTACTTTGTTACTGCAGCTCTCTGTGTGAGAGAGACAGAGGGAGAGACAGAGGGAGAGGGAGAGGGAGAGGGAGAGGGAGAGGGAGAGGGAGAGGGAGAGGGAGAGGGAGA
0.7528199181588946 ACCGGAGACATGCACACAGCTGAGACTTTCTGTTGCGTGTTGGAAAGTGTGCACATCGCTCCTGTTCCTGCATGTCACCCCTCCTTCAAACTCCTAGCTCCAAGAGAAGCTGTTTCTCTGTGTTCTTGGTGTGGGTGTAATGATATGTTTGAGAATTTTGAAAACTC
2.744504625186246 CCTCTCTGATGCTGAGAATAACGCGTGGGTAATGGCGGGACAGCGAGGGCTGCTGTGGTGCGCCCCGCTTCTCTGGCAGCTGTTCAGTGCACCGTCTCTGCTCAGTGCAGGGCAGAGAGCCAAGGAGAGTCTCTGAAAACCCATAGGGCCTGGAGCAAGACTTTCCA
1.534070680947091 ATTTTAAATCTGGGTACATCTGAAGGGTGCGGCACTTTGTGATTTGCAAACCATTTAACTTGCTGGGATCGGAGTGTTTGGCTTCATCTGCAGAGTTCGCCCACAGGAATTTAATATTAAAGGCTTTTATTCATGTTGTTTGAGTGTGGTACTTCCCCGAGATCTGA
1.209497385813865 AGACATATGACGAATCTTCAGAGTGTGTCATCAGGATGCAGTGACAGCCGGTGAGGTCTTTGGAAGGCAGAGGCAGAAGGAACTGCAAGTAAGAGGACAGCAGAAGAGGAGCAGAACTGCAAAGGGAGAGGTACAAGGATCAGAGACGGAGGGAGAGGCAACATGCT
1.817175511211298 AGCATCACTAATAATCTGTGCCTTGCCTTTCTCTCTCAGGGGAACATCGGGCTGTGTCATCCTTCCCTGTGTTCCAAAGCACTCAGCACAGTGCTTAACGCTGTTCTCAGTCACAGGCGTGTTGAATGAACGGAAGACAGAAAGATAGCTCTTCTCTTCCATCTTGA
2.028499548989147 AGATTCAGCTTCAATTACCCATGAGGCACTGCAGATCTTGCAGATTAAATATGAAAACATTCCAGGAAGGTTTCGCAGAGTTTTTAGGTTAAAAATAGCATTTGAGCTTAGACTGCTGCCATCGGTATTTCAACTCTTTGTTCCACATCTTCCTTCTGGTAATAGCA
0.7684219943929741 AACCAACCTGGGCTGCATGAATTCCTGTTTCAAAAAAAAATTCAGTGTGGATCTGGTGATCTGCATTAGCTGACTGTCTATCACCGTGGAAGACACATAAAACAATGCATTTATAAGAGGAAAAGGTGCGTTATGAGTCACAGTCTCAGACAGTTTGCTCCAGGATT
0.8221503047797261 GAGAGAAAGTGTTCTAGGTTGTAGGAATGGGAAATTTGAGATCCTGTGGGAGGAATGACAGCAGATCAAGGAATTAAGAGCAAAACTGTCATATTCTCTGCAACAGCATCGCTTCAAGGTTAGTCATCACTTCCGCTGACAGGAAACCATCGGTAGGTTTAGCAGAA
2.12230956415462 ATTGCAGTGGTGTACTCGTTTTTACTTTTTTTTCTTCCTAAAGAGTTCATTTTATATTCTGACAACTGTGTTCACATCAAAAGAAAGCAGACAGAATTAGTCTCCTGGAAGTTCTTCCTGCTGGGGGCGGGGGGAAAAAAGCACTGATGTTAGAATTCAATAGCAAA
1.406057160346177 ATTTTCTCAGTAGCTATTCTCTGAGAGATGACAGGAAGACTGTGCACGAACACAGACAGCTGAAAATCACACAGCCACACTGACTTTGGAAGCCCTGTGGGAGGCTTTAACTGTGGAGGGCAGGGAAACAGCAGACACTGAAGAGTCACAATGACAGTTCTGAGACT
1.422211240328128 TTATTGTAGGAAAATGCTGGCTGGCAGGCATCTCAGACTTGCAAAATGAATTCCTCACACAGTTCTGCTACACCACCCTCTGCTGTCGACTTAGCTCCTTGGAGCCTGAGGAGGAGGAGAAGAAGGGATGAGTTTCGCTGAGCGTATTGAATTCATTCTGTGTTCCA
0.3529791229016803 GTGAGAGGAGATTGGAGGGAGACGGATCTGACTGTGACCTAGTGAGCCTGTGGAGCTGCTGTTGCCTAAACTACCCGCTGGGGGAGTGGGCGTGTCGATGATCAAGCGAAGGCTACGCCTGAGTGACTTTCTTTAGCGCTTGCATGTCACTCATTTCTTCCTCCCCG
1.98046505422493 CATCCTCCCAGCCATCAGTCATTTCACCCACTGTACTGGCTGGTTTTGTGTGTCAGCTTGACAAGCTGGAGTTATCACAGAGAAAGGAGCCTCCCTTGAAGAAATGCCTCCATGAGATCCAGCTGTAAGGCATTTTCTCAATCAATGATCAAGGGTAGAAGGTCCTA
1.384617248793612 CAAGGGGCCCACGGGCCAGCCTGGCTTAGATTTGGAACGCAGCACGGTTGGGAAACCTTAGCTGAGGTGTGGATTCCAGATGAGGCGGGGAAGCCCTCTAGTGGCCACGAGCGATATGGCAACAGCAAGGAAACAATAACCATCTTTTCTAGGCCTGACTGATCTCT
1.718537400993991 CCAAGAACTGCTACAGAACATGAAGGCTGGCTGGCAGGCCTACTCAGGCAGCCTTCTCCCTCATTGTCGTCGGTGCAATAGTTTATTTTTGGGTGGCGGCCTCCACACATCACACTCATGCCACACAGGGGTTCATTGTGAATCTAAAAGAAACTCAAGATGTAGGT
1.065249028779721 CCACTGGCTTCCCAACGTGGGAAAGTCCACCCTGGTCTGAACTCCAACCCTTCGCACACAGCTGCGAAGATAGATCCTGTTGTGGGTGGTGTTTGACATCTGTGTTCCCGGTACTCACAGCTTGCAGCATGCACCCAGATGCTGGTACTCACAGCTTGCAGCATGCA
1.833373677655972 CTTTCTGCGTGTAGTATTGCATAGCTCAGTGAACATTCTCTCTCCTGGTGGGTGTCTTAGATGCTCCCAATGAAGCATGGTTTCCAGCTTGCATTCAAAAAGATGAGCTTACAGGATTGATGATTAAGCTCACTGACACTTAGTGCAAATCCACACACCAGGGTGGT
1.623721251430107 AATAAAACTATCTCAAGATATTACTTACTGAAGCTACTGAATAGAAACTGACGGTCGATGGGAAAGAGGACATGATGTTTCTCAGATGAGAGAGACACAGAGAAGCCGGCTTTGAAAGAGTCAGTCGGGCACACAAACCATGTTTTGACGATTGCTCAACTGGATAT
0.9558608061518548 TGGGAGAAAGATGAGAAGAAAGGTTTTCATCTTTCAGGGACTGAAGTGGGAGCTGAAGTGTTCTCTCTCAATTAGGCAAAGCGTGGTACAGATGATTAACCTAATGTTACCGTGGTAACCCAAGAATTACACTGTAAATGAGATCTGCCTGACGGTGGGTACCTTTC
0.4137217375810327 AGGAACATTTAACAAGCTCCCGCGTTAGGCTAATCTGCTCCGTTTGCAAGAGCTTAGCTCATTCTTGGGAAATAGCCTGGTAGAAGCCCCCTCCTTACTTAACAAGTAGAAACGAGGAGGAGAGTCGCCAGCTACTGATGACAAAGAAATGAACAAGCTTAATAATC
0.5841183204509561 AAGGCAGCAGCCTACAGGCAGGAGCTAACACAGAGGCATGGAGGGTGCTGCCTACTGACTTGTCTGTCAGCTCACTGTCTGCTGCCTTTCTTACACCTCCCAGGGTAACCTGCCACGGGGGTAGCATGACTCACAGTAAGCTAGACTCTCTGACTAAAGTCATTAAT
0.7864349214731241 ACTTAGAAAAGCAACATAGGTTTTGAATTGCTTAGGAGTGAAGAGGTCTTGTGACAGCTCTATCCCAAGCTTTGACTAAGGAACAGCACAGAAGGAGGAGATAAAGGGCTGGCTCTCAACCCTCCCACGGCTGCCACCCTTTGATACAGTTCCTCGTGCCGCGTTGA
1.709842909205203 AAAGAGAGAGAGAAAGCACTTTGAGAGAAACATCCACTGTCACAAGTCTCTCCTGACTTTTGCCACAGGCAAAGCGGTGCTCTAGAAAGCACTCTAAGCTAACAACAGTTCAGAAATTTCTAGAACTGGAGGTAGAGCTCAGTGGTGGAGCACAGGCCCAGCATGTA
1.27831357538277 GGTGATTCTGACACTGGCTTTTCTCAAAGATGAACAATCAAAGAAAGCAAAACCTGCCTTGGGAGTGTGCAAAGCAATCAGGTGGAAGACAAGATGAAGAGCATTCCTCTGACAGCAGCTTCCCTTAGGAGACGAGAAAACGTTTTTTTTTTTTTTTTTTTTTTTTT
0.7281785663086205 AAAGAGAACTGACTTTTTTTTTTTTTTTAATACTTCATCTTACTTGCACAAGAGATGTTTGACAGCCGAGTCCCAGTGATTTACAGAACCCGTGTCTGTCTCAAGGAACAGTCCCTCCCCTAAGCAGGGACTCACTCTTACGGTGACTCATCCTGTGGCATGGCTCC
0.09578272136781843 ATCGGGTGTCTGCTTCCTTTAACACTGAGGCTGGGTTTCTGTTGAGAGAGGAGCTCTGTGGTGTGGTGACTCAGCTCTCCTCCCACTCATAGACGTGAAGCCCCCAAGGCACCCGTGGGAGAGGACGGCTCAGATGCGCTGACTTCTTTCATCCACAAGGTGGCACC
1.536190034149442 ATAGGCTACCGATCTGTCTCCCCGCGCAGCCCCATGGAGGAACCATCAGTCCCCTGCCACTACTCTGCCGCTGGCTCCTCCCCTAGGTAGGCAGTAACCCTGTGATCGCCAGGGCCTGATGTCAGCCAGAGCTTCCCTCACTCACTAGGTTGTTTGCCTTCTTCCTC
2.00078395978427 CTCTTCAAAAGGTCCTGAGTTCAATTCCCAGCACCCACATGGCAGCTCACAACTATCTGATGCCATCTTCTGTTGTGCAGATGTACATGCAAAGTACCCATACATACATACATGAATCCTTTTTAAAAGTTCTATATGTAATTGCAAGAATCCACAACCCCGGAGGA
1.014318225051045 CCAGGCGCTCCAGGCCTGGGCTCCCACGAAGGGAGGAGTGGAAGGAGGTTGTGCGGGCACTGACTGCAGGCCCCAGGACTTCCTGCATGTGGCGTGCTTGGAAAGTCTGCTTCTGTCTTCCCAAGAGCCTTGCATGGGTGGGGCTGGGGGGAGCAGCGTGTCCCTGA
0.7819997710771933 GTCTCTCTCTGGGCCTGACTTACTCCATCTAACACGGGATCCACCTCCACCTGTGCTGCTTTCTGATGACAGGATGTCATTTTTTTTTCCTCTGTAATGGCTGAGGAGTATTCCAGCTGTACGGCATCACGTTGTCATTTTGCAATCTTCAGTTGACAGACACCAAG
2.027642490985706 ATCCATTCACTCATCTTTCCCCACCTAATGCACTCTTGCTATTCTGATTTTATTTTTTTGTGAGACCTTCATTGGAGCTGAGCAGATGCCAGTCCTATGTCCTCAAGTCTCTGGAACTGTGAGTCAAATGAATCTCATTTCTTTATAATGTTGATCATAGCATATTT
3.204891112482594 TGGTCTTACCACAGACTCTCTTCCTCTATTCCCAGGAGGCTCCTACTGCACAGGGAAGGGTGCTCCATCTGGTAGGGACAGCATCCACCTAGTGCTATGTTGGAGAGGCCAAGATTTTTCTCTAATGGCCTCACACTCCACAACAGCTCACCCCTTTGAAGCACAGA
1.989532321012357 AGTGTTCCAGGTGACGCTGAGTGAAGACTTTGGGAAGGACTGCGGTGGGCGCAGGGCAGGTTCAGCGGCTGTAGCTACACAGGAAACACCTTTGCTGCTGCTGCTCAGGCTGGTCTCCACCACACAACCTCCGTGCCCAGAATAGCTGCTGGGCCCGGGCTGCTAGC
2.363906025302127 CAGACCCTGGCTCAGGTCTGCCACCACGGATAGGGTGAAGCTGTGCAGCCCTGCTTCCTGCTTCTTGTGTTGTTAATATCGCAGACTGGAAAAATTGTGAGCAGAAGTGTCTCTGGCTTGAGGTTCTGGAGGCTCAGAAGTGCAAGGGTTCAGCTGAGCCACAACCA
1.732681119613407 CTAAGGAGCCTGGCGGGGATGGGAGAGAAGGCTCTTTCCAGCATAATGAAGCGGGAGGAGACTGATAGAAATGCTAATTTCATTACCCATGTGCATAATTACAGTCTCCAAGTTGGCAGCTTGCTAGGCAGTGACAGGAGGCAAGGGGAAATTTACCTAACTTTTGA
0.6658975189550629 GCTCTGTAAGGCTGAAGGTAAACAGGGTTTGTTCAAAGCCTTGGAAACATTCCTGCATAATTGTGCCTAGTTATTAATGGTAAGACACCTGATCCTAGCTGGGCTGCACACCCGGATTCTGCTTTCTCTCCCTGCCGTTGCCAGGGCTCCCGTGTGCGACATCCGCG
0.6954803496337922 GAACCTAGCTCTTCCGAGGGAGCATAGCGTGTGTAGCAGAGTGAGGGAGGACTTCAGATACAATGTAACTGATCAGCGGAGCTAGGTGTGGGTGTGCGCTGGGCAACCTCTGCTTGGAATGAGAGGAAAGTGGCTGTTTCTGATGAGTGCAGCTAGGGTGTAACAGG
1.235928083486527 TTCTTCTTCCCACACGGAGACAAATGTCGCCTCCTATTCTCTCATGAGTGGGTGAGGAGAAATCAGTTCTAATTATTTACTCCGCCCATCTAGACCCACGCAGACAGACAAGGGGGCTCCACTTTAAAAATAAACCCAGCCACGTGGCAGGTAGGGCTGGGCTCTGC
0.2616121977573683 GCGCGAGGAGGCTGCAGACGGGATGAGTTCGCCCTTCATGTTGATGGGGCCGGCGCGGGGCAAACGCTACGGCACCTGAACTCACGGTTAGGCATGCAGAAAGGGATCATGGGAATATCTCGCAGTCTTTGTCTTCCCGGTGAAGGATGGAAAATGTCAAGCTGTTG
0.1849539168423878 TCCCCTTCACAAGTTGCTTTTAGCCACCATGTTTCAGCACAGCAACAGAAACCCCAGCTAAGTAAGTAAGGCTCAGGATGACTCAGCGCAGGCTGACTCCCGGTTGAGGACAAGGCCCCCCAGGTGGTAGAATCCTGGTAAAGTGAGCAGGTGGGTGGGGTCGTGCT
1.245917352890107 AACTGGGGCGAGCAAGCAGAGTCAGCGATATTATTAAAAAACACATGATAGGAATATCAGGTGATCCCTGGGATGCAGGGCCGGCTCCTGTCAGGAGGCTGTGTAACATCTGAAAGGAAAAACTGGTATAATTAGACAAATATATTCTAAAAACTCTTTGAAAAGTT
0.5305663375890287 CATTTGCCTCTTCTCAGATGCATCTTATATCCTGCCCACACATCTCTGTCGGAGCCTAGGCTGGCACAGCCTCCTACTAGATCCACCTCACAGCACAAGGGCTGCATGGGACAATCAAAAGACAAAGTGCTCCCACCCACACCTAGCAGAGAGCACCCACACCTGGC
1.68904595709723 TGAGAGACAAACCGTGCGCAGAGCATTTTAAGGGAAAACAGGTTTGCTGATCTCAGCCCATCTGGGTTTCCAATCCTGCCAAGTTCAGTACATCGTGTCTATTTTTGTAACAGACTTCAGAATAGGAACGGGACCTGTGCCACGGCATAATGTCACCACTGTCCTAA
1.2959924210236 CTTGCCTTTCATTTTGCATTCCCGTCTCAGATAGCGGATTTTGAGAACAGAAATATAATCATCTCTGTGCGAACAGCCCTCTCTCAGCCTGGGGAGGAGAGAGATCAGCAGCAGAGGACTCTGTGTTGGCGTCCTGACCGCAGGCATCATTGTGACCTGTGCTGCCT
0.536183108462544 GGTCTTGTTGGAGTGGGTGTGGCCTTGTTGGAGTAGGTGTGTCACTGTGGGCGTGGGCTTTAAGACTTTCATCCTAGCTGCCTGGAAATCAGTCTTCTAGCAGCCTTCAGATGAAGATGTAGAACTCTCAGCTCCTCCTGCACAGTGCCTGCCTGGATGCTGTCATG
1.263546554125304 ACTTCAGTGATTACTCAATTCATATCATTCTCCTTTAGAGAAGCCTCAGACCACATTAGAACTCAGCACTACCTCATCATAACAATGAAGTGAGACACCAAGAGGTGTATGTGTTGGGGGGAGGTGGGGTGTTGGGCTGTTGACAGGATCCCTGTCCTGAAGAGGTC
0.6303745393778154 TGGCTCCCTGGGGTGAACTTGGACTGGGCTGTGCTTTGTCACTGGGAACTCAGGAAGTTAATGATGTTCATATCTCTCTAGGCAGGGCTTGTCACACCTATCACGTCACGGCACCCACAGAACCCCTGAGGGTTACGCACAGTGTCTGGGGCAGCAGTCCTGCTGGG
2.042043878087807 CTGCTGGTGCTGAGTGTCACACCAGTCAGCCTGCGACTTCCATTCACCTTTCTGCTTTTGGCCATGGGCTGAAGCAGCAGAAGACTCCCATATGCAGCTGAGGGAACTTCACATTCACAACCAAGAGCTGAAACAGATCTCATTCTTTTATAATGTAACCCGTCTCA
2.181852795002754 CCAAACCCTTGGGACTCCTCCAGATGTTGAATTCTGAACAAAGGGTATTAACTCCTACATGGCTGTCATATGCAGTTGTGTGGGCTGCACACTGCATAATGGATGCCTTGCTTTGGTGAGCATTGTTCTCTTCTAGAACACCATCCCCAACTACAGAATTCTTCCCA
1.194323884398758 GAGGAAAAGGCAAAGACACCCACTTCATAATAAGAGCTCTCTAGAGGCTCAGATTCCCAAAAGAGAGACAATGTATCCTAAGACATTTCAAAGCCAGGAGTCAGTCTAGAATGACAGTCGTGCTGACTAAGCAGTTGAAACATCTTAAGGTGAGCCCCTCCTCCATG
1.421426790235951 CCCAGCCTGGTAACCAAGGAAGTGGTTTCCTTAGCAACAGAATCTGCAGAACCAGGGCTGCGCTGTCCTGTCCTCAGCTCTGCTGTTATGGTAATAGGCTTGAGGGAGGGAGGAAGTGAGAGAGGGAAAGAAAGGAAATGAATATCAGACAGCACCTGACTCAGTAG
0.1383754346357908 TCACAGCAGTAAAACTCTAAGACAGTTATGATGTCTCTTCACAGCAATAGAGCAGTGACTAAGACATCTCGTTTAAGAACTTTCTTATGTAATCGCACACTGGATGGTAGGCGTGGGGCAGATGTGACATCGGGATGAATAAGGGAGGTGTGGGTCTGACAAGACTC
1.008854815889576 CTGCGAGACATTGATAGACTCGCTGCTCCGGGAAGCTCGCACAGCAGTAATGAAATTAGGTTAAAACTGCTGGCGGAGCGCAGGTAATTGCCCTTGTCTGTCACGAGGAATAACATCTCCCAAATCCAACACAATGATTGTTCAACTTGCAGGGATTTCCTTCTTCT
0.979749933964754 AAAAATCTCTGCCTAGTTAAAATTATACCATTAAAATTAGAAATACAATACAAGGTCTAAGAATAAATGCCGTTGGGAGCAGAGAAGGGCCCCGCTCTCATCAGAGAGAGCGAGTGGGGTGGGGAGAGGCCTGTGCTGCCAGAGAGAGGTGAGAATCTGCACCCAAA
0.2993491161452754 TAAAGAGCTCTTTCTTTTTCTGCTTATTAATAGCTCTGATTAAATTATCTCTGAAAAACCTACATGGTGTGCACCAATGGGGGCTCGGCTCCCTCCCGGCTCTGGCCTAGATTAGAGCAACCAGGGCAGGTGAGGCGACTGGGGGGGGGTTGTGGGGGGGAGGTTGA
0.121576020302209 GTTTCAGCTCTAAGGACATCTCTTCAGAGAGTTCTACGTCAGTCAGCTCCCAGGTTAAATCAGGACTCCGTAAGTAATCCCCATGACAACGTCCCGTCTGCCATTCACTCTCAAACCTCGTGACTCTCTCTGCTCTGGGGCTGGGGCTGGTGCCTCTGTGCCATGTT
1.062199868652398 CCTTCTTACTGATAAATCCAGAAGACAGAAAGGCAGGAGAACCTCAGAGGCAGGCAGAGCCTCCCAGGCCGCCACCCGCCAGCGTCAGCATCCCACACAGCCCTGCAGTGAGCAACAGGAGAATCTACATCAAGAGCATATGAAACATTATCGGAAAACAGGCACCT
0.2318621497134431 AGGAATGATGGGTGTGTGCAGCCTTGCTGGGCTTGTGTGGTAACGGGGATAGAAACTTGATAGGCAGGCAAGCACTTTACCAACTGAGCTACACCCCCAGCCTGCTCATAAAGATGACTAATTCAGGCACACTACCTCACGCCTTTAATCCCAGTGCTTAGCAGACA
1.211922000801983 GCTGAGTGAGTTTGGTGCAGGGAGCCGCGCTGCCAAGAGCAGAGAGGGAAGAGGCGAAGTCAGAGCATGGCCGGGGTTACAGCACACAGCTCCGGATGCGGCAGGGGACCAAGCAGAGAGCATCCAGCCGACGCTCAGGATACAGTAACCGTTAGGTCTGGCAACGC
1.087798531903773 GAACTTGGAGCTGGAAGATGGGCGAGCCAGGAGCAGAGGGAAACAGACAGCTAAAGGCAGAGCCCACGTCCTGTCCCTATGACGTCAGCCCCACGCATTGTGACATAAGACTGTGGCGGTGGCTGTGGGCATGAGATTGGGCGGGGCACCCTTGAGCTCCCTTGGAT
1.220571970411561 CTTCGGACCGTCACGACACATGTCCTTTCATCCCTTCTGGCTTACCCTCCTTCTCCCGCTGCGGTTGAGCCTCCACCCAGGCCATCGCGATGACGTTGACTCGATTTGCATAAGAGTCCCCAGCATCCCAAGCGACTGCCGCGTAGTTTGCAAAACACGGATGTTCG
1.169137773470119 TGTGTGTTTCTCTTTACATTTGCATTTGCAAAAATTCAAGAATTTGCAAAGGCATATTTGAGAAGGTATTCGGAACCACCCAGTTAAGAGAGGAGATGGCACAGACTGAAAAAAAAAAAGCTAGTTATATAATTTAATTTAATTGAAAGAAAACCAAAAAGGAAAAA
1.565809891674581 TTAATGTATTCACTACCAATTATCTGCTTGCACACAGCTCTGTGTGGGTGTGTTCCCCGGGCTGGAAGTCCCTTAAGAAAATGAATTCTTAAGTTTTAAGTTGACTTTGATTGCTTCTCTGTTGCAGCCAGCTACCTGTGGCGAGGAGACCTCAAGAGGAACAGACG
0.420359228342551 TCTAACATCAGGCATTTACCCAGAAGCTCCCCAGTGATGGAATTCTGAGGAGACAAGCTTGGTCCAACATGGTGGGTGTGTGACAGCCAGTCTACTCATCTGTTTGACATTTTCATGATGAAAAGTTAAGTGAGAGGCTGTCTAGTCCCACTTGTCTCGGTTGTCAA
0.704534999676126 TCCATTCACTCTATGCCTTTGCTTCACCCCTCTATGCCTCTGCCCCACCCCCTCTATGCCTATGCTCCACCCCCTGGTACCTCACAGAGCACTTCTTTCCTCGTGTGTCTTCTATTAGGACTTTCTCTAAGCATTTTACAAGATGTGTGACTCAGCTTTCCACCCCT
1.691629877525889 TCACTTAGCATCCACCTATGAGAGCAGACATGTCATTTTTTTCCCTTTCTGAGACTGGGGCGTCTCCCTTTCTCGTTTCTCTGCAAATCTCACAATTACCAAGGAAACCAGGGCTCTAGGAATACAATCACTTTTCCAGAGAGAGAAGAGCTTCTAAGTTCAGAAAG
0.2773945213687888 GGTTATTTATAAAAAGCTTGCAGAAGTCGGCAGACTTATGCCAGGCAGAGGTGTGCTCTACAGACTCAGAATAGTGGGCCCTGGTGTGGGCTGCTTGCTTGTGACATCACCTGGGAGCAGCCACCAGGCATGTACCACCCTCACACTAGCCACACACACACACACAC
0.6896205953746668 ACACGAATTCAGGAATGATGTGGAAATGAGCTAGCTCCCCGCTCTCCCACACAGCGTGTCACAGAACCGGTTCTTGCTAAATGTGTTAGAATAGCTCCCGTTGTCACACTACTCTGTGTGACCTAGTTCCTCAGGGAAGTGGAGGCAGCCGCCCACAAAACATCTAA
0.8977274526012893 GCACCCCATTACGTAATGGTCTTGGTTGCAAGCGCTTACCTGTCTAGTCTGAACTCAATTAGCAAATCTTCCCTCGCTATAAATATTCATTAATGATGAAGTCAGCCAGAGCGGTGGAATCCAGAGAAGGATCATTATGAACTCTACCACAGCTTCTCCCTCCCCTG
1.766130370471593 CTGATTCAACAAACCTCCCTAAAGGTCCTGGTGTTGGGCACATTGGCAGAGGAGGCTGGGGAGAGTCGATGGCTGTCATAGAGAAAGCACTTAGCTGAATACAGACAGCACCCAGGGCTTTGGGAGGCGGGAAGACGTATGAGTCAGCTTCTACTTCTCGGAGGAGT
1.68746586970986 AGGAGTCCTGGTTTTCCCTGGCCCCCACCTTTTGTTGCCCTTGGGCTTCCCTGGAAACGGGGCCAGCTTCTCAATCAGTCTCAGAGGGAGCCACCTGCGCTACCCCCCACCGCTAGACCTAGCGGGGCAGCAGGATGCTATTAGCTGGCCAGCCTGCTGCAGCCCAG
2.191432185403685 CTCTTTTGTTTTGCGGTTTTCTGCCCTCTTTTCTGGAAGGTATGCACTGCCTGCTTCTGTGGTTATTTTCGCCTAACAGCTGTGTTTCCGGCAAGCAGCTGAGGGGTTCTTCTGACTCAGCAAAACCAGAGAGCTAACTGTCAAGAAGTCGCTCGAGCGGGGCTAGA
1.039165022033212 ATTAGGAGCAGCTTGATGGATGGGCCTGATGTTGTAATCTTGCTGAGCAATTACAGTGCCATCCTATTACTGGGAGACACCCCCACCACCGCCCTGACTCCTGTACATGCAAGGCTCTGAGTAGGAGAAAGATCTGGGGAGATCCAGTACAGGAGGGTAATGGATCA
1.021854063663796 AAGCCACCCCCAACAAAGTCAGAAATGAGGTGTCACATGGAGACTTCATTCTGTGAGCAGGCATCTCTTCTCACCCAGGACCTATAAATAGAAATGTTCCTCAAGCTCCGATTCTGACTCCACCTTCAAGGTGAGGAATCACTGTGGGCAGCAGGCAGCAGTGGCCC
0.2621665043251677 AGCCCTCCAGCTCATCTCAGGGCTGACGCCTTGCTCCTCTCTGAAGCTGGGAATTAAGAATGAGCCACAGGCTCCCGAACTGCGGTGTCAGCTCGCAGCTCTCACCACACCTCATGCCTCACAGGCTTAGTGCAAGTTCCGAGGTGTACAGAGGACCCCAGATCTCT
1.541357113249669 GTCTTAAATGGTTGCAGCATTAGGAAGTTTGGGAAACCACTGTTCTAGAGACTTCTACTTATAGGACACCGATCTGGCTCAGAGCCGAATGGATGAGGGTGGGAAGAGAGAGAGGGTGGAGAGATGCGAACATTTATTTACATCAAGTCAGCCTTGACAGCACTGAG
0.6791297103300938 CACTCTCCTCTCCCTGCTCACCCTCTTCCTCCTCCCTTCCTGCTCACCCTCCTCTTCCCTTCCTGCTCATCTGCCTCCTCCCTTCCTGTTCACACTCCTCCTCTACTGTCATCATCATCATAATCACTCCAGCCACCTTTGCAGCAGCTCCAGGCAATCCTTGGGTA
1.726209380331077 GAAGGCAAGTCTCCAGAGTGACTGGAAAGGTGAGCATGTCTGGTGCTGCTCACAGGAGACTGTGTCGTCATACAGTCCGAAGGATGCTACCAGTGCGGTAGAGGAAGAACTCCTGCCCTGCCCCTCAGGCACAGCCTGGAGTCCTCATGTGGCTCCTACACTGTTCT
0.03064600285520666 AAAAATCTATGTCTCATTTTCCTATCTAGTAAAATAAAATGACACGGAACACTCTGGCCCCTGGAGGGGAGTGCGCGTGTGGAAGATGAGGGGGGAGACCTCCTCCCGGAGCGGGGAGCCCCGGGCATGGGGAGAAGTAGGGATGGCGTGGCTGGCCGCTCTCCTCT
0.4445870135222798 GCACAGCTGTGCACAGCGCCCGCGCGCGTGCACACACGCGCAGAACTGTCTATTTATCATTTATATTATGTGAACGTCACACCACCTCGTGCCTGTGTGTCTGTGGTGACATTGGTGAGGACGGGGTCTGGGGTGTCTCTTGGGGGGTGTATCACCTATGTGGAGTG
0.6581796118069657 GAAGACAAGCGGCTTCCATGGGAGCCTGTTAGCTTTTTAAAGCCAGCCTCTCCCAAATTAGGACTTCCAAATATAATCTCCCCCTCTCGACTGCTCCCAGTACCTAGACAGCGGCTTCTAAAAATAAGAGGGACGAGAATCTGTCTGTTTTCTGATGACTCAGTACC
1.213935184499791 GTTGCCATGGTAACAGGATTTCAGTGATGAGTATCCATGGTGATGGGCTCTGGGTTCTGAGCGGTTTTAAATGCTTTAGTTAAAGTCTGTAGCAAGTGCACAGCTGAGGACCCAGGAGAGGGAGCAGGGCACTGTCTGCTCCTGTATGGGTGCAGCAGCCCTGGGTT
2.386642736064707 TGCGGAGCCCTCTCCCAAACTTGCAAAATTAGACTCAATTATTTTTAAAACAATGTCTCCCTTAATTTGCAAATGAGCACAGCAGAACACTAAGCAGGCTCCTATTTTGGGTGCTAAATACATGGCCCTTTCTATCAAGATTCTGTCTTCACACACATACAAACAGA
1.608038739849436 AGCACAGGAAAGAAGGCACCTAAGGTGCCATGTGGGACCTGCTTCAGTATGCCGACAGCAACAGCGGAAGCTCTGTGAATGAAGACAGACGCGACTTTCTTCTGAGCCTAGAAATCTGTCAAGGCTCAGACATTCGCAGCTCCCGAGAAGACTAATTCCAGCATCTT
1.539131338338203 CCAGGGTTAGTCACTGCTGGGGCTGGGGCTGAGCCCAACTTCCGCGTGGGAGCAGGGGAAAGCCTGAATGGAAAGAGGCAGGGAAAGCGGAGGCTGGCAATGCATGGAAGCCTCCAGGAGCTGGAGGCGAGGAGCTACGACAGGCAGGCAAGCAGCTTCAGAGGAAG
0.1200071879073993 TCTCTACACACCCACACCCTCTCCACTCATCTCTGCACACACAGGCACACACATGAGCCCAGAGACACGAACACTCAGGGATGCGGCCCACACTTTGCGTTAGCTGCGCCCACAGGCACCATGTCTAGGCCGCTCTGCACACACGTACAAAAGGTGCACGTTTTCAC
1.058546949638887 AAACTTGCTCTGTGGTTGTCAGCATCGCGTACTCGCTTCCTCTTCTCCTGTAGAAGATGCTTTCCAGTCCTTGACTGACAGCAGAGACATCTCCCAAGAGCACAGGGAGTCTGGGAGTACGCCGTGCTTGGAACATCACTGGGAACTTCAGAGTCCAGGGTCTTCCC
0.9560714533285172 TGGGAAGGTTGTGGGGATTAAAAGACACAGAACAAGTGAAGCACTCCTGGCTCAGGGCATCGCTCGCAATATGACAGCAGCTATTATTATCGCAGGCAGAGACTGTACCGGAGAACTGAGAAGTTGCTTGACAAGAATTAACGTCTCCCAAAACTAGAGTCTGAGCA
0.6333521224242933 GCTGATGCTCAGATAAGAAAAGACACAGTGGGGGCGGGGCAGCTGTTGGATGCTCTCTTGCTGCCCTGGCTGCCTCCAGCAATAGAACTGTCAGTCACACCGCTCACCATGACTACCCTTATGCCGGCATCAGCCATCCTGAACACTCCATGCTATCCTGGGGAAGC
1.057064224824434 CCACACAATGATGAAGCATGCTAGGGGGCAGAGCAGAGCAGAGACACCCTTGCCTTGCTGGGTTTACCAGCCTGGGCTCCCAGATTTCACACCCACAGTGCCCTCTCTTTACATCATGACTCATAACAGTAGCAAAATTAGTTATGCAGTAGCAATGAAAATAATTT
0.4200991737510718 CCCGCCCTCTGGCTCCTACCGCCTCCCTACAGCGCCACCTGCTGGAGGTGGGGCTTGAGGGAGGGCGTGCAGGTTCTTCAAGCCAGCCGCTTATCCCGAGTGTCTAGATGAATCATTACCTGTCCCCTGCCACACAGAACAGGGCTGACGTGTGCAACCAGCAGGCA
0.5108747944106087 TTCCACATTGGTTCCCAGAAGGCTGCAGATTGAGCAACCAGCTTTTGCAAGCGGGTTACTATAAATGTGGAGAGAGATCAGTGGGCGTGTCAGCCCACAGGGTAAAAATATCCCAGATGACTGACAACCAGTGGCAGCCATCCGATCCCTGCACGCTACTCAGCAGG
2.335085291315564 CACAGATATTAGAAGGCCCGGGTAGGGTCTGGAGAAAGAAGGAGACGCAGAGAGGGCCGCAGAGTGAGCCGGGTCTGGGTCTCCGTCTTGTTCCTGTTGGGGACCAAGGACACCGAAGGTCGGCAGCTGGAGAACAGGGTCTTTCTTGCGATCTGCTACCTAGGCTG
1.85985120679909 TCTCGCACTTAGAAATCTATCTGCCTCTGCCTCCAGAGTGCTGGGATGAAAGGCATGCACGGGCTAAATTTTACTTTTAGATTTAGGGTGTCATCTGCTATGCAAGAAGAGCTGCAGTGGGCCAGTGAGCTCAGCTGCTCTGGTGTGGCCCAGCCCCAGAGTCTACA
2.082146897949724 CCTGCCATTTTCGCTTGTGGCAACTTTGAGGCGGCAGGGAGAACTCTCTCAGTCTCAGAAGGGTTTCCATTAGAAGGAGTAGATTGCTCGAGCAGTTCTCCCGGCTCAGGGTGAGAGTCTAATTCTAGACCTGGGTAATTAGATCAACAGTTAGATCTAACTGCAGA
1.912780834907824 ACTCAGTATCTCTTGCTGTACCATTTATGAAATATTTTGGCTGAAAATAAGGGCTGGGGCTGGTTCAGGTATGTAAGTTAGAGACAGCCTCAAAGTCCTTTGTGTTGACTGAGTCTCTTTTATAACCCTAGAGGCTCTCTGGGTCCTCTCCATCACCAACTCCATCA
1.697733012913939 TTTCCATCTTACTGCTGTTACCCTGCAAACATTCCCCAGTGTTCCTCTGCTGTGCAAATTCCTACATGCACCAGGCACCACTGCTTTTTATAGATGCTTAATTATTGCTTTCAAATGAGGAGCCTTGTTACCAAGAAGCAATTGGGTAGAGTGACAGGGAATTTACA
1.193912458639905 TAAGAAATCTTATGAACGCAATCCATTCTAACGATGGCTCATTTAAGACCCTATTACTTAAGAATAATGAACTTACACAAAAGATTTTCTAGGTTGCTATAGTGATTACAGAGGTGTGAGCAGTAGGTGAGAAGAAATCTGTGGGTTTTAATTAATTGGCACAAGGG
1.986175262698195 TAGCTATGCAAGCCTGCCATCACTGTCTGTTGAGCTCTATTTATACTCTCTTCAAACATGTGTCCTCCCACAGGTCTTGCCTCAACAAAACACCCTGTGAGTCTGTCTTAGCAGAACACCACATGAGTCTGTTATTAAAACATCAGGTGAGTCTGTATCAGCTGACT
2.040190706907459 TGTCGTCCCCTTGAGATCCAACTTCAGTAAGCTCATTCGGTGACATGAATAGCAGGATCTTTGATGAGCGCATCAGGAAATAAATCATCAGACTCATTCAGACATCCCTGCTGCAGATGCAGAGCTGGCCCTGGTGATTCATGGAGCTGAAACTTTTCAGAGTAAGA
0.6406571954116074 CAAATATGTTTTTCCCCCAGCTTAAAGGTTCTAGGAAATCCTCCCTCTGATTCTTTAATGAGCACCTAGCGAGCAAGCTCACCCACTGCCTTCCTCCTGAATAGTAACAAGATGGTCTTACAGCATCTTTGCCTCTCCCCCTTTTTCTTCACATTTCCAAGCTTTTT
0.8861962928882122 AAGAAAAACGAGGAGAAGGTATTTTTAGCAAAGAAAAGATTTTTTTTCCCTCCAAATTGGAAAACAGCACAAGAGGGAACATTTCCCATCTGAGGAGGCAACAACTTCAGCACAGTTCCAGGAGGCGGGAGGGGTACGCGGGAGGGGTATGCGCATCCTGAACCTTG
0.9256411820462358 CAACTGTCATTAACATCGCTGCTTGACTGCTAGAGCAGGGCCAGTGATTTAGCACAGAGACTCACAGATTTGGATGAGCATCATCACTTATCAAAGACAAGCTGTCTAGGACCTTCCCCCGGAGTCTCTGACTCAGATCCTCTGAGATGAGAGAGTGTTCATTTCTT
1.507332832512181 GCTACAAAGCTGCCTCCCGAACCCCGACCAGCCTTGTTCTGCTCCTCGGCTTCTGTTTCTGGAGCGTTCCGTCATGAGCTCAAAGGTTGGGCTGAGCCATCGGCCGGGGATAAGGGAGATGATTTATCTTCTCCAAGGAGCAGAAATTGAGGTCAGCCAGGACACAA
0.6120074039142891 GGTGGAAATGGATGGCAAAACCCAGTGCTTTAGGGTAACACCATCATATGCTTGAGTTTGGTGAACTGCTGTCATCAATTCTTGATTTTTTAAAAAAAATCTGTCAGAAGTGTGGGAGTTGAGCAATGACTCAGAGGTTAAGTGCATGTGGTGTCCTTGCGGAAGAC
2.066420752924123 CAACAGGGCCTCAGTGTCAGTGGCTGCCACCCTCTTTCTCTCCTCTTTACTCAATTCTGTTCTTTGTCATGATTTATTCCAGTCTTGCAAAATGCCCAGATCAGCCACACTCAGCCGGCAGTATAAATCATTACAGGTTTGTACCGCACCACTTACATGAATTGGTC
0.5609231689472249 TCGTGAGATTGATTTTCAAAGCTGATATCTTTCTTTTATTTCTGGCTTCGGGCTTCATGAGGTTCCGTGTTAGAGCTCACGCTAGCGTAGGCTCTGCTGAATAAACCCCCTGATGTGCCTTTCTGTCTTTGAAGGTTTGCACCTAGCCCGGCCTTGTCAGTCAGAGA
0.9474452654529805 ACCCACAAACGGGAAGGGGGGCAGACACCAGGCTACAATGTGGGCAGGGTTGGGATTACTCAGGTCTATTTCTAGCTCCAGCCCACGAGCCACTGAATGAGACAGTTTGCGGAATGAGGCATTAGACCCCTGCAGCTGTGACCTAAGAGCAAAAGCCACCATTCTCA
1.229325534820704 TCCTCCCACGGCCCCACGCTCCCTCCTTTCTCCCATCCGTGCTCAGGCTCTGGGGAACACATCAGCTTAGCCAGGAGGCATGCTGGCCCAGCCTAGACTAGCAGGCTTCACACCCCCTCTACAGAACCTCTCCCAGCATGCTGAAAGGTGTCTTCGTTCAGACTTTC
1.692129718803665 ATCTCAGCTCCAGAAGACAGTCAGACAGCATGCCCACCTGGTTTTTATAAAGCAAGTTCAGAATGAGACTCCAGGACTGCACAGTCTGTCCCTGGATGGCGACAGGAAGGAGCCACTCCTGGAGCAGAGTCCTGCCCTCGATGAAGGAGATGGCAGGTCATGGGCAG
1.665959021781291 CTCACCCTGCTGGCTCTGTGTGCAGGGTAGGTAGGGCCTCCCAACCATGTGACAGAAGCACAAAGACACAGAAGGATTTCTGGTGTTCATCTCAGAGATGTCATCCTCCCTGTTTGCTGCCAATCACATGTGTCCCAGAAACAAGTTCCTGAATTAAAACTCCCTGA
2.524705894388413 TCAAAGCCAAAAAACTCAAAAGGCTACTTCTCTGCTTTAACCAGTGGCTCCAGCAGATGGCAGCAGCAGTAGGCAGGTGAGCAGCTCCTGAATGGGAGCTTCAAGCTACTGTGACAACTCCATGTCACAGCTCTCAGCAGCTGGGTAGTGACAAGTCTCTGGCCTAG
1.300367412605079 AAAGGCAGTGCCCGCCCCTCTCAACCTGTCAGAGCTGAGCCTTAAAGGGCAAGTGTTGCAGTGTCGCTAATGTGCTTTTGAGGAAGGTTTTGCCTGGATTAGTATTGGAACCCTCCTGAATATCACTGACTCATACGAATCTGTTCCACAGTGTGAACCTGGTAGAG
0.1974861411068035 TTCAAAGGCACAAGATTTTTCTTGTCACTTTTCAGCGCTTCTTGTACGAGTTATTTCCCATCAACACCCCCGCCCTGCCTCCTACCCACTCTTCAGAGTCCCCTGCCTCTCCCACATTTACTGAGCCAAGCTGTCCTCCTCCTGGGGCCTGCTCCTGCCTTCCCACC
2.416558705043536 CCAGATTTTACCTGTTCTGTCCTGAGAGCCTGGCCTTAGCCTATCTTAATCTCTAGTTTTGGTCCTCTTCAGTCACTGTTCTCCTGTGCCCAATATTGAAATGTCACATATTGGGGGAGGGAGTCAGTGGTCCCCAGTGCTGGAATTGCAAGGAAGCCAGCTAGAGA
0.8730003315312401 GAACAGAGAGAGGCATTTTAGGGAACATAATAAATCCGATGTTTCCCTTCACCTGACTGCGATCTAGAAGACTCTTCAGTGTTCATCCCACCCCCTCACACACACTCAGAGAATACACCAGCACTTCTGTTTCTGAATAGACTCCGTGATAATCTATTTTAGGCCCT
0.2105446763224655 ACCCAGATAGGAGGCAGCCAGTTTACAGTGATTATAACTGATGTTGAAAGGAAAAGAGATTGCAGAGGGAGGAGGGGAGGAGAAGATGTGAGGGAGTGAACTCTGAGGAGTTGAGGGAGGAGGGGATGAAGCTGCAGGAGAGGGGAGAAAGCAAGCCCATCCTCTTA
1.31344528072735 TCCCCGTTCCTCCTGCCTGGGCTCTTAGCAGCAGGAAGGAAGGGTTATATAATCCACAGTGTCACCACCTCCAGCTCTAGTTTGCTCTATGCTCTGCCTTCTAAGGCAGATTCCCTCTGAGCACCTCTGCCAAGGAATTTCTGAGAGCAGGGATGTGGATGCTCTAC
1.610430195726667 ATTTTTGTCTTGTAGGTGAAAAGAATGTTATTCATATAGTGAGTCATACAAGCCTGTGGATAATTTTGTCATGTGGGGATGGATGGATGGATGAATAAGAAACTGCTGGCACATGGTGATGCTATTCATCATACCTAGAGGAAGGAACTTGCAGTGGAAAAGCTCGC
1.672009160465933 CATCTCCCCTAAATTTTTTTTTTAATTTCTCATTTTCTAAGTAGGTCAGTGCAACTAGAACACTCAGTGATGAGTCACGTCTAATTCCTCATGCACAGTGCTCAGTGGGAAGGAAAAGAAAGGCCAGCCCTCCCTACCACTGCCTCCAAGTAAGACTGCACCAGACA
0.6611069040889253 TGAATGGCTGTGAATGATGCATCTCCCCGTTCTATAAAAATTACATAAAAACAAGTCATTTGCTCTAATCCTCCTATTGCTAATGATTCCCAAGTGTGGGAGCTCCTTGCTCCTCTGCCTCGCCCCCATGACACAGAAAGTGTATGAAGTTTAGACATAAAGAAAGC
1.118271383486577 CAAAGTCTACATTTGCAATTTCTTTCAGCCCATCCCTCTACAACGCTATGCACAGCACCTGACAGTACCTCCTGATGGATCCTGTTGCCTTGACAACCAGCTCAGAGTTGCTATTTCAGGACATTCTCTCCATCCTTGGAGCCCCAGGAAAGCAACGAATGCCATAA
1.882968754265005 TCTAATTTGCAAATGTTCTCGCATTAACAATGATGTAGAATGTCTACCTGCCCTGTTCTCTTTACACATAACTGCAGTGACTTGCCGCCGGCTTGCCTGCTTCAACAAGGTATCCACGACAGCTCCCTTGTCGGTGCAGAGCCAAATCTGTAGAGAATGTCATCCGA
0.5480625691366914 TTCCTGCGTCTCTGGGTGTCTCCTTAGCCCTGATTCCTTTTTTACCTCTCTCCACCCCCTGCCCCCGCCTCTGTTGCCTCTCCTCCTTTGGAATCTTTGAAGAACAGAGCCAGGCATGTAATTGACTCGGCCCGTCTCCATGGTTGCAGCTGTGGCGTTACTGAGAG
1.054661950568529 TCCTGTGCAGGCTTGCCAGTCAGGTTCTATGCCTTTTAAGTGCCATAGAGATGACCGGAAGGTGCAGCAGCTGAGGGCGACACCTTGTGGTGAGTTCTGTGCATTACAGGAGGGACTATAAATATACATGCATACCTTATATGTATGTCATCTCCCACTGTGTCCTC
1.113065751399802 CCAGAAGACAGCGTTAGATCCCCTGAGTTACAGGTCCTGAGCCACCATGTGTGTGATTAGATGGGAACTCACATCCTCTACCAGGATGGTTCGTACTCTTAACTGCTGAGCCATCTCTCCAGCTCCAGTTACTTGCTGTTTAATTTGGAAACCCCACGTGATGGGAA
1.816861663413213 GCTTCTTTCCTCTGGCTCCCTCCCTCCCCGACTCCTGCTGGTTTTAATATGCTCCCAGCCGGGCGGGGAGCTGAGCTGTGCACCAGGCAGTCCCAGGATGGTAATTAGGTTAACTGTGCTCTAGCTTCAGCCAGAGGGAGGCTGCCTGGCTGGGCCCAGGCAGGGGG
1.907367386609164 CAGTTAAGGACACAGGAGAAATGTAGATAGATTTCTTGGGATCGGTTCGGGAAGATAATATGGAGATTAGGGACTGCAGCAAGCTTAGAGGTCAGAGAGTGGGTCACTGTTTCTATAGCAACCCTGAGGGCGAGGACCACCTGGAGCTTGATGCACCACCCTCTAAA
1.07558614615887 GCAGCTCATTCATCTGTATATGCCAACTGTATATGTAGTTATATAATTGTACCAAGAACCTGTCAGACTTGTAAGAACCAAGTCTAAAGAGGAGATGTTCATGTTCACCGCCCTCCCTGCCTGTCTCAGGGGAGAGCCCGACTTCATCTCCGAGACCCTTTATGAAA
1.210213823258027 AAGTCTCTGCAGTTTAAAAATACTTGAACAACTTTGACACTGGAGAACACTCGGTGCTTAGACTCGCTCTGCTTGATGGGATCTCATTTTCCAGAGGAAGCAGCCTCCGCTTAGCTCTTAGTCATCGCTGGCCTTCGAGAACATCCTCCTCAGCACCTGAATGCTCC
1.823704881602794 TGCTGTCCTGGAAGTTCTCTGAGCACCCTGTTTTCCTGCTGTGCCTTAGTTAGTCAGAGCTGATTTCTGTTCATGTCACAGAGAGCTGCCTGGTAAATTTCCTCATGAGTCAGCCCATTGCTTCAGCTGGGTTCCAGGCTCCTGTGGGAGGCTGTCATCTGCGTTTT
0.5695955682983431 TGCCAAGAATTTCCAGAGAGTTTTACTAAGATGGAAAGGTCCACCCCGCGTGTGAGTGGCATCTTCCCATTGCCTGGGACTCCAGACTCAAAGGAGACAGTGAGCTGAGCAGCAGCACCCACCTCTTTGCTTCCTGACTTCAGACGCTGCATGCCCAACCACCCCAC
0.404724458372507 CCCCATTCACGTGTGTCCTTTGTTTGACACAGAGTCTTGCTCTATAGCTAAGGCTGCCTCTTGAGCTCCACATCCGATTGCTGCTACCTCCTAGGTGCTGGGATTACAGGCATGGCTCACCGTGCCTAGCTGGGATTGCTTCCCCCTCCAGATAGCTCATGATGAAC
1.907284960281943 AGCACCGTACAACAGCGAACTTGCCCTTCTGCTGGGCAAAGCCCTCTTCCCAGGGCTGCCCTAGACAGATGTGGAACCATCTACTCCAAAGCCGTTCTTACTACACTTACCCACCAGAGGGCGCTAGGCACCTTTCCAAAGCTGACCTTGCCCTCACTAAAGAATGA
0.3138699971458349 AGAGAGAGAGACAGAATAAGAGAGAGGAGGAGGCAAGCAGCCCCCTTTATAGTGAGCCAGGCCTACCTAGCTGTTACCAGGTAACTGTGGGGGTAGAATCCAGACAGAATACCAATGAGTGAATAAGTAAAGAGGTGACTGAGATCAGTGTGTGTGTGTGTGTGTGT
0.02289159237362742 CCGCAGCGCTCCTTCTCTGGGTTCCGAAGCCTCCAACACGAACCTAGCTCCTGGGAGCCAGGCCGCCGTCGCTGCGGCCATATTACAGCTTGTGCGGCAAAATGCGTCAGGGAGGAGGTGTGCGCCCGAGCACGGAGGGCAGGGGCTGGAGAGGAAGAGCCGCTTCC
1.426551925888186 TGAGCTGGCAGTGGTGGCACCTGATGGGAGGCTGGAGAGATGGCTCAGCAGTCGTCAGGAGCACTTGCTGCTCTTGCAGAAGACCTGGGTTTGGAGCCCTGTGGCTGCACACAACTCCAGTTTCAGGGATCTGATGCTCTCTCCTGATCTCCCTGGGCACTGCACAT
1.037520593521512 CTTTGAAAGTACACTGAGAGGGACACTTCCAGATGCTCTGCCGCGGCACCCTGAGGTTTGAGGGATCACTGTGCTCCACGAAGCTGGGGTAAGAGTGATGTTGACAAGGGAGGAAAAGTGGATGTTTTTAGGAGAAATTTCCCTGTCAGACCGCACCTCGCCCGCCG
1.728437309321557 AACTGTTCTGTGTTTATTTTCTCAAAGACTTTCTCTGCCTGCTCCCTGTGAACGCTCCAATGCTGTGTGCCTGTGCTCCTCCCGGCTCACCTACACGCCGGACAGTTTCACTCTGTTGCCAATGGTTCCTTCTGAAAATTATAGACAGTTCCTCTCCAGCTTTATAA
1.68985160789025 AAATCATCTAAGTTCTTGCTGTTCCTTCTTCCACCTGCTGGGACTGCAGGCCTGCACCTCCATGCCTAGTCTAAGTGGTCCCAGGAATGTAATCCAGGGCGTCATGCACACTCGGCAAACACTGTACGGTCACGGACCCAGCATCATTTTTTACAGAATGAGACAGG
1.656333548575762 TGGCCTTGAAATCACTCTGTAGCAGCTCCTCTCTGTGTATCTGAGTTGACTCAGCCGTTGTAGTAGTGGGTGTGATTGTGCTGGAATTGATGCAAGGAAGGATCAGTTTAAATCCTAGCACCTTCCCACCAATGACTCAGGCAGCGTGGAGTCATACAACGGGCTGC
0.5089218263143965 TAACTCTTGACTTTAAAAGAGTTACAGGTGCCCCTGCTCCTTTGGTGACAGTCACAATGGTTGTCACTGGCGCCCCACGCTAAGCGCCTCCCATCAGCTGCACAGAACGCTCATTAGAACCCCTGGGACTGAAATCCATTCCTGTTAAGTCCAGGCAGGGGAGGAGG
0.7694997217100145 TCCACCGGCGAGTGATGAGGATTCTAAAAGAGGGAAAGTGAGCCGAGCGCAGCATAATTCGGCAAAGATCACGGTTAGCTTAGCACCCTTTGTGAAGACACGATCGCAGGCAGAGTGGGAGGATTTATCTGGAAATTGCTTGGCAAGCAGAATCCGATCTGGGACAG
0.2060047256615949 TGACACGCTGAGTTAGGTGAAGCATATAATTAAGTTTTACCCTGAGCACTTAGAAAATGTCAGAGTAGAGAGCTGCGGAGATGGCTCAGCAGTTTAGAGCACCAGGCGCCTTTTCCGGAGGAGCCCGATGCAATTCCCAGCACCCACGTGGCACCTCCCACCATCTG
1.268881925969779 TCTCATCTCTTCTCTCTGTCTATCATCTTGACAGCACGAGGAATAATGGAAAACTCGTCCCTGAAAGCAGCAATGTCAGAGAAAGACGGAGAATGGAGCAAGTCGGGTAGCACACCAGGGATCTTTCTCTCCTGGAAAGAGAATGCTTTACTTCAAACTGTTCAAAG
2.024787313223459 AAGTTTCCAGAAACCTTCTTTATAGCAGCAGATGCTGGAACAGAATCGCTGTAGTCAGACTGTGGGAAACTCTAATGAGCAAACCACCCAGTTTCTTAAATAAATTGTAAGGGGGAGGGGGGAGTGGTAGAAATGGAAGAGAAATAGACTCAAAGGGATTGAGAGGA
0.9136471413798326 ACGCACGCACGCACGCGCGCGCGCACACACACACACACACACACACCCGGAGGGTGGGGAGTGGGGAGTGGCGATGGAGTAGTGACCTGCCATCTTTGGCCACTAGGGGGAGGCAGAGCCCGGCGACTGTCAGGCAAAGGCTTTCATGAGCCCTTGCTGTATCAGGT
1.443796306716237 AAGACTCCCCCTATTGTTTTTGTAACTGAGATTTTAAAGCTTGATTTTGTCTTTCGACAATTGCGGTTGTAAGGGATGCCGGTAGTGTGGGAGATCTACTGCAGACAATGAGCTCTGGAGTTCTCTGCCAGATCACCACGCAGCTTAGCAGGTCTAAAGTCTCTCTT
2.145926840446071 CCCATAGGAAGGTCCACCACAGGCCGGTTGAGCTCTGGTGCCTCCTATTGGCAAACCCTAACAGGAAGCTGGCCGCCAGGGATTCTGGGAGATGTAGTTTATCGTTGCATCCTGTGGCCCAGAGGAGACTAGCGGATCTGAAGCTGGGAGCCAATAGCTCTGAGCAG
1.473297105822414 TCACCTCAGCTGAAGAATCAGCAGAGTGTGGGTTGGGAAAGCAGTTCGGTGGATAGAGGCTGAGTTCAATTCCTGACACCCACCTAAAAGCCAGGCCTAGCAGTCTGCGTGCCTGTATCCCCAGTACTGGTCAGGCAAGAGACAGATTCAGCAGTGTTTACTCCCGG
1.075417115716396 TCAAAGCCTAATCCAAAAGATTAGCAAAAATAGCCAGTTGCTAAATAGCGCCAACGTGGGAAATGCAGGCGATAGATTCGTTGCTCTGAGAGGAGCAGAAACAGAAAAGGAGGATCGCTGTGAGCCGCTCTGAGGAGTGAATTCCCTGCTAGAGCGGAATTTTCTAT
1.263095617910908 AAAAATGATAATTTTTACCATCTCACTATGTAGAAGTTGGTCTCACACTTTCAATCTTCCTGCCTTAGCTTCCCAAGTGCTGGTATTATAAGTGTGTGCTACCACAGCCTGATACATTTATAACAAGACAAATCAAGACAAGCCTTAAAGTGTGAACATGATGACTG
1.984540070346876 TTTTAAAACAATAAATCTACTGAGATTCCCTCCTACAGTGGTGAGGTCAGGGGCTCCCCAGCCCTCCCGTACCTTCTGTTAGTCACTTGAATGATTCACAAGCTCCAGAGATTGCATAACACCAGAGTGTGTCATCCATCACTTCTGTGGTTAACACAAGCAGAAAT
2.513202404191409 CTAATGAGTCCCAAGGAGATGTTGCTATGCCAGGAGCTGCCCTTCCCATTGGCAGACTAGAAACCCTTAGAGCCTTTGGCACACTTGGCTCTGCTAAGTACGGCCCTGACTTGGAGTTTCCATGGTGATAGCACCTGTAGTCCCAGCTTTGGCTTGTTGCCAGAGCA
0.3425882985574132 ACTTTTCCTGAGAGACATCAACTAATAGTGCACCCAGAGCAGATCAAGATGACTCCACCCTCGTCTAGCTTGGTGAACCAGGGAGTTATTTAGGGGACTCACGTGAGCATGGGTGACTCAAAGGTAGCTGAGTCACCAAAAGCCCACCAGCATAGGTGACAACCCAT
1.875503350596831 GTCTGGGACCGAGCTGATTCTCCTTGGCCAAGAGAAGAAGGCTCACATCAAGTTAGCAGATTCCTTAATTAGAGCCAGACGGTTCCCAGCTGTATTCCTCCACCCCAACCTGGGTGGCCTCCCGCTAGAAGAGGAGCCGACATTGTTGTGTTTATGCTTATGAGGCG
1.04204693296085 TTGGCAGCAGGCACCTCTACCCACTACATGATCTCACCAGCCCATTAGTCACATTTATAAGTGAATATTTGAGCTCTGATCACATCTACCTCTTTATTATCCCATCTCATCAGTCTACTGTCATTCAAGGAAACAGGCACACTCCCAACAGGGCTCAGAGGAAGCAG
1.344350273076616 TTTGGGTTGAAACTGTCCCCTGAACAACCCTGAATCTTTGGTGATGGATCGCTGACTTTTGCACACTGTCTTAAAATTGGAAACAAGAGTGATTCAGCTCACATTGCCTCAGAACTAGCTGTCAGTCTGGAAAGGAAAGTGGCAACTAGAGCCATCATCTTTCATCC
0.5304288656759059 TTCCCGCATGCTAAGCAAGCACTCTACAAACCGGGCCACACTCCCACCCACAGAAGCCTACGCTTTATGACGCTCATTCTGGAGAATTCACCTCGAATCTCTTCCTGAAGCAGAGTGATATATTAATGTTTAGTAGATTCCTGCTGAGGGGGCGTCTTCCTAGAGCT
1.481686912814104 TCCAATGACCTACCTCTAAGTACATGGAATAAACTAGCATGTAGCAAATAAACTCTGCACATCAGCCATGGTTACTGCATGAGGTGAGGCAGTGACATTCCTTAACAAAGGAGGTGTGTCGCTGATGGAATTGTGACAGGATGAGCAGTATGTGGCCAGCAGTAAGA
1.893662393642087 TTTTGACTTGCATGTCTCTAGTGCTATGGATTTCTGTGGCTTTCCTCTCAAACGCCCGTGCAGAGGGAAAATGCGGTTACCCTGTGGTACTGAGGCACTGAATGGAGATACTGGGTAAGCTGAGGCTTAATGAGAAGTTAGGGAAGAAGATCTTGTCTCAAGGTTGC
1.016385696240463 GTGTAGACAGGATTTCTGACTATCCTACTTTCTAGACCAGGTTGGCCTTAAACTCATAGAGTCTGTCTGCCTCTGCCTCTGCCTCCCAAGTGCTGAGAATAAAGGCACCACCTGGCTTCCCTATGTCTTTTAATGGCTTATTTTAGTGCTGAATAATATTCTATGTC
2.481814060336073 TAGGAGCGGTAGAGCGAGCTCCAGCTAGACCCTGCTGAGGAATACCAACAGTGCATACCATGGAGCCTTGGTAATGGTTTTAAGGGAATACTTGTAAGAATGGATTCTTCAGTATTGAGAGAGAAGTGTTCTAATGGCTGAATAGCCTTTTCTGTTACCTTTCTACA
2.526249920356889 TTCAAGTTGTTCTTTTATTTTTAAACTGTATCCCACGTTCCATACATAGGCTTTAATTTGCTTTCCAGAGCACTTCAGTTAAATCCTCAACACAGATAGCATTCTCACCTAGCCTGAGTCTATGAATTTCCATTCAATGCTGATTTCACCCTTTCTTTGGAACATTG
0.2163571581312718 TCTATTATAGCAAAAACCCCACGAATTCCGTGGAATTGACTGCACTGAGCTGCTACGCTAAGCAGAAGCCAGCCCTGCACCCACTAAGCAAGGATGCTGCCTCCCCCGCCCACTCTCCAGCAACCACTGGTGCTCTCTAATCTAGTCGCTGTCTCTAGCTGTTTCGT
1.457259700833189 ATAACCTTCTCTCTATCATCTCAGGACTGAGAGTCTAGCCAGTGCTGTGAAGTACAGCATCTGATTGGCTGTTACTCAGTGTCACTCAGAGATGGGATCGTGATTAATCCTTCGCACACCATTTCACAGCTCTTCTGCGTTCAGCCAAGGTGTGCAGAGCGTGGAAG
3.174569337326558 CAAATCACAGAGGAGAGCTCAGAAGGGAAGAGCTCTTGTTCCAAGTCACCGAACAGTCTCACATATGCTCAAAAGCCTTCTCTGTACAAATAAAGGAAGTGCCACTAACTCCACTTTCCAGAGGAAAGTGACTCATTAATTGCTTACCCAGAGTCACTGGCAGAGCT
0.7334650017594267 GGTTTTTAAAGCCTTTTAAACCCTATTTTTACACCGAGCACATTTCTCTTCTCTTTCAAAGGAACAAAGGGATCACACAGCCCACATGCCCTTCAAACTGGCAGCTGGGGAGGAAAGGCAGGGTGCAGATCTGCAGCCACAGAGAGCTGGTTCCCCCACGTCCGCCT
0.4843625618899858 ACAAGATCTTTGCTTCCACAAATCCAAAGTGAAGAATGTCATGGGACCACATCAGACATCCATAGCAGGTTTCTTTCCTTTTGTTCTAACCCACCTACCTGATGTTCCCATGAATAGATCTGGGGAATGCCTTGATTTATGTATGACTTTCTTTTATTCGGGGATTA
0.6208934142570981 TGGAAGAGACTCAGACAACTGGATTTTATTCTGTACTGCCTTGAGAGCATTCACGGAAAAGTACCAGAGGCGTGGGTGGCTCTCCACCCCGGCAGAGCTGCTAAAAGCAATGATGTAGTTTGGATGTCCCAGCTCTCTTCCTCCAAAATCATAATGACGCTGGCTGT
1.60104149684529 AGGGTAATGGAGGTAAAGCAACTGTCTAGTGTTTGCTGCATCACCAAGCCCAGGAGGATGGGTTGCCTAGCAACACCTAGTCACTCCAGACTGGTGCTAGGCAACAAGATACAATCTGTCAGCTGCATTCAACTGGCATTTTCTCCTGGTTTTTAGAAGACACGTAG
1.435865916388247 AAGAACACCTGTGCCTTGGTTAGGTTTTTTTCAAATAATTAGGAAGATGGCTTGTGTCAAGAGCATTTAGGGAAATGAGCAGTAGGCAGACTTTTTGAAGTTAAATGTCTTTGTTCCCACACCTGTATTACTCTTGAATTAATGAGACCTCACTGTGTCAAATAAAT
1.767946556954635 CTAAGATTACAATTCTCTGAGAAATAAAAAATACAAAAGACATGCCCACATGCCTTTGATGTTATATAATGAATTTGAAACCACACTGGAATGCTCTGCCATCCTCCTACCTTGTGGGAATACAGCAAGGCCGCCAACAGCTACTTAGGGACAGAGTGGGGCCTGAA
0.001328702245064393 CTCACACACTGGGCAGAGGCTGAGAGAAAGACGGAAAGGGGAACGCCTGGGACTCACCCCCAAACCTCAGTTGTCTTATAAAAACGTCGACAGCCAGGCATGATGGCTTCCACCTGTCATCTCAGCACTGAGAAAACTGAGGCAGAAGGATTGCCTGTCTCCAAAAT
2.691235137228123 AGACTACAGCCATGGACGGTCCTTCTGCGCTGCACAACAACTTGATCAGTTAACCGTTCCGGCCTCTAGGCATCCAGCAGGGACTCTAAGGGCTAAGGGCGCATGCTCACTCCACATGTGTTCCTGGGAGCGTTTGTTTTAGGGTAAATGCCCGGATGTCGAGTTGC
1.73419242464475 GTGATGATGGAACACTGTTGGGAAGAGACAAAAGAGAGTGCTCTGGAAGAGAGGCAAGGGGGTGGCAGATGTTTTTCTAATGAAAAGCAGAGAATATGCAGCATAGCTGAATAAAATAGCTTATGCATATGACTAAAAGTAAAGTCGTTGACAACTTCAGCTTCCAC
1.041928939465594 CGCCTCCTCTGAGCCCCACTTTGATACAATGTGAGCAAAGGGGATGCCAGGGCAGGACCTCACTTCCAGTGTTAAGTAGAGCCAGAGAGCTTAACCAGGGGTGGCGGGGACTCAGAGAACTGAGACGACAGAGAGGAGGGGAATGAAGGCTGGTATGGGTGCTGCAG
2.069404220286092 CTCCCTCAGCTTATTTTACAGGTTACATTTTCTTCTCTACTGTATAATTCACTAACAGTTCAGAGTGTGTTCTTGTCTTCCTTTCTCCATTGACTTACTAAGTCCTTTTTCTGTAGCAATTCCTCTGCTGCACTCGGAGGGAGGGAGGGAGGGAGGATGAATTTATA
1.959985553212054 CTGGGCTCCCTGCAGTCGCTCTTTCTGCTTCTTTCTTGCTTTGCAGCTGCCTCTCTTGCCCTGCCGCTTTATCTTCCCACTCACAGTAGCACCACCATCTGCAGGCAGACAGTTGGGTTATCAGCCAACAGCACATTTCCATAAAGTAGAGCAGCCCACAAAAGGCA
0.8193469543324963 ACTTCCAGCTCACCTTCGCAGCTCTGCAACAAGGCTTTCCGGATATTTTTAGGAAGCTTTGGCACCTTACGGGTTGCGACTCCCTAGAGCAGCTGACAAAGATGTGGGAAAGCTGCTCTGCTCTCCTGGGAGTGAGTGGGGGAGGGGTGTTAAAAATAAAGAAAAAA
1.668376181409406 ATGCAGTGCACTCGACTTGCCAGGAGCCAAAGTTGTTTAATTCACCGTTACAGATGGATGCCACTGTCAGAGTCCCAGTCACCCAGTGGTAAGACTGGAGAAGGTTCTGAGTCACTTGGAATCATTTCTTGTCAGTGGCAAAGACCAGGCATTTGGCTCCAGATGGA
0.583072503753009 TAACAGAAGCGCACACAGGCGCAGGTGAGAGCATTCAAAGCCCTGTTGCCCTGTTACCCTGAGGAATCCACTCTCAGAGTGCGTGGGCAACCCTGAGGTTCACCTGAACCACAGGCTACAAGACTAGCTGCATGTAGCAGCACTGAAAGAGAGCTCTTTCCAAACTG
1.473858923586674 TAAACAATAGAAGTCATAGCTTTTTAGAAAGCTAGAAGTCCCAGATCAGGTTATGTGAGGACTCTTTCCGCTGCTACAGACTACGGCATCTTCCTCTTTTAATGAGGGCACTAACCCCACTGTAGGCTCCCACCCTTGACCTCATTTCACCGGTCAGGGTTCTCATA
0.7167701857451831 GAGTAAGTGCTATGTTAGGAAGTGTGAAGGCAGCAAGCTGAGAAGAATGGAACCTGGTACCACCTGCTTTCTCTTTGAAGTAAGAGATTTTGGTTATCTTGCCTGGAGTGAGTGGGAAGTGGTGGGTGGAAACTTTGAGAATTGTCAGGAGTGTTTTAAATAGCTGC
1.90876628091792 GACACAGTCAGCAAGAAGGCAGAGAGCAGCAGAGCAGGCTCAGCCCAACCTGGCCCCACATCACTGAGCAGGTTTTGGGGATGGGCTTGGAAGCTTCTACTTGCCAGTCATTTGTGATGAGCTGACACTTCACAAATGCTATTTCTCTCTGATTCTGGGAAGTCTGC
0.2734133187676046 CGAAGCACCTGCATTTTTCTGCCTTGTGGAAGGAACAATGAGTCATGAGGAAAGCTGGAACTGGTGGGTGACACACAGCTCCAAGCTGACAAGGAATTGAGTAGGAGGGAAACAGGACAAAGTGATGAATGGGAGGTGGGAGTACGAAGGGGGGCAGGGGGAGCTGA
0.3083036310135328 TTTAGTTCAGCAAACATTTCCGGAGCCTTTCTTGTGTGCCAGGCGCAGAGTAAAAGCACTAGGGATGTGCAAATGAGTGACAGGAGTTCCTGCTCCTTGAGCGCTTACAGGCTAAGCAGGGAGCAGGAGGTGCAGCCTGATCATCGACACCAACTCTGCCTCCCTCC
1.680568924420748 AAGGGGAAGGAAGGACTGAAGGAACTAGAGAGGTCAAGGATACCATAAAAAACCTCTACAGAATCAACTAACCTGGGCCAATAGGGGTTCACAGAGACTTAACTGTCAACCAGAGAGCATGAGTAAGACTGACTTAGGCCCTTTGGACATATGTAACAGTTGTGTAG
3.151780802538048 GTGGTCATTTTCTACTGTAGGAAACACAGAGCTACACAGCACCCGCTTCTGCCCACTCTAGCTTATGCTTTCACTATGGCTGATCTACTTTCTAAGATTGCAAGAAAAAAAAAATCATACGGCAAATACTGTGAATTGATCTTAATGTCTTTTCTTTATTGGAGAAC
2.57854614308846 AATTTTTTTTGTCACAATGGTGAGGAAACTAACCTAATGCCACTAGACATTTTCTTAGACCTTTCAAACACATAGTGCCAGGAGTTAGGCTTAATGTGAACTATGGGCTCTGAGCAATAAAATGTGTACATGTAAATCCACCCATGGCGACAAATGTGCCATGGGGT
2.727141013550125 TTGATTGGGAGACAGCTGCTCTCATGAATTAGCTATCTCTGAATGTAGAAAATTGCTGTGTTCTTCCAAACCCTCTTCCCAGCTGGTTAAATGAAGACAAACTGAGACAATTATTATAATTTTGTGCAGTTGTGGGAGTTCTTCAGAAAAAGTTACAGTATTTCTAT
0.7289550553225564 TTTGCTGAACATTCTAAAAATGGATGTTATGTATCAGCTAAAAATATGATAATTAACAAGTAAGCTTGAATCACATAATAGCAAACGTCATTTCTTCTGCAAGACAAGAGTGTTACTCATGAGTCAACCTGAAACCACTGGCACCTGAAAGAAGCTGACAAGGGACC
1.067149562948395 GAGGCCCCTTGTGGGAGCAAATGTGATGTCTGATTCAGGAGGAGGAGGCAGCAGTGAGCCACAGGGAGCAGCCAGCTTTCTCGTTCGACACATCTTCACAGGAAATTCTGAGGATTCCGAGAATTCTAAATTTGAATCTGGCCTTTCAGGGTGTCAAGGTAGGTGGA
0.3530931197590426 AAGGAGTCCTTGATGAGACAGCCTCTGCCAAGAGGGGGCTGGAGCATCCCGCTCTGCCACAGCCCACACAGGGAGGCTGCGGTAGAGAGACACAAACCAGAATCAAGTGACTCAAACAGACAGCTTCTTCAGGAGGAGCACATGACAGGTGCAGCCAGGAGTTCTGC
0.1555429192857 TTCCAACACCAGGGCCTAGAAGCTCCACCTCCTCCCACTCAAGGACTGGGCTTCCAGGTTGGCTGTTTCCATGGTGAAGGTGAGAAGAAGAGAGAGGTTGGATCATTTCCATGGCAACTACGCAGGAGTGGTGGTTTCCTTGGCAACAGTGGGAAGGTAGAAGCAGC
0.07488061530146342 GCTGGTGATTTTGAGTCACTTTTTTTTTTTTCAATAGCGCCTCTTGAGTGAAGATTAGGCGGCTGTGTGGGCGGCTGTTAAGGGTGCCTCATTTCCACATTGAGAGCCTACCCACACAGCAGATTTTAGTGGTACTTGAAACGGGACCTGATTTTGCCTCTCAGCTG
0.5425613876527283 TCTCAAGCGCCTCCTCTTCTGCGGAGCTAGGTCCTGTACGTGCGTTTCCTTTGTCATCAGGAAGTCAGGTTATTAGAGGAATCAAAGACAGCTATGATTCACACCCTTCATTGTAACCCGCCTCCTCCCGCTCCGTGCTCCATGAATCCTCTGTTCCTTGTGGCAGA
1.808151180802242 TTCCCCTTTGCCAGCTGGTGCAATGCTAGATTTTGTCAGTAGAGGGCAGTGAAGAAACCACTGGGTCTTGGAGGAGGGATGGGCTGCTCTTCCCGGTGCCTGCGGTGCCATTTCTCCCCAGCACAGCTGCTAGCGGGATGATGTTGGAGCGCTAGCAAATCTGGCAA
2.078162708637118 AGGGGCTCTGGCTCCCTAGGGGAGCATGCTGCACCCCAGTCCTTTTCCTAGTGCTGAAGTAGAAGAAAAGGAGCTGTCATCTCTGAATCACTAATAAGCAGAAGGACGAACCTGCTCCTCAGCTCCTCTGCTGGAGATGCAGACACTGATGGGCAGACACGCCATAT
0.9954040491327446 GAAAGCCTCTCGACCATGCGGAGGTTTGTGCCTAGGGCCTATTGCCTCAGAATTCAAAGTTCTCCTGAGTCTGAGGCTGACAGAGTTGGGGAAAGCAGCCTCTTCCCTTCCCCTGCCTCTCCAGTGGCCCCTTGTGGGGGCCCTGGGCCTTAAGGTTCAGAAAAGGT
0.4588472488332127 GGCGGGGCGGGGCGGGGCGCAGGCCTGGCCGCCAATCGGGTCGCCCGCCGCTACCGCGCCGCCAGGAAGCGGAGGCCTCAGCAAGGAGGGCTACCTGGGCTCAGGGCCTGTCAGTGGCTGTGGGCTGCTGCATTACCTCTGCCTTCCGGATGTGCTTGGGTTCGAGG
0.7921243091765173 CATTTCTCTGGGCGAGCAAGCTGCTTGCCTCTCCTCCCCTCCAGGCTACTAGCCAGGCTGAAGGGAAGCCTGCCAGGGTGCACAGGGAAGCTCCCACAGTGGGGTGGGCTGCTCCCTCCCAGGGACTGTTGTCCTGTGCAGTTGTGTGTGTGTGTGTGTGTTGCTTT
1.392605816126119 GTCAGTACCTGGTGTCTCTAGCTGTGTAGAAGAAAGGAGCAAAGCATTTGCATTAAACATCAACCTTGAAAACATCTACTCTGTATTTCCATTTCACCTCCTAAGCAATGTGTGTGGTTTATTTAAAATTCTAACCTGTCTTCACTTCAGCCTTCACCCTGCACTGC
2.443555858349983 TCTATACTAGGAAAGTGAAACACTAAGAGTTAAAAGAGCAAACACATAATGAGAAAAGAACAAAATGTGATGGCTTAGCACATGCTCAGTGCAGAAAGAAGCTCTGCCCTCGCCTCATGTTATACAGATGCACACATGTGCACATGCATGTACAGAGAGAGAGAGAG
2.072065982545932 GCTGTCACTCAAGGACTCATTAGCAATGGAAGGGAGTCAGTGAAGCCTGCTGTGTTGTCATCATGCTGGAGAGGGTTGGCTGCAGCCCAAATTAGCTTGCTTAGGGAGTGTGAATCAAAATGACATGTAATCTGACTGTTAATGAAAATTTCCTCTTGCTTCAGGCT
